<?xml version="1.0"?>
<opencv_storage>
<cascade>
  <stageType>BOOST</stageType>
  <featureType>HAAR</featureType>
  <height>20</height>
  <width>20</width>
  <stageParams>
    <boostType>GAB</boostType>
    <minHitRate>9.9500000476837158e-01</minHitRate>
    <maxFalseAlarm>5.0000000000000000e-01</maxFalseAlarm>
    <weightTrimRate>9.4999999999999996e-01</weightTrimRate>
    <maxDepth>1</maxDepth>
    <maxWeakCount>100</maxWeakCount></stageParams>
  <featureParams>
    <maxCatCount>0</maxCatCount>
    <featSize>1</featSize>
    <mode>BASIC</mode></featureParams>
  <stageNum>15</stageNum>
  <stages>
    <!-- stage 0 -->
    <_>
      <maxWeakCount>11</maxWeakCount>
      <stageThreshold>-1.3455182313919067e+00</stageThreshold>
      <weakClassifiers>
        <_>
          <internalNodes>
            0 -1 294 -1.5303557738661766e-03</internalNodes>
          <leafValues>
            7.2519081830978394e-01 -6.9190603494644165e-01</leafValues></_>
        <_>
          <internalNodes>
            0 -1 73 3.5564206540584564e-02</internalNodes>
          <leafValues>
            -3.6737895011901855e-01 5.8872550725936890e-01</leafValues></_>
        <_>
          <internalNodes>
            0 -1 234 -2.8558651683852077e-04</internalNodes>
          <leafValues>
            -7.0831906795501709e-01 2.1922361850738525e-01</leafValues></_>
        <_>
          <internalNodes>
            0 -1 153 1.3092658482491970e-03</internalNodes>
          <leafValues>
            -3.7192371487617493e-01 3.1740763783454895e-01</leafValues></_>
        <_>
          <internalNodes>
            0 -1 335 -1.9708079344127327e-04</internalNodes>
          <leafValues>
            -4.9713599681854248e-01 1.7532858252525330e-01</leafValues></_>
        <_>
          <internalNodes>
            0 -1 284 -1.1646947677945718e-04</internalNodes>
          <leafValues>
            -5.8000946044921875e-01 1.3409057259559631e-01</leafValues></_>
        <_>
          <internalNodes>
            0 -1 284 3.1105966772884130e-03</internalNodes>
          <leafValues>
            1.2769332528114319e-01 -8.2858133316040039e-01</leafValues></_>
        <_>
          <internalNodes>
            0 -1 230 1.3458379544317722e-04</internalNodes>
          <leafValues>
            -3.3520147204399109e-01 2.3224088549613953e-01</leafValues></_>
        <_>
          <internalNodes>
            0 -1 343 -9.4249041285365820e-04</internalNodes>
          <leafValues>
            1.8789790570735931e-01 -4.4124203920364380e-01</leafValues></_>
        <_>
          <internalNodes>
            0 -1 334 1.1244108900427818e-03</internalNodes>
          <leafValues>
            1.5857787430286407e-01 -5.0156730413436890e-01</leafValues></_>
        <_>
          <internalNodes>
            0 -1 103 1.4949408359825611e-03</internalNodes>
          <leafValues>
            -1.8782858550548553e-01 4.3208906054496765e-01</leafValues></_></weakClassifiers></_>
    <!-- stage 1 -->
    <_>
      <maxWeakCount>18</maxWeakCount>
      <stageThreshold>-1.0885360240936279e+00</stageThreshold>
      <weakClassifiers>
        <_>
          <internalNodes>
            0 -1 76 1.0264253243803978e-02</internalNodes>
          <leafValues>
            -2.4879923462867737e-01 6.7928159236907959e-01</leafValues></_>
        <_>
          <internalNodes>
            0 -1 279 4.9206984840566292e-05</internalNodes>
          <leafValues>
            -5.3239470720291138e-01 3.5204118490219116e-01</leafValues></_>
        <_>
          <internalNodes>
            0 -1 296 -1.6125047113746405e-04</internalNodes>
          <leafValues>
            1.9991971552371979e-01 -7.2956484556198120e-01</leafValues></_>
        <_>
          <internalNodes>
            0 -1 284 3.8306588976411149e-05</internalNodes>
          <leafValues>
            -6.4313650131225586e-01 1.9251216948032379e-01</leafValues></_>
        <_>
          <internalNodes>
            0 -1 292 2.2454184363596141e-04</internalNodes>
          <leafValues>
            -4.0204948186874390e-01 2.1080410480499268e-01</leafValues></_>
        <_>
          <internalNodes>
            0 -1 340 2.1615172736346722e-03</internalNodes>
          <leafValues>
            1.4484436810016632e-01 -5.9427499771118164e-01</leafValues></_>
        <_>
          <internalNodes>
            0 -1 82 1.3962287455797195e-02</internalNodes>
          <leafValues>
            -2.1454736590385437e-01 3.8655325770378113e-01</leafValues></_>
        <_>
          <internalNodes>
            0 -1 275 -5.6119547225534916e-03</internalNodes>
          <leafValues>
            -6.2849664688110352e-01 9.1713249683380127e-02</leafValues></_>
        <_>
          <internalNodes>
            0 -1 201 1.0228502564132214e-02</internalNodes>
          <leafValues>
            1.3172984123229980e-01 -5.7985913753509521e-01</leafValues></_>
        <_>
          <internalNodes>
            0 -1 360 9.5459632575511932e-03</internalNodes>
          <leafValues>
            -1.1841126531362534e-01 5.6975799798965454e-01</leafValues></_>
        <_>
          <internalNodes>
            0 -1 295 7.1220612153410912e-04</internalNodes>
          <leafValues>
            9.9991314113140106e-02 -6.5374767780303955e-01</leafValues></_>
        <_>
          <internalNodes>
            0 -1 47 -3.9639156311750412e-02</internalNodes>
          <leafValues>
            5.3295058012008667e-01 -1.2195204198360443e-01</leafValues></_>
        <_>
          <internalNodes>
            0 -1 327 4.4100830564275384e-05</internalNodes>
          <leafValues>
            -3.2274311780929565e-01 1.8738816678524017e-01</leafValues></_>
        <_>
          <internalNodes>
            0 -1 156 2.8469008393585682e-03</internalNodes>
          <leafValues>
            -1.6208472847938538e-01 3.9170524477958679e-01</leafValues></_>
        <_>
          <internalNodes>
            0 -1 284 2.1298499777913094e-03</internalNodes>
          <leafValues>
            1.0484954714775085e-01 -5.7388341426849365e-01</leafValues></_>
        <_>
          <internalNodes>
            0 -1 292 5.9629129245877266e-03</internalNodes>
          <leafValues>
            5.3905811160802841e-02 -9.5295274257659912e-01</leafValues></_>
        <_>
          <internalNodes>
            0 -1 234 -3.3718079794198275e-04</internalNodes>
          <leafValues>
            -5.6833809614181519e-01 8.7649486958980560e-02</leafValues></_>
        <_>
          <internalNodes>
            0 -1 164 -1.3223160058259964e-03</internalNodes>
          <leafValues>
            3.0926862359046936e-01 -1.9407160580158234e-01</leafValues></_></weakClassifiers></_>
    <!-- stage 2 -->
    <_>
      <maxWeakCount>25</maxWeakCount>
      <stageThreshold>-1.1290404796600342e+00</stageThreshold>
      <weakClassifiers>
        <_>
          <internalNodes>
            0 -1 242 4.7622906276956201e-04</internalNodes>
          <leafValues>
            -3.1486880779266357e-01 5.3082549571990967e-01</leafValues></_>
        <_>
          <internalNodes>
            0 -1 13 2.7904186397790909e-02</internalNodes>
          <leafValues>
            -2.2932703793048859e-01 4.7659158706665039e-01</leafValues></_>
        <_>
          <internalNodes>
            0 -1 284 -5.3227318858262151e-05</internalNodes>
          <leafValues>
            -7.6445686817169189e-01 1.6382496058940887e-01</leafValues></_>
        <_>
          <internalNodes>
            0 -1 279 -1.0955116886179894e-04</internalNodes>
          <leafValues>
            -5.7033759355545044e-01 1.6276918351650238e-01</leafValues></_>
        <_>
          <internalNodes>
            0 -1 343 -1.2078071013092995e-03</internalNodes>
          <leafValues>
            1.9149784743785858e-01 -4.5506319403648376e-01</leafValues></_>
        <_>
          <internalNodes>
            0 -1 28 3.3310502767562866e-02</internalNodes>
          <leafValues>
            -1.8583303689956665e-01 3.9667880535125732e-01</leafValues></_>
        <_>
          <internalNodes>
            0 -1 279 2.7182342018932104e-03</internalNodes>
          <leafValues>
            7.8465998172760010e-02 -7.4798405170440674e-01</leafValues></_>
        <_>
          <internalNodes>
            0 -1 337 -2.7653011493384838e-03</internalNodes>
          <leafValues>
            3.9067402482032776e-01 -1.6053283214569092e-01</leafValues></_>
        <_>
          <internalNodes>
            0 -1 342 2.9889428988099098e-03</internalNodes>
          <leafValues>
            6.0912568122148514e-02 -8.1197142601013184e-01</leafValues></_>
        <_>
          <internalNodes>
            0 -1 338 5.6461407802999020e-04</internalNodes>
          <leafValues>
            9.8582319915294647e-02 -5.0035893917083740e-01</leafValues></_>
        <_>
          <internalNodes>
            0 -1 34 5.4475385695695877e-03</internalNodes>
          <leafValues>
            -1.3417705893516541e-01 4.5051130652427673e-01</leafValues></_>
        <_>
          <internalNodes>
            0 -1 271 4.0707109292270616e-05</internalNodes>
          <leafValues>
            -3.1294727325439453e-01 1.7862084507942200e-01</leafValues></_>
        <_>
          <internalNodes>
            0 -1 231 6.0491962358355522e-04</internalNodes>
          <leafValues>
            2.1718889474868774e-01 -2.5336104631423950e-01</leafValues></_>
        <_>
          <internalNodes>
            0 -1 151 -1.2622505426406860e-02</internalNodes>
          <leafValues>
            -4.6409288048744202e-01 1.4547030627727509e-01</leafValues></_>
        <_>
          <internalNodes>
            0 -1 368 1.9027939997613430e-03</internalNodes>
          <leafValues>
            -1.6038663685321808e-01 3.6465719342231750e-01</leafValues></_>
        <_>
          <internalNodes>
            0 -1 379 4.4314963743090630e-03</internalNodes>
          <leafValues>
            -1.3827320933341980e-01 4.0026739239692688e-01</leafValues></_>
        <_>
          <internalNodes>
            0 -1 234 -1.7218035645782948e-04</internalNodes>
          <leafValues>
            -4.8894429206848145e-01 1.1275996267795563e-01</leafValues></_>
        <_>
          <internalNodes>
            0 -1 259 1.3399689923971891e-03</internalNodes>
          <leafValues>
            -1.6977007687091827e-01 3.0517360568046570e-01</leafValues></_>
        <_>
          <internalNodes>
            0 -1 124 7.6569810509681702e-02</internalNodes>
          <leafValues>
            7.5211003422737122e-02 -6.8119901418685913e-01</leafValues></_>
        <_>
          <internalNodes>
            0 -1 238 -1.3326744083315134e-03</internalNodes>
          <leafValues>
            1.7943711578845978e-01 -2.6038673520088196e-01</leafValues></_>
        <_>
          <internalNodes>
            0 -1 334 -6.1989601817913353e-05</internalNodes>
          <leafValues>
            -3.3933979272842407e-01 1.6508059203624725e-01</leafValues></_>
        <_>
          <internalNodes>
            0 -1 293 2.2198031656444073e-03</internalNodes>
          <leafValues>
            8.8839188218116760e-02 -5.7167309522628784e-01</leafValues></_>
        <_>
          <internalNodes>
            0 -1 342 2.7999651501886547e-04</internalNodes>
          <leafValues>
            -2.2269040346145630e-01 2.0548731088638306e-01</leafValues></_>
        <_>
          <internalNodes>
            0 -1 16 1.6445771325379610e-03</internalNodes>
          <leafValues>
            -1.7871472239494324e-01 2.7629122138023376e-01</leafValues></_>
        <_>
          <internalNodes>
            0 -1 165 1.0191013570874929e-03</internalNodes>
          <leafValues>
            2.2157737612724304e-01 -1.9901624321937561e-01</leafValues></_></weakClassifiers></_>
    <!-- stage 3 -->
    <_>
      <maxWeakCount>27</maxWeakCount>
      <stageThreshold>-1.0327709913253784e+00</stageThreshold>
      <weakClassifiers>
        <_>
          <internalNodes>
            0 -1 77 1.9490385428071022e-02</internalNodes>
          <leafValues>
            -1.6817724704742432e-01 6.0174238681793213e-01</leafValues></_>
        <_>
          <internalNodes>
            0 -1 296 -3.5814923467114568e-04</internalNodes>
          <leafValues>
            2.3854805529117584e-01 -5.7806104421615601e-01</leafValues></_>
        <_>
          <internalNodes>
            0 -1 223 1.3175202766433358e-03</internalNodes>
          <leafValues>
            -3.8013154268264771e-01 2.7489319443702698e-01</leafValues></_>
        <_>
          <internalNodes>
            0 -1 235 6.0512642376124859e-03</internalNodes>
          <leafValues>
            1.0179604589939117e-01 -8.5430276393890381e-01</leafValues></_>
        <_>
          <internalNodes>
            0 -1 245 1.2483878526836634e-03</internalNodes>
          <leafValues>
            -2.6813876628875732e-01 3.0616956949234009e-01</leafValues></_>
        <_>
          <internalNodes>
            0 -1 291 1.1930939217563719e-04</internalNodes>
          <leafValues>
            1.0296574980020523e-01 -6.7603105306625366e-01</leafValues></_>
        <_>
          <internalNodes>
            0 -1 291 -1.4321974013000727e-03</internalNodes>
          <leafValues>
            -4.6677571535110474e-01 1.1631347239017487e-01</leafValues></_>
        <_>
          <internalNodes>
            0 -1 36 5.2662845700979233e-03</internalNodes>
          <leafValues>
            -1.4827388525009155e-01 3.8797426223754883e-01</leafValues></_>
        <_>
          <internalNodes>
            0 -1 382 -7.3554231785237789e-03</internalNodes>
          <leafValues>
            3.5532999038696289e-01 -1.6873800754547119e-01</leafValues></_>
        <_>
          <internalNodes>
            0 -1 125 1.1440977687016129e-03</internalNodes>
          <leafValues>
            -1.8522530794143677e-01 3.0261439085006714e-01</leafValues></_>
        <_>
          <internalNodes>
            0 -1 347 -1.4686346985399723e-03</internalNodes>
          <leafValues>
            -4.4199997186660767e-01 1.2082727253437042e-01</leafValues></_>
        <_>
          <internalNodes>
            0 -1 346 -1.9686942687258124e-04</internalNodes>
          <leafValues>
            1.5972116589546204e-01 -3.6681997776031494e-01</leafValues></_>
        <_>
          <internalNodes>
            0 -1 345 6.1961105093359947e-03</internalNodes>
          <leafValues>
            -1.0031802207231522e-01 4.9879816174507141e-01</leafValues></_>
        <_>
          <internalNodes>
            0 -1 30 5.3625546395778656e-02</internalNodes>
          <leafValues>
            -1.3614083826541901e-01 3.5652172565460205e-01</leafValues></_>
        <_>
          <internalNodes>
            0 -1 290 7.1009714156389236e-04</internalNodes>
          <leafValues>
            9.5823302865028381e-02 -4.8783695697784424e-01</leafValues></_>
        <_>
          <internalNodes>
            0 -1 290 -3.6928604822605848e-04</internalNodes>
          <leafValues>
            -2.9953351616859436e-01 1.9548211991786957e-01</leafValues></_>
        <_>
          <internalNodes>
            0 -1 176 -3.0106571502983570e-03</internalNodes>
          <leafValues>
            3.6176368594169617e-01 -1.3523530960083008e-01</leafValues></_>
        <_>
          <internalNodes>
            0 -1 163 5.7378411293029785e-04</internalNodes>
          <leafValues>
            -1.7176117002964020e-01 2.7442896366119385e-01</leafValues></_>
        <_>
          <internalNodes>
            0 -1 58 5.2585527300834656e-03</internalNodes>
          <leafValues>
            1.0926150530576706e-01 -4.2331057786941528e-01</leafValues></_>
        <_>
          <internalNodes>
            0 -1 193 -2.1198265254497528e-02</internalNodes>
          <leafValues>
            -6.1514264345169067e-01 7.2735451161861420e-02</leafValues></_>
        <_>
          <internalNodes>
            0 -1 226 -1.8602565396577120e-03</internalNodes>
          <leafValues>
            1.7092630267143250e-01 -2.5953784584999084e-01</leafValues></_>
        <_>
          <internalNodes>
            0 -1 334 4.4901258661411703e-05</internalNodes>
          <leafValues>
            -3.1146836280822754e-01 1.6199560463428497e-01</leafValues></_>
        <_>
          <internalNodes>
            0 -1 328 -1.1905218707397580e-04</internalNodes>
          <leafValues>
            -3.5818588733673096e-01 1.9729399681091309e-01</leafValues></_>
        <_>
          <internalNodes>
            0 -1 319 6.4195394515991211e-03</internalNodes>
          <leafValues>
            -1.2743352353572845e-01 4.0981036424636841e-01</leafValues></_>
        <_>
          <internalNodes>
            0 -1 40 -1.6858667368069291e-03</internalNodes>
          <leafValues>
            4.2481294274330139e-01 -9.4576053321361542e-02</leafValues></_>
        <_>
          <internalNodes>
            0 -1 174 -9.0557020157575607e-03</internalNodes>
          <leafValues>
            -6.5998524427413940e-01 7.6130025088787079e-02</leafValues></_>
        <_>
          <internalNodes>
            0 -1 133 -8.4745287895202637e-02</internalNodes>
          <leafValues>
            -7.9686444997787476e-01 4.2662724852561951e-02</leafValues></_></weakClassifiers></_>
    <!-- stage 4 -->
    <_>
      <maxWeakCount>36</maxWeakCount>
      <stageThreshold>-1.0148336887359619e+00</stageThreshold>
      <weakClassifiers>
        <_>
          <internalNodes>
            0 -1 242 3.1716152443550527e-04</internalNodes>
          <leafValues>
            -3.1458699703216553e-01 4.8202854394912720e-01</leafValues></_>
        <_>
          <internalNodes>
            0 -1 270 -1.4101507142186165e-02</internalNodes>
          <leafValues>
            4.1752558946609497e-01 -2.0920093357563019e-01</leafValues></_>
        <_>
          <internalNodes>
            0 -1 286 -2.6346440427005291e-03</internalNodes>
          <leafValues>
            1.4503429830074310e-01 -5.2939546108245850e-01</leafValues></_>
        <_>
          <internalNodes>
            0 -1 298 -2.7943989261984825e-03</internalNodes>
          <leafValues>
            -6.4996320009231567e-01 9.8915673792362213e-02</leafValues></_>
        <_>
          <internalNodes>
            0 -1 155 4.3543899664655328e-04</internalNodes>
          <leafValues>
            -2.7920067310333252e-01 2.2383958101272583e-01</leafValues></_>
        <_>
          <internalNodes>
            0 -1 281 -7.0477265398949385e-04</internalNodes>
          <leafValues>
            -3.8030532002449036e-01 1.3827586174011230e-01</leafValues></_>
        <_>
          <internalNodes>
            0 -1 281 3.5988329909741879e-04</internalNodes>
          <leafValues>
            1.3611504435539246e-01 -4.1022709012031555e-01</leafValues></_>
        <_>
          <internalNodes>
            0 -1 102 6.4694351749494672e-04</internalNodes>
          <leafValues>
            -2.3906251788139343e-01 2.0930571854114532e-01</leafValues></_>
        <_>
          <internalNodes>
            0 -1 209 5.9067294932901859e-03</internalNodes>
          <leafValues>
            -1.0802823305130005e-01 4.3049287796020508e-01</leafValues></_>
        <_>
          <internalNodes>
            0 -1 284 9.1336434707045555e-05</internalNodes>
          <leafValues>
            -4.8706316947937012e-01 8.9632786810398102e-02</leafValues></_>
        <_>
          <internalNodes>
            0 -1 97 -1.5539422631263733e-02</internalNodes>
          <leafValues>
            -6.6394686698913574e-01 7.1974642574787140e-02</leafValues></_>
        <_>
          <internalNodes>
            0 -1 234 4.3397536501288414e-04</internalNodes>
          <leafValues>
            2.1248175203800201e-01 -2.2592149674892426e-01</leafValues></_>
        <_>
          <internalNodes>
            0 -1 272 -4.0216679917648435e-04</internalNodes>
          <leafValues>
            -3.7609869241714478e-01 1.4036431908607483e-01</leafValues></_>
        <_>
          <internalNodes>
            0 -1 341 -1.6727967886254191e-04</internalNodes>
          <leafValues>
            2.2012469172477722e-01 -2.6367908716201782e-01</leafValues></_>
        <_>
          <internalNodes>
            0 -1 85 3.1366884708404541e-02</internalNodes>
          <leafValues>
            -8.6155727505683899e-02 5.5754131078720093e-01</leafValues></_>
        <_>
          <internalNodes>
            0 -1 67 -3.2372586429119110e-03</internalNodes>
          <leafValues>
            3.8386031985282898e-01 -1.3119928538799286e-01</leafValues></_>
        <_>
          <internalNodes>
            0 -1 313 -1.9345646724104881e-03</internalNodes>
          <leafValues>
            2.9874312877655029e-01 -1.4415709674358368e-01</leafValues></_>
        <_>
          <internalNodes>
            0 -1 207 -2.5762640871107578e-03</internalNodes>
          <leafValues>
            3.5979393124580383e-01 -1.2202913314104080e-01</leafValues></_>
        <_>
          <internalNodes>
            0 -1 232 9.1617889702320099e-03</internalNodes>
          <leafValues>
            6.2266103923320770e-02 -8.3691644668579102e-01</leafValues></_>
        <_>
          <internalNodes>
            0 -1 244 4.0312726050615311e-03</internalNodes>
          <leafValues>
            4.4047985225915909e-02 -7.8157973289489746e-01</leafValues></_>
        <_>
          <internalNodes>
            0 -1 211 -7.5282566249370575e-03</internalNodes>
          <leafValues>
            -6.5479743480682373e-01 5.3729753941297531e-02</leafValues></_>
        <_>
          <internalNodes>
            0 -1 199 -7.6863174326717854e-03</internalNodes>
          <leafValues>
            -5.9888797998428345e-01 5.9325218200683594e-02</leafValues></_>
        <_>
          <internalNodes>
            0 -1 391 -3.5569660831242800e-03</internalNodes>
          <leafValues>
            2.4404826760292053e-01 -1.6253347694873810e-01</leafValues></_>
        <_>
          <internalNodes>
            0 -1 279 4.8752834118204191e-05</internalNodes>
          <leafValues>
            -3.2640102505683899e-01 1.2013835459947586e-01</leafValues></_>
        <_>
          <internalNodes>
            0 -1 198 5.1193712279200554e-03</internalNodes>
          <leafValues>
            -1.3420347869396210e-01 3.3595693111419678e-01</leafValues></_>
        <_>
          <internalNodes>
            0 -1 140 -2.6269789785146713e-02</internalNodes>
          <leafValues>
            -5.6161975860595703e-01 7.3754526674747467e-02</leafValues></_>
        <_>
          <internalNodes>
            0 -1 9 -1.6672688722610474e-01</internalNodes>
          <leafValues>
            -5.0118213891983032e-01 6.4728036522865295e-02</leafValues></_>
        <_>
          <internalNodes>
            0 -1 305 7.6185376383364201e-04</internalNodes>
          <leafValues>
            9.3643911182880402e-02 -3.9685210585594177e-01</leafValues></_>
        <_>
          <internalNodes>
            0 -1 54 -7.5482875108718872e-03</internalNodes>
          <leafValues>
            4.0939736366271973e-01 -9.1713637113571167e-02</leafValues></_>
        <_>
          <internalNodes>
            0 -1 51 1.1542234569787979e-02</internalNodes>
          <leafValues>
            -1.4506028592586517e-01 2.7239212393760681e-01</leafValues></_>
        <_>
          <internalNodes>
            0 -1 228 2.2254334180615842e-04</internalNodes>
          <leafValues>
            1.8859998881816864e-01 -2.1185803413391113e-01</leafValues></_>
        <_>
          <internalNodes>
            0 -1 160 -2.1269567310810089e-02</internalNodes>
          <leafValues>
            4.0987130999565125e-01 -9.9925808608531952e-02</leafValues></_>
        <_>
          <internalNodes>
            0 -1 322 -5.0122221000492573e-04</internalNodes>
          <leafValues>
            2.5222566723823547e-01 -1.4339765906333923e-01</leafValues></_>
        <_>
          <internalNodes>
            0 -1 234 -6.4027518965303898e-04</internalNodes>
          <leafValues>
            -6.6666436195373535e-01 5.4979570209980011e-02</leafValues></_>
        <_>
          <internalNodes>
            0 -1 283 4.6934662386775017e-03</internalNodes>
          <leafValues>
            5.0586450845003128e-02 -6.0134547948837280e-01</leafValues></_>
        <_>
          <internalNodes>
            0 -1 181 -2.3541240952908993e-03</internalNodes>
          <leafValues>
            2.1735751628875732e-01 -1.7903245985507965e-01</leafValues></_></weakClassifiers></_>
    <!-- stage 5 -->
    <_>
      <maxWeakCount>37</maxWeakCount>
      <stageThreshold>-9.1510695219039917e-01</stageThreshold>
      <weakClassifiers>
        <_>
          <internalNodes>
            0 -1 170 2.8819246217608452e-03</internalNodes>
          <leafValues>
            -4.8938136547803879e-02 5.6229400634765625e-01</leafValues></_>
        <_>
          <internalNodes>
            0 -1 294 -1.7256889259442687e-03</internalNodes>
          <leafValues>
            1.9029681384563446e-01 -5.8179688453674316e-01</leafValues></_>
        <_>
          <internalNodes>
            0 -1 344 -3.2271891832351685e-03</internalNodes>
          <leafValues>
            2.6677721738815308e-01 -3.0165553092956543e-01</leafValues></_>
        <_>
          <internalNodes>
            0 -1 279 4.2080493585672230e-05</internalNodes>
          <leafValues>
            -4.3594729900360107e-01 1.4752571284770966e-01</leafValues></_>
        <_>
          <internalNodes>
            0 -1 308 -4.1969856247305870e-03</internalNodes>
          <leafValues>
            -5.6870037317276001e-01 1.0252764075994492e-01</leafValues></_>
        <_>
          <internalNodes>
            0 -1 19 4.0917266160249710e-03</internalNodes>
          <leafValues>
            -1.5525044500827789e-01 3.8249638676643372e-01</leafValues></_>
        <_>
          <internalNodes>
            0 -1 284 4.2105624743271619e-05</internalNodes>
          <leafValues>
            -5.8000820875167847e-01 6.6876687109470367e-02</leafValues></_>
        <_>
          <internalNodes>
            0 -1 324 -3.2743744552135468e-02</internalNodes>
          <leafValues>
            8.1079190969467163e-01 -6.6669575870037079e-02</leafValues></_>
        <_>
          <internalNodes>
            0 -1 349 7.2086253203451633e-04</internalNodes>
          <leafValues>
            1.0621161013841629e-01 -4.4445294141769409e-01</leafValues></_>
        <_>
          <internalNodes>
            0 -1 242 5.9386044740676880e-03</internalNodes>
          <leafValues>
            5.3794112056493759e-02 -8.3533489704132080e-01</leafValues></_>
        <_>
          <internalNodes>
            0 -1 293 1.5546774375252426e-04</internalNodes>
          <leafValues>
            -3.0704835057258606e-01 1.7879183590412140e-01</leafValues></_>
        <_>
          <internalNodes>
            0 -1 250 1.1102702468633652e-02</internalNodes>
          <leafValues>
            -1.2315434962511063e-01 3.7929281592369080e-01</leafValues></_>
        <_>
          <internalNodes>
            0 -1 105 -2.8509092517197132e-03</internalNodes>
          <leafValues>
            3.1608799099922180e-01 -1.4593604207038879e-01</leafValues></_>
        <_>
          <internalNodes>
            0 -1 25 2.4417743086814880e-02</internalNodes>
          <leafValues>
            7.3037967085838318e-02 -6.0028678178787231e-01</leafValues></_>
        <_>
          <internalNodes>
            0 -1 53 1.2026811018586159e-02</internalNodes>
          <leafValues>
            -1.6372171044349670e-01 2.8190761804580688e-01</leafValues></_>
        <_>
          <internalNodes>
            0 -1 108 -1.2557920999825001e-03</internalNodes>
          <leafValues>
            2.5644758343696594e-01 -1.5149272978305817e-01</leafValues></_>
        <_>
          <internalNodes>
            0 -1 281 -2.4463757290504873e-04</internalNodes>
          <leafValues>
            -2.9135179519653320e-01 1.4356489479541779e-01</leafValues></_>
        <_>
          <internalNodes>
            0 -1 282 3.6854157224297523e-04</internalNodes>
          <leafValues>
            1.4834022521972656e-01 -3.0008864402770996e-01</leafValues></_>
        <_>
          <internalNodes>
            0 -1 200 -5.0962209701538086e-02</internalNodes>
          <leafValues>
            -5.2786111831665039e-01 8.1869103014469147e-02</leafValues></_>
        <_>
          <internalNodes>
            0 -1 290 2.3332129057962447e-04</internalNodes>
          <leafValues>
            1.0244630277156830e-01 -3.4488555788993835e-01</leafValues></_>
        <_>
          <internalNodes>
            0 -1 332 -2.4694792926311493e-02</internalNodes>
          <leafValues>
            6.5193748474121094e-01 -6.0645174235105515e-02</leafValues></_>
        <_>
          <internalNodes>
            0 -1 262 1.8688276410102844e-02</internalNodes>
          <leafValues>
            1.2057529389858246e-01 -3.8681212067604065e-01</leafValues></_>
        <_>
          <internalNodes>
            0 -1 106 1.1195139959454536e-02</internalNodes>
          <leafValues>
            -1.1387415975332260e-01 4.0146601200103760e-01</leafValues></_>
        <_>
          <internalNodes>
            0 -1 172 5.6154616177082062e-03</internalNodes>
          <leafValues>
            -1.1408030986785889e-01 3.6601290106773376e-01</leafValues></_>
        <_>
          <internalNodes>
            0 -1 356 -1.0301799513399601e-02</internalNodes>
          <leafValues>
            3.9771151542663574e-01 -9.0159364044666290e-02</leafValues></_>
        <_>
          <internalNodes>
            0 -1 196 -1.4339406043291092e-03</internalNodes>
          <leafValues>
            2.8927558660507202e-01 -1.2542718648910522e-01</leafValues></_>
        <_>
          <internalNodes>
            0 -1 197 1.4525849837809801e-03</internalNodes>
          <leafValues>
            -1.5109127759933472e-01 2.5260651111602783e-01</leafValues></_>
        <_>
          <internalNodes>
            0 -1 367 8.1684142351150513e-03</internalNodes>
          <leafValues>
            6.0523331165313721e-02 -6.6935217380523682e-01</leafValues></_>
        <_>
          <internalNodes>
            0 -1 365 4.4712881208397448e-04</internalNodes>
          <leafValues>
            -1.9517371058464050e-01 2.0146463811397552e-01</leafValues></_>
        <_>
          <internalNodes>
            0 -1 205 -3.9063622243702412e-03</internalNodes>
          <leafValues>
            2.9839396476745605e-01 -1.3003966212272644e-01</leafValues></_>
        <_>
          <internalNodes>
            0 -1 227 6.7262868396937847e-03</internalNodes>
          <leafValues>
            7.1095034480094910e-02 -5.8308106660842896e-01</leafValues></_>
        <_>
          <internalNodes>
            0 -1 289 3.0456213280558586e-03</internalNodes>
          <leafValues>
            -9.9940329790115356e-02 3.6611083149909973e-01</leafValues></_>
        <_>
          <internalNodes>
            0 -1 334 -6.0147038311697543e-05</internalNodes>
          <leafValues>
            -2.9336443543434143e-01 1.2242362648248672e-01</leafValues></_>
        <_>
          <internalNodes>
            0 -1 180 1.3729702681303024e-02</internalNodes>
          <leafValues>
            -9.9609829485416412e-02 3.9359849691390991e-01</leafValues></_>
        <_>
          <internalNodes>
            0 -1 143 7.7388286590576172e-02</internalNodes>
          <leafValues>
            5.4819684475660324e-02 -6.9529837369918823e-01</leafValues></_>
        <_>
          <internalNodes>
            0 -1 202 1.5170476399362087e-03</internalNodes>
          <leafValues>
            7.6118178665637970e-02 -4.2090624570846558e-01</leafValues></_>
        <_>
          <internalNodes>
            0 -1 21 -4.2717181146144867e-02</internalNodes>
          <leafValues>
            -5.1933085918426514e-01 6.0445744544267654e-02</leafValues></_></weakClassifiers></_>
    <!-- stage 6 -->
    <_>
      <maxWeakCount>42</maxWeakCount>
      <stageThreshold>-7.6456713676452637e-01</stageThreshold>
      <weakClassifiers>
        <_>
          <internalNodes>
            0 -1 288 -8.4230080246925354e-03</internalNodes>
          <leafValues>
            5.4001188278198242e-01 -1.2157721817493439e-01</leafValues></_>
        <_>
          <internalNodes>
            0 -1 147 1.9112940877676010e-02</internalNodes>
          <leafValues>
            -1.7483003437519073e-01 3.5209813714027405e-01</leafValues></_>
        <_>
          <internalNodes>
            0 -1 282 -4.6510872198268771e-04</internalNodes>
          <leafValues>
            -5.8602756261825562e-01 9.4635434448719025e-02</leafValues></_>
        <_>
          <internalNodes>
            0 -1 296 -1.6435689758509398e-04</internalNodes>
          <leafValues>
            7.0085793733596802e-02 -5.9723490476608276e-01</leafValues></_>
        <_>
          <internalNodes>
            0 -1 32 7.7284141443669796e-03</internalNodes>
          <leafValues>
            -1.4428272843360901e-01 3.1103888154029846e-01</leafValues></_>
        <_>
          <internalNodes>
            0 -1 364 -1.1977802962064743e-02</internalNodes>
          <leafValues>
            4.4478589296340942e-01 -9.0915597975254059e-02</leafValues></_>
        <_>
          <internalNodes>
            0 -1 301 -2.9333126731216908e-03</internalNodes>
          <leafValues>
            -4.8436769843101501e-01 6.9245755672454834e-02</leafValues></_>
        <_>
          <internalNodes>
            0 -1 291 2.2477046877611428e-04</internalNodes>
          <leafValues>
            5.9258501976728439e-02 -7.0997333526611328e-01</leafValues></_>
        <_>
          <internalNodes>
            0 -1 163 5.8884336613118649e-04</internalNodes>
          <leafValues>
            -1.9035176932811737e-01 2.1811170876026154e-01</leafValues></_>
        <_>
          <internalNodes>
            0 -1 290 -4.6874728286638856e-04</internalNodes>
          <leafValues>
            -2.7285844087600708e-01 1.2173672020435333e-01</leafValues></_>
        <_>
          <internalNodes>
            0 -1 281 1.9395907293073833e-04</internalNodes>
          <leafValues>
            1.3705769181251526e-01 -3.1817516684532166e-01</leafValues></_>
        <_>
          <internalNodes>
            0 -1 330 -2.4934685789048672e-03</internalNodes>
          <leafValues>
            1.3035845756530762e-01 -2.9145354032516479e-01</leafValues></_>
        <_>
          <internalNodes>
            0 -1 246 -1.9842600449919701e-03</internalNodes>
          <leafValues>
            -4.6152415871620178e-01 8.5024915635585785e-02</leafValues></_>
        <_>
          <internalNodes>
            0 -1 70 -1.2148562818765640e-03</internalNodes>
          <leafValues>
            3.2463407516479492e-01 -1.2394522875547409e-01</leafValues></_>
        <_>
          <internalNodes>
            0 -1 255 -4.3597985059022903e-03</internalNodes>
          <leafValues>
            2.8553202748298645e-01 -1.3371992111206055e-01</leafValues></_>
        <_>
          <internalNodes>
            0 -1 17 1.2256918102502823e-01</internalNodes>
          <leafValues>
            8.4779880940914154e-02 -5.3597104549407959e-01</leafValues></_>
        <_>
          <internalNodes>
            0 -1 320 2.9610604979097843e-03</internalNodes>
          <leafValues>
            -1.3047282397747040e-01 2.9684385657310486e-01</leafValues></_>
        <_>
          <internalNodes>
            0 -1 132 4.5878276228904724e-02</internalNodes>
          <leafValues>
            6.5111398696899414e-02 -6.0977202653884888e-01</leafValues></_>
        <_>
          <internalNodes>
            0 -1 307 3.9499215781688690e-03</internalNodes>
          <leafValues>
            -1.3560608029365540e-01 2.8969752788543701e-01</leafValues></_>
        <_>
          <internalNodes>
            0 -1 217 -1.1403644457459450e-02</internalNodes>
          <leafValues>
            -3.7591335177421570e-01 1.0644529759883881e-01</leafValues></_>
        <_>
          <internalNodes>
            0 -1 350 8.9259147644042969e-03</internalNodes>
          <leafValues>
            -9.9886961281299591e-02 3.4591934084892273e-01</leafValues></_>
        <_>
          <internalNodes>
            0 -1 348 3.8802360650151968e-03</internalNodes>
          <leafValues>
            -1.0576854646205902e-01 3.1831669807434082e-01</leafValues></_>
        <_>
          <internalNodes>
            0 -1 144 3.1072832643985748e-02</internalNodes>
          <leafValues>
            7.5066529214382172e-02 -5.5431103706359863e-01</leafValues></_>
        <_>
          <internalNodes>
            0 -1 126 3.4497126936912537e-02</internalNodes>
          <leafValues>
            -8.5827112197875977e-02 4.8284858465194702e-01</leafValues></_>
        <_>
          <internalNodes>
            0 -1 346 -2.0002183737233281e-04</internalNodes>
          <leafValues>
            1.2574216723442078e-01 -3.0794322490692139e-01</leafValues></_>
        <_>
          <internalNodes>
            0 -1 84 2.1532949060201645e-02</internalNodes>
          <leafValues>
            -1.0297457128763199e-01 3.7570777535438538e-01</leafValues></_>
        <_>
          <internalNodes>
            0 -1 140 -1.3862451538443565e-02</internalNodes>
          <leafValues>
            -3.7604668736457825e-01 1.0293161123991013e-01</leafValues></_>
        <_>
          <internalNodes>
            0 -1 271 4.0973885916173458e-05</internalNodes>
          <leafValues>
            -3.0836072564125061e-01 1.2436947226524353e-01</leafValues></_>
        <_>
          <internalNodes>
            0 -1 152 -1.9084727391600609e-03</internalNodes>
          <leafValues>
            3.0203554034233093e-01 -1.3410545885562897e-01</leafValues></_>
        <_>
          <internalNodes>
            0 -1 349 -2.0437422208487988e-03</internalNodes>
          <leafValues>
            -4.6493142843246460e-01 9.1720454394817352e-02</leafValues></_>
        <_>
          <internalNodes>
            0 -1 234 -5.0330115482211113e-04</internalNodes>
          <leafValues>
            -6.6461241245269775e-01 4.6279486268758774e-02</leafValues></_>
        <_>
          <internalNodes>
            0 -1 234 2.4336474598385394e-04</internalNodes>
          <leafValues>
            2.1705780923366547e-01 -1.8419420719146729e-01</leafValues></_>
        <_>
          <internalNodes>
            0 -1 91 1.3595219701528549e-02</internalNodes>
          <leafValues>
            -1.1931811273097992e-01 3.5889971256256104e-01</leafValues></_>
        <_>
          <internalNodes>
            0 -1 236 2.0953798666596413e-03</internalNodes>
          <leafValues>
            6.7711442708969116e-02 -5.0521945953369141e-01</leafValues></_>
        <_>
          <internalNodes>
            0 -1 72 2.7585323899984360e-02</internalNodes>
          <leafValues>
            -9.0722411870956421e-02 4.2525175213813782e-01</leafValues></_>
        <_>
          <internalNodes>
            0 -1 400 -1.9791903905570507e-03</internalNodes>
          <leafValues>
            2.4052444100379944e-01 -1.3888117671012878e-01</leafValues></_>
        <_>
          <internalNodes>
            0 -1 229 5.6827166117727757e-03</internalNodes>
          <leafValues>
            4.0513362735509872e-02 -7.9908007383346558e-01</leafValues></_>
        <_>
          <internalNodes>
            0 -1 79 -5.8355941437184811e-03</internalNodes>
          <leafValues>
            3.4876820445060730e-01 -9.4087056815624237e-02</leafValues></_>
        <_>
          <internalNodes>
            0 -1 316 -2.7745310217142105e-03</internalNodes>
          <leafValues>
            -5.2962136268615723e-01 5.7204037904739380e-02</leafValues></_>
        <_>
          <internalNodes>
            0 -1 158 -1.0827977210283279e-02</internalNodes>
          <leafValues>
            -8.6574512720108032e-01 3.2709039747714996e-02</leafValues></_>
        <_>
          <internalNodes>
            0 -1 248 -2.3195076733827591e-02</internalNodes>
          <leafValues>
            -6.5901333093643188e-01 3.2521639019250870e-02</leafValues></_>
        <_>
          <internalNodes>
            0 -1 331 3.1233567278832197e-03</internalNodes>
          <leafValues>
            -9.9368937313556671e-02 3.0344086885452271e-01</leafValues></_></weakClassifiers></_>
    <!-- stage 7 -->
    <_>
      <maxWeakCount>42</maxWeakCount>
      <stageThreshold>-8.6600470542907715e-01</stageThreshold>
      <weakClassifiers>
        <_>
          <internalNodes>
            0 -1 242 9.5529167447239161e-04</internalNodes>
          <leafValues>
            -1.2467532604932785e-01 4.8961749672889709e-01</leafValues></_>
        <_>
          <internalNodes>
            0 -1 61 1.4284916222095490e-02</internalNodes>
          <leafValues>
            -9.4438649713993073e-02 6.0879939794540405e-01</leafValues></_>
        <_>
          <internalNodes>
            0 -1 381 -3.1410800293087959e-03</internalNodes>
          <leafValues>
            3.4275636076927185e-01 -1.9371923804283142e-01</leafValues></_>
        <_>
          <internalNodes>
            0 -1 121 -3.3699870109558105e-03</internalNodes>
          <leafValues>
            2.5057896971702576e-01 -2.0395891368389130e-01</leafValues></_>
        <_>
          <internalNodes>
            0 -1 305 1.4544863370247185e-04</internalNodes>
          <leafValues>
            1.0712209343910217e-01 -3.6088621616363525e-01</leafValues></_>
        <_>
          <internalNodes>
            0 -1 309 8.4267026977613568e-05</internalNodes>
          <leafValues>
            1.4861136674880981e-01 -3.0603340268135071e-01</leafValues></_>
        <_>
          <internalNodes>
            0 -1 284 4.4334512494970113e-05</internalNodes>
          <leafValues>
            -6.1174315214157104e-01 6.9676682353019714e-02</leafValues></_>
        <_>
          <internalNodes>
            0 -1 208 -3.3374298363924026e-03</internalNodes>
          <leafValues>
            2.8072312474250793e-01 -1.4357487857341766e-01</leafValues></_>
        <_>
          <internalNodes>
            0 -1 206 -2.3287748917937279e-03</internalNodes>
          <leafValues>
            3.0560770630836487e-01 -1.5557393431663513e-01</leafValues></_>
        <_>
          <internalNodes>
            0 -1 282 1.7661153106018901e-04</internalNodes>
          <leafValues>
            1.4621774852275848e-01 -2.5453302264213562e-01</leafValues></_>
        <_>
          <internalNodes>
            0 -1 293 2.2847086074762046e-04</internalNodes>
          <leafValues>
            -2.4518221616744995e-01 1.4839664101600647e-01</leafValues></_>
        <_>
          <internalNodes>
            0 -1 290 -2.4124936317093670e-04</internalNodes>
          <leafValues>
            -2.0690760016441345e-01 1.7355556786060333e-01</leafValues></_>
        <_>
          <internalNodes>
            0 -1 127 -1.0174668394029140e-02</internalNodes>
          <leafValues>
            4.9973404407501221e-01 -9.2081360518932343e-02</leafValues></_>
        <_>
          <internalNodes>
            0 -1 1 1.7530918121337891e-03</internalNodes>
          <leafValues>
            -2.1396052837371826e-01 1.6745954751968384e-01</leafValues></_>
        <_>
          <internalNodes>
            0 -1 342 2.3842905648052692e-03</internalNodes>
          <leafValues>
            5.5023036897182465e-02 -5.7723432779312134e-01</leafValues></_>
        <_>
          <internalNodes>
            0 -1 113 -7.0396084338426590e-03</internalNodes>
          <leafValues>
            4.0850016474723816e-01 -8.2230776548385620e-02</leafValues></_>
        <_>
          <internalNodes>
            0 -1 235 -1.2030265497742221e-04</internalNodes>
          <leafValues>
            -4.8033377528190613e-01 7.5014144182205200e-02</leafValues></_>
        <_>
          <internalNodes>
            0 -1 384 9.3693158123642206e-04</internalNodes>
          <leafValues>
            -8.4902584552764893e-02 3.8708928227424622e-01</leafValues></_>
        <_>
          <internalNodes>
            0 -1 339 1.9145014812238514e-04</internalNodes>
          <leafValues>
            -1.9545766711235046e-01 1.8422545492649078e-01</leafValues></_>
        <_>
          <internalNodes>
            0 -1 81 1.1867345869541168e-01</internalNodes>
          <leafValues>
            4.6387054026126862e-02 -7.4091649055480957e-01</leafValues></_>
        <_>
          <internalNodes>
            0 -1 7 -4.8375474289059639e-03</internalNodes>
          <leafValues>
            2.9620879888534546e-01 -1.1609784513711929e-01</leafValues></_>
        <_>
          <internalNodes>
            0 -1 260 -2.0092872437089682e-03</internalNodes>
          <leafValues>
            2.8264755010604858e-01 -1.1639928072690964e-01</leafValues></_>
        <_>
          <internalNodes>
            0 -1 197 -1.3579749502241611e-03</internalNodes>
          <leafValues>
            2.4269770085811615e-01 -1.5584513545036316e-01</leafValues></_>
        <_>
          <internalNodes>
            0 -1 214 -1.0575190186500549e-02</internalNodes>
          <leafValues>
            -6.7601585388183594e-01 4.6130739152431488e-02</leafValues></_>
        <_>
          <internalNodes>
            0 -1 94 4.8807216808199883e-03</internalNodes>
          <leafValues>
            9.0502500534057617e-02 -3.8790014386177063e-01</leafValues></_>
        <_>
          <internalNodes>
            0 -1 184 8.5330108413472772e-04</internalNodes>
          <leafValues>
            -1.1596173048019409e-01 2.7524957060813904e-01</leafValues></_>
        <_>
          <internalNodes>
            0 -1 71 -1.7129702027887106e-03</internalNodes>
          <leafValues>
            2.3156335949897766e-01 -1.2586101889610291e-01</leafValues></_>
        <_>
          <internalNodes>
            0 -1 256 2.3128209635615349e-02</internalNodes>
          <leafValues>
            -5.0470728427171707e-02 6.1250519752502441e-01</leafValues></_>
        <_>
          <internalNodes>
            0 -1 266 1.2416776735335588e-04</internalNodes>
          <leafValues>
            -2.9789379239082336e-01 1.0917776077985764e-01</leafValues></_>
        <_>
          <internalNodes>
            0 -1 283 -6.8477427703328431e-05</internalNodes>
          <leafValues>
            -2.9559507966041565e-01 1.0373327881097794e-01</leafValues></_>
        <_>
          <internalNodes>
            0 -1 157 2.1020679268985987e-03</internalNodes>
          <leafValues>
            1.8988727033138275e-01 -2.0582357048988342e-01</leafValues></_>
        <_>
          <internalNodes>
            0 -1 159 -3.7726620212197304e-03</internalNodes>
          <leafValues>
            -3.4075918793678284e-01 1.0640126466751099e-01</leafValues></_>
        <_>
          <internalNodes>
            0 -1 258 -1.7789770936360583e-05</internalNodes>
          <leafValues>
            -2.3781897127628326e-01 1.5738508105278015e-01</leafValues></_>
        <_>
          <internalNodes>
            0 -1 104 8.3543658256530762e-03</internalNodes>
          <leafValues>
            4.6801213175058365e-02 -6.9544154405593872e-01</leafValues></_>
        <_>
          <internalNodes>
            0 -1 253 -1.6161685809493065e-02</internalNodes>
          <leafValues>
            3.8569980859756470e-01 -8.8282033801078796e-02</leafValues></_>
        <_>
          <internalNodes>
            0 -1 171 1.2769752647727728e-03</internalNodes>
          <leafValues>
            -1.7574194073677063e-01 2.1059891581535339e-01</leafValues></_>
        <_>
          <internalNodes>
            0 -1 31 5.3448053076863289e-03</internalNodes>
          <leafValues>
            -1.4721328020095825e-01 2.2517468035221100e-01</leafValues></_>
        <_>
          <internalNodes>
            0 -1 104 -7.5987429590895772e-04</internalNodes>
          <leafValues>
            -2.1689255535602570e-01 1.5612670779228210e-01</leafValues></_>
        <_>
          <internalNodes>
            0 -1 173 1.5128592029213905e-02</internalNodes>
          <leafValues>
            -9.7272343933582306e-02 3.7335014343261719e-01</leafValues></_>
        <_>
          <internalNodes>
            0 -1 8 5.0149764865636826e-03</internalNodes>
          <leafValues>
            -1.0870234668254852e-01 3.1499746441841125e-01</leafValues></_>
        <_>
          <internalNodes>
            0 -1 122 -1.2270830571651459e-02</internalNodes>
          <leafValues>
            -6.3501727581024170e-01 5.2715983241796494e-02</leafValues></_>
        <_>
          <internalNodes>
            0 -1 257 -3.3256090246140957e-03</internalNodes>
          <leafValues>
            2.5154471397399902e-01 -1.2646502256393433e-01</leafValues></_></weakClassifiers></_>
    <!-- stage 8 -->
    <_>
      <maxWeakCount>40</maxWeakCount>
      <stageThreshold>-7.6835232973098755e-01</stageThreshold>
      <weakClassifiers>
        <_>
          <internalNodes>
            0 -1 168 2.1972544491291046e-03</internalNodes>
          <leafValues>
            -2.9743589460849762e-02 5.1015383005142212e-01</leafValues></_>
        <_>
          <internalNodes>
            0 -1 279 1.0756528354249895e-04</internalNodes>
          <leafValues>
            -3.6303067207336426e-01 1.8407228589057922e-01</leafValues></_>
        <_>
          <internalNodes>
            0 -1 341 -5.4933328647166491e-04</internalNodes>
          <leafValues>
            2.3738230764865875e-01 -2.7679693698883057e-01</leafValues></_>
        <_>
          <internalNodes>
            0 -1 20 4.0855973958969116e-02</internalNodes>
          <leafValues>
            -6.7971654236316681e-02 6.3417088985443115e-01</leafValues></_>
        <_>
          <internalNodes>
            0 -1 87 1.4421828091144562e-02</internalNodes>
          <leafValues>
            1.3898514211177826e-01 -3.1206530332565308e-01</leafValues></_>
        <_>
          <internalNodes>
            0 -1 294 -1.9877352751791477e-03</internalNodes>
          <leafValues>
            1.2495210021734238e-01 -4.0289610624313354e-01</leafValues></_>
        <_>
          <internalNodes>
            0 -1 285 -3.5504633560776711e-03</internalNodes>
          <leafValues>
            -3.2750520110130310e-01 1.3941617310047150e-01</leafValues></_>
        <_>
          <internalNodes>
            0 -1 252 3.8378976285457611e-02</internalNodes>
          <leafValues>
            -1.5108345448970795e-01 2.7915552258491516e-01</leafValues></_>
        <_>
          <internalNodes>
            0 -1 323 3.6473162472248077e-03</internalNodes>
          <leafValues>
            5.6205142289400101e-02 -6.2612962722778320e-01</leafValues></_>
        <_>
          <internalNodes>
            0 -1 284 1.4413533790502697e-04</internalNodes>
          <leafValues>
            -4.4188442826271057e-01 8.1788673996925354e-02</leafValues></_>
        <_>
          <internalNodes>
            0 -1 272 -3.3071948564611375e-04</internalNodes>
          <leafValues>
            -2.8397992253303528e-01 1.4846190810203552e-01</leafValues></_>
        <_>
          <internalNodes>
            0 -1 138 -3.6906106397509575e-03</internalNodes>
          <leafValues>
            3.5970902442932129e-01 -1.2656866014003754e-01</leafValues></_>
        <_>
          <internalNodes>
            0 -1 281 -6.8221834953874350e-04</internalNodes>
          <leafValues>
            -4.3242222070693970e-01 1.4116153120994568e-01</leafValues></_>
        <_>
          <internalNodes>
            0 -1 261 1.4448235742747784e-03</internalNodes>
          <leafValues>
            1.0221544653177261e-01 -3.5266214609146118e-01</leafValues></_>
        <_>
          <internalNodes>
            0 -1 360 2.0120861008763313e-03</internalNodes>
          <leafValues>
            -1.5625299513339996e-01 2.5053074955940247e-01</leafValues></_>
        <_>
          <internalNodes>
            0 -1 215 1.3095321133732796e-02</internalNodes>
          <leafValues>
            1.5499095618724823e-01 -2.8037989139556885e-01</leafValues></_>
        <_>
          <internalNodes>
            0 -1 137 -1.1051978217437863e-03</internalNodes>
          <leafValues>
            2.5727066397666931e-01 -1.4159716665744781e-01</leafValues></_>
        <_>
          <internalNodes>
            0 -1 135 3.7433051038533449e-03</internalNodes>
          <leafValues>
            -1.4832141995429993e-01 3.4827628731727600e-01</leafValues></_>
        <_>
          <internalNodes>
            0 -1 353 5.4356409236788750e-04</internalNodes>
          <leafValues>
            -1.5963877737522125e-01 2.4597510695457458e-01</leafValues></_>
        <_>
          <internalNodes>
            0 -1 52 -6.1055406928062439e-02</internalNodes>
          <leafValues>
            -7.8195822238922119e-01 5.5099479854106903e-02</leafValues></_>
        <_>
          <internalNodes>
            0 -1 310 -7.0054712705314159e-03</internalNodes>
          <leafValues>
            3.5600090026855469e-01 -1.0393007844686508e-01</leafValues></_>
        <_>
          <internalNodes>
            0 -1 183 -1.9322869181632996e-01</internalNodes>
          <leafValues>
            -6.7522430419921875e-01 5.0211407244205475e-02</leafValues></_>
        <_>
          <internalNodes>
            0 -1 239 -2.0015880465507507e-02</internalNodes>
          <leafValues>
            -5.2017724514007568e-01 5.9068407863378525e-02</leafValues></_>
        <_>
          <internalNodes>
            0 -1 308 -5.4361858929041773e-05</internalNodes>
          <leafValues>
            1.4490066468715668e-01 -2.7534520626068115e-01</leafValues></_>
        <_>
          <internalNodes>
            0 -1 179 -7.0108184590935707e-03</internalNodes>
          <leafValues>
            -2.9726386070251465e-01 1.1932703107595444e-01</leafValues></_>
        <_>
          <internalNodes>
            0 -1 204 4.7861868515610695e-03</internalNodes>
          <leafValues>
            -1.0981743037700653e-01 3.6008393764495850e-01</leafValues></_>
        <_>
          <internalNodes>
            0 -1 123 5.2031259983778000e-03</internalNodes>
          <leafValues>
            -8.4417000412940979e-02 4.7375258803367615e-01</leafValues></_>
        <_>
          <internalNodes>
            0 -1 374 -2.3038214072585106e-02</internalNodes>
          <leafValues>
            3.5325735807418823e-01 -9.6107482910156250e-02</leafValues></_>
        <_>
          <internalNodes>
            0 -1 396 9.5796231180429459e-03</internalNodes>
          <leafValues>
            -6.6431723535060883e-02 5.5519998073577881e-01</leafValues></_>
        <_>
          <internalNodes>
            0 -1 241 -3.7858175346627831e-04</internalNodes>
          <leafValues>
            1.6566243767738342e-01 -2.3313458263874054e-01</leafValues></_>
        <_>
          <internalNodes>
            0 -1 358 -4.0667210705578327e-03</internalNodes>
          <leafValues>
            -7.9618138074874878e-01 4.2803343385457993e-02</leafValues></_>
        <_>
          <internalNodes>
            0 -1 107 7.3341524694114923e-04</internalNodes>
          <leafValues>
            -1.0549312829971313e-01 3.5739740729331970e-01</leafValues></_>
        <_>
          <internalNodes>
            0 -1 12 -4.0779538452625275e-02</internalNodes>
          <leafValues>
            3.9113816618919373e-01 -8.8115349411964417e-02</leafValues></_>
        <_>
          <internalNodes>
            0 -1 334 5.4256481234915555e-05</internalNodes>
          <leafValues>
            -2.6372715830802917e-01 1.4420662820339203e-01</leafValues></_>
        <_>
          <internalNodes>
            0 -1 364 3.1551567371934652e-03</internalNodes>
          <leafValues>
            -1.2342806160449982e-01 2.8530070185661316e-01</leafValues></_>
        <_>
          <internalNodes>
            0 -1 377 8.8122636079788208e-03</internalNodes>
          <leafValues>
            6.7884720861911774e-02 -6.3030016422271729e-01</leafValues></_>
        <_>
          <internalNodes>
            0 -1 10 1.4069065451622009e-01</internalNodes>
          <leafValues>
            5.6774962693452835e-02 -5.3839892148971558e-01</leafValues></_>
        <_>
          <internalNodes>
            0 -1 109 -1.1444927658885717e-03</internalNodes>
          <leafValues>
            2.3126722872257233e-01 -1.6184979677200317e-01</leafValues></_>
        <_>
          <internalNodes>
            0 -1 230 1.7750270490068942e-04</internalNodes>
          <leafValues>
            -2.4166987836360931e-01 1.8239749968051910e-01</leafValues></_>
        <_>
          <internalNodes>
            0 -1 216 -3.0381740070879459e-03</internalNodes>
          <leafValues>
            5.4877465963363647e-01 -7.1936443448066711e-02</leafValues></_></weakClassifiers></_>
    <!-- stage 9 -->
    <_>
      <maxWeakCount>48</maxWeakCount>
      <stageThreshold>-7.7798682451248169e-01</stageThreshold>
      <weakClassifiers>
        <_>
          <internalNodes>
            0 -1 279 4.8599737056065351e-05</internalNodes>
          <leafValues>
            -2.0537428557872772e-01 4.3626743555068970e-01</leafValues></_>
        <_>
          <internalNodes>
            0 -1 300 -8.1768147647380829e-03</internalNodes>
          <leafValues>
            4.7806912660598755e-01 -1.5625932812690735e-01</leafValues></_>
        <_>
          <internalNodes>
            0 -1 361 -2.8018586337566376e-02</internalNodes>
          <leafValues>
            6.5757775306701660e-01 -6.3217669725418091e-02</leafValues></_>
        <_>
          <internalNodes>
            0 -1 240 -4.1546527063474059e-04</internalNodes>
          <leafValues>
            -5.4598981142044067e-01 5.3395893424749374e-02</leafValues></_>
        <_>
          <internalNodes>
            0 -1 59 9.4111158978193998e-04</internalNodes>
          <leafValues>
            -1.2714752554893494e-01 3.0002346634864807e-01</leafValues></_>
        <_>
          <internalNodes>
            0 -1 42 -6.7197810858488083e-03</internalNodes>
          <leafValues>
            -4.5043575763702393e-01 9.7721122205257416e-02</leafValues></_>
        <_>
          <internalNodes>
            0 -1 38 -5.9303041780367494e-04</internalNodes>
          <leafValues>
            2.0177945494651794e-01 -1.9152995944023132e-01</leafValues></_>
        <_>
          <internalNodes>
            0 -1 282 -4.6826089965179563e-04</internalNodes>
          <leafValues>
            -4.8002809286117554e-01 9.6071779727935791e-02</leafValues></_>
        <_>
          <internalNodes>
            0 -1 75 -2.5840050075203180e-03</internalNodes>
          <leafValues>
            1.7338287830352783e-01 -1.9890129566192627e-01</leafValues></_>
        <_>
          <internalNodes>
            0 -1 155 4.4988319277763367e-03</internalNodes>
          <leafValues>
            2.3144248872995377e-02 -8.3750939369201660e-01</leafValues></_>
        <_>
          <internalNodes>
            0 -1 225 -2.4414993822574615e-03</internalNodes>
          <leafValues>
            -3.0124562978744507e-01 9.7840696573257446e-02</leafValues></_>
        <_>
          <internalNodes>
            0 -1 129 -7.5920127332210541e-02</internalNodes>
          <leafValues>
            -8.9730226993560791e-01 4.0710441768169403e-02</leafValues></_>
        <_>
          <internalNodes>
            0 -1 90 -2.9424123466014862e-02</internalNodes>
          <leafValues>
            7.6282197237014771e-01 -6.0842953622341156e-02</leafValues></_>
        <_>
          <internalNodes>
            0 -1 65 -1.1134066618978977e-02</internalNodes>
          <leafValues>
            -6.5852403640747070e-01 5.4089710116386414e-02</leafValues></_>
        <_>
          <internalNodes>
            0 -1 397 2.0798314362764359e-02</internalNodes>
          <leafValues>
            -8.4668911993503571e-02 4.2834687232971191e-01</leafValues></_>
        <_>
          <internalNodes>
            0 -1 131 3.6975599825382233e-02</internalNodes>
          <leafValues>
            5.0540529191493988e-02 -6.7411679029464722e-01</leafValues></_>
        <_>
          <internalNodes>
            0 -1 23 2.1842146292328835e-02</internalNodes>
          <leafValues>
            -6.8818129599094391e-02 5.0867432355880737e-01</leafValues></_>
        <_>
          <internalNodes>
            0 -1 335 -6.9437941419892013e-05</internalNodes>
          <leafValues>
            -3.6286813020706177e-01 9.8120056092739105e-02</leafValues></_>
        <_>
          <internalNodes>
            0 -1 328 -4.4803356286138296e-04</internalNodes>
          <leafValues>
            -2.9636752605438232e-01 1.0342960804700851e-01</leafValues></_>
        <_>
          <internalNodes>
            0 -1 145 -6.7086108028888702e-02</internalNodes>
          <leafValues>
            -3.2672044634819031e-01 1.0761252045631409e-01</leafValues></_>
        <_>
          <internalNodes>
            0 -1 162 -1.0085517715197057e-04</internalNodes>
          <leafValues>
            -2.6675862073898315e-01 1.3315202295780182e-01</leafValues></_>
        <_>
          <internalNodes>
            0 -1 200 3.2002992928028107e-02</internalNodes>
          <leafValues>
            5.0890188664197922e-02 -6.3410013914108276e-01</leafValues></_>
        <_>
          <internalNodes>
            0 -1 154 -5.9671737253665924e-02</internalNodes>
          <leafValues>
            -4.3062946200370789e-01 6.6676221787929535e-02</leafValues></_>
        <_>
          <internalNodes>
            0 -1 385 -1.1273977579548955e-03</internalNodes>
          <leafValues>
            2.4415116012096405e-01 -1.2437561899423599e-01</leafValues></_>
        <_>
          <internalNodes>
            0 -1 363 -4.4416319578886032e-03</internalNodes>
          <leafValues>
            3.5482421517372131e-01 -8.9563742280006409e-02</leafValues></_>
        <_>
          <internalNodes>
            0 -1 100 -6.4102515578269958e-02</internalNodes>
          <leafValues>
            2.2312675416469574e-01 -1.4373560249805450e-01</leafValues></_>
        <_>
          <internalNodes>
            0 -1 188 1.6993160825222731e-03</internalNodes>
          <leafValues>
            -1.2074836343526840e-01 2.5524461269378662e-01</leafValues></_>
        <_>
          <internalNodes>
            0 -1 219 -1.0211620479822159e-02</internalNodes>
          <leafValues>
            5.9461450576782227e-01 -5.3598754107952118e-02</leafValues></_>
        <_>
          <internalNodes>
            0 -1 233 -4.8892661929130554e-02</internalNodes>
          <leafValues>
            -6.4680576324462891e-01 5.0776459276676178e-02</leafValues></_>
        <_>
          <internalNodes>
            0 -1 66 1.0154241696000099e-02</internalNodes>
          <leafValues>
            3.7433773279190063e-02 -7.5790154933929443e-01</leafValues></_>
        <_>
          <internalNodes>
            0 -1 175 2.7040918357670307e-03</internalNodes>
          <leafValues>
            4.1713856160640717e-02 -5.6198179721832275e-01</leafValues></_>
        <_>
          <internalNodes>
            0 -1 249 -3.7858393043279648e-03</internalNodes>
          <leafValues>
            -3.6555761098861694e-01 7.5920477509498596e-02</leafValues></_>
        <_>
          <internalNodes>
            0 -1 338 -1.3340383884496987e-04</internalNodes>
          <leafValues>
            -2.0282901823520660e-01 1.5120302140712738e-01</leafValues></_>
        <_>
          <internalNodes>
            0 -1 366 -6.7368271993473172e-04</internalNodes>
          <leafValues>
            -3.1961181759834290e-01 1.0183460265398026e-01</leafValues></_>
        <_>
          <internalNodes>
            0 -1 299 -3.4579013008624315e-03</internalNodes>
          <leafValues>
            3.3941838145256042e-01 -8.1643313169479370e-02</leafValues></_>
        <_>
          <internalNodes>
            0 -1 297 1.8361519323661923e-03</internalNodes>
          <leafValues>
            -1.1414024233818054e-01 2.7600127458572388e-01</leafValues></_>
        <_>
          <internalNodes>
            0 -1 269 1.0312679223716259e-03</internalNodes>
          <leafValues>
            -1.0935968905687332e-01 2.6247435808181763e-01</leafValues></_>
        <_>
          <internalNodes>
            0 -1 278 -3.6664758226834238e-04</internalNodes>
          <leafValues>
            -5.8836364746093750e-01 6.1458993703126907e-02</leafValues></_>
        <_>
          <internalNodes>
            0 -1 273 -7.1192998439073563e-04</internalNodes>
          <leafValues>
            2.7447289228439331e-01 -1.1944726109504700e-01</leafValues></_>
        <_>
          <internalNodes>
            0 -1 278 4.1740795131772757e-04</internalNodes>
          <leafValues>
            1.7494843900203705e-01 -1.9726730883121490e-01</leafValues></_>
        <_>
          <internalNodes>
            0 -1 329 -2.8893724083900452e-04</internalNodes>
          <leafValues>
            1.8619708716869354e-01 -1.6494514048099518e-01</leafValues></_>
        <_>
          <internalNodes>
            0 -1 370 -5.2539934404194355e-04</internalNodes>
          <leafValues>
            1.7233708500862122e-01 -1.7250920832157135e-01</leafValues></_>
        <_>
          <internalNodes>
            0 -1 89 -2.3978201206773520e-03</internalNodes>
          <leafValues>
            2.4189312756061554e-01 -1.2908095121383667e-01</leafValues></_>
        <_>
          <internalNodes>
            0 -1 187 1.5924387844279408e-03</internalNodes>
          <leafValues>
            8.3392471075057983e-02 -3.7714514136314392e-01</leafValues></_>
        <_>
          <internalNodes>
            0 -1 370 -4.4822795316576958e-03</internalNodes>
          <leafValues>
            -8.1913393735885620e-01 3.2744310796260834e-02</leafValues></_>
        <_>
          <internalNodes>
            0 -1 80 -1.8515341216698289e-03</internalNodes>
          <leafValues>
            2.7624416351318359e-01 -1.1364614218473434e-01</leafValues></_>
        <_>
          <internalNodes>
            0 -1 0 -1.8501050770282745e-01</internalNodes>
          <leafValues>
            -4.3456298112869263e-01 7.1889728307723999e-02</leafValues></_>
        <_>
          <internalNodes>
            0 -1 6 7.3042549192905426e-02</internalNodes>
          <leafValues>
            -5.3593702614307404e-02 5.9068149328231812e-01</leafValues></_></weakClassifiers></_>
    <!-- stage 10 -->
    <_>
      <maxWeakCount>37</maxWeakCount>
      <stageThreshold>-8.4553885459899902e-01</stageThreshold>
      <weakClassifiers>
        <_>
          <internalNodes>
            0 -1 74 -5.6810565292835236e-03</internalNodes>
          <leafValues>
            6.9245463609695435e-01 4.8293624073266983e-02</leafValues></_>
        <_>
          <internalNodes>
            0 -1 194 -5.3512141108512878e-02</internalNodes>
          <leafValues>
            6.9962406158447266e-01 -8.4879666566848755e-02</leafValues></_>
        <_>
          <internalNodes>
            0 -1 378 -3.9015919901430607e-03</internalNodes>
          <leafValues>
            4.6881750226020813e-01 -1.3043592870235443e-01</leafValues></_>
        <_>
          <internalNodes>
            0 -1 101 4.5356126502156258e-03</internalNodes>
          <leafValues>
            6.5683521330356598e-02 -6.9315981864929199e-01</leafValues></_>
        <_>
          <internalNodes>
            0 -1 155 4.0509569225832820e-04</internalNodes>
          <leafValues>
            -2.3803007602691650e-01 1.9960311055183411e-01</leafValues></_>
        <_>
          <internalNodes>
            0 -1 117 3.4804563038051128e-03</internalNodes>
          <leafValues>
            -9.6481636166572571e-02 5.0601428747177124e-01</leafValues></_>
        <_>
          <internalNodes>
            0 -1 213 6.7166639491915703e-03</internalNodes>
          <leafValues>
            8.1470407545566559e-02 -5.5675399303436279e-01</leafValues></_>
        <_>
          <internalNodes>
            0 -1 98 1.6683184076100588e-03</internalNodes>
          <leafValues>
            -2.4202723801136017e-01 2.0490396022796631e-01</leafValues></_>
        <_>
          <internalNodes>
            0 -1 83 -1.0804992169141769e-02</internalNodes>
          <leafValues>
            5.6610023975372314e-01 -7.8813076019287109e-02</leafValues></_>
        <_>
          <internalNodes>
            0 -1 5 3.2238218933343887e-02</internalNodes>
          <leafValues>
            -1.0203971713781357e-01 4.2264506220817566e-01</leafValues></_>
        <_>
          <internalNodes>
            0 -1 185 -6.9490441819652915e-04</internalNodes>
          <leafValues>
            -2.3401911556720734e-01 1.9820071756839752e-01</leafValues></_>
        <_>
          <internalNodes>
            0 -1 293 2.4131752434186637e-04</internalNodes>
          <leafValues>
            -2.9273876547813416e-01 1.5511220693588257e-01</leafValues></_>
        <_>
          <internalNodes>
            0 -1 27 -1.4330953359603882e-02</internalNodes>
          <leafValues>
            3.7099349498748779e-01 -1.1505162715911865e-01</leafValues></_>
        <_>
          <internalNodes>
            0 -1 45 5.7075079530477524e-03</internalNodes>
          <leafValues>
            -1.3282802700996399e-01 3.8364073634147644e-01</leafValues></_>
        <_>
          <internalNodes>
            0 -1 242 5.4105771705508232e-03</internalNodes>
          <leafValues>
            6.8044558167457581e-02 -7.3465836048126221e-01</leafValues></_>
        <_>
          <internalNodes>
            0 -1 43 -7.5378110632300377e-03</internalNodes>
          <leafValues>
            4.1855204105377197e-01 -1.0326670855283737e-01</leafValues></_>
        <_>
          <internalNodes>
            0 -1 244 -3.6886064335703850e-03</internalNodes>
          <leafValues>
            -5.0860846042633057e-01 1.0153498500585556e-01</leafValues></_>
        <_>
          <internalNodes>
            0 -1 247 2.2756480611860752e-03</internalNodes>
          <leafValues>
            -1.7063771188259125e-01 2.4898175895214081e-01</leafValues></_>
        <_>
          <internalNodes>
            0 -1 178 -7.3751452146098018e-04</internalNodes>
          <leafValues>
            2.4810174107551575e-01 -1.7527882754802704e-01</leafValues></_>
        <_>
          <internalNodes>
            0 -1 96 5.0902672111988068e-02</internalNodes>
          <leafValues>
            4.8860345035791397e-02 -8.6978614330291748e-01</leafValues></_>
        <_>
          <internalNodes>
            0 -1 3 -1.0073684155941010e-02</internalNodes>
          <leafValues>
            2.9229453206062317e-01 -1.4879350364208221e-01</leafValues></_>
        <_>
          <internalNodes>
            0 -1 395 1.6188718378543854e-02</internalNodes>
          <leafValues>
            -5.1992241293191910e-02 7.0091140270233154e-01</leafValues></_>
        <_>
          <internalNodes>
            0 -1 375 -5.1506445743143559e-03</internalNodes>
          <leafValues>
            4.0715116262435913e-01 -9.8833329975605011e-02</leafValues></_>
        <_>
          <internalNodes>
            0 -1 318 7.6147373765707016e-03</internalNodes>
          <leafValues>
            -8.1273533403873444e-02 4.4215312600135803e-01</leafValues></_>
        <_>
          <internalNodes>
            0 -1 376 -4.5998832210898399e-03</internalNodes>
          <leafValues>
            -8.3978843688964844e-01 5.2941005676984787e-02</leafValues></_>
        <_>
          <internalNodes>
            0 -1 355 -3.9260601624846458e-03</internalNodes>
          <leafValues>
            3.9304178953170776e-01 -1.0845577716827393e-01</leafValues></_>
        <_>
          <internalNodes>
            0 -1 264 2.6704131159931421e-03</internalNodes>
          <leafValues>
            -9.2286206781864166e-02 4.2170977592468262e-01</leafValues></_>
        <_>
          <internalNodes>
            0 -1 192 -3.3708144910633564e-03</internalNodes>
          <leafValues>
            2.5813359022140503e-01 -1.8141978979110718e-01</leafValues></_>
        <_>
          <internalNodes>
            0 -1 60 -1.1321178637444973e-02</internalNodes>
          <leafValues>
            -6.7660897970199585e-01 5.9619743376970291e-02</leafValues></_>
        <_>
          <internalNodes>
            0 -1 118 2.2497272584587336e-03</internalNodes>
          <leafValues>
            -1.1720003932714462e-01 3.8482731580734253e-01</leafValues></_>
        <_>
          <internalNodes>
            0 -1 39 -1.0615140199661255e-02</internalNodes>
          <leafValues>
            -5.1759833097457886e-01 9.4424672424793243e-02</leafValues></_>
        <_>
          <internalNodes>
            0 -1 128 -2.2218315862119198e-03</internalNodes>
          <leafValues>
            -3.2953408360481262e-01 1.2823124229907990e-01</leafValues></_>
        <_>
          <internalNodes>
            0 -1 149 -6.1507793143391609e-03</internalNodes>
          <leafValues>
            2.2406926751136780e-01 -2.2809129953384399e-01</leafValues></_>
        <_>
          <internalNodes>
            0 -1 33 8.7248743511736393e-04</internalNodes>
          <leafValues>
            -1.5867787599563599e-01 2.5841915607452393e-01</leafValues></_>
        <_>
          <internalNodes>
            0 -1 371 -1.5456834807991982e-02</internalNodes>
          <leafValues>
            6.8540203571319580e-01 -5.9719208627939224e-02</leafValues></_>
        <_>
          <internalNodes>
            0 -1 2 1.1529476940631866e-01</internalNodes>
          <leafValues>
            -5.0110608339309692e-02 6.5994399785995483e-01</leafValues></_>
        <_>
          <internalNodes>
            0 -1 46 -1.1946575343608856e-01</internalNodes>
          <leafValues>
            4.5730769634246826e-01 -8.9661836624145508e-02</leafValues></_></weakClassifiers></_>
    <!-- stage 11 -->
    <_>
      <maxWeakCount>42</maxWeakCount>
      <stageThreshold>-7.3924249410629272e-01</stageThreshold>
      <weakClassifiers>
        <_>
          <internalNodes>
            0 -1 212 -1.9647572189569473e-02</internalNodes>
          <leafValues>
            7.3521125316619873e-01 1.4708994328975677e-01</leafValues></_>
        <_>
          <internalNodes>
            0 -1 161 -1.2568026781082153e-02</internalNodes>
          <leafValues>
            3.7589201331138611e-01 -1.4865778386592865e-01</leafValues></_>
        <_>
          <internalNodes>
            0 -1 303 6.0395086620701477e-05</internalNodes>
          <leafValues>
            1.0812302678823471e-01 -4.8638391494750977e-01</leafValues></_>
        <_>
          <internalNodes>
            0 -1 263 -2.0003564713988453e-05</internalNodes>
          <leafValues>
            -2.8074955940246582e-01 1.5633922815322876e-01</leafValues></_>
        <_>
          <internalNodes>
            0 -1 268 5.8399112895131111e-03</internalNodes>
          <leafValues>
            5.1528457552194595e-02 -5.2771127223968506e-01</leafValues></_>
        <_>
          <internalNodes>
            0 -1 86 -2.7885001152753830e-02</internalNodes>
          <leafValues>
            5.1342672109603882e-01 -6.5105885267257690e-02</leafValues></_>
        <_>
          <internalNodes>
            0 -1 125 2.5495556183159351e-03</internalNodes>
          <leafValues>
            -1.2766730785369873e-01 3.2200396060943604e-01</leafValues></_>
        <_>
          <internalNodes>
            0 -1 290 1.9858160521835089e-04</internalNodes>
          <leafValues>
            1.0254155844449997e-01 -4.1081899404525757e-01</leafValues></_>
        <_>
          <internalNodes>
            0 -1 281 -1.8787311273626983e-04</internalNodes>
          <leafValues>
            -3.0924633145332336e-01 1.8536083400249481e-01</leafValues></_>
        <_>
          <internalNodes>
            0 -1 267 5.5362535640597343e-03</internalNodes>
          <leafValues>
            -1.1089654266834259e-01 4.4839265942573547e-01</leafValues></_>
        <_>
          <internalNodes>
            0 -1 220 1.0360581800341606e-02</internalNodes>
          <leafValues>
            -5.1763139665126801e-02 7.5285375118255615e-01</leafValues></_>
        <_>
          <internalNodes>
            0 -1 296 -2.9939005617052317e-04</internalNodes>
          <leafValues>
            9.1851726174354553e-02 -4.9457454681396484e-01</leafValues></_>
        <_>
          <internalNodes>
            0 -1 37 -4.7774143517017365e-02</internalNodes>
          <leafValues>
            -5.0796020030975342e-01 6.6294506192207336e-02</leafValues></_>
        <_>
          <internalNodes>
            0 -1 15 -2.4908324703574181e-03</internalNodes>
          <leafValues>
            2.3288378119468689e-01 -1.5515679121017456e-01</leafValues></_>
        <_>
          <internalNodes>
            0 -1 165 9.2872127424925566e-04</internalNodes>
          <leafValues>
            1.9239029288291931e-01 -2.0041666924953461e-01</leafValues></_>
        <_>
          <internalNodes>
            0 -1 155 5.4015190107747912e-04</internalNodes>
          <leafValues>
            -2.0279002189636230e-01 2.1912252902984619e-01</leafValues></_>
        <_>
          <internalNodes>
            0 -1 155 4.2185559868812561e-03</internalNodes>
          <leafValues>
            4.0254790335893631e-02 -8.4482443332672119e-01</leafValues></_>
        <_>
          <internalNodes>
            0 -1 380 -9.9844485521316528e-04</internalNodes>
          <leafValues>
            2.7463465929031372e-01 -1.5093681216239929e-01</leafValues></_>
        <_>
          <internalNodes>
            0 -1 287 5.6252740323543549e-03</internalNodes>
          <leafValues>
            4.7654617577791214e-02 -7.0998054742813110e-01</leafValues></_>
        <_>
          <internalNodes>
            0 -1 44 -5.6038950569927692e-03</internalNodes>
          <leafValues>
            5.9470599889755249e-01 -5.9046521782875061e-02</leafValues></_>
        <_>
          <internalNodes>
            0 -1 62 -5.0479681231081486e-03</internalNodes>
          <leafValues>
            -4.2783626914024353e-01 8.8277257978916168e-02</leafValues></_>
        <_>
          <internalNodes>
            0 -1 191 1.9613016396760941e-02</internalNodes>
          <leafValues>
            -6.8606927990913391e-02 5.9109425544738770e-01</leafValues></_>
        <_>
          <internalNodes>
            0 -1 278 -9.6887655672617257e-05</internalNodes>
          <leafValues>
            -4.5178037881851196e-01 8.4267385303974152e-02</leafValues></_>
        <_>
          <internalNodes>
            0 -1 386 -1.4456453733146191e-02</internalNodes>
          <leafValues>
            3.5372114181518555e-01 -1.0671234875917435e-01</leafValues></_>
        <_>
          <internalNodes>
            0 -1 55 -2.5248622987419367e-03</internalNodes>
          <leafValues>
            3.6062949895858765e-01 -9.2936910688877106e-02</leafValues></_>
        <_>
          <internalNodes>
            0 -1 49 -2.4454614613205194e-03</internalNodes>
          <leafValues>
            2.8646779060363770e-01 -1.3916330039501190e-01</leafValues></_>
        <_>
          <internalNodes>
            0 -1 328 -2.7972954558208585e-04</internalNodes>
          <leafValues>
            -2.8560909628868103e-01 1.2885752320289612e-01</leafValues></_>
        <_>
          <internalNodes>
            0 -1 372 1.0839963797479868e-03</internalNodes>
          <leafValues>
            -1.1993992328643799e-01 2.9932245612144470e-01</leafValues></_>
        <_>
          <internalNodes>
            0 -1 59 3.0626036459580064e-04</internalNodes>
          <leafValues>
            -1.4956270158290863e-01 2.2727996110916138e-01</leafValues></_>
        <_>
          <internalNodes>
            0 -1 134 1.7847026174422354e-04</internalNodes>
          <leafValues>
            -2.0038028061389923e-01 2.3539516329765320e-01</leafValues></_>
        <_>
          <internalNodes>
            0 -1 69 3.7699467502534389e-03</internalNodes>
          <leafValues>
            6.3386306166648865e-02 -5.4890418052673340e-01</leafValues></_>
        <_>
          <internalNodes>
            0 -1 111 -1.3614078052341938e-02</internalNodes>
          <leafValues>
            2.6177442073822021e-01 -1.2909680604934692e-01</leafValues></_>
        <_>
          <internalNodes>
            0 -1 186 -2.2745035588741302e-02</internalNodes>
          <leafValues>
            -5.0593131780624390e-01 7.0214740931987762e-02</leafValues></_>
        <_>
          <internalNodes>
            0 -1 308 -4.6934401616454124e-03</internalNodes>
          <leafValues>
            -5.6273996829986572e-01 6.1197370290756226e-02</leafValues></_>
        <_>
          <internalNodes>
            0 -1 370 -7.3343492113053799e-04</internalNodes>
          <leafValues>
            2.0446050167083740e-01 -1.6893000900745392e-01</leafValues></_>
        <_>
          <internalNodes>
            0 -1 367 6.6871857270598412e-03</internalNodes>
          <leafValues>
            5.9968885034322739e-02 -5.6619310379028320e-01</leafValues></_>
        <_>
          <internalNodes>
            0 -1 389 -2.8114863671362400e-03</internalNodes>
          <leafValues>
            3.5520142316818237e-01 -1.0411187261343002e-01</leafValues></_>
        <_>
          <internalNodes>
            0 -1 110 1.1551319621503353e-02</internalNodes>
          <leafValues>
            -7.5626313686370850e-02 4.4057160615921021e-01</leafValues></_>
        <_>
          <internalNodes>
            0 -1 130 6.6574297845363617e-02</internalNodes>
          <leafValues>
            5.6213691830635071e-02 -6.9392567873001099e-01</leafValues></_>
        <_>
          <internalNodes>
            0 -1 64 1.8194947391748428e-02</internalNodes>
          <leafValues>
            3.8277827203273773e-02 -7.3541057109832764e-01</leafValues></_>
        <_>
          <internalNodes>
            0 -1 234 -1.9045849330723286e-04</internalNodes>
          <leafValues>
            -5.0499469041824341e-01 6.6873967647552490e-02</leafValues></_>
        <_>
          <internalNodes>
            0 -1 115 -3.0174006242305040e-03</internalNodes>
          <leafValues>
            5.5697572231292725e-01 -8.1352017819881439e-02</leafValues></_></weakClassifiers></_>
    <!-- stage 12 -->
    <_>
      <maxWeakCount>43</maxWeakCount>
      <stageThreshold>-8.4487348794937134e-01</stageThreshold>
      <weakClassifiers>
        <_>
          <internalNodes>
            0 -1 148 2.3312199860811234e-02</internalNodes>
          <leafValues>
            9.7577854990959167e-02 5.7056277990341187e-01</leafValues></_>
        <_>
          <internalNodes>
            0 -1 245 1.2451235670596361e-03</internalNodes>
          <leafValues>
            -1.9887711107730865e-01 2.8649798035621643e-01</leafValues></_>
        <_>
          <internalNodes>
            0 -1 139 -1.7694145441055298e-02</internalNodes>
          <leafValues>
            5.1494926214218140e-01 -8.9984223246574402e-02</leafValues></_>
        <_>
          <internalNodes>
            0 -1 333 -6.3579180277884007e-04</internalNodes>
          <leafValues>
            -3.6532545089721680e-01 1.2466082721948624e-01</leafValues></_>
        <_>
          <internalNodes>
            0 -1 325 -4.4638719409704208e-03</internalNodes>
          <leafValues>
            -3.6189851164817810e-01 1.2643674015998840e-01</leafValues></_>
        <_>
          <internalNodes>
            0 -1 294 -1.9743675366044044e-03</internalNodes>
          <leafValues>
            9.9368087947368622e-02 -4.3716010451316833e-01</leafValues></_>
        <_>
          <internalNodes>
            0 -1 26 7.3948048055171967e-02</internalNodes>
          <leafValues>
            -1.4254793524742126e-01 3.1682687997817993e-01</leafValues></_>
        <_>
          <internalNodes>
            0 -1 399 -1.5447791665792465e-03</internalNodes>
          <leafValues>
            3.3435741066932678e-01 -1.2370277941226959e-01</leafValues></_>
        <_>
          <internalNodes>
            0 -1 321 -7.6219704933464527e-03</internalNodes>
          <leafValues>
            -5.6545233726501465e-01 6.9055199623107910e-02</leafValues></_>
        <_>
          <internalNodes>
            0 -1 167 9.6000428311526775e-04</internalNodes>
          <leafValues>
            -9.1796010732650757e-02 4.1455462574958801e-01</leafValues></_>
        <_>
          <internalNodes>
            0 -1 69 2.0045580458827317e-04</internalNodes>
          <leafValues>
            -1.7933624982833862e-01 2.3803031444549561e-01</leafValues></_>
        <_>
          <internalNodes>
            0 -1 29 9.0757450088858604e-03</internalNodes>
          <leafValues>
            -8.3719424903392792e-02 4.8655125498771667e-01</leafValues></_>
        <_>
          <internalNodes>
            0 -1 342 2.1713771857321262e-03</internalNodes>
          <leafValues>
            6.8369247019290924e-02 -5.6693202257156372e-01</leafValues></_>
        <_>
          <internalNodes>
            0 -1 398 -1.6453914344310760e-02</internalNodes>
          <leafValues>
            4.7481688857078552e-01 -8.0855853855609894e-02</leafValues></_>
        <_>
          <internalNodes>
            0 -1 112 -1.4244548976421356e-02</internalNodes>
          <leafValues>
            8.7541621923446655e-01 -3.4091535955667496e-02</leafValues></_>
        <_>
          <internalNodes>
            0 -1 331 -1.7732445150613785e-02</internalNodes>
          <leafValues>
            5.3533816337585449e-01 -4.6253085136413574e-02</leafValues></_>
        <_>
          <internalNodes>
            0 -1 388 -1.4065124560147524e-03</internalNodes>
          <leafValues>
            2.7513456344604492e-01 -1.4902554452419281e-01</leafValues></_>
        <_>
          <internalNodes>
            0 -1 265 1.1234005214646459e-03</internalNodes>
          <leafValues>
            8.2856930792331696e-02 -4.1682147979736328e-01</leafValues></_>
        <_>
          <internalNodes>
            0 -1 203 3.5258673597127199e-04</internalNodes>
          <leafValues>
            -1.6315607726573944e-01 2.5082615017890930e-01</leafValues></_>
        <_>
          <internalNodes>
            0 -1 63 -2.2206529974937439e-02</internalNodes>
          <leafValues>
            -4.8904427886009216e-01 6.2067694962024689e-02</leafValues></_>
        <_>
          <internalNodes>
            0 -1 41 -6.7661050707101822e-03</internalNodes>
          <leafValues>
            3.0222856998443604e-01 -1.3918893039226532e-01</leafValues></_>
        <_>
          <internalNodes>
            0 -1 369 4.0528993122279644e-04</internalNodes>
          <leafValues>
            -1.7327404022216797e-01 1.9433219730854034e-01</leafValues></_>
        <_>
          <internalNodes>
            0 -1 207 -2.8262231498956680e-03</internalNodes>
          <leafValues>
            3.1819242238998413e-01 -1.0410723090171814e-01</leafValues></_>
        <_>
          <internalNodes>
            0 -1 190 1.0022802278399467e-02</internalNodes>
          <leafValues>
            -9.3625150620937347e-02 4.3970459699630737e-01</leafValues></_>
        <_>
          <internalNodes>
            0 -1 146 -1.1967474594712257e-02</internalNodes>
          <leafValues>
            -7.2453081607818604e-01 5.7898864150047302e-02</leafValues></_>
        <_>
          <internalNodes>
            0 -1 387 2.9578864574432373e-02</internalNodes>
          <leafValues>
            2.8864700347185135e-02 -8.4017491340637207e-01</leafValues></_>
        <_>
          <internalNodes>
            0 -1 280 -3.3468743786215782e-03</internalNodes>
          <leafValues>
            -7.4456685781478882e-01 3.4993853420019150e-02</leafValues></_>
        <_>
          <internalNodes>
            0 -1 394 -6.8266578018665314e-02</internalNodes>
          <leafValues>
            4.6491926908493042e-01 -7.3731884360313416e-02</leafValues></_>
        <_>
          <internalNodes>
            0 -1 312 6.8063316866755486e-03</internalNodes>
          <leafValues>
            -9.7899571061134338e-02 3.2850319147109985e-01</leafValues></_>
        <_>
          <internalNodes>
            0 -1 349 4.1624391451478004e-04</internalNodes>
          <leafValues>
            1.2084724754095078e-01 -3.1208768486976624e-01</leafValues></_>
        <_>
          <internalNodes>
            0 -1 163 8.2816148642450571e-04</internalNodes>
          <leafValues>
            -1.6647709906101227e-01 2.0442712306976318e-01</leafValues></_>
        <_>
          <internalNodes>
            0 -1 150 -2.8584124520421028e-03</internalNodes>
          <leafValues>
            3.6976453661918640e-01 -1.0609748959541321e-01</leafValues></_>
        <_>
          <internalNodes>
            0 -1 234 1.8995895516127348e-04</internalNodes>
          <leafValues>
            2.6602903008460999e-01 -1.4591892063617706e-01</leafValues></_>
        <_>
          <internalNodes>
            0 -1 237 -6.3002400565892458e-04</internalNodes>
          <leafValues>
            -6.0372424125671387e-01 7.6610155403614044e-02</leafValues></_>
        <_>
          <internalNodes>
            0 -1 95 -4.1985483840107918e-03</internalNodes>
          <leafValues>
            6.5264636278152466e-01 -7.7650986611843109e-02</leafValues></_>
        <_>
          <internalNodes>
            0 -1 296 -7.3095364496111870e-04</internalNodes>
          <leafValues>
            1.3556432723999023e-01 -2.7895745635032654e-01</leafValues></_>
        <_>
          <internalNodes>
            0 -1 390 9.1737005859613419e-03</internalNodes>
          <leafValues>
            5.7386092841625214e-02 -6.6641461849212646e-01</leafValues></_>
        <_>
          <internalNodes>
            0 -1 403 -2.3679982405155897e-03</internalNodes>
          <leafValues>
            4.7664514183998108e-01 -8.2452014088630676e-02</leafValues></_>
        <_>
          <internalNodes>
            0 -1 120 -7.1499198675155640e-03</internalNodes>
          <leafValues>
            4.1944947838783264e-01 -7.5180657207965851e-02</leafValues></_>
        <_>
          <internalNodes>
            0 -1 393 -4.4055175967514515e-03</internalNodes>
          <leafValues>
            3.6191621422767639e-01 -9.2338353395462036e-02</leafValues></_>
        <_>
          <internalNodes>
            0 -1 92 1.1964351870119572e-02</internalNodes>
          <leafValues>
            1.0290743410587311e-01 -3.5491991043090820e-01</leafValues></_>
        <_>
          <internalNodes>
            0 -1 68 -1.8287770450115204e-02</internalNodes>
          <leafValues>
            -5.4876959323883057e-01 7.4974499642848969e-02</leafValues></_>
        <_>
          <internalNodes>
            0 -1 166 1.4929627999663353e-02</internalNodes>
          <leafValues>
            -1.4401012659072876e-01 3.1503823399543762e-01</leafValues></_></weakClassifiers></_>
    <!-- stage 13 -->
    <_>
      <maxWeakCount>34</maxWeakCount>
      <stageThreshold>-7.8789240121841431e-01</stageThreshold>
      <weakClassifiers>
        <_>
          <internalNodes>
            0 -1 99 -4.7916406765580177e-03</internalNodes>
          <leafValues>
            5.6101304292678833e-01 5.3199689835309982e-02</leafValues></_>
        <_>
          <internalNodes>
            0 -1 311 -1.5950552187860012e-03</internalNodes>
          <leafValues>
            3.4060704708099365e-01 -1.6786295175552368e-01</leafValues></_>
        <_>
          <internalNodes>
            0 -1 243 2.4005109444260597e-03</internalNodes>
          <leafValues>
            -2.4996124207973480e-01 2.3112365603446960e-01</leafValues></_>
        <_>
          <internalNodes>
            0 -1 189 -8.9471852406859398e-03</internalNodes>
          <leafValues>
            6.3068640232086182e-01 -8.5933677852153778e-02</leafValues></_>
        <_>
          <internalNodes>
            0 -1 103 -1.0253861546516418e-02</internalNodes>
          <leafValues>
            7.9246270656585693e-01 -6.8165495991706848e-02</leafValues></_>
        <_>
          <internalNodes>
            0 -1 281 -4.5476906234398484e-04</internalNodes>
          <leafValues>
            -3.4875461459159851e-01 1.2729786336421967e-01</leafValues></_>
        <_>
          <internalNodes>
            0 -1 281 1.5201544738374650e-04</internalNodes>
          <leafValues>
            1.7327012121677399e-01 -3.6234590411186218e-01</leafValues></_>
        <_>
          <internalNodes>
            0 -1 392 1.7422430217266083e-02</internalNodes>
          <leafValues>
            -1.1053694039583206e-01 4.8891064524650574e-01</leafValues></_>
        <_>
          <internalNodes>
            0 -1 102 1.3035780284553766e-03</internalNodes>
          <leafValues>
            -1.1878949403762817e-01 3.2610991597175598e-01</leafValues></_>
        <_>
          <internalNodes>
            0 -1 370 -1.1676227441057563e-03</internalNodes>
          <leafValues>
            3.0576542019844055e-01 -1.7896477878093719e-01</leafValues></_>
        <_>
          <internalNodes>
            0 -1 304 6.1841043643653393e-03</internalNodes>
          <leafValues>
            6.1565261334180832e-02 -8.0955088138580322e-01</leafValues></_>
        <_>
          <internalNodes>
            0 -1 48 3.5233269445598125e-03</internalNodes>
          <leafValues>
            1.5182526409626007e-01 -2.9079723358154297e-01</leafValues></_>
        <_>
          <internalNodes>
            0 -1 95 -2.2319016352412291e-05</internalNodes>
          <leafValues>
            4.2613729834556580e-01 -1.1396514624357224e-01</leafValues></_>
        <_>
          <internalNodes>
            0 -1 228 7.7922290074639022e-05</internalNodes>
          <leafValues>
            2.5116509199142456e-01 -2.5137972831726074e-01</leafValues></_>
        <_>
          <internalNodes>
            0 -1 182 -2.9089748859405518e-03</internalNodes>
          <leafValues>
            6.1635935306549072e-01 -6.6771633923053741e-02</leafValues></_>
        <_>
          <internalNodes>
            0 -1 50 1.5312490053474903e-02</internalNodes>
          <leafValues>
            -1.0990467667579651e-01 4.8373311758041382e-01</leafValues></_>
        <_>
          <internalNodes>
            0 -1 234 -3.6165828350931406e-04</internalNodes>
          <leafValues>
            -7.3855769634246826e-01 7.2208955883979797e-02</leafValues></_>
        <_>
          <internalNodes>
            0 -1 357 1.1412993073463440e-02</internalNodes>
          <leafValues>
            8.2526490092277527e-02 -4.8008966445922852e-01</leafValues></_>
        <_>
          <internalNodes>
            0 -1 119 4.0861060842871666e-03</internalNodes>
          <leafValues>
            -9.9997535347938538e-02 4.4580653309822083e-01</leafValues></_>
        <_>
          <internalNodes>
            0 -1 22 -6.9690163945779204e-04</internalNodes>
          <leafValues>
            2.5695353746414185e-01 -1.6354475915431976e-01</leafValues></_>
        <_>
          <internalNodes>
            0 -1 224 3.8652059156447649e-03</internalNodes>
          <leafValues>
            4.9719110131263733e-02 -8.8977372646331787e-01</leafValues></_>
        <_>
          <internalNodes>
            0 -1 274 8.5544690955430269e-04</internalNodes>
          <leafValues>
            -1.2585133314132690e-01 3.9018654823303223e-01</leafValues></_>
        <_>
          <internalNodes>
            0 -1 254 4.2096702381968498e-03</internalNodes>
          <leafValues>
            -1.2481041252613068e-01 4.0176835656166077e-01</leafValues></_>
        <_>
          <internalNodes>
            0 -1 276 -9.9771970417350531e-04</internalNodes>
          <leafValues>
            -1.2737898528575897e-01 3.3695313334465027e-01</leafValues></_>
        <_>
          <internalNodes>
            0 -1 336 -4.2014915379695594e-05</internalNodes>
          <leafValues>
            1.7037601768970490e-01 -2.8935107588768005e-01</leafValues></_>
        <_>
          <internalNodes>
            0 -1 306 2.2553130984306335e-03</internalNodes>
          <leafValues>
            -1.7194546759128571e-01 2.5737679004669189e-01</leafValues></_>
        <_>
          <internalNodes>
            0 -1 251 -3.7011966109275818e-02</internalNodes>
          <leafValues>
            -3.2680049538612366e-01 1.4119376242160797e-01</leafValues></_>
        <_>
          <internalNodes>
            0 -1 18 1.0577110573649406e-02</internalNodes>
          <leafValues>
            5.8295305818319321e-02 -7.3320055007934570e-01</leafValues></_>
        <_>
          <internalNodes>
            0 -1 114 -7.5136125087738037e-03</internalNodes>
          <leafValues>
            3.2059714198112488e-01 -1.4546334743499756e-01</leafValues></_>
        <_>
          <internalNodes>
            0 -1 57 -1.2720497325062752e-02</internalNodes>
          <leafValues>
            -7.1988719701766968e-01 5.6336466223001480e-02</leafValues></_>
        <_>
          <internalNodes>
            0 -1 195 -3.4430124796926975e-03</internalNodes>
          <leafValues>
            1.9839832186698914e-01 -2.1748268604278564e-01</leafValues></_>
        <_>
          <internalNodes>
            0 -1 65 -6.3053891062736511e-03</internalNodes>
          <leafValues>
            -4.7843179106712341e-01 8.5622884333133698e-02</leafValues></_>
        <_>
          <internalNodes>
            0 -1 302 5.1561794243752956e-03</internalNodes>
          <leafValues>
            -2.0034861564636230e-01 1.9961485266685486e-01</leafValues></_>
        <_>
          <internalNodes>
            0 -1 177 -1.4070670586079359e-03</internalNodes>
          <leafValues>
            3.5001260042190552e-01 -1.1091105639934540e-01</leafValues></_></weakClassifiers></_>
    <!-- stage 14 -->
    <_>
      <maxWeakCount>37</maxWeakCount>
      <stageThreshold>-8.4552228450775146e-01</stageThreshold>
      <weakClassifiers>
        <_>
          <internalNodes>
            0 -1 341 -9.2620158102363348e-04</internalNodes>
          <leafValues>
            5.7474023103713989e-01 6.0044478625059128e-02</leafValues></_>
        <_>
          <internalNodes>
            0 -1 329 -6.3711928669363260e-04</internalNodes>
          <leafValues>
            3.7996613979339600e-01 -2.1069732308387756e-01</leafValues></_>
        <_>
          <internalNodes>
            0 -1 362 1.1518850922584534e-02</internalNodes>
          <leafValues>
            -7.4731290340423584e-02 7.5064671039581299e-01</leafValues></_>
        <_>
          <internalNodes>
            0 -1 56 -2.0061578601598740e-02</internalNodes>
          <leafValues>
            4.3211397528648376e-01 -1.5732201933860779e-01</leafValues></_>
        <_>
          <internalNodes>
            0 -1 281 1.8936677952297032e-04</internalNodes>
          <leafValues>
            1.9495780766010284e-01 -4.0135973691940308e-01</leafValues></_>
        <_>
          <internalNodes>
            0 -1 218 -1.5650911955162883e-03</internalNodes>
          <leafValues>
            4.4393461942672729e-01 -1.6836848855018616e-01</leafValues></_>
        <_>
          <internalNodes>
            0 -1 359 2.6704231277108192e-03</internalNodes>
          <leafValues>
            -1.3799034059047699e-01 4.1826131939888000e-01</leafValues></_>
        <_>
          <internalNodes>
            0 -1 88 4.2052380740642548e-03</internalNodes>
          <leafValues>
            1.1604483425617218e-01 -5.7208806276321411e-01</leafValues></_>
        <_>
          <internalNodes>
            0 -1 314 -3.4785708412528038e-03</internalNodes>
