<?xml version="1.0"?>
<opencv_storage>
<cascade>
  <stageType>BOOST</stageType>
  <featureType>HAAR</featureType>
  <height>20</height>
  <width>20</width>
  <stageParams>
    <boostType>GAB</boostType>
    <minHitRate>9.9500000476837158e-01</minHitRate>
    <maxFalseAlarm>5.0000000000000000e-01</maxFalseAlarm>
    <weightTrimRate>9.4999999999999996e-01</weightTrimRate>
    <maxDepth>1</maxDepth>
    <maxWeakCount>100</maxWeakCount></stageParams>
  <featureParams>
    <maxCatCount>0</maxCatCount>
    <featSize>1</featSize>
    <mode>BASIC</mode></featureParams>
  <stageNum>15</stageNum>
  <stages>
    <!-- stage 0 -->
    <_>
      <maxWeakCount>12</maxWeakCount>
      <stageThreshold>-9.8008757829666138e-01</stageThreshold>
      <weakClassifiers>
        <_>
          <internalNodes>
            0 -1 72 -2.0613451488316059e-03</internalNodes>
          <leafValues>
            6.6140240430831909e-01 -2.4287119507789612e-01</leafValues></_>
        <_>
          <internalNodes>
            0 -1 256 -4.5653870329260826e-03</internalNodes>
          <leafValues>
            4.7573173046112061e-01 -3.5439637303352356e-01</leafValues></_>
        <_>
          <internalNodes>
            0 -1 312 -2.0793633302673697e-04</internalNodes>
          <leafValues>
            -5.5665534734725952e-01 2.5533881783485413e-01</leafValues></_>
        <_>
          <internalNodes>
            0 -1 169 -1.7568883486092091e-03</internalNodes>
          <leafValues>
            3.6953097581863403e-01 -3.5395625233650208e-01</leafValues></_>
        <_>
          <internalNodes>
            0 -1 117 1.1939516989514232e-03</internalNodes>
          <leafValues>
            -2.4446226656436920e-01 4.0850520133972168e-01</leafValues></_>
        <_>
          <internalNodes>
            0 -1 139 -9.3783037737011909e-03</internalNodes>
          <leafValues>
            -7.2140842676162720e-01 1.4196804165840149e-01</leafValues></_>
        <_>
          <internalNodes>
            0 -1 26 -1.3609224930405617e-02</internalNodes>
          <leafValues>
            -8.2493972778320313e-01 1.1724080890417099e-01</leafValues></_>
        <_>
          <internalNodes>
            0 -1 260 -8.6352846119552851e-04</internalNodes>
          <leafValues>
            -6.2925213575363159e-01 1.2917631864547729e-01</leafValues></_>
        <_>
          <internalNodes>
            0 -1 24 1.7061080783605576e-02</internalNodes>
          <leafValues>
            1.0691988468170166e-01 -8.2496362924575806e-01</leafValues></_>
        <_>
          <internalNodes>
            0 -1 185 -2.5571589358150959e-03</internalNodes>
          <leafValues>
            3.4394347667694092e-01 -2.5929927825927734e-01</leafValues></_>
        <_>
          <internalNodes>
            0 -1 173 3.3216588199138641e-03</internalNodes>
          <leafValues>
            -2.6501992344856262e-01 4.2762705683708191e-01</leafValues></_>
        <_>
          <internalNodes>
            0 -1 163 -1.3568430440500379e-03</internalNodes>
          <leafValues>
            -6.9962233304977417e-01 1.4445954561233521e-01</leafValues></_></weakClassifiers></_>
    <!-- stage 1 -->
    <_>
      <maxWeakCount>16</maxWeakCount>
      <stageThreshold>-1.0980075597763062e+00</stageThreshold>
      <weakClassifiers>
        <_>
          <internalNodes>
            0 -1 141 1.1166967451572418e-03</internalNodes>
          <leafValues>
            -1.1701244860887527e-01 6.7455196380615234e-01</leafValues></_>
        <_>
          <internalNodes>
            0 -1 146 -1.1310223489999771e-03</internalNodes>
          <leafValues>
            3.8875624537467957e-01 -3.5542824864387512e-01</leafValues></_>
        <_>
          <internalNodes>
            0 -1 244 1.5187686076387763e-03</internalNodes>
          <leafValues>
            -4.2667520046234131e-01 2.9674646258354187e-01</leafValues></_>
        <_>
          <internalNodes>
            0 -1 175 1.0457571595907211e-02</internalNodes>
          <leafValues>
            -1.7585840821266174e-01 5.6590473651885986e-01</leafValues></_>
        <_>
          <internalNodes>
            0 -1 127 -2.3010559380054474e-02</internalNodes>
          <leafValues>
            5.4668295383453369e-01 -1.7572487890720367e-01</leafValues></_>
        <_>
          <internalNodes>
            0 -1 6 -3.6598658189177513e-03</internalNodes>
          <leafValues>
            4.3296250700950623e-01 -1.8907174468040466e-01</leafValues></_>
        <_>
          <internalNodes>
            0 -1 71 -1.6053782310336828e-03</internalNodes>
          <leafValues>
            -8.2881087064743042e-01 1.0992369800806046e-01</leafValues></_>
        <_>
          <internalNodes>
            0 -1 245 -4.7475188039243221e-03</internalNodes>
          <leafValues>
            3.7508565187454224e-01 -2.2182632982730865e-01</leafValues></_>
        <_>
          <internalNodes>
            0 -1 252 -2.2424362599849701e-02</internalNodes>
          <leafValues>
            7.8347438573837280e-01 -9.0413458645343781e-02</leafValues></_>
        <_>
          <internalNodes>
            0 -1 100 -1.7300413455814123e-03</internalNodes>
          <leafValues>
            -7.4619513750076294e-01 1.1643304675817490e-01</leafValues></_>
        <_>
          <internalNodes>
            0 -1 231 1.8958166241645813e-02</internalNodes>
          <leafValues>
            7.9966954886913300e-02 -7.2511577606201172e-01</leafValues></_>
        <_>
          <internalNodes>
            0 -1 188 -4.7603351995348930e-03</internalNodes>
          <leafValues>
            4.8717767000198364e-01 -1.8264876306056976e-01</leafValues></_>
        <_>
          <internalNodes>
            0 -1 17 -9.5041736960411072e-02</internalNodes>
          <leafValues>
            -7.0497518777847290e-01 1.3568164408206940e-01</leafValues></_>
        <_>
          <internalNodes>
            0 -1 67 -2.1464731544256210e-03</internalNodes>
          <leafValues>
            -8.2816630601882935e-01 7.7434584498405457e-02</leafValues></_>
        <_>
          <internalNodes>
            0 -1 297 -1.2375204823911190e-03</internalNodes>
          <leafValues>
            4.7707810997962952e-01 -1.7984963953495026e-01</leafValues></_>
        <_>
          <internalNodes>
            0 -1 97 -3.5157741513103247e-04</internalNodes>
          <leafValues>
            3.0567267537117004e-01 -2.4712283909320831e-01</leafValues></_></weakClassifiers></_>
    <!-- stage 2 -->
    <_>
      <maxWeakCount>16</maxWeakCount>
      <stageThreshold>-8.5685759782791138e-01</stageThreshold>
      <weakClassifiers>
        <_>
          <internalNodes>
            0 -1 279 -4.2040338739752769e-03</internalNodes>
          <leafValues>
            5.9264302253723145e-01 -6.1837457120418549e-02</leafValues></_>
        <_>
          <internalNodes>
            0 -1 214 2.2529093548655510e-03</internalNodes>
          <leafValues>
            -2.3449310660362244e-01 4.3486887216567993e-01</leafValues></_>
        <_>
          <internalNodes>
            0 -1 139 1.3168664649128914e-02</internalNodes>
          <leafValues>
            1.2156620621681213e-01 -8.5556441545486450e-01</leafValues></_>
        <_>
          <internalNodes>
            0 -1 273 -2.4586520157754421e-04</internalNodes>
          <leafValues>
            2.6498523354530334e-01 -3.1738469004631042e-01</leafValues></_>
        <_>
          <internalNodes>
            0 -1 74 2.0720946486108005e-04</internalNodes>
          <leafValues>
            1.3609084486961365e-01 -6.0493129491806030e-01</leafValues></_>
        <_>
          <internalNodes>
            0 -1 78 7.3516659904271364e-04</internalNodes>
          <leafValues>
            8.6361892521381378e-02 -5.8060657978057861e-01</leafValues></_>
        <_>
          <internalNodes>
            0 -1 159 -5.0532072782516479e-03</internalNodes>
          <leafValues>
            -7.1219182014465332e-01 1.1265330016613007e-01</leafValues></_>
        <_>
          <internalNodes>
            0 -1 36 -6.5921500325202942e-02</internalNodes>
          <leafValues>
            -7.3425626754760742e-01 9.0032324194908142e-02</leafValues></_>
        <_>
          <internalNodes>
            0 -1 162 -7.1311285719275475e-03</internalNodes>
          <leafValues>
            -7.8135222196578979e-01 8.2459188997745514e-02</leafValues></_>
        <_>
          <internalNodes>
            0 -1 23 1.0038515552878380e-02</internalNodes>
          <leafValues>
            8.7939701974391937e-02 -7.0811706781387329e-01</leafValues></_>
        <_>
          <internalNodes>
            0 -1 99 -5.0123557448387146e-03</internalNodes>
          <leafValues>
            3.4594821929931641e-01 -2.2191689908504486e-01</leafValues></_>
        <_>
          <internalNodes>
            0 -1 65 2.9883808456361294e-03</internalNodes>
          <leafValues>
            -2.1273387968540192e-01 3.6882594227790833e-01</leafValues></_>
        <_>
          <internalNodes>
            0 -1 242 8.9272484183311462e-03</internalNodes>
          <leafValues>
            -1.6899958252906799e-01 4.5016965270042419e-01</leafValues></_>
        <_>
          <internalNodes>
            0 -1 225 2.7439082041382790e-03</internalNodes>
          <leafValues>
            9.1389350593090057e-02 -7.6623672246932983e-01</leafValues></_>
        <_>
          <internalNodes>
            0 -1 260 -2.0574510563164949e-04</internalNodes>
          <leafValues>
            -4.8387882113456726e-01 1.5987661480903625e-01</leafValues></_>
        <_>
          <internalNodes>
            0 -1 309 2.2398130968213081e-03</internalNodes>
          <leafValues>
            -2.2731661796569824e-01 3.5746166110038757e-01</leafValues></_></weakClassifiers></_>
    <!-- stage 3 -->
    <_>
      <maxWeakCount>23</maxWeakCount>
      <stageThreshold>-8.9356547594070435e-01</stageThreshold>
      <weakClassifiers>
        <_>
          <internalNodes>
            0 -1 79 9.0051740698982030e-05</internalNodes>
          <leafValues>
            4.6382978558540344e-01 -3.7319588661193848e-01</leafValues></_>
        <_>
          <internalNodes>
            0 -1 131 -1.6439635306596756e-02</internalNodes>
          <leafValues>
            5.6438714265823364e-01 -1.5957546234130859e-01</leafValues></_>
        <_>
          <internalNodes>
            0 -1 304 -4.3320292024873197e-04</internalNodes>
          <leafValues>
            2.4594084918498993e-01 -3.7686002254486084e-01</leafValues></_>
        <_>
          <internalNodes>
            0 -1 53 2.2686067968606949e-03</internalNodes>
          <leafValues>
            8.5797995328903198e-02 -8.6840790510177612e-01</leafValues></_>
        <_>
          <internalNodes>
            0 -1 258 -9.8144367802888155e-04</internalNodes>
          <leafValues>
            2.9122549295425415e-01 -2.5023871660232544e-01</leafValues></_>
        <_>
          <internalNodes>
            0 -1 312 -1.0983817046508193e-03</internalNodes>
          <leafValues>
            -7.0718550682067871e-01 6.8610683083534241e-02</leafValues></_>
        <_>
          <internalNodes>
            0 -1 308 -1.1411365121603012e-03</internalNodes>
          <leafValues>
            -5.3488403558731079e-01 1.2615667283535004e-01</leafValues></_>
        <_>
          <internalNodes>
            0 -1 314 -2.1665752865374088e-03</internalNodes>
          <leafValues>
            -6.7789202928543091e-01 1.0110653191804886e-01</leafValues></_>
        <_>
          <internalNodes>
            0 -1 121 -1.3008826412260532e-02</internalNodes>
          <leafValues>
            -7.6591753959655762e-01 7.8904971480369568e-02</leafValues></_>
        <_>
          <internalNodes>
            0 -1 268 4.8695188015699387e-03</internalNodes>
          <leafValues>
            -1.6904336214065552e-01 4.7692334651947021e-01</leafValues></_>
        <_>
          <internalNodes>
            0 -1 290 -5.9307017363607883e-03</internalNodes>
          <leafValues>
            -8.7962186336517334e-01 7.9337462782859802e-02</leafValues></_>
        <_>
          <internalNodes>
            0 -1 229 -1.9519386813044548e-02</internalNodes>
          <leafValues>
            -8.6531096696853638e-01 6.4680576324462891e-02</leafValues></_>
        <_>
          <internalNodes>
            0 -1 270 -1.4862130628898740e-03</internalNodes>
          <leafValues>
            3.3221212029457092e-01 -2.1901039779186249e-01</leafValues></_>
        <_>
          <internalNodes>
            0 -1 288 -5.2374177612364292e-03</internalNodes>
          <leafValues>
            3.4105953574180603e-01 -1.6359570622444153e-01</leafValues></_>
        <_>
          <internalNodes>
            0 -1 22 -9.6682272851467133e-02</internalNodes>
          <leafValues>
            -7.0706284046173096e-01 1.0879451781511307e-01</leafValues></_>
        <_>
          <internalNodes>
            0 -1 179 -4.5659476891160011e-03</internalNodes>
          <leafValues>
            -6.4460527896881104e-01 8.1247217953205109e-02</leafValues></_>
        <_>
          <internalNodes>
            0 -1 144 1.1982548981904984e-02</internalNodes>
          <leafValues>
            5.8111295104026794e-02 -7.4641638994216919e-01</leafValues></_>
        <_>
          <internalNodes>
            0 -1 223 -4.9610072746872902e-03</internalNodes>
          <leafValues>
            -7.5465607643127441e-01 6.8171784281730652e-02</leafValues></_>
        <_>
          <internalNodes>
            0 -1 264 6.3523132121190429e-04</internalNodes>
          <leafValues>
            -1.8801678717136383e-01 3.4511309862136841e-01</leafValues></_>
        <_>
          <internalNodes>
            0 -1 85 -1.5531780198216438e-02</internalNodes>
          <leafValues>
            4.1158178448677063e-01 -1.4288027584552765e-01</leafValues></_>
        <_>
          <internalNodes>
            0 -1 171 -1.0475636459887028e-02</internalNodes>
          <leafValues>
            5.0265759229660034e-01 -1.4141984283924103e-01</leafValues></_>
        <_>
          <internalNodes>
            0 -1 80 -4.7447741962969303e-03</internalNodes>
          <leafValues>
            -6.6748261451721191e-01 1.0465985536575317e-01</leafValues></_>
        <_>
          <internalNodes>
            0 -1 170 -5.6512252194806933e-04</internalNodes>
          <leafValues>
            2.2968158125877380e-01 -2.4474605917930603e-01</leafValues></_></weakClassifiers></_>
    <!-- stage 4 -->
    <_>
      <maxWeakCount>24</maxWeakCount>
      <stageThreshold>-9.3142265081405640e-01</stageThreshold>
      <weakClassifiers>
        <_>
          <internalNodes>
            0 -1 307 3.3202930353581905e-03</internalNodes>
          <leafValues>
            -7.9513564705848694e-02 5.7805353403091431e-01</leafValues></_>
        <_>
          <internalNodes>
            0 -1 147 -1.5036699362099171e-02</internalNodes>
          <leafValues>
            5.6205111742019653e-01 -1.6124717891216278e-01</leafValues></_>
        <_>
          <internalNodes>
            0 -1 25 2.7787187136709690e-03</internalNodes>
          <leafValues>
            -1.7259369790554047e-01 4.4319030642509460e-01</leafValues></_>
        <_>
          <internalNodes>
            0 -1 11 -1.5662455931305885e-02</internalNodes>
          <leafValues>
            4.7218611836433411e-01 -1.7748695611953735e-01</leafValues></_>
        <_>
          <internalNodes>
            0 -1 291 -9.3516177730634809e-04</internalNodes>
          <leafValues>
            -5.1917570829391479e-01 1.7876353859901428e-01</leafValues></_>
        <_>
          <internalNodes>
            0 -1 70 5.4702349007129669e-02</internalNodes>
          <leafValues>
            2.7114909142255783e-02 -9.0536791086196899e-01</leafValues></_>
        <_>
          <internalNodes>
            0 -1 154 8.3500351756811142e-03</internalNodes>
          <leafValues>
            -1.8711927533149719e-01 3.4930485486984253e-01</leafValues></_>
        <_>
          <internalNodes>
            0 -1 74 1.7177377594634891e-04</internalNodes>
          <leafValues>
            1.1854946613311768e-01 -5.6906342506408691e-01</leafValues></_>
        <_>
          <internalNodes>
            0 -1 71 2.4425117298960686e-03</internalNodes>
          <leafValues>
            5.4593704640865326e-02 -8.8598096370697021e-01</leafValues></_>
        <_>
          <internalNodes>
            0 -1 4 1.7206238117069006e-03</internalNodes>
          <leafValues>
            -2.0868137478828430e-01 3.1634905934333801e-01</leafValues></_>
        <_>
          <internalNodes>
            0 -1 73 -1.3409527018666267e-02</internalNodes>
          <leafValues>
            -6.1091566085815430e-01 1.1991754174232483e-01</leafValues></_>
        <_>
          <internalNodes>
            0 -1 30 2.2300001233816147e-02</internalNodes>
          <leafValues>
            -1.5790241956710815e-01 4.5567888021469116e-01</leafValues></_>
        <_>
          <internalNodes>
            0 -1 41 -4.0287807583808899e-02</internalNodes>
          <leafValues>
            -6.9426107406616211e-01 1.0127691179513931e-01</leafValues></_>
        <_>
          <internalNodes>
            0 -1 233 -3.8820924237370491e-03</internalNodes>
          <leafValues>
            2.7650067210197449e-01 -2.1737632155418396e-01</leafValues></_>
        <_>
          <internalNodes>
            0 -1 305 9.4270166009664536e-03</internalNodes>
          <leafValues>
            -1.5713332593441010e-01 4.0097308158874512e-01</leafValues></_>
        <_>
          <internalNodes>
            0 -1 40 -3.9361296221613884e-03</internalNodes>
          <leafValues>
            3.4305870532989502e-01 -1.6831119358539581e-01</leafValues></_>
        <_>
          <internalNodes>
            0 -1 221 3.6256262101233006e-03</internalNodes>
          <leafValues>
            8.1344038248062134e-02 -6.7468625307083130e-01</leafValues></_>
        <_>
          <internalNodes>
            0 -1 201 8.0194268375635147e-03</internalNodes>
          <leafValues>
            -1.6747598350048065e-01 3.9214038848876953e-01</leafValues></_>
        <_>
          <internalNodes>
            0 -1 142 3.0604735948145390e-03</internalNodes>
          <leafValues>
            -1.8175220489501953e-01 3.2295435667037964e-01</leafValues></_>
        <_>
          <internalNodes>
            0 -1 177 -7.7201556414365768e-03</internalNodes>
          <leafValues>
            -7.8654605150222778e-01 6.6269487142562866e-02</leafValues></_>
        <_>
          <internalNodes>
            0 -1 181 3.3478415571153164e-04</internalNodes>
          <leafValues>
            1.5049630403518677e-01 -3.6509615182876587e-01</leafValues></_>
        <_>
          <internalNodes>
            0 -1 115 1.3321945443749428e-03</internalNodes>
          <leafValues>
            -1.8951106071472168e-01 3.2968333363533020e-01</leafValues></_>
        <_>
          <internalNodes>
            0 -1 261 5.2498871809802949e-05</internalNodes>
          <leafValues>
            -2.5428944826126099e-01 2.2913804650306702e-01</leafValues></_>
        <_>
          <internalNodes>
            0 -1 52 8.2303141243755817e-04</internalNodes>
          <leafValues>
            -2.3770181834697723e-01 2.4937327206134796e-01</leafValues></_></weakClassifiers></_>
    <!-- stage 5 -->
    <_>
      <maxWeakCount>25</maxWeakCount>
      <stageThreshold>-8.5757631063461304e-01</stageThreshold>
      <weakClassifiers>
        <_>
          <internalNodes>
            0 -1 134 -7.8308917582035065e-03</internalNodes>
          <leafValues>
            6.6407769918441772e-01 7.3885351419448853e-02</leafValues></_>
        <_>
          <internalNodes>
            0 -1 38 -2.6828038971871138e-04</internalNodes>
          <leafValues>
            -4.2896193265914917e-01 2.0747426152229309e-01</leafValues></_>
        <_>
          <internalNodes>
            0 -1 302 1.1596900876611471e-03</internalNodes>
          <leafValues>
            -2.3875309526920319e-01 3.0219066143035889e-01</leafValues></_>
        <_>
          <internalNodes>
            0 -1 45 2.1077655255794525e-02</internalNodes>
          <leafValues>
            8.0572769045829773e-02 -8.0349141359329224e-01</leafValues></_>
        <_>
          <internalNodes>
            0 -1 260 -1.8399112741462886e-04</internalNodes>
          <leafValues>
            -4.5675212144851685e-01 1.2620061635971069e-01</leafValues></_>
        <_>
          <internalNodes>
            0 -1 148 -2.1929389331489801e-03</internalNodes>
          <leafValues>
            2.3373188078403473e-01 -2.4040894210338593e-01</leafValues></_>
        <_>
          <internalNodes>
            0 -1 278 -7.5572724454104900e-03</internalNodes>
          <leafValues>
            -6.4035767316818237e-01 5.9170942753553391e-02</leafValues></_>
        <_>
          <internalNodes>
            0 -1 230 1.8298629671335220e-02</internalNodes>
          <leafValues>
            6.9010518491268158e-02 -8.2619553804397583e-01</leafValues></_>
        <_>
          <internalNodes>
            0 -1 324 -1.6868994571268559e-03</internalNodes>
          <leafValues>
            4.3001276254653931e-01 -1.3881385326385498e-01</leafValues></_>
        <_>
          <internalNodes>
            0 -1 318 2.9169197659939528e-03</internalNodes>
          <leafValues>
            -1.7511835694313049e-01 3.7099534273147583e-01</leafValues></_>
        <_>
          <internalNodes>
            0 -1 313 3.4701818367466331e-04</internalNodes>
          <leafValues>
            1.2588632106781006e-01 -5.4409950971603394e-01</leafValues></_>
        <_>
          <internalNodes>
            0 -1 312 3.2910769805312157e-03</internalNodes>
          <leafValues>
            5.0972715020179749e-02 -8.2597869634628296e-01</leafValues></_>
        <_>
          <internalNodes>
            0 -1 82 -8.9394310489296913e-03</internalNodes>
          <leafValues>
            -7.7840089797973633e-01 4.8910047858953476e-02</leafValues></_>
        <_>
          <internalNodes>
            0 -1 279 -4.7827325761318207e-03</internalNodes>
          <leafValues>
            2.1051280200481415e-01 -2.3316037654876709e-01</leafValues></_>
        <_>
          <internalNodes>
            0 -1 44 5.9756352129625157e-05</internalNodes>
          <leafValues>
            -2.5775492191314697e-01 2.0064625144004822e-01</leafValues></_>
        <_>
          <internalNodes>
            0 -1 67 3.0334596522152424e-03</internalNodes>
          <leafValues>
            6.1470091342926025e-02 -8.1797885894775391e-01</leafValues></_>
        <_>
          <internalNodes>
            0 -1 266 9.4107148470357060e-04</internalNodes>
          <leafValues>
            -1.7221684753894806e-01 3.2080015540122986e-01</leafValues></_>
        <_>
          <internalNodes>
            0 -1 94 -1.9629886373877525e-03</internalNodes>
          <leafValues>
            2.8819888830184937e-01 -1.9447515904903412e-01</leafValues></_>
        <_>
          <internalNodes>
            0 -1 104 -3.1999445054680109e-03</internalNodes>
          <leafValues>
            1.9929262995719910e-01 -2.8074666857719421e-01</leafValues></_>
        <_>
          <internalNodes>
            0 -1 31 -2.0425710082054138e-01</internalNodes>
          <leafValues>
            -8.0982458591461182e-01 6.0358501970767975e-02</leafValues></_>
        <_>
          <internalNodes>
            0 -1 109 -8.2070276141166687e-02</internalNodes>
          <leafValues>
            -8.4338134527206421e-01 4.5322801917791367e-02</leafValues></_>
        <_>
          <internalNodes>
            0 -1 129 2.0871590822935104e-02</internalNodes>
          <leafValues>
            -1.3499899208545685e-01 3.9373999834060669e-01</leafValues></_>
        <_>
          <internalNodes>
            0 -1 163 -8.5698533803224564e-04</internalNodes>
          <leafValues>
            -5.1686614751815796e-01 1.0150385648012161e-01</leafValues></_>
        <_>
          <internalNodes>
            0 -1 76 -4.1862586513161659e-03</internalNodes>
          <leafValues>
            -8.4577006101608276e-01 4.6428982168436050e-02</leafValues></_>
        <_>
          <internalNodes>
            0 -1 321 -4.3910867534577847e-03</internalNodes>
          <leafValues>
            3.5784369707107544e-01 -1.5002244710922241e-01</leafValues></_></weakClassifiers></_>
    <!-- stage 6 -->
    <_>
      <maxWeakCount>27</maxWeakCount>
      <stageThreshold>-9.1559189558029175e-01</stageThreshold>
      <weakClassifiers>
        <_>
          <internalNodes>
            0 -1 167 -1.0005028452724218e-03</internalNodes>
          <leafValues>
            6.4119064807891846e-01 2.2107590921223164e-03</leafValues></_>
        <_>
          <internalNodes>
            0 -1 248 -2.1615182049572468e-03</internalNodes>
          <leafValues>
            3.6033874750137329e-01 -2.1059274673461914e-01</leafValues></_>
        <_>
          <internalNodes>
            0 -1 51 -2.3604659363627434e-03</internalNodes>
          <leafValues>
            3.1640568375587463e-01 -2.1950335800647736e-01</leafValues></_>
        <_>
          <internalNodes>
            0 -1 315 3.3734380267560482e-03</internalNodes>
          <leafValues>
            -1.9246314465999603e-01 3.0740863084793091e-01</leafValues></_>
        <_>
          <internalNodes>
            0 -1 132 -3.0325699597597122e-02</internalNodes>
          <leafValues>
            -8.6399900913238525e-01 2.1682217717170715e-02</leafValues></_>
        <_>
          <internalNodes>
            0 -1 208 -1.5817754901945591e-03</internalNodes>
          <leafValues>
            3.1571596860885620e-01 -2.1163605153560638e-01</leafValues></_>
        <_>
          <internalNodes>
            0 -1 190 -3.1355558894574642e-03</internalNodes>
          <leafValues>
            3.3239588141441345e-01 -1.9564576447010040e-01</leafValues></_>
        <_>
          <internalNodes>
            0 -1 237 6.6729374229907990e-03</internalNodes>
          <leafValues>
            -1.2917079031467438e-01 4.8696434497833252e-01</leafValues></_>
        <_>
          <internalNodes>
            0 -1 159 7.7426163479685783e-03</internalNodes>
          <leafValues>
            8.4706716239452362e-02 -8.3786135911941528e-01</leafValues></_>
        <_>
          <internalNodes>
            0 -1 21 -2.8195805847644806e-02</internalNodes>
          <leafValues>
            -4.0998888015747070e-01 1.3283661007881165e-01</leafValues></_>
        <_>
          <internalNodes>
            0 -1 14 -2.9933143407106400e-02</internalNodes>
          <leafValues>
            5.0193381309509277e-01 -1.1164145171642303e-01</leafValues></_>
        <_>
          <internalNodes>
            0 -1 7 1.6771994996815920e-03</internalNodes>
          <leafValues>
            -1.4936330914497375e-01 3.7711814045906067e-01</leafValues></_>
        <_>
          <internalNodes>
            0 -1 274 7.4112555012106895e-04</internalNodes>
          <leafValues>
            -1.9485601782798767e-01 2.9626297950744629e-01</leafValues></_>
        <_>
          <internalNodes>
            0 -1 303 3.7294516805559397e-03</internalNodes>
          <leafValues>
            6.4305953681468964e-02 -9.1187691688537598e-01</leafValues></_>
        <_>
          <internalNodes>
            0 -1 66 -1.5744864940643311e-02</internalNodes>
          <leafValues>
            -7.0837181806564331e-01 6.0529340058565140e-02</leafValues></_>
        <_>
          <internalNodes>
            0 -1 253 -3.6805517971515656e-02</internalNodes>
          <leafValues>
            -5.8689326047897339e-01 8.0090962350368500e-02</leafValues></_>
        <_>
          <internalNodes>
            0 -1 298 -3.5868133418262005e-03</internalNodes>
          <leafValues>
            2.9186272621154785e-01 -1.7473722994327545e-01</leafValues></_>
        <_>
          <internalNodes>
            0 -1 101 -4.2535056127235293e-04</internalNodes>
          <leafValues>
            2.5778138637542725e-01 -1.8190237879753113e-01</leafValues></_>
        <_>
          <internalNodes>
            0 -1 74 5.4028397426009178e-04</internalNodes>
          <leafValues>
            7.9072989523410797e-02 -6.6535383462905884e-01</leafValues></_>
        <_>
          <internalNodes>
            0 -1 277 -6.7207962274551392e-04</internalNodes>
          <leafValues>
            2.4730511009693146e-01 -1.8565554916858673e-01</leafValues></_>
        <_>
          <internalNodes>
            0 -1 180 -1.7437538504600525e-01</internalNodes>
          <leafValues>
            -7.9150819778442383e-01 6.2678240239620209e-02</leafValues></_>
        <_>
          <internalNodes>
            0 -1 163 -3.8432207657024264e-04</internalNodes>
          <leafValues>
            -4.3232345581054688e-01 1.0743676126003265e-01</leafValues></_>
        <_>
          <internalNodes>
            0 -1 96 -2.9072456527501345e-03</internalNodes>
          <leafValues>
            2.5257006287574768e-01 -1.8921510875225067e-01</leafValues></_>
        <_>
          <internalNodes>
            0 -1 113 -2.1855761297047138e-03</internalNodes>
          <leafValues>
            4.0216773748397827e-01 -1.4041784405708313e-01</leafValues></_>
        <_>
          <internalNodes>
            0 -1 20 -4.5480251312255859e-02</internalNodes>
          <leafValues>
            -6.3917553424835205e-01 9.8072461783885956e-02</leafValues></_>
        <_>
          <internalNodes>
            0 -1 132 3.1270962208509445e-02</internalNodes>
          <leafValues>
            5.2897453308105469e-02 -7.9784607887268066e-01</leafValues></_>
        <_>
          <internalNodes>
            0 -1 239 5.2105762064456940e-02</internalNodes>
          <leafValues>
            -1.0463567823171616e-01 5.4492729902267456e-01</leafValues></_></weakClassifiers></_>
    <!-- stage 7 -->
    <_>
      <maxWeakCount>32</maxWeakCount>
      <stageThreshold>-8.5345965623855591e-01</stageThreshold>
      <weakClassifiers>
        <_>
          <internalNodes>
            0 -1 93 -1.2018689885735512e-02</internalNodes>
          <leafValues>
            6.5646594762802124e-01 8.5066162049770355e-02</leafValues></_>
        <_>
          <internalNodes>
            0 -1 316 -2.0663524046540260e-03</internalNodes>
          <leafValues>
            2.9249116778373718e-01 -2.0198616385459900e-01</leafValues></_>
        <_>
          <internalNodes>
            0 -1 210 5.7363335508853197e-04</internalNodes>
          <leafValues>
            -2.1463920176029205e-01 2.7305418252944946e-01</leafValues></_>
        <_>
          <internalNodes>
            0 -1 162 -6.0324072837829590e-03</internalNodes>
          <leafValues>
            -6.4596116542816162e-01 8.5328839719295502e-02</leafValues></_>
        <_>
          <internalNodes>
            0 -1 75 9.8500936292111874e-04</internalNodes>
          <leafValues>
            1.0877398401498795e-01 -4.6614229679107666e-01</leafValues></_>
        <_>
          <internalNodes>
            0 -1 291 -1.0911636054515839e-03</internalNodes>
          <leafValues>
            -6.0111576318740845e-01 3.9157267659902573e-02</leafValues></_>
        <_>
          <internalNodes>
            0 -1 46 -2.6942275464534760e-02</internalNodes>
          <leafValues>
            -7.2214841842651367e-01 6.4000710844993591e-02</leafValues></_>
        <_>
          <internalNodes>
            0 -1 88 -7.8974030911922455e-03</internalNodes>
          <leafValues>
            3.5144123435020447e-01 -1.4582897722721100e-01</leafValues></_>
        <_>
          <internalNodes>
            0 -1 43 5.2466755732893944e-04</internalNodes>
          <leafValues>
            1.2450268864631653e-01 -4.9788793921470642e-01</leafValues></_>
        <_>
          <internalNodes>
            0 -1 126 2.1820135414600372e-02</internalNodes>
          <leafValues>
            -1.4722369611263275e-01 3.8342484831809998e-01</leafValues></_>
        <_>
          <internalNodes>
            0 -1 15 1.1889259330928326e-03</internalNodes>
          <leafValues>
            -1.6270290315151215e-01 2.9660335183143616e-01</leafValues></_>
        <_>
          <internalNodes>
            0 -1 55 1.5182586386799812e-02</internalNodes>
          <leafValues>
            4.2509175837039948e-02 -7.4834877252578735e-01</leafValues></_>
        <_>
          <internalNodes>
            0 -1 122 3.0076276510953903e-02</internalNodes>
          <leafValues>
            -1.1201619356870651e-01 4.5692145824432373e-01</leafValues></_>
        <_>
          <internalNodes>
            0 -1 165 -2.3325110669247806e-04</internalNodes>
          <leafValues>
            -3.5936093330383301e-01 1.5578635036945343e-01</leafValues></_>
        <_>
          <internalNodes>
            0 -1 195 7.1421070024371147e-03</internalNodes>
          <leafValues>
            -8.1471547484397888e-02 6.0573983192443848e-01</leafValues></_>
        <_>
          <internalNodes>
            0 -1 37 2.5118235498666763e-02</internalNodes>
          <leafValues>
            8.1023342907428741e-02 -6.7700904607772827e-01</leafValues></_>
        <_>
          <internalNodes>
            0 -1 249 4.3678320944309235e-03</internalNodes>
          <leafValues>
            -2.2115345299243927e-01 1.9970358908176422e-01</leafValues></_>
        <_>
          <internalNodes>
            0 -1 48 7.1504913270473480e-02</internalNodes>
          <leafValues>
            5.5608037859201431e-02 -9.1435629129409790e-01</leafValues></_>
        <_>
          <internalNodes>
            0 -1 322 1.5450499486178160e-03</internalNodes>
          <leafValues>
            -1.5898443758487701e-01 2.9769805073738098e-01</leafValues></_>
        <_>
          <internalNodes>
            0 -1 155 5.8957831934094429e-03</internalNodes>
          <leafValues>
            -1.0362073779106140e-01 4.3400850892066956e-01</leafValues></_>
        <_>
          <internalNodes>
            0 -1 202 -6.7353388294577599e-03</internalNodes>
          <leafValues>
            3.4618467092514038e-01 -1.4176377654075623e-01</leafValues></_>
        <_>
          <internalNodes>
            0 -1 178 1.5285383909940720e-02</internalNodes>
          <leafValues>
            -1.3260717689990997e-01 3.4485974907875061e-01</leafValues></_>
        <_>
          <internalNodes>
            0 -1 184 1.8749003065750003e-03</internalNodes>
          <leafValues>
            8.0575153231620789e-02 -6.0303777456283569e-01</leafValues></_>
        <_>
          <internalNodes>
            0 -1 182 -3.4087575040757656e-03</internalNodes>
          <leafValues>
            -6.0293006896972656e-01 7.6451383531093597e-02</leafValues></_>
        <_>
          <internalNodes>
            0 -1 198 2.0060662180185318e-02</internalNodes>
          <leafValues>
            -1.1772464215755463e-01 4.4649890065193176e-01</leafValues></_>
        <_>
          <internalNodes>
            0 -1 283 -8.2316193729639053e-03</internalNodes>
          <leafValues>
            2.4727606773376465e-01 -2.0046436786651611e-01</leafValues></_>
        <_>
          <internalNodes>
            0 -1 294 -5.6516961194574833e-05</internalNodes>
          <leafValues>
            1.8491226434707642e-01 -3.0313351750373840e-01</leafValues></_>
        <_>
          <internalNodes>
            0 -1 9 -1.8572982400655746e-02</internalNodes>
          <leafValues>
            -8.8088709115982056e-01 4.4246453791856766e-02</leafValues></_>
        <_>
          <internalNodes>
            0 -1 47 -5.3935935720801353e-03</internalNodes>
          <leafValues>
            -5.9705507755279541e-01 6.4576536417007446e-02</leafValues></_>
        <_>
          <internalNodes>
            0 -1 112 -1.7317167948931456e-03</internalNodes>
          <leafValues>
            4.7265103459358215e-01 -1.1924749612808228e-01</leafValues></_>
        <_>
          <internalNodes>
            0 -1 3 -2.3178607225418091e-02</internalNodes>
          <leafValues>
            4.4093349575996399e-01 -1.0351686924695969e-01</leafValues></_>
        <_>
          <internalNodes>
            0 -1 95 -1.5592444688081741e-03</internalNodes>
          <leafValues>
            2.6183915138244629e-01 -1.7518465220928192e-01</leafValues></_></weakClassifiers></_>
    <!-- stage 8 -->
    <_>
      <maxWeakCount>32</maxWeakCount>
      <stageThreshold>-7.9598397016525269e-01</stageThreshold>
      <weakClassifiers>
        <_>
          <internalNodes>
            0 -1 226 1.0134220123291016e-02</internalNodes>
          <leafValues>
            9.0018369257450104e-02 6.7528438568115234e-01</leafValues></_>
        <_>
          <internalNodes>
            0 -1 118 1.7244617920368910e-03</internalNodes>
          <leafValues>
            -2.0347827672958374e-01 2.9976305365562439e-01</leafValues></_>
        <_>
          <internalNodes>
            0 -1 311 -1.9129746942780912e-04</internalNodes>
          <leafValues>
            -3.4608623385429382e-01 1.7496800422668457e-01</leafValues></_>
        <_>
          <internalNodes>
            0 -1 69 2.4377994239330292e-02</internalNodes>
          <leafValues>
            8.4759622812271118e-02 -6.4860922098159790e-01</leafValues></_>
        <_>
          <internalNodes>
            0 -1 79 -6.2462044297717512e-05</internalNodes>
          <leafValues>
            1.3642835617065430e-01 -3.9803072810173035e-01</leafValues></_>
        <_>
          <internalNodes>
            0 -1 189 6.6605042666196823e-03</internalNodes>
          <leafValues>
            -1.8935403227806091e-01 3.5722905397415161e-01</leafValues></_>
        <_>
          <internalNodes>
            0 -1 320 3.8537752698175609e-04</internalNodes>
          <leafValues>
            1.7412352561950684e-01 -3.8484117388725281e-01</leafValues></_>
        <_>
          <internalNodes>
            0 -1 222 -7.3003000579774380e-04</internalNodes>
          <leafValues>
            -4.7045117616653442e-01 1.1842423677444458e-01</leafValues></_>
        <_>
          <internalNodes>
            0 -1 116 -1.4221692085266113e-01</internalNodes>
          <leafValues>
            -7.0927166938781738e-01 4.0580712258815765e-02</leafValues></_>
        <_>
          <internalNodes>
            0 -1 272 -5.3658830001950264e-03</internalNodes>
          <leafValues>
            3.3816725015640259e-01 -1.6560804843902588e-01</leafValues></_>
        <_>
          <internalNodes>
            0 -1 143 3.7442315369844437e-03</internalNodes>
          <leafValues>
            1.5289206802845001e-01 -4.4332322478294373e-01</leafValues></_>
        <_>
          <internalNodes>
            0 -1 137 2.2394028492271900e-03</internalNodes>
          <leafValues>
            -2.5955176353454590e-01 1.5815480053424835e-01</leafValues></_>
        <_>
          <internalNodes>
            0 -1 228 3.7235782947391272e-03</internalNodes>
          <leafValues>
            8.6889863014221191e-02 -5.3926604986190796e-01</leafValues></_>
        <_>
          <internalNodes>
            0 -1 261 4.7740843001520261e-05</internalNodes>
          <leafValues>
            -2.5643044710159302e-01 1.9511732459068298e-01</leafValues></_>
        <_>
          <internalNodes>
            0 -1 92 9.2259813100099564e-03</internalNodes>
          <leafValues>
            -8.7479285895824432e-02 5.8076798915863037e-01</leafValues></_>
        <_>
          <internalNodes>
            0 -1 111 -6.2622572295367718e-03</internalNodes>
          <leafValues>
            5.5216902494430542e-01 -8.9766331017017365e-02</leafValues></_>
        <_>
          <internalNodes>
            0 -1 197 -5.1553812809288502e-03</internalNodes>
          <leafValues>
            3.2095313072204590e-01 -1.3703252375125885e-01</leafValues></_>
        <_>
          <internalNodes>
            0 -1 191 6.5335361286997795e-03</internalNodes>
          <leafValues>
            -1.2184489518404007e-01 4.8201915621757507e-01</leafValues></_>
        <_>
          <internalNodes>
            0 -1 259 1.0198864620178938e-03</internalNodes>
          <leafValues>
            1.1365728080272675e-01 -4.7603103518486023e-01</leafValues></_>
        <_>
          <internalNodes>
            0 -1 5 1.6362862661480904e-03</internalNodes>
          <leafValues>
            -1.8252465128898621e-01 2.5827652215957642e-01</leafValues></_>
        <_>
          <internalNodes>
            0 -1 78 -8.5711787687614560e-04</internalNodes>
          <leafValues>
            -3.9416453242301941e-01 1.2394912540912628e-01</leafValues></_>
        <_>
          <internalNodes>
            0 -1 260 -1.2706201523542404e-03</internalNodes>
          <leafValues>
            -6.4973479509353638e-01 7.6462134718894958e-02</leafValues></_>
        <_>
          <internalNodes>
            0 -1 235 4.1476916521787643e-04</internalNodes>
          <leafValues>
            1.7622162401676178e-01 -2.7185064554214478e-01</leafValues></_>
        <_>
          <internalNodes>
            0 -1 161 1.6780338482931256e-03</internalNodes>
          <leafValues>
            1.3580699265003204e-01 -3.6180341243743896e-01</leafValues></_>
        <_>
          <internalNodes>
            0 -1 319 1.5323313418775797e-03</internalNodes>
          <leafValues>
            -1.8496802449226379e-01 2.5156837701797485e-01</leafValues></_>
        <_>
          <internalNodes>
            0 -1 251 4.1702846065163612e-03</internalNodes>
          <leafValues>
            -1.2064412236213684e-01 4.0466132760047913e-01</leafValues></_>
        <_>
          <internalNodes>
            0 -1 246 -1.2295756489038467e-02</internalNodes>
          <leafValues>
            5.8813387155532837e-01 -8.2560554146766663e-02</leafValues></_>
        <_>
          <internalNodes>
            0 -1 212 -3.7948876619338989e-02</internalNodes>
          <leafValues>
            -6.9410002231597900e-01 7.9938620328903198e-02</leafValues></_>
        <_>
          <internalNodes>
            0 -1 124 -1.0901702626142651e-04</internalNodes>
          <leafValues>
            1.5896317362785339e-01 -2.8227597475051880e-01</leafValues></_>
        <_>
          <internalNodes>
            0 -1 84 2.6631460059434175e-04</internalNodes>
          <leafValues>
            1.6110947728157043e-01 -2.9391238093376160e-01</leafValues></_>
        <_>
          <internalNodes>
            0 -1 152 -1.7243935726583004e-03</internalNodes>
          <leafValues>
            -4.4607952237129211e-01 1.0911148041486740e-01</leafValues></_>
        <_>
          <internalNodes>
            0 -1 174 -3.7221347447484732e-03</internalNodes>
          <leafValues>
            3.9541330933570862e-01 -1.2226098775863647e-01</leafValues></_></weakClassifiers></_>
    <!-- stage 9 -->
    <_>
      <maxWeakCount>31</maxWeakCount>
      <stageThreshold>-7.7182316780090332e-01</stageThreshold>
      <weakClassifiers>
        <_>
          <internalNodes>
            0 -1 120 4.0886338683776557e-04</internalNodes>
          <leafValues>
            -6.3043475151062012e-02 5.1071429252624512e-01</leafValues></_>
        <_>
          <internalNodes>
            0 -1 286 2.5734379887580872e-03</internalNodes>
          <leafValues>
            -1.1465764790773392e-01 5.0319170951843262e-01</leafValues></_>
        <_>
          <internalNodes>
            0 -1 2 9.1296639293432236e-03</internalNodes>
          <leafValues>
            -1.6990461945533752e-01 3.5944876074790955e-01</leafValues></_>
        <_>
          <internalNodes>
            0 -1 254 -2.7322967071086168e-04</internalNodes>
          <leafValues>
            -4.4772812724113464e-01 1.0176085680723190e-01</leafValues></_>
        <_>
          <internalNodes>
            0 -1 145 1.2775456707458943e-04</internalNodes>
          <leafValues>
            -2.7337440848350525e-01 2.0215421915054321e-01</leafValues></_>
        <_>
          <internalNodes>
            0 -1 1 -3.1987349502742290e-03</internalNodes>
          <leafValues>
            3.8165634870529175e-01 -1.7504574358463287e-01</leafValues></_>
        <_>
          <internalNodes>
            0 -1 176 -2.9738614102825522e-04</internalNodes>
          <leafValues>
            -3.4900897741317749e-01 1.5206164121627808e-01</leafValues></_>
        <_>
          <internalNodes>
            0 -1 103 -9.4592580571770668e-03</internalNodes>
          <leafValues>
            -8.1968313455581665e-01 4.3857011944055557e-02</leafValues></_>
        <_>
          <internalNodes>
            0 -1 184 -5.4987659677863121e-04</internalNodes>
          <leafValues>
            -3.6251449584960938e-01 1.2019918859004974e-01</leafValues></_>
        <_>
          <internalNodes>
            0 -1 280 4.9481824971735477e-03</internalNodes>
          <leafValues>
            7.1821384131908417e-02 -6.4783281087875366e-01</leafValues></_>
        <_>
          <internalNodes>
            0 -1 125 -2.0219009369611740e-02</internalNodes>
          <leafValues>
            3.7616211175918579e-01 -1.3708364963531494e-01</leafValues></_>
        <_>
          <internalNodes>
            0 -1 108 -3.4147836267948151e-03</internalNodes>
          <leafValues>
            3.0799868702888489e-01 -1.5517728030681610e-01</leafValues></_>
        <_>
          <internalNodes>
            0 -1 231 1.6768814995884895e-02</internalNodes>
          <leafValues>
            6.7731283605098724e-02 -5.9864097833633423e-01</leafValues></_>
        <_>
          <internalNodes>
            0 -1 130 1.3863665983080864e-02</internalNodes>
          <leafValues>
            -7.7215865254402161e-02 5.7922178506851196e-01</leafValues></_>
        <_>
          <internalNodes>
            0 -1 39 5.3947744891047478e-03</internalNodes>
          <leafValues>
            6.0533545911312103e-02 -8.0644440650939941e-01</leafValues></_>
        <_>
          <internalNodes>
            0 -1 106 -5.4069310863269493e-05</internalNodes>
          <leafValues>
            1.4622297883033752e-01 -2.9486188292503357e-01</leafValues></_>
        <_>
          <internalNodes>
            0 -1 163 -2.3781117051839828e-03</internalNodes>
          <leafValues>
            -8.0803364515304565e-01 5.1717266440391541e-02</leafValues></_>
        <_>
          <internalNodes>
            0 -1 194 -4.9680937081575394e-03</internalNodes>
          <leafValues>
            2.8069281578063965e-01 -1.6671839356422424e-01</leafValues></_>
        <_>
          <internalNodes>
            0 -1 61 3.7811954971402884e-03</internalNodes>
          <leafValues>
            -1.3558445870876312e-01 3.3002555370330811e-01</leafValues></_>
        <_>
          <internalNodes>
            0 -1 238 6.0607522726058960e-02</internalNodes>
          <leafValues>
            -7.2990134358406067e-02 5.2215278148651123e-01</leafValues></_>
        <_>
          <internalNodes>
            0 -1 206 -1.9234494538977742e-04</internalNodes>
          <leafValues>
            -2.9718443751335144e-01 1.6902405023574829e-01</leafValues></_>
        <_>
          <internalNodes>
            0 -1 168 -4.0479660965502262e-03</internalNodes>
          <leafValues>
            2.0262113213539124e-01 -2.4031694233417511e-01</leafValues></_>
        <_>
          <internalNodes>
            0 -1 110 -2.0053038001060486e-01</internalNodes>
          <leafValues>
            -6.6152578592300415e-01 7.5238697230815887e-02</leafValues></_>
        <_>
          <internalNodes>
            0 -1 59 8.5803568363189697e-03</internalNodes>
          <leafValues>
            4.7946631908416748e-02 -7.7357661724090576e-01</leafValues></_>
        <_>
          <internalNodes>
            0 -1 135 2.4189416319131851e-02</internalNodes>
          <leafValues>
            4.5009143650531769e-02 -8.2218134403228760e-01</leafValues></_>
        <_>
          <internalNodes>
            0 -1 211 -3.5538892261683941e-03</internalNodes>
          <leafValues>
            4.0771862864494324e-01 -1.2619172036647797e-01</leafValues></_>
        <_>
          <internalNodes>
            0 -1 276 1.3879940845072269e-02</internalNodes>
          <leafValues>
            -1.0350669920444489e-01 4.4504022598266602e-01</leafValues></_>
        <_>
          <internalNodes>
            0 -1 158 -2.4697973276488483e-04</internalNodes>
          <leafValues>
            -2.7746117115020752e-01 1.7481730878353119e-01</leafValues></_>
        <_>
          <internalNodes>
            0 -1 0 -7.0142358541488647e-02</internalNodes>
          <leafValues>
            4.0833845734596252e-01 -1.1281093209981918e-01</leafValues></_>
        <_>
          <internalNodes>
            0 -1 13 2.4836212396621704e-02</internalNodes>
          <leafValues>
            -1.1405177414417267e-01 4.5310616493225098e-01</leafValues></_>
        <_>
          <internalNodes>
            0 -1 68 -1.8869959749281406e-03</internalNodes>
          <leafValues>
            3.2113045454025269e-01 -1.4211001992225647e-01</leafValues></_></weakClassifiers></_>
    <!-- stage 10 -->
    <_>
      <maxWeakCount>24</maxWeakCount>
      <stageThreshold>-8.0446976423263550e-01</stageThreshold>
      <weakClassifiers>
        <_>
          <internalNodes>
            0 -1 227 5.5771128972992301e-04</internalNodes>
          <leafValues>
            -1.0021322220563889e-01 5.3790611028671265e-01</leafValues></_>
        <_>
          <internalNodes>
            0 -1 117 1.3366243802011013e-03</internalNodes>
          <leafValues>
            -1.9388362765312195e-01 3.9702793955802917e-01</leafValues></_>
        <_>
          <internalNodes>
            0 -1 287 -5.6111449375748634e-03</internalNodes>
          <leafValues>
            5.8729803562164307e-01 -1.2856137752532959e-01</leafValues></_>
        <_>
          <internalNodes>
            0 -1 140 -1.7287213995587081e-04</internalNodes>
          <leafValues>
            -3.5143238306045532e-01 1.6782066226005554e-01</leafValues></_>
        <_>
          <internalNodes>
            0 -1 49 -8.6182430386543274e-02</internalNodes>
          <leafValues>
            -7.1662771701812744e-01 7.4187234044075012e-02</leafValues></_>
        <_>
          <internalNodes>
            0 -1 293 5.0059063360095024e-03</internalNodes>
          <leafValues>
            7.8509137034416199e-02 -7.4850749969482422e-01</leafValues></_>
        <_>
          <internalNodes>
            0 -1 192 8.8887643069028854e-03</internalNodes>
          <leafValues>
            -1.1609475314617157e-01 6.0116404294967651e-01</leafValues></_>
        <_>
          <internalNodes>
            0 -1 196 -6.5154987387359142e-03</internalNodes>
          <leafValues>
            5.7813954353332520e-01 -1.4209099113941193e-01</leafValues></_>
        <_>
          <internalNodes>
            0 -1 58 -3.0446432530879974e-02</internalNodes>
          <leafValues>
            -6.5840023756027222e-01 1.1893482506275177e-01</leafValues></_>
        <_>
          <internalNodes>
            0 -1 150 -2.0584182813763618e-02</internalNodes>
          <leafValues>
            4.4421190023422241e-01 -1.4119173586368561e-01</leafValues></_>
        <_>
          <internalNodes>
            0 -1 227 8.0587640404701233e-03</internalNodes>
          <leafValues>
            7.0631742477416992e-02 -9.3097478151321411e-01</leafValues></_>
        <_>
          <internalNodes>
            0 -1 98 7.9652611166238785e-03</internalNodes>
          <leafValues>
            -1.6856552660465240e-01 3.8221988081932068e-01</leafValues></_>
        <_>
          <internalNodes>
            0 -1 38 -7.5521820690482855e-04</internalNodes>
          <leafValues>
            -5.3988116979598999e-01 1.3201174139976501e-01</leafValues></_>
        <_>
          <internalNodes>
            0 -1 105 2.5426055071875453e-04</internalNodes>
          <leafValues>
            1.8985106050968170e-01 -3.0765455961227417e-01</leafValues></_>
        <_>
          <internalNodes>
            0 -1 133 2.3243177682161331e-02</internalNodes>
          <leafValues>
            8.7336890399456024e-02 -6.2679642438888550e-01</leafValues></_>
        <_>
          <internalNodes>
            0 -1 234 2.4778437800705433e-03</internalNodes>
          <leafValues>
            -2.2333380579948425e-01 3.3941599726676941e-01</leafValues></_>
        <_>
          <internalNodes>
            0 -1 172 1.3263121247291565e-02</internalNodes>
          <leafValues>
            -1.0683257132768631e-01 6.1984181404113770e-01</leafValues></_>
        <_>
          <internalNodes>
            0 -1 271 1.4423808082938194e-02</internalNodes>
          <leafValues>
            -1.1787033826112747e-01 4.3671897053718567e-01</leafValues></_>
        <_>
          <internalNodes>
            0 -1 312 -3.0945320031605661e-04</internalNodes>
          <leafValues>
            -5.2253979444503784e-01 1.2384559959173203e-01</leafValues></_>
        <_>
          <internalNodes>
            0 -1 199 1.3397037982940674e-03</internalNodes>
          <leafValues>
            -1.5103457868099213e-01 4.4846016168594360e-01</leafValues></_>
        <_>
          <internalNodes>
            0 -1 323 -7.6192204141989350e-04</internalNodes>
          <leafValues>
            2.8197330236434937e-01 -2.1505530178546906e-01</leafValues></_>
        <_>
          <internalNodes>
            0 -1 64 4.3038774281740189e-02</internalNodes>
          <leafValues>
            -1.3016149401664734e-01 4.6580812335014343e-01</leafValues></_>
        <_>
          <internalNodes>
            0 -1 91 -1.0440938640385866e-03</internalNodes>
          <leafValues>
            3.0742052197456360e-01 -2.5689476728439331e-01</leafValues></_>
        <_>
          <internalNodes>
            0 -1 203 6.3340924680233002e-03</internalNodes>
          <leafValues>
            -1.4255045354366302e-01 3.7790188193321228e-01</leafValues></_></weakClassifiers></_>
    <!-- stage 11 -->
    <_>
      <maxWeakCount>28</maxWeakCount>
      <stageThreshold>-8.3543348312377930e-01</stageThreshold>
      <weakClassifiers>
        <_>
          <internalNodes>
            0 -1 279 -6.4931903034448624e-03</internalNodes>
          <leafValues>
            5.9173947572708130e-01 4.1014168411493301e-02</leafValues></_>
        <_>
          <internalNodes>
            0 -1 27 1.6791989328339696e-03</internalNodes>
          <leafValues>
            -1.5314398705959320e-01 4.3611538410186768e-01</leafValues></_>
        <_>
          <internalNodes>
            0 -1 207 1.8671837460715324e-04</internalNodes>
          <leafValues>
            -2.9697433114051819e-01 2.3077525198459625e-01</leafValues></_>
        <_>
          <internalNodes>
            0 -1 205 -3.0763002112507820e-02</internalNodes>
          <leafValues>
            3.2189473509788513e-01 -2.1738801896572113e-01</leafValues></_>
        <_>
          <internalNodes>
            0 -1 84 -8.8733225129544735e-04</internalNodes>
          <leafValues>
            -5.0546252727508545e-01 1.3454723358154297e-01</leafValues></_>
        <_>
          <internalNodes>
            0 -1 145 1.5146935766097158e-04</internalNodes>
          <leafValues>
            -2.9091259837150574e-01 1.8664240837097168e-01</leafValues></_>
        <_>
          <internalNodes>
            0 -1 209 -4.6306499280035496e-03</internalNodes>
          <leafValues>
            -7.0947390794754028e-01 7.5759559869766235e-02</leafValues></_>
        <_>
          <internalNodes>
            0 -1 157 3.1118927290663123e-04</internalNodes>
          <leafValues>
            -2.0291030406951904e-01 2.7822980284690857e-01</leafValues></_>
        <_>
          <internalNodes>
            0 -1 281 2.3238798603415489e-03</internalNodes>
          <leafValues>
            7.6275140047073364e-02 -6.7368632555007935e-01</leafValues></_>
        <_>
          <internalNodes>
            0 -1 128 -4.5778877101838589e-03</internalNodes>
          <leafValues>
            3.3596357703208923e-01 -1.4589516818523407e-01</leafValues></_>
        <_>
          <internalNodes>
            0 -1 206 3.3218844328075647e-04</internalNodes>
          <leafValues>
            1.6186110675334930e-01 -3.4757053852081299e-01</leafValues></_>
        <_>
          <internalNodes>
            0 -1 224 8.2573108375072479e-03</internalNodes>
          <leafValues>
            8.4733851253986359e-02 -5.3598666191101074e-01</leafValues></_>
        <_>
          <internalNodes>
            0 -1 269 -5.1893899217247963e-04</internalNodes>
          <leafValues>
            2.6898923516273499e-01 -1.9586209952831268e-01</leafValues></_>
        <_>
          <internalNodes>
            0 -1 149 4.9980254843831062e-03</internalNodes>
          <leafValues>
            -1.1524054408073425e-01 4.7887483239173889e-01</leafValues></_>
        <_>
          <internalNodes>
            0 -1 267 -8.2941493019461632e-03</internalNodes>
          <leafValues>
            3.8288807868957520e-01 -1.3131400942802429e-01</leafValues></_>
        <_>
          <internalNodes>
            0 -1 263 5.8818645775318146e-03</internalNodes>
          <leafValues>
            6.1875216662883759e-02 -9.4538408517837524e-01</leafValues></_>
        <_>
          <internalNodes>
            0 -1 107 -6.5902501344680786e-02</internalNodes>
          <leafValues>
            -5.0713896751403809e-01 9.4227991998195648e-02</leafValues></_>
        <_>
          <internalNodes>
            0 -1 164 1.2852573767304420e-02</internalNodes>
          <leafValues>
            7.5734294950962067e-02 -6.4830875396728516e-01</leafValues></_>
        <_>
          <internalNodes>
            0 -1 213 1.2708045542240143e-03</internalNodes>
          <leafValues>
            -1.9344568252563477e-01 2.7760457992553711e-01</leafValues></_>
        <_>
          <internalNodes>
            0 -1 301 -1.1231346055865288e-02</internalNodes>
          <leafValues>
            -6.9739884138107300e-01 6.9733537733554840e-02</leafValues></_>
        <_>
          <internalNodes>
            0 -1 262 -9.0691335499286652e-03</internalNodes>
          <leafValues>
            2.9597654938697815e-01 -1.7688414454460144e-01</leafValues></_>
        <_>
          <internalNodes>
            0 -1 62 6.4541138708591461e-03</internalNodes>
          <leafValues>
            -1.5008293092250824e-01 3.2467195391654968e-01</leafValues></_>
        <_>
          <internalNodes>
            0 -1 29 -6.5926397219300270e-03</internalNodes>
          <leafValues>
            3.7410163879394531e-01 -1.2417612224817276e-01</leafValues></_>
        <_>
          <internalNodes>
            0 -1 44 1.9308857154101133e-03</internalNodes>
          <leafValues>
            8.8524095714092255e-02 -5.9989881515502930e-01</leafValues></_>
        <_>
          <internalNodes>
            0 -1 18 1.3440435286611319e-03</internalNodes>
          <leafValues>
            -1.4667493104934692e-01 3.7631300091743469e-01</leafValues></_>
        <_>
          <internalNodes>
            0 -1 19 1.4218710362911224e-02</internalNodes>
          <leafValues>
            -1.0285840183496475e-01 4.9204668402671814e-01</leafValues></_>
        <_>
          <internalNodes>
            0 -1 247 -1.0989815928041935e-03</internalNodes>
          <leafValues>
            2.6925748586654663e-01 -1.9030940532684326e-01</leafValues></_>
        <_>
          <internalNodes>
            0 -1 218 6.5172865986824036e-02</internalNodes>
          <leafValues>
            -7.8425817191600800e-02 6.8429714441299438e-01</leafValues></_></weakClassifiers></_>
    <!-- stage 12 -->
    <_>
      <maxWeakCount>28</maxWeakCount>
      <stageThreshold>-7.6747196912765503e-01</stageThreshold>
      <weakClassifiers>
        <_>
          <internalNodes>
            0 -1 160 -2.6204483583569527e-04</internalNodes>
          <leafValues>
            5.3613668680191040e-01 -1.4842300675809383e-02</leafValues></_>
        <_>
          <internalNodes>
            0 -1 90 -1.9309162162244320e-03</internalNodes>
          <leafValues>
            4.5954534411430359e-01 -1.4638686180114746e-01</leafValues></_>
        <_>
          <internalNodes>
            0 -1 243 -2.6222795713692904e-04</internalNodes>
          <leafValues>
            -3.6073252558708191e-01 2.0727014541625977e-01</leafValues></_>
        <_>
          <internalNodes>
            0 -1 308 -5.2689830772578716e-04</internalNodes>
          <leafValues>
            -4.4148388504981995e-01 1.5780682861804962e-01</leafValues></_>
        <_>
          <internalNodes>
            0 -1 34 1.2089790776371956e-02</internalNodes>
          <leafValues>
            -1.4620277285575867e-01 6.5207982063293457e-01</leafValues></_>
        <_>
          <internalNodes>
            0 -1 71 -1.6190753085538745e-03</internalNodes>
          <leafValues>
            -7.7629208564758301e-01 1.2437138706445694e-01</leafValues></_>
        <_>
          <internalNodes>
            0 -1 10 1.4490387402474880e-02</internalNodes>
          <leafValues>
            -9.7113594412803650e-02 6.9241285324096680e-01</leafValues></_>
        <_>
          <internalNodes>
            0 -1 56 6.5122735686600208e-03</internalNodes>
          <leafValues>
            4.7784887254238129e-02 -9.8908549547195435e-01</leafValues></_>
        <_>
          <internalNodes>
            0 -1 282 -1.2780615361407399e-04</internalNodes>
          <leafValues>
            2.1841049194335938e-01 -2.6332083344459534e-01</leafValues></_>
        <_>
          <internalNodes>
            0 -1 299 3.4035514108836651e-03</internalNodes>
          <leafValues>
            7.7016584575176239e-02 -6.4820903539657593e-01</leafValues></_>
        <_>
          <internalNodes>
            0 -1 89 6.7746434360742569e-03</internalNodes>
          <leafValues>
            -9.5009207725524902e-02 5.9059810638427734e-01</leafValues></_>
        <_>
          <internalNodes>
            0 -1 97 -5.6788872461766005e-04</internalNodes>
          <leafValues>
            3.2873788475990295e-01 -1.8444301187992096e-01</leafValues></_>
        <_>
          <internalNodes>
            0 -1 50 1.0333381942473352e-04</internalNodes>
          <leafValues>
            1.3283000886440277e-01 -3.9193427562713623e-01</leafValues></_>
        <_>
          <internalNodes>
            0 -1 182 3.8775997236371040e-03</internalNodes>
          <leafValues>
            7.3717363178730011e-02 -6.9962203502655029e-01</leafValues></_>
        <_>
          <internalNodes>
            0 -1 227 2.1413299255073071e-03</internalNodes>
          <leafValues>
            -1.9686956703662872e-01 2.8821766376495361e-01</leafValues></_>
        <_>
          <internalNodes>
            0 -1 232 5.8838762342929840e-03</internalNodes>
          <leafValues>
            -8.6096197366714478e-02 6.3736033439636230e-01</leafValues></_>
        <_>
          <internalNodes>
            0 -1 295 1.0345998452976346e-03</internalNodes>
          <leafValues>
            -1.3590559363365173e-01 3.6267510056495667e-01</leafValues></_>
        <_>
          <internalNodes>
            0 -1 325 7.5358559843152761e-04</internalNodes>
          <leafValues>
            -1.4819611608982086e-01 3.5007807612419128e-01</leafValues></_>
        <_>
          <internalNodes>
            0 -1 165 -1.9956887990701944e-04</internalNodes>
          <leafValues>
            -3.7336787581443787e-01 1.4882606267929077e-01</leafValues></_>
        <_>
          <internalNodes>
            0 -1 216 -1.9677124917507172e-02</internalNodes>
          <leafValues>
            8.5188049077987671e-01 -6.9240182638168335e-02</leafValues></_>
        <_>
          <internalNodes>
            0 -1 60 3.0284598469734192e-03</internalNodes>
          <leafValues>
            9.1653913259506226e-02 -7.4282306432723999e-01</leafValues></_>
        <_>
          <internalNodes>
            0 -1 114 6.9082523696124554e-03</internalNodes>
          <leafValues>
            -1.0820881277322769e-01 5.5121725797653198e-01</leafValues></_>
        <_>
          <internalNodes>
            0 -1 291 -2.0667510107159615e-03</internalNodes>
          <leafValues>
            -7.0144218206405640e-01 8.1071548163890839e-02</leafValues></_>
        <_>
          <internalNodes>
            0 -1 300 -2.1561700850725174e-03</internalNodes>
          <leafValues>
            3.4673649072647095e-01 -1.8374596536159515e-01</leafValues></_>
        <_>
          <internalNodes>
            0 -1 288 3.9390972815454006e-03</internalNodes>
          <leafValues>
            -1.3342487812042236e-01 4.7655117511749268e-01</leafValues></_>
        <_>
          <internalNodes>
            0 -1 257 -2.5808535516262054e-02</internalNodes>
          <leafValues>
            -6.1298733949661255e-01 9.1652631759643555e-02</leafValues></_>
        <_>
          <internalNodes>
            0 -1 136 2.3286035284399986e-02</internalNodes>
          <leafValues>
            4.1266977787017822e-02 -8.6637204885482788e-01</leafValues></_>
        <_>
          <internalNodes>
            0 -1 296 8.1783980131149292e-03</internalNodes>
          <leafValues>
            -1.2849004566669464e-01 4.1117250919342041e-01</leafValues></_></weakClassifiers></_>
    <!-- stage 13 -->
    <_>
      <maxWeakCount>24</maxWeakCount>
      <stageThreshold>-7.1189594268798828e-01</stageThreshold>
      <weakClassifiers>
        <_>
          <internalNodes>
            0 -1 210 3.1433158437721431e-04</internalNodes>
          <leafValues>
            -1.0619468986988068e-02 5.5238097906112671e-01</leafValues></_>
        <_>
          <internalNodes>
            0 -1 310 8.8001659605652094e-04</internalNodes>
          <leafValues>
            -3.3133292198181152e-01 2.5840392708778381e-01</leafValues></_>
        <_>
          <internalNodes>
            0 -1 255 -5.9206585865467787e-04</internalNodes>
          <leafValues>
            -4.9123460054397583e-01 1.4707379043102264e-01</leafValues></_>
        <_>
          <internalNodes>
            0 -1 240 -5.4658805020153522e-03</internalNodes>
          <leafValues>
            3.4547838568687439e-01 -1.9512155652046204e-01</leafValues></_>
        <_>
          <internalNodes>
            0 -1 292 -5.1151798106729984e-03</internalNodes>
          <leafValues>
            -9.2793112993240356e-01 6.7354306578636169e-02</leafValues></_>
        <_>
          <internalNodes>
            0 -1 123 6.9710869865957648e-05</internalNodes>
          <leafValues>
            1.6312071681022644e-01 -3.3790251612663269e-01</leafValues></_>
        <_>
          <internalNodes>
            0 -1 102 7.1267206221818924e-03</internalNodes>
          <leafValues>
            -1.3146886229515076e-01 6.7849999666213989e-01</leafValues></_>
        <_>
          <internalNodes>
            0 -1 151 -8.1041373778134584e-04</internalNodes>
          <leafValues>
            3.4599700570106506e-01 -1.8753550946712494e-01</leafValues></_>
        <_>
          <internalNodes>
            0 -1 75 1.8170650582760572e-03</internalNodes>
          <leafValues>
            8.1172131001949310e-02 -6.5768080949783325e-01</leafValues></_>
        <_>
          <internalNodes>
            0 -1 28 -1.2553317937999964e-03</internalNodes>
          <leafValues>
            3.7197315692901611e-01 -2.0468123257160187e-01</leafValues></_>
        <_>
          <internalNodes>
            0 -1 63 3.6107474006712437e-03</internalNodes>
          <leafValues>
            -1.7688536643981934e-01 3.7467631697654724e-01</leafValues></_>
        <_>
          <internalNodes>
            0 -1 217 1.2697432190179825e-02</internalNodes>
          <leafValues>
            8.3186157047748566e-02 -9.6768647432327271e-01</leafValues></_>
        <_>
          <internalNodes>
            0 -1 12 1.2244639219716191e-03</internalNodes>
          <leafValues>
            -2.3418708145618439e-01 2.9395771026611328e-01</leafValues></_>
        <_>
          <internalNodes>
            0 -1 220 6.4403377473354340e-04</internalNodes>
          <leafValues>
            -2.0349773764610291e-01 3.1748545169830322e-01</leafValues></_>
        <_>
          <internalNodes>
            0 -1 215 -1.1174356564879417e-02</internalNodes>
          <leafValues>
            -7.5939261913299561e-01 9.9775023758411407e-02</leafValues></_>
        <_>
          <internalNodes>
            0 -1 318 4.7819912433624268e-03</internalNodes>
          <leafValues>
            -1.4664576947689056e-01 5.3804087638854980e-01</leafValues></_>
        <_>
          <internalNodes>
            0 -1 219 -8.6473077535629272e-03</internalNodes>
          <leafValues>
            3.3323115110397339e-01 -1.7079868912696838e-01</leafValues></_>
        <_>
          <internalNodes>
            0 -1 183 2.4255216121673584e-02</internalNodes>
          <leafValues>
            7.7004045248031616e-02 -7.0124757289886475e-01</leafValues></_>
        <_>
          <internalNodes>
            0 -1 186 -5.5423812009394169e-03</internalNodes>
          <leafValues>
            -4.9953719973564148e-01 1.3141761720180511e-01</leafValues></_>
        <_>
          <internalNodes>
            0 -1 81 -4.2323786765336990e-03</internalNodes>
          <leafValues>
            -5.1385188102722168e-01 1.2036725878715515e-01</leafValues></_>
        <_>
          <internalNodes>
            0 -1 306 -6.3010025769472122e-03</internalNodes>
          <leafValues>
            3.7642100453376770e-01 -1.8594706058502197e-01</leafValues></_>
        <_>
          <internalNodes>
            0 -1 187 -1.8018826376646757e-03</internalNodes>
          <leafValues>
            4.0767136216163635e-01 -1.6356344521045685e-01</leafValues></_>
        <_>
          <internalNodes>
            0 -1 83 7.7113829553127289e-02</internalNodes>
          <leafValues>
            -8.7119840085506439e-02 6.7161053419113159e-01</leafValues></_>
        <_>
          <internalNodes>
            0 -1 153 9.4529595226049423e-03</internalNodes>
          <leafValues>
            -7.9432182013988495e-02 6.2043797969818115e-01</leafValues></_></weakClassifiers></_>
    <!-- stage 14 -->
    <_>
      <maxWeakCount>30</maxWeakCount>
      <stageThreshold>-9.2457443475723267e-01</stageThreshold>
      <weakClassifiers>
        <_>
          <internalNodes>
            0 -1 200 7.4416538700461388e-03</internalNodes>
          <leafValues>
            1.4612868428230286e-01 6.9451695680618286e-01</leafValues></_>
        <_>
          <internalNodes>
            0 -1 138 4.6961354091763496e-03</internalNodes>
          <leafValues>
            -1.9348549842834473e-01 3.3576601743698120e-01</leafValues></_>
        <_>
          <internalNodes>
            0 -1 317 -3.8309521041810513e-03</internalNodes>
          <leafValues>
            3.9542740583419800e-01 -1.4213000237941742e-01</leafValues></_>
        <_>
          <internalNodes>
            0 -1 236 -2.8823257889598608e-03</internalNodes>
          <leafValues>
            4.7537329792976379e-01 -1.5678663551807404e-01</leafValues></_>
        <_>
          <internalNodes>
            0 -1 250 -4.2969076894223690e-03</internalNodes>
          <leafValues>
            2.0049768686294556e-01 -3.3574461936950684e-01</leafValues></_>
        <_>
          <internalNodes>
            0 -1 193 9.0768132358789444e-03</internalNodes>
          <leafValues>
            -1.3002485036849976e-01 5.3132259845733643e-01</leafValues></_>
        <_>
          <internalNodes>
            0 -1 35 -2.2676263004541397e-02</internalNodes>
          <leafValues>
            7.5836771726608276e-01 -8.6762040853500366e-02</leafValues></_>
        <_>
          <internalNodes>
            0 -1 119 2.3765251040458679e-02</internalNodes>
          <leafValues>
            1.1603735387325287e-01 -6.6658943891525269e-01</leafValues></_>
        <_>
          <internalNodes>
            0 -1 156 -3.7823284510523081e-03</internalNodes>
          <leafValues>
            3.2883933186531067e-01 -1.9307072460651398e-01</leafValues></_>
        <_>
          <internalNodes>
            0 -1 33 -4.9538772553205490e-02</internalNodes>
          <leafValues>
            -5.9291833639144897e-01 9.9219895899295807e-02</leafValues></_>
        <_>
          <internalNodes>
            0 -1 32 2.2546067833900452e-02</internalNodes>
          <leafValues>
            1.1881625652313232e-01 -5.1303565502166748e-01</leafValues></_>
        <_>
          <internalNodes>
            0 -1 44 -1.1368509876774624e-04</internalNodes>
          <leafValues>
            -4.0181526541709900e-01 1.6708564758300781e-01</leafValues></_>
        <_>
          <internalNodes>
            0 -1 43 4.1114183841273189e-04</internalNodes>
          <leafValues>
            1.2651625275611877e-01 -5.2230852842330933e-01</leafValues></_>
        <_>
          <internalNodes>
            0 -1 87 1.1369400890544057e-03</internalNodes>
          <leafValues>
            -1.3069972395896912e-01 4.4580063223838806e-01</leafValues></_>
        <_>
          <internalNodes>
            0 -1 265 1.7064739018678665e-02</internalNodes>
          <leafValues>
            -8.4410049021244049e-02 6.1128848791122437e-01</leafValues></_>
        <_>
          <internalNodes>
            0 -1 241 -2.0191664807498455e-03</internalNodes>
          <leafValues>
            2.5600841641426086e-01 -2.4371525645256042e-01</leafValues></_>
        <_>
          <internalNodes>
            0 -1 56 6.1957426369190216e-03</internalNodes>
          <leafValues>
            6.1388216912746429e-02 -9.5140171051025391e-01</leafValues></_>
        <_>
          <internalNodes>
            0 -1 57 -2.6100394316017628e-03</internalNodes>
          <leafValues>
            2.2701010107994080e-01 -2.5157305598258972e-01</leafValues></_>
        <_>
          <internalNodes>
            0 -1 86 -2.0163815468549728e-02</internalNodes>
          <leafValues>
            3.8539549708366394e-01 -1.4333459734916687e-01</leafValues></_>
        <_>
          <internalNodes>
            0 -1 54 3.1492419540882111e-02</internalNodes>
          <leafValues>
            1.0220193117856979e-01 -6.5496325492858887e-01</leafValues></_>
        <_>
          <internalNodes>
            0 -1 77 1.7739873379468918e-02</internalNodes>
          <leafValues>
            -9.0017348527908325e-02 7.0421546697616577e-01</leafValues></_>
        <_>
          <internalNodes>
            0 -1 16 -2.4017475545406342e-02</internalNodes>
          <leafValues>
            -6.1672770977020264e-01 9.5556072890758514e-02</leafValues></_>
        <_>
          <internalNodes>
            0 -1 204 8.5005839355289936e-04</internalNodes>
          <leafValues>
            -1.6270028054714203e-01 3.2886108756065369e-01</leafValues></_>
        <_>
          <internalNodes>
            0 -1 285 -1.7529916949570179e-03</internalNodes>
          <leafValues>
            4.3100753426551819e-01 -1.3027818500995636e-01</leafValues></_>
        <_>
          <internalNodes>
            0 -1 289 1.2247362174093723e-03</internalNodes>
          <leafValues>
            -2.4124492704868317e-01 3.1227451562881470e-01</leafValues></_>
        <_>
          <internalNodes>
            0 -1 284 1.5608888119459152e-02</internalNodes>
          <leafValues>
            -1.3228632509708405e-01 4.8835992813110352e-01</leafValues></_>
        <_>
          <internalNodes>
            0 -1 275 -1.9184898119419813e-03</internalNodes>
          <leafValues>
            3.0352714657783508e-01 -2.0186546444892883e-01</leafValues></_>
        <_>
          <internalNodes>
            0 -1 42 -1.4165395498275757e-01</internalNodes>
          <leafValues>
            -7.8531497716903687e-01 8.3193555474281311e-02</leafValues></_>
        <_>
          <internalNodes>
            0 -1 8 -4.2035505175590515e-02</internalNodes>
          <leafValues>
            5.7037621736526489e-01 -1.1882901936769485e-01</leafValues></_>
        <_>
          <internalNodes>
            0 -1 166 5.5952720344066620e-02</internalNodes>
          <leafValues>
            8.1607550382614136e-02 -8.2397729158401489e-01</leafValues></_></weakClassifiers></_></stages>
  <features>
    <_>
      <rects>
        <_>
          0 1 20 6 -1.</_>
        <_>
          0 4 20 3 2.</_></rects>
      <tilted>0</tilted></_>
    <_>
      <rects>
        <_>
          0 11 4 1 -1.</_>
        <_>
          2 11 2 1 2.</_></rects>
      <tilted>0</tilted></_>
    <_>
      <rects>
        <_>
          0 11 6 2 -1.</_>
        <_>
          3 11 3 2 2.</_></rects>
      <tilted>0</tilted></_>
    <_>
      <rects>
        <_>
          1 5 9 2 -1.</_>
        <_>
          4 5 3 2 3.</_></rects>
      <tilted>0</tilted></_>
    <_>
      <rects>
        <_>
          1 6 3 2 -1.</_>
        <_>
          2 6 1 2 3.</_></rects>
      <tilted>0</tilted></_>
    <_>
      <rects>
        <_>
          1 7 2 2 -1.</_>
        <_>
          2 7 1 2 2.</_></rects>
      <tilted>0</tilted></_>
    <_>
      <rects>
        <_>
          1 7 2 6 -1.</_>
        <_>
          1 7 1 3 2.</_>
        <_>
          2 10 1 3 2.</_></rects>
      <tilted>0</tilted></_>
    <_>
      <rects>
        <_>
          1 8 3 1 -1.</_>
        <_>
          2 8 1 1 3.</_></rects>
      <tilted>0</tilted></_>
    <_>
      <rects>
        <_>
          1 8 6 10 -1.</_>
        <_>
          1 8 3 5 2.</_>
        <_>
          4 13 3 5 2.</_></rects>
      <tilted>0</tilted></_>
    <_>
      <rects>
        <_>
          1 8 12 1 -1.</_>
        <_>
          7 8 6 1 2.</_></rects>
      <tilted>0</tilted></_>
    <_>
      <rects>
        <_>
          1 10 6 1 -1.</_>
        <_>
          3 10 2 1 3.</_></rects>
      <tilted>0</tilted></_>
    <_>
      <rects>
        <_>
          1 11 4 4 -1.</_>
        <_>
          3 11 2 4 2.</_></rects>
      <tilted>0</tilted></_>
    <_>
      <rects>
        <_>
          1 14 6 1 -1.</_>
        <_>
          4 14 3 1 2.</_></rects>
      <tilted>0</tilted></_>
    <_>
      <rects>
        <_>
          2 2 11 4 -1.</_>
        <_>
          2 4 11 2 2.</_></rects>
      <tilted>0</tilted></_>
    <_>
      <rects>
        <_>
          2 4 4 12 -1.</_>
        <_>
          2 4 2 6 2.</_>
        <_>
          4 10 2 6 2.</_></rects>
      <tilted>0</tilted></_>
    <_>
      <rects>
        <_>
          2 7 2 4 -1.</_>
        <_>
          2 7 1 2 2.</_>
        <_>
          3 9 1 2 2.</_></rects>
      <tilted>0</tilted></_>
    <_>
      <rects>
        <_>
          2 7 8 3 -1.</_>
        <_>
          6 7 4 3 2.</_></rects>
      <tilted>0</tilted></_>
    <_>
      <rects>
        <_>
          2 7 16 7 -1.</_>
        <_>
          10 7 8 7 2.</_></rects>
      <tilted>0</tilted></_>
    <_>
      <rects>
        <_>
          2 8 1 6 -1.</_>
        <_>
          2 11 1 3 2.</_></rects>
      <tilted>0</tilted></_>
    <_>
      <rects>
        <_>
          2 8 4 6 -1.</_>
        <_>
          2 8 2 3 2.</_>
        <_>
          4 11 2 3 2.</_></rects>
      <tilted>0</tilted></_>
    <_>
      <rects>
        <_>
          2 8 15 3 -1.</_>
        <_>
          7 8 5 3 3.</_></rects>
      <tilted>0</tilted></_>
    <_>
      <rects>
        <_>
          2 8 16 4 -1.</_>
        <_>
          10 8 8 4 2.</_></rects>
      <tilted>0</tilted></_>
    <_>
      <rects>
        <_>
          2 8 17 6 -1.</_>
        <_>
          2 11 17 3 2.</_></rects>
      <tilted>0</tilted></_>
    <_>
      <rects>
        <_>
          2 9 8 1 -1.</_>
        <_>
          6 9 4 1 2.</_></rects>
      <tilted>0</tilted></_>
    <_>
      <rects>
        <_>
          2 9 12 1 -1.</_>
        <_>
          8 9 6 1 2.</_></rects>
      <tilted>0</tilted></_>
    <_>
      <rects>
        <_>
          2 10 2 2 -1.</_>
        <_>
          3 10 1 2 2.</_></rects>
      <tilted>0</tilted></_>
    <_>
      <rects>
        <_>
          2 10 12 1 -1.</_>
        <_>
          6 10 4 1 3.</_></rects>
      <tilted>0</tilted></_>
    <_>
      <rects>
        <_>
          2 11 2 1 -1.</_>
        <_>
          3 11 1 1 2.</_></rects>
      <tilted>0</tilted></_>
    <_>
      <rects>
        <_>
          2 12 3 1 -1.</_>
        <_>
          3 12 1 1 3.</_></rects>
      <tilted>0</tilted></_>
    <_>
      <rects>
        <_>
          2 13 4 6 -1.</_>
        <_>
          2 13 2 3 2.</_>
        <_>
          4 16 2 3 2.</_></rects>
      <tilted>0</tilted></_>
    <_>
      <rects>
        <_>
          3 4 6 5 -1.</_>
        <_>
          5 4 2 5 3.</_></rects>
      <tilted>0</tilted></_>
    <_>
      <rects>
        <_>
          3 4 8 14 -1.</_>
        <_>
          3 11 8 7 2.</_></rects>
      <tilted>0</tilted></_>
    <_>
      <rects>
        <_>
          3 5 2 9 -1.</_>
        <_>
          3 8 2 3 3.</_></rects>
      <tilted>0</tilted></_>
    <_>
      <rects>
        <_>
          3 5 13 9 -1.</_>
        <_>
          3 8 13 3 3.</_></rects>
      <tilted>0</tilted></_>
    <_>
      <rects>
        <_>
          3 6 6 1 -1.</_>
        <_>
          5 6 2 1 3.</_></rects>
      <tilted>0</tilted></_>
    <_>
      <rects>
        <_>
          3 6 6 2 -1.</_>
        <_>
          5 6 2 2 3.</_></rects>
      <tilted>0</tilted></_>
    <_>
      <rects>
        <_>
          3 7 15 6 -1.</_>
        <_>
          8 7 5 6 3.</_></rects>
      <tilted>0</tilted></_>
    <_>
      <rects>
        <_>
          3 7 10 4 -1.</_>
        <_>
          3 9 10 2 2.</_></rects>
      <tilted>0</tilted></_>
    <_>
      <rects>
        <_>
          3 8 1 3 -1.</_>
        <_>
          3 9 1 1 3.</_></rects>
      <tilted>0</tilted></_>
    <_>
      <rects>
        <_>
          3 8 2 3 -1.</_>
        <_>
          3 9 2 1 3.</_></rects>
      <tilted>0</tilted></_>
    <_>
      <rects>
        <_>
          3 8 4 2 -1.</_>
        <_>
          5 8 2 2 2.</_></rects>
      <tilted>0</tilted></_>
    <_>
      <rects>
        <_>
          3 8 12 4 -1.</_>
        <_>
          7 8 4 4 3.</_></rects>
      <tilted>0</tilted></_>
    <_>
      <rects>
        <_>
          3 8 13 8 -1.</_>
        <_>
          3 12 13 4 2.</_></rects>
      <tilted>0</tilted></_>
    <_>
      <rects>
        <_>
          3 9 1 2 -1.</_>
        <_>
          3 10 1 1 2.</_></rects>
      <tilted>0</tilted></_>
    <_>
      <rects>
        <_>
          3 9 1 3 -1.</_>
        <_>
          3 10 1 1 3.</_></rects>
      <tilted>0</tilted></_>
    <_>
      <rects>
        <_>
          3 9 6 3 -1.</_>
        <_>
          6 9 3 3 2.</_></rects>
      <tilted>0</tilted></_>
    <_>
      <rects>
        <_>
          3 9 6 5 -1.</_>
        <_>
          6 9 3 5 2.</_></rects>
      <tilted>0</tilted></_>
    <_>
      <rects>
        <_>
          3 9 5 3 -1.</_>
        <_>
          3 10 5 1 3.</_></rects>
      <tilted>0</tilted></_>
    <_>
      <rects>
        <_>
          3 9 14 4 -1.</_>
        <_>
          10 9 7 4 2.</_></rects>
      <tilted>0</tilted></_>
    <_>
      <rects>
        <_>
          3 9 14 6 -1.</_>
        <_>
          10 9 7 6 2.</_></rects>
      <tilted>0</tilted></_>
    <_>
      <rects>
        <_>
          3 10 1 2 -1.</_>
        <_>
          3 11 1 1 2.</_></rects>
      <tilted>0</tilted></_>
    <_>
      <rects>
        <_>
          3 10 1 4 -1.</_>
        <_>
          3 12 1 2 2.</_></rects>
      <tilted>0</tilted></_>
    <_>
      <rects>
        <_>
          3 10 2 4 -1.</_>
        <_>
          4 10 1 4 2.</_></rects>
      <tilted>0</tilted></_>
    <_>
      <rects>
        <_>
          3 10 2 2 -1.</_>
        <_>
          3 11 2 1 2.</_></rects>
      <tilted>0</tilted></_>
    <_>
      <rects>
        <_>
          3 10 6 6 -1.</_>
        <_>
          5 10 2 6 3.</_></rects>
      <tilted>0</tilted></_>
    <_>
      <rects>
        <_>
          3 10 6 2 -1.</_>
        <_>
          6 10 3 2 2.</_></rects>
      <tilted>0</tilted></_>
    <_>
      <rects>
        <_>
          3 11 3 1 -1.</_>
        <_>
          4 11 1 1 3.</_></rects>
      <tilted>0</tilted></_>
    <_>
      <rects>
        <_>
          3 11 2 6 -1.</_>
        <_>
          3 13 2 2 3.</_></rects>
      <tilted>0</tilted></_>
    <_>
      <rects>
        <_>
          3 11 6 4 -1.</_>
        <_>
          5 11 2 4 3.</_></rects>
      <tilted>0</tilted></_>
    <_>
      <rects>
        <_>
          3 11 6 1 -1.</_>
        <_>
          6 11 3 1 2.</_></rects>
      <tilted>0</tilted></_>
    <_>
      <rects>
        <_>
          3 11 3 2 -1.</_>
        <_>
          3 12 3 1 2.</_></rects>
      <tilted>0</tilted></_>
    <_>
      <rects>
        <_>
          3 17 10 2 -1.</_>
        <_>
          3 17 5 1 2.</_>
        <_>
          8 18 5 1 2.</_></rects>
      <tilted>0</tilted></_>
    <_>
      <rects>
        <_>
          4 4 3 6 -1.</_>
        <_>
          5 4 1 6 3.</_></rects>
      <tilted>0</tilted></_>
    <_>
      <rects>
        <_>
          4 6 3 2 -1.</_>
        <_>
          5 6 1 2 3.</_></rects>
      <tilted>0</tilted></_>
    <_>
      <rects>
        <_>
          4 6 5 12 -1.</_>
        <_>
          4 10 5 4 3.</_></rects>
      <tilted>0</tilted></_>
    <_>
      <rects>
        <_>
          4 7 3 2 -1.</_>
        <_>
          5 7 1 2 3.</_></rects>
      <tilted>0</tilted></_>
    <_>
      <rects>
        <_>
          4 8 1 8 -1.</_>
        <_>
          4 12 1 4 2.</_></rects>
      <tilted>0</tilted></_>
    <_>
      <rects>
        <_>
          4 9 1 3 -1.</_>
        <_>
          4 10 1 1 3.</_></rects>
      <tilted>0</tilted></_>
    <_>
      <rects>
        <_>
          4 9 1 6 -1.</_>
        <_>
          4 11 1 2 3.</_></rects>
      <tilted>0</tilted></_>
    <_>
      <rects>
        <_>
          4 9 9 2 -1.</_>
        <_>
          7 9 3 2 3.</_></rects>
      <tilted>0</tilted></_>
    <_>
      <rects>
        <_>
          4 9 14 3 -1.</_>
        <_>
          11 9 7 3 2.</_></rects>
      <tilted>0</tilted></_>
    <_>
      <rects>
        <_>
          4 10 1 3 -1.</_>
        <_>
          4 11 1 1 3.</_></rects>
      <tilted>0</tilted></_>
    <_>
      <rects>
        <_>
          4 10 1 6 -1.</_>
        <_>
          4 13 1 3 2.</_></rects>
      <tilted>0</tilted></_>
    <_>
      <rects>
        <_>
          4 10 14 1 -1.</_>
        <_>
          11 10 7 1 2.</_></rects>
      <tilted>0</tilted></_>
    <_>
      <rects>
        <_>
          4 11 1 2 -1.</_>
        <_>
          4 12 1 1 2.</_></rects>
      <tilted>0</tilted></_>
    <_>
      <rects>
        <_>
          4 11 2 2 -1.</_>
        <_>
          5 11 1 2 2.</_></rects>
      <tilted>0</tilted></_>
    <_>
      <rects>
        <_>
          4 11 2 3 -1.</_>
        <_>
          4 12 2 1 3.</_></rects>
      <tilted>0</tilted></_>
    <_>
      <rects>
        <_>
          4 11 4 6 -1.</_>
        <_>
          4 11 2 3 2.</_>
        <_>
          6 14 2 3 2.</_></rects>
      <tilted>0</tilted></_>
    <_>
      <rects>
        <_>
          4 12 2 1 -1.</_>
        <_>
          5 12 1 1 2.</_></rects>
      <tilted>0</tilted></_>
    <_>
      <rects>
        <_>
          4 12 1 2 -1.</_>
        <_>
          4 13 1 1 2.</_></rects>
      <tilted>0</tilted></_>
    <_>
      <rects>
        <_>
          4 12 3 3 -1.</_>
        <_>
          4 13 3 1 3.</_></rects>
      <tilted>0</tilted></_>
    <_>
      <rects>
        <_>
          4 12 4 3 -1.</_>
        <_>
          4 13 4 1 3.</_></rects>
      <tilted>0</tilted></_>
    <_>
      <rects>
        <_>
          4 12 5 2 -1.</_>
        <_>
          4 13 5 1 2.</_></rects>
      <tilted>0</tilted></_>
    <_>
      <rects>
        <_>
          4 12 11 8 -1.</_>
        <_>
          4 16 11 4 2.</_></rects>
      <tilted>0</tilted></_>
    <_>
      <rects>
        <_>
          4 13 2 1 -1.</_>
        <_>
          5 13 1 1 2.</_></rects>
      <tilted>0</tilted></_>
    <_>
      <rects>
        <_>
          4 13 9 2 -1.</_>
        <_>
          7 13 3 2 3.</_></rects>
      <tilted>0</tilted></_>
    <_>
      <rects>
        <_>
          4 14 9 3 -1.</_>
        <_>
          7 14 3 3 3.</_></rects>
      <tilted>0</tilted></_>
    <_>
      <rects>
        <_>
          5 2 1 2 -1.</_>
        <_>
          5 3 1 1 2.</_></rects>
      <tilted>0</tilted></_>
    <_>
      <rects>
        <_>
          5 4 4 3 -1.</_>
        <_>
          7 4 2 3 2.</_></rects>
      <tilted>0</tilted></_>
    <_>
      <rects>
        <_>
          5 6 2 4 -1.</_>
        <_>
          6 6 1 4 2.</_></rects>
      <tilted>0</tilted></_>
    <_>
      <rects>
        <_>
          5 7 3 1 -1.</_>
        <_>
          6 7 1 1 3.</_></rects>
      <tilted>0</tilted></_>
    <_>
      <rects>
        <_>
          5 7 1 4 -1.</_>
        <_>
          5 9 1 2 2.</_></rects>
      <tilted>0</tilted></_>
    <_>
      <rects>
        <_>
          5 7 1 8 -1.</_>
        <_>
          5 11 1 4 2.</_></rects>
      <tilted>0</tilted></_>
    <_>
      <rects>
        <_>
          5 7 6 6 -1.</_>
        <_>
          5 7 3 3 2.</_>
        <_>
          8 10 3 3 2.</_></rects>
      <tilted>0</tilted></_>
    <_>
      <rects>
        <_>
          5 8 1 4 -1.</_>
        <_>
          5 10 1 2 2.</_></rects>
      <tilted>0</tilted></_>
    <_>
      <rects>
        <_>
          5 8 1 6 -1.</_>
        <_>
          5 10 1 2 3.</_></rects>
      <tilted>0</tilted></_>
    <_>
      <rects>
        <_>
          5 8 3 3 -1.</_>
        <_>
          6 8 1 3 3.</_></rects>
      <tilted>0</tilted></_>
    <_>
      <rects>
        <_>
          5 9 1 2 -1.</_>
        <_>
          5 10 1 1 2.</_></rects>
      <tilted>0</tilted></_>
    <_>
      <rects>
        <_>
          5 9 8 4 -1.</_>
        <_>
          5 9 4 2 2.</_>
        <_>
          9 11 4 2 2.</_></rects>
      <tilted>0</tilted></_>
    <_>
      <rects>
        <_>
          5 10 4 4 -1.</_>
        <_>
          5 10 2 2 2.</_>
        <_>
          7 12 2 2 2.</_></rects>
      <tilted>0</tilted></_>
    <_>
      <rects>
        <_>
          5 11 1 3 -1.</_>
        <_>
          5 12 1 1 3.</_></rects>
      <tilted>0</tilted></_>
    <_>
      <rects>
        <_>
          5 11 2 2 -1.</_>
        <_>
          5 11 1 1 2.</_>
        <_>
          6 12 1 1 2.</_></rects>
      <tilted>0</tilted></_>
    <_>
      <rects>
        <_>
          5 11 4 4 -1.</_>
        <_>
          5 11 2 2 2.</_>
        <_>
          7 13 2 2 2.</_></rects>
      <tilted>0</tilted></_>
    <_>
      <rects>
        <_>
          5 12 2 4 -1.</_>
        <_>
          6 12 1 4 2.</_></rects>
      <tilted>0</tilted></_>
    <_>
      <rects>
        <_>
          5 12 4 4 -1.</_>
        <_>
          5 14 4 2 2.</_></rects>
      <tilted>0</tilted></_>
    <_>
      <rects>
        <_>
          5 13 2 1 -1.</_>
        <_>
          6 13 1 1 2.</_></rects>
      <tilted>0</tilted></_>
    <_>
      <rects>
        <_>
          5 13 1 2 -1.</_>
        <_>
          5 14 1 1 2.</_></rects>
      <tilted>0</tilted></_>
    <_>
      <rects>
        <_>
          6 4 10 11 -1.</_>
        <_>
          11 4 5 11 2.</_></rects>
      <tilted>0</tilted></_>
    <_>
      <rects>
        <_>
          6 6 3 3 -1.</_>
        <_>
          7 6 1 3 3.</_></rects>
      <tilted>0</tilted></_>
    <_>
      <rects>
        <_>
          6 6 12 6 -1.</_>
        <_>
          10 6 4 6 3.</_></rects>
      <tilted>0</tilted></_>
    <_>
      <rects>
        <_>
          6 6 10 12 -1.</_>
        <_>
          6 12 10 6 2.</_></rects>
      <tilted>0</tilted></_>
    <_>
      <rects>
        <_>
          6 7 2 3 -1.</_>
        <_>
          7 7 1 3 2.</_></rects>
      <tilted>0</tilted></_>
    <_>
      <rects>
        <_>
          6 8 2 1 -1.</_>
        <_>
          7 8 1 1 2.</_></rects>
      <tilted>0</tilted></_>
    <_>
      <rects>
        <_>
          6 8 2 2 -1.</_>
        <_>
          7 8 1 2 2.</_></rects>
      <tilted>0</tilted></_>
    <_>
      <rects>
        <_>
          6 8 1 6 -1.</_>
        <_>
          6 10 1 2 3.</_></rects>
      <tilted>0</tilted></_>
    <_>
      <rects>
        <_>
          6 8 2 4 -1.</_>
        <_>
          6 8 1 2 2.</_>
        <_>
          7 10 1 2 2.</_></rects>
      <tilted>0</tilted></_>
    <_>
      <rects>
        <_>
          6 8 8 10 -1.</_>
        <_>
          6 13 8 5 2.</_></rects>
      <tilted>0</tilted></_>
    <_>
      <rects>
        <_>
          6 9 2 1 -1.</_>
        <_>
          7 9 1 1 2.</_></rects>
      <tilted>0</tilted></_>
    <_>
      <rects>
        <_>
          6 9 2 2 -1.</_>
        <_>
          7 9 1 2 2.</_></rects>
      <tilted>0</tilted></_>
    <_>
      <rects>
        <_>
          6 9 12 2 -1.</_>
        <_>
          10 9 4 2 3.</_></rects>
      <tilted>0</tilted></_>
    <_>
      <rects>
        <_>
          6 10 2 1 -1.</_>
        <_>
          7 10 1 1 2.</_></rects>
      <tilted>0</tilted></_>
    <_>
      <rects>
        <_>
          6 10 12 1 -1.</_>
        <_>
          10 10 4 1 3.</_></rects>
      <tilted>0</tilted></_>
    <_>
      <rects>
        <_>
          6 11 6 4 -1.</_>
        <_>
          8 11 2 4 3.</_></rects>
      <tilted>0</tilted></_>
    <_>
      <rects>
        <_>
          6 14 1 2 -1.</_>
        <_>
          6 15 1 1 2.</_></rects>
      <tilted>0</tilted></_>
    <_>
      <rects>
        <_>
          6 14 2 2 -1.</_>
        <_>
          6 15 2 1 2.</_></rects>
      <tilted>0</tilted></_>
    <_>
      <rects>
        <_>
          6 14 12 2 -1.</_>
        <_>
          10 14 4 2 3.</_></rects>
      <tilted>0</tilted></_>
    <_>
      <rects>
        <_>
          6 16 9 4 -1.</_>
        <_>
          6 18 9 2 2.</_></rects>
      <tilted>0</tilted></_>
    <_>
      <rects>
        <_>
          7 1 4 6 -1.</_>
        <_>
          7 4 4 3 2.</_></rects>
      <tilted>0</tilted></_>
    <_>
      <rects>
        <_>
          7 2 3 4 -1.</_>
        <_>
          7 4 3 2 2.</_></rects>
      <tilted>0</tilted></_>
    <_>
      <rects>
        <_>
          7 2 3 9 -1.</_>
        <_>
          7 5 3 3 3.</_></rects>
      <tilted>0</tilted></_>
    <_>
      <rects>
        <_>
          7 2 13 2 -1.</_>
        <_>
          7 3 13 1 2.</_></rects>
      <tilted>0</tilted></_>
    <_>
      <rects>
        <_>
          7 6 4 6 -1.</_>
        <_>
          7 6 2 3 2.</_>
        <_>
          9 9 2 3 2.</_></rects>
      <tilted>0</tilted></_>
    <_>
      <rects>
        <_>
          7 6 6 4 -1.</_>
        <_>
          9 6 2 4 3.</_></rects>
      <tilted>0</tilted></_>
    <_>
      <rects>
        <_>
          7 6 5 6 -1.</_>
        <_>
          7 8 5 2 3.</_></rects>
      <tilted>0</tilted></_>
    <_>
      <rects>
        <_>
          7 7 4 4 -1.</_>
        <_>
          7 7 2 2 2.</_>
        <_>
          9 9 2 2 2.</_></rects>
      <tilted>0</tilted></_>
    <_>
      <rects>
        <_>
          7 7 6 4 -1.</_>
        <_>
          10 7 3 4 2.</_></rects>
      <tilted>0</tilted></_>
    <_>
      <rects>
        <_>
          7 7 7 4 -1.</_>
        <_>
          7 9 7 2 2.</_></rects>
      <tilted>0</tilted></_>
    <_>
      <rects>
        <_>
          7 8 1 6 -1.</_>
        <_>
          7 10 1 2 3.</_></rects>
      <tilted>0</tilted></_>
    <_>
      <rects>
        <_>
          7 8 3 3 -1.</_>
        <_>
          8 8 1 3 3.</_></rects>
      <tilted>0</tilted></_>
    <_>
      <rects>
        <_>
          7 8 6 2 -1.</_>
        <_>
          10 8 3 2 2.</_></rects>
      <tilted>0</tilted></_>
    <_>
      <rects>
        <_>
          7 9 1 2 -1.</_>
        <_>
          7 10 1 1 2.</_></rects>
      <tilted>0</tilted></_>
    <_>
      <rects>
        <_>
          7 9 3 1 -1.</_>
        <_>
          8 9 1 1 3.</_></rects>
      <tilted>0</tilted></_>
    <_>
      <rects>
        <_>
          7 9 4 4 -1.</_>
        <_>
          7 9 2 2 2.</_>
        <_>
          9 11 2 2 2.</_></rects>
      <tilted>0</tilted></_>
    <_>
      <rects>
        <_>
          7 9 6 1 -1.</_>
        <_>
          10 9 3 1 2.</_></rects>
      <tilted>0</tilted></_>
    <_>
      <rects>
        <_>
          7 9 6 2 -1.</_>
        <_>
          10 9 3 2 2.</_></rects>
      <tilted>0</tilted></_>
    <_>
      <rects>
        <_>
          7 10 1 3 -1.</_>
        <_>
          7 11 1 1 3.</_></rects>
      <tilted>0</tilted></_>
    <_>
      <rects>
        <_>
          7 10 1 4 -1.</_>
        <_>
          7 12 1 2 2.</_></rects>
      <tilted>0</tilted></_>
    <_>
      <rects>
        <_>
          7 10 6 2 -1.</_>
        <_>
          9 10 2 2 3.</_></rects>
      <tilted>0</tilted></_>
    <_>
      <rects>
        <_>
          7 11 1 4 -1.</_>
        <_>
          7 13 1 2 2.</_></rects>
      <tilted>0</tilted></_>
    <_>
      <rects>
        <_>
          7 11 6 1 -1.</_>
        <_>
          9 11 2 1 3.</_></rects>
      <tilted>0</tilted></_>
    <_>
      <rects>
        <_>
          7 11 6 4 -1.</_>
        <_>
          9 11 2 4 3.</_></rects>
      <tilted>0</tilted></_>
    <_>
      <rects>
        <_>
          7 12 1 2 -1.</_>
        <_>
          7 13 1 1 2.</_></rects>
      <tilted>0</tilted></_>
    <_>
      <rects>
        <_>
          7 14 2 2 -1.</_>
        <_>
          7 15 2 1 2.</_></rects>
      <tilted>0</tilted></_>
    <_>
      <rects>
        <_>
          8 2 2 6 -1.</_>
        <_>
          8 4 2 2 3.</_></rects>
      <tilted>0</tilted></_>
    <_>
      <rects>
        <_>
          8 3 4 4 -1.</_>
        <_>
          8 5 4 2 2.</_></rects>
      <tilted>0</tilted></_>
    <_>
      <rects>
        <_>
          8 3 6 2 -1.</_>
        <_>
          8 4 6 1 2.</_></rects>
      <tilted>0</tilted></_>
    <_>
      <rects>
        <_>
          8 3 7 3 -1.</_>
        <_>
          8 4 7 1 3.</_></rects>
      <tilted>0</tilted></_>
    <_>
      <rects>
        <_>
          8 4 1 2 -1.</_>
        <_>
          8 5 1 1 2.</_></rects>
      <tilted>0</tilted></_>
    <_>
      <rects>
        <_>
          8 5 1 3 -1.</_>
        <_>
          8 6 1 1 3.</_></rects>
      <tilted>0</tilted></_>
    <_>
      <rects>
        <_>
          8 6 4 3 -1.</_>
        <_>
          8 7 4 1 3.</_></rects>
      <tilted>0</tilted></_>
    <_>
      <rects>
        <_>
          8 7 2 2 -1.</_>
        <_>
          8 7 1 1 2.</_>
        <_>
          9 8 1 1 2.</_></rects>
      <tilted>0</tilted></_>
    <_>
      <rects>
        <_>
          8 7 1 4 -1.</_>
        <_>
          8 9 1 2 2.</_></rects>
      <tilted>0</tilted></_>
    <_>
      <rects>
        <_>
          8 7 5 3 -1.</_>
        <_>
          8 8 5 1 3.</_></rects>
      <tilted>0</tilted></_>
    <_>
      <rects>
        <_>
          8 8 1 3 -1.</_>
        <_>
          8 9 1 1 3.</_></rects>
      <tilted>0</tilted></_>
    <_>
      <rects>
        <_>
          8 8 6 2 -1.</_>
        <_>
          11 8 3 2 2.</_></rects>
      <tilted>0</tilted></_>
    <_>
      <rects>
        <_>
          8 9 1 3 -1.</_>
        <_>
          8 10 1 1 3.</_></rects>
      <tilted>0</tilted></_>
    <_>
      <rects>
        <_>
          8 9 9 4 -1.</_>
        <_>
          11 9 3 4 3.</_></rects>
      <tilted>0</tilted></_>
    <_>
      <rects>
        <_>
          8 10 2 1 -1.</_>
        <_>
          9 10 1 1 2.</_></rects>
