<?xml version="1.0"?>
<opencv_storage>
<cascade>
  <stageType>BOOST</stageType>
  <featureType>HAAR</featureType>
  <height>20</height>
  <width>20</width>
  <stageParams>
    <boostType>GAB</boostType>
    <minHitRate>9.9500000476837158e-01</minHitRate>
    <maxFalseAlarm>5.0000000000000000e-01</maxFalseAlarm>
    <weightTrimRate>9.4999999999999996e-01</weightTrimRate>
    <maxDepth>1</maxDepth>
    <maxWeakCount>100</maxWeakCount></stageParams>
  <featureParams>
    <maxCatCount>0</maxCatCount>
    <featSize>1</featSize>
    <mode>BASIC</mode></featureParams>
  <stageNum>15</stageNum>
  <stages>
    <!-- stage 0 -->
    <_>
      <maxWeakCount>1</maxWeakCount>
      <stageThreshold>6.1681795120239258e-01</stageThreshold>
      <weakClassifiers>
        <_>
          <internalNodes>
            0 -1 65 4.7879066551104188e-04</internalNodes>
          <leafValues>
            -9.6844184398651123e-01 6.1681795120239258e-01</leafValues></_></weakClassifiers></_>
    <!-- stage 1 -->
    <_>
      <maxWeakCount>3</maxWeakCount>
      <stageThreshold>-6.6678412258625031e-02</stageThreshold>
      <weakClassifiers>
        <_>
          <internalNodes>
            0 -1 65 2.2107474505901337e-03</internalNodes>
          <leafValues>
            7.8106820583343506e-01 -9.5486599206924438e-01</leafValues></_>
        <_>
          <internalNodes>
            0 -1 54 8.5825484711676836e-04</internalNodes>
          <leafValues>
            4.1962513327598572e-01 -9.6082961559295654e-01</leafValues></_>
        <_>
          <internalNodes>
            0 -1 20 -7.0857303217053413e-04</internalNodes>
          <leafValues>
            -9.7960013151168823e-01 4.6856248378753662e-01</leafValues></_></weakClassifiers></_>
    <!-- stage 2 -->
    <_>
      <maxWeakCount>3</maxWeakCount>
      <stageThreshold>-2.6135650277137756e-01</stageThreshold>
      <weakClassifiers>
        <_>
          <internalNodes>
            0 -1 38 4.2470722110010684e-04</internalNodes>
          <leafValues>
            6.0475057363510132e-01 -9.5555555820465088e-01</leafValues></_>
        <_>
          <internalNodes>
            0 -1 51 -3.7495265132747591e-04</internalNodes>
          <leafValues>
            -9.5541077852249146e-01 4.3112486600875854e-01</leafValues></_>
        <_>
          <internalNodes>
            0 -1 67 8.6534197907894850e-04</internalNodes>
          <leafValues>
            2.6307415962219238e-01 -9.4786918163299561e-01</leafValues></_></weakClassifiers></_>
    <!-- stage 3 -->
    <_>
      <maxWeakCount>3</maxWeakCount>
      <stageThreshold>-2.1821215748786926e-01</stageThreshold>
      <weakClassifiers>
        <_>
          <internalNodes>
            0 -1 51 8.3966663805767894e-04</internalNodes>
          <leafValues>
            5.5402928590774536e-01 -9.8557692766189575e-01</leafValues></_>
        <_>
          <internalNodes>
            0 -1 53 -3.8514251355081797e-04</internalNodes>
          <leafValues>
            -9.5201188325881958e-01 3.9789915084838867e-01</leafValues></_>
        <_>
          <internalNodes>
            0 -1 39 1.6480169142596424e-04</internalNodes>
          <leafValues>
            -9.4029986858367920e-01 1.7977043986320496e-01</leafValues></_></weakClassifiers></_>
    <!-- stage 4 -->
    <_>
      <maxWeakCount>5</maxWeakCount>
      <stageThreshold>-4.6504354476928711e-01</stageThreshold>
      <weakClassifiers>
        <_>
          <internalNodes>
            0 -1 49 -3.1976314494386315e-04</internalNodes>
          <leafValues>
            -9.1631799936294556e-01 5.8341187238693237e-01</leafValues></_>
        <_>
          <internalNodes>
            0 -1 50 9.6186075825244188e-04</internalNodes>
          <leafValues>
            3.3646324276924133e-01 -7.9965102672576904e-01</leafValues></_>
        <_>
          <internalNodes>
            0 -1 22 7.4237323133274913e-05</internalNodes>
          <leafValues>
            -7.9782885313034058e-01 2.8392115235328674e-01</leafValues></_>
        <_>
          <internalNodes>
            0 -1 43 -2.9004500247538090e-03</internalNodes>
          <leafValues>
            5.8117449283599854e-01 -3.5567772388458252e-01</leafValues></_>
        <_>
          <internalNodes>
            0 -1 22 1.5021794242784381e-03</internalNodes>
          <leafValues>
            1.8656778335571289e-01 -9.0296167135238647e-01</leafValues></_></weakClassifiers></_>
    <!-- stage 5 -->
    <_>
      <maxWeakCount>7</maxWeakCount>
      <stageThreshold>-5.0919717550277710e-01</stageThreshold>
      <weakClassifiers>
        <_>
          <internalNodes>
            0 -1 34 -8.7404419900849462e-05</internalNodes>
          <leafValues>
            -8.7246376276016235e-01 4.8824834823608398e-01</leafValues></_>
        <_>
          <internalNodes>
            0 -1 82 5.7591928634792566e-04</internalNodes>
          <leafValues>
            2.2471775114536285e-01 -8.4857577085494995e-01</leafValues></_>
        <_>
          <internalNodes>
            0 -1 71 4.6161840145941824e-05</internalNodes>
          <leafValues>
            -8.4062784910202026e-01 1.8780247867107391e-01</leafValues></_>
        <_>
          <internalNodes>
            0 -1 5 8.0453872215002775e-04</internalNodes>
          <leafValues>
            -3.1126603484153748e-01 5.8969104290008545e-01</leafValues></_>
        <_>
          <internalNodes>
            0 -1 20 6.1649910639971495e-04</internalNodes>
          <leafValues>
            2.1070669591426849e-01 -8.7684541940689087e-01</leafValues></_>
        <_>
          <internalNodes>
            0 -1 7 -3.7143874214962125e-04</internalNodes>
          <leafValues>
            6.1839717626571655e-01 -3.2724291086196899e-01</leafValues></_>
        <_>
          <internalNodes>
            0 -1 18 1.6185268759727478e-04</internalNodes>
          <leafValues>
            -5.6709152460098267e-01 3.0692490935325623e-01</leafValues></_></weakClassifiers></_>
    <!-- stage 6 -->
    <_>
      <maxWeakCount>9</maxWeakCount>
      <stageThreshold>-7.0603621006011963e-01</stageThreshold>
      <weakClassifiers>
        <_>
          <internalNodes>
            0 -1 37 1.7395757604390383e-03</internalNodes>
          <leafValues>
            4.6870896220207214e-01 -8.6031746864318848e-01</leafValues></_>
        <_>
          <internalNodes>
            0 -1 64 8.0372970842290670e-05</internalNodes>
          <leafValues>
            3.0776646733283997e-01 -6.6928094625473022e-01</leafValues></_>
        <_>
          <internalNodes>
            0 -1 5 9.1563235037028790e-04</internalNodes>
          <leafValues>
            -3.0772227048873901e-01 6.5096294879913330e-01</leafValues></_>
        <_>
          <internalNodes>
            0 -1 57 3.8423843216150999e-04</internalNodes>
          <leafValues>
            2.7861934900283813e-01 -6.4583343267440796e-01</leafValues></_>
        <_>
          <internalNodes>
            0 -1 26 4.3843046296387911e-04</internalNodes>
          <leafValues>
            -2.4073100090026855e-01 7.5756293535232544e-01</leafValues></_>
        <_>
          <internalNodes>
            0 -1 26 -1.6386341303586960e-04</internalNodes>
          <leafValues>
            6.5214920043945313e-01 -3.8031035661697388e-01</leafValues></_>
        <_>
          <internalNodes>
            0 -1 36 1.0716682299971581e-03</internalNodes>
          <leafValues>
            2.4992801249027252e-01 -8.2108038663864136e-01</leafValues></_>
        <_>
          <internalNodes>
            0 -1 41 5.6779699662001804e-05</internalNodes>
          <leafValues>
            -7.2343492507934570e-01 2.2075735032558441e-01</leafValues></_>
        <_>
          <internalNodes>
            0 -1 96 8.3541724598035216e-04</internalNodes>
          <leafValues>
            -3.1639593839645386e-01 6.1818695068359375e-01</leafValues></_></weakClassifiers></_>
    <!-- stage 7 -->
    <_>
      <maxWeakCount>9</maxWeakCount>
      <stageThreshold>-4.9876615405082703e-01</stageThreshold>
      <weakClassifiers>
        <_>
          <internalNodes>
            0 -1 29 2.2887400700710714e-04</internalNodes>
          <leafValues>
            -3.8757395744323730e-01 5.5197507143020630e-01</leafValues></_>
        <_>
          <internalNodes>
            0 -1 3 -2.8841610765084624e-04</internalNodes>
          <leafValues>
            5.9741723537445068e-01 -2.4718964099884033e-01</leafValues></_>
        <_>
          <internalNodes>
            0 -1 70 3.6002986598759890e-04</internalNodes>
          <leafValues>
            2.0628753304481506e-01 -8.9851081371307373e-01</leafValues></_>
        <_>
          <internalNodes>
            0 -1 12 4.3520709732547402e-04</internalNodes>
          <leafValues>
            -2.6011300086975098e-01 7.1529495716094971e-01</leafValues></_>
        <_>
          <internalNodes>
            0 -1 12 -1.8570476095192134e-04</internalNodes>
          <leafValues>
            4.9814757704734802e-01 -3.6144429445266724e-01</leafValues></_>
        <_>
          <internalNodes>
            0 -1 17 7.5241510057821870e-04</internalNodes>
          <leafValues>
            2.0884779095649719e-01 -8.9942580461502075e-01</leafValues></_>
        <_>
          <internalNodes>
            0 -1 45 -1.2262064265087247e-03</internalNodes>
          <leafValues>
            6.4137417078018188e-01 -2.9312941431999207e-01</leafValues></_>
        <_>
          <internalNodes>
            0 -1 90 1.4584239397663623e-04</internalNodes>
          <leafValues>
            2.0282481610774994e-01 -8.6872476339340210e-01</leafValues></_>
        <_>
          <internalNodes>
            0 -1 9 -9.3956605996936560e-04</internalNodes>
          <leafValues>
            6.9422549009323120e-01 -2.5814327597618103e-01</leafValues></_></weakClassifiers></_>
    <!-- stage 8 -->
    <_>
      <maxWeakCount>8</maxWeakCount>
      <stageThreshold>-8.6559462547302246e-01</stageThreshold>
      <weakClassifiers>
        <_>
          <internalNodes>
            0 -1 56 3.7396679545054212e-05</internalNodes>
          <leafValues>
            -7.2727274894714355e-01 4.5814979076385498e-01</leafValues></_>
        <_>
          <internalNodes>
            0 -1 78 1.6866621444933116e-04</internalNodes>
          <leafValues>
            2.5154018402099609e-01 -7.9923433065414429e-01</leafValues></_>
        <_>
          <internalNodes>
            0 -1 99 -4.0286045987159014e-04</internalNodes>
          <leafValues>
            5.2795416116714478e-01 -3.2705500721931458e-01</leafValues></_>
        <_>
          <internalNodes>
            0 -1 94 -1.4867477584630251e-03</internalNodes>
          <leafValues>
            6.2138086557388306e-01 -2.8260573744773865e-01</leafValues></_>
        <_>
          <internalNodes>
            0 -1 87 1.0194984497502446e-04</internalNodes>
          <leafValues>
            -6.2434971332550049e-01 2.8757312893867493e-01</leafValues></_>
        <_>
          <internalNodes>
            0 -1 2 -2.0019826479256153e-03</internalNodes>
          <leafValues>
            6.1148923635482788e-01 -2.7903580665588379e-01</leafValues></_>
        <_>
          <internalNodes>
            0 -1 6 7.2395021561533213e-04</internalNodes>
          <leafValues>
            -2.6508772373199463e-01 6.7347931861877441e-01</leafValues></_>
        <_>
          <internalNodes>
            0 -1 23 -4.0798645932227373e-04</internalNodes>
          <leafValues>
            -8.7760627269744873e-01 2.0284941792488098e-01</leafValues></_></weakClassifiers></_>
    <!-- stage 9 -->
    <_>
      <maxWeakCount>10</maxWeakCount>
      <stageThreshold>-1.1045218706130981e+00</stageThreshold>
      <weakClassifiers>
        <_>
          <internalNodes>
            0 -1 33 -7.8215118264779449e-05</internalNodes>
          <leafValues>
            -7.9259258508682251e-01 4.3519312143325806e-01</leafValues></_>
        <_>
          <internalNodes>
            0 -1 97 6.8594561889767647e-03</internalNodes>
          <leafValues>
            -1.7580285668373108e-01 7.4687367677688599e-01</leafValues></_>
        <_>
          <internalNodes>
            0 -1 60 4.0066961082629859e-04</internalNodes>
          <leafValues>
            -2.9938000440597534e-01 5.8878254890441895e-01</leafValues></_>
        <_>
          <internalNodes>
            0 -1 61 -7.9525365435983986e-05</internalNodes>
          <leafValues>
            -5.2378624677658081e-01 3.6008965969085693e-01</leafValues></_>
        <_>
          <internalNodes>
            0 -1 73 1.7350383568555117e-03</internalNodes>
          <leafValues>
            -2.2991380095481873e-01 7.2657954692840576e-01</leafValues></_>
        <_>
          <internalNodes>
            0 -1 73 -8.4805412916466594e-04</internalNodes>
          <leafValues>
            5.0090116262435913e-01 -3.3216261863708496e-01</leafValues></_>
        <_>
          <internalNodes>
            0 -1 62 -9.0289005311205983e-04</internalNodes>
          <leafValues>
            5.2683275938034058e-01 -2.7308118343353271e-01</leafValues></_>
        <_>
          <internalNodes>
            0 -1 103 -7.6534901745617390e-04</internalNodes>
          <leafValues>
            5.6876409053802490e-01 -2.5696980953216553e-01</leafValues></_>
        <_>
          <internalNodes>
            0 -1 102 1.1076880618929863e-03</internalNodes>
          <leafValues>
            -2.4108034372329712e-01 5.6464749574661255e-01</leafValues></_>
        <_>
          <internalNodes>
            0 -1 44 3.0261517968028784e-03</internalNodes>
          <leafValues>
            -1.6403146088123322e-01 8.1009334325790405e-01</leafValues></_></weakClassifiers></_>
    <!-- stage 10 -->
    <_>
      <maxWeakCount>8</maxWeakCount>
      <stageThreshold>-3.9298081398010254e-01</stageThreshold>
      <weakClassifiers>
        <_>
          <internalNodes>
            0 -1 31 8.4357138257473707e-04</internalNodes>
          <leafValues>
            4.7493162751197815e-01 -5.9605908393859863e-01</leafValues></_>
        <_>
          <internalNodes>
            0 -1 68 -7.6499869464896619e-05</internalNodes>
          <leafValues>
            -7.7377527952194214e-01 2.1175402402877808e-01</leafValues></_>
        <_>
          <internalNodes>
            0 -1 85 1.6817036084830761e-03</internalNodes>
          <leafValues>
            1.4460530877113342e-01 -8.5381537675857544e-01</leafValues></_>
        <_>
          <internalNodes>
            0 -1 25 -2.5719916447997093e-04</internalNodes>
          <leafValues>
            5.6851696968078613e-01 -3.1279903650283813e-01</leafValues></_>
        <_>
          <internalNodes>
            0 -1 27 -6.8463984644040465e-04</internalNodes>
          <leafValues>
            6.7122530937194824e-01 -2.7856600284576416e-01</leafValues></_>
        <_>
          <internalNodes>
            0 -1 101 -1.5044629108160734e-03</internalNodes>
          <leafValues>
            7.1063959598541260e-01 -1.9731916487216949e-01</leafValues></_>
        <_>
          <internalNodes>
            0 -1 100 -3.1317237881012261e-04</internalNodes>
          <leafValues>
            4.4418990612030029e-01 -2.9830381274223328e-01</leafValues></_>
        <_>
          <internalNodes>
            0 -1 69 3.1992589356377721e-04</internalNodes>
          <leafValues>
            1.9121326506137848e-01 -8.3284354209899902e-01</leafValues></_></weakClassifiers></_>
    <!-- stage 11 -->
    <_>
      <maxWeakCount>11</maxWeakCount>
      <stageThreshold>-9.7602033615112305e-01</stageThreshold>
      <weakClassifiers>
        <_>
          <internalNodes>
            0 -1 55 7.6098006684333086e-04</internalNodes>
          <leafValues>
            4.4425237178802490e-01 -7.9720282554626465e-01</leafValues></_>
        <_>
          <internalNodes>
            0 -1 30 -4.0519330650568008e-04</internalNodes>
          <leafValues>
            -8.1018495559692383e-01 2.1094651520252228e-01</leafValues></_>
        <_>
          <internalNodes>
            0 -1 79 2.1094658222864382e-05</internalNodes>
          <leafValues>
            -6.9483149051666260e-01 1.7593784630298615e-01</leafValues></_>
        <_>
          <internalNodes>
            0 -1 91 5.6690358178457245e-05</internalNodes>
          <leafValues>
            2.2924113273620605e-01 -5.9966021776199341e-01</leafValues></_>
        <_>
          <internalNodes>
            0 -1 95 9.1991474619135261e-04</internalNodes>
          <leafValues>
            -2.7297243475914001e-01 5.7037442922592163e-01</leafValues></_>
        <_>
          <internalNodes>
            0 -1 84 1.1545247398316860e-03</internalNodes>
          <leafValues>
            -2.2310452163219452e-01 5.8342021703720093e-01</leafValues></_>
        <_>
          <internalNodes>
            0 -1 16 5.3970445878803730e-04</internalNodes>
          <leafValues>
            -2.3140232264995575e-01 7.2646284103393555e-01</leafValues></_>
        <_>
          <internalNodes>
            0 -1 80 -3.6340227234177291e-04</internalNodes>
          <leafValues>
            -8.4398114681243896e-01 1.5479157865047455e-01</leafValues></_>
        <_>
          <internalNodes>
            0 -1 9 5.4948474280536175e-04</internalNodes>
          <leafValues>
            -3.1591019034385681e-01 5.0421267747879028e-01</leafValues></_>
        <_>
          <internalNodes>
            0 -1 88 -5.8310630265623331e-04</internalNodes>
          <leafValues>
            5.2480447292327881e-01 -2.5369277596473694e-01</leafValues></_>
        <_>
          <internalNodes>
            0 -1 21 1.9798404537141323e-04</internalNodes>
          <leafValues>
            1.7742803692817688e-01 -8.2384306192398071e-01</leafValues></_></weakClassifiers></_>
    <!-- stage 12 -->
    <_>
      <maxWeakCount>12</maxWeakCount>
      <stageThreshold>-7.9391914606094360e-01</stageThreshold>
      <weakClassifiers>
        <_>
          <internalNodes>
            0 -1 42 2.0748062524944544e-04</internalNodes>
          <leafValues>
            -2.7748692035675049e-01 5.5119824409484863e-01</leafValues></_>
        <_>
          <internalNodes>
            0 -1 19 2.2540116333402693e-04</internalNodes>
          <leafValues>
            -6.1615729331970215e-01 2.6895675063133240e-01</leafValues></_>
        <_>
          <internalNodes>
            0 -1 40 2.7564365882426500e-04</internalNodes>
          <leafValues>
            2.4622645974159241e-01 -8.2098543643951416e-01</leafValues></_>
        <_>
          <internalNodes>
            0 -1 48 -9.9387695081532001e-04</internalNodes>
          <leafValues>
            6.0462492704391479e-01 -3.0393484234809875e-01</leafValues></_>
        <_>
          <internalNodes>
            0 -1 8 -5.2823657169938087e-03</internalNodes>
          <leafValues>
            5.4458504915237427e-01 -2.4976395070552826e-01</leafValues></_>
        <_>
          <internalNodes>
            0 -1 77 2.6324097416363657e-04</internalNodes>
          <leafValues>
            1.7829845845699310e-01 -7.9799997806549072e-01</leafValues></_>
        <_>
          <internalNodes>
            0 -1 10 1.0821962496265769e-03</internalNodes>
          <leafValues>
            -2.8668540716171265e-01 5.4732394218444824e-01</leafValues></_>
        <_>
          <internalNodes>
            0 -1 58 1.1686037760227919e-03</internalNodes>
          <leafValues>
            -3.0563977360725403e-01 4.9493011832237244e-01</leafValues></_>
        <_>
          <internalNodes>
            0 -1 66 3.9344583638012409e-04</internalNodes>
          <leafValues>
            1.7853260040283203e-01 -8.1244450807571411e-01</leafValues></_>
        <_>
          <internalNodes>
            0 -1 59 1.6693859652150422e-04</internalNodes>
          <leafValues>
            -7.1208947896957397e-01 1.3120132684707642e-01</leafValues></_>
        <_>
          <internalNodes>
            0 -1 46 -2.1682876104023308e-04</internalNodes>
          <leafValues>
            4.4867542386054993e-01 -3.0299326777458191e-01</leafValues></_>
        <_>
          <internalNodes>
            0 -1 47 3.7549616536125541e-04</internalNodes>
          <leafValues>
            -7.3775511980056763e-01 1.8870095908641815e-01</leafValues></_></weakClassifiers></_>
    <!-- stage 13 -->
    <_>
      <maxWeakCount>12</maxWeakCount>
      <stageThreshold>-4.9653691053390503e-01</stageThreshold>
      <weakClassifiers>
        <_>
          <internalNodes>
            0 -1 35 5.4209493100643158e-05</internalNodes>
          <leafValues>
            -4.8129674792289734e-01 4.5156890153884888e-01</leafValues></_>
        <_>
          <internalNodes>
            0 -1 83 -5.0751757808029652e-03</internalNodes>
          <leafValues>
            6.0234826803207397e-01 -1.9481709599494934e-01</leafValues></_>
        <_>
          <internalNodes>
            0 -1 13 -4.9600005149841309e-04</internalNodes>
          <leafValues>
            5.2938503026962280e-01 -2.5031709671020508e-01</leafValues></_>
        <_>
          <internalNodes>
            0 -1 14 -1.1167624033987522e-03</internalNodes>
          <leafValues>
            6.0204976797103882e-01 -3.0323809385299683e-01</leafValues></_>
        <_>
          <internalNodes>
            0 -1 63 2.7746727573685348e-04</internalNodes>
          <leafValues>
            2.3252859711647034e-01 -6.1483997106552124e-01</leafValues></_>
        <_>
          <internalNodes>
            0 -1 0 -8.6635630577802658e-03</internalNodes>
          <leafValues>
            5.0434368848800659e-01 -2.5813400745391846e-01</leafValues></_>
        <_>
          <internalNodes>
            0 -1 32 2.9142142739146948e-04</internalNodes>
          <leafValues>
            -4.8711040616035461e-01 2.6788479089736938e-01</leafValues></_>
        <_>
          <internalNodes>
            0 -1 76 1.5733843902125955e-03</internalNodes>
          <leafValues>
            -2.3020453751087189e-01 5.8889168500900269e-01</leafValues></_>
        <_>
          <internalNodes>
            0 -1 89 1.3608235167339444e-04</internalNodes>
          <leafValues>
            -6.1413413286209106e-01 2.1641072630882263e-01</leafValues></_>
        <_>
          <internalNodes>
            0 -1 1 1.2733824551105499e-02</internalNodes>
          <leafValues>
            -2.1566598117351532e-01 6.2735068798065186e-01</leafValues></_>
        <_>
          <internalNodes>
            0 -1 92 -1.2874177191406488e-03</internalNodes>
          <leafValues>
            5.3312033414840698e-01 -2.7963814139366150e-01</leafValues></_>
        <_>
          <internalNodes>
            0 -1 52 1.4669317752122879e-03</internalNodes>
          <leafValues>
            1.8085443973541260e-01 -9.2313450574874878e-01</leafValues></_></weakClassifiers></_>
    <!-- stage 14 -->
    <_>
      <maxWeakCount>12</maxWeakCount>
      <stageThreshold>-6.2349206209182739e-01</stageThreshold>
      <weakClassifiers>
        <_>
          <internalNodes>
            0 -1 86 1.1773079313570634e-04</internalNodes>
          <leafValues>
            4.6104490756988525e-01 -4.9282297492027283e-01</leafValues></_>
        <_>
          <internalNodes>
            0 -1 24 6.3342478824779391e-05</internalNodes>
          <leafValues>
            -6.7354124784469604e-01 2.0203356444835663e-01</leafValues></_>
        <_>
          <internalNodes>
            0 -1 74 -1.4305945951491594e-03</internalNodes>
          <leafValues>
            7.6167809963226318e-01 -1.7252762615680695e-01</leafValues></_>
        <_>
          <internalNodes>
            0 -1 15 -1.4957650564610958e-03</internalNodes>
          <leafValues>
            5.3317630290985107e-01 -2.3427653312683105e-01</leafValues></_>
        <_>
          <internalNodes>
            0 -1 75 -5.6790420785546303e-03</internalNodes>
          <leafValues>
            6.1204236745834351e-01 -2.3735658824443817e-01</leafValues></_>
        <_>
          <internalNodes>
            0 -1 72 2.6497355429455638e-04</internalNodes>
          <leafValues>
            1.7524015903472900e-01 -7.9788398742675781e-01</leafValues></_>
        <_>
          <internalNodes>
            0 -1 11 1.5966647770255804e-03</internalNodes>
          <leafValues>
            -2.3488798737525940e-01 6.9274467229843140e-01</leafValues></_>
        <_>
          <internalNodes>
            0 -1 98 -8.1011594738811255e-04</internalNodes>
          <leafValues>
            6.6247141361236572e-01 -1.9940462708473206e-01</leafValues></_>
        <_>
          <internalNodes>
            0 -1 93 -1.9190942402929068e-03</internalNodes>
          <leafValues>
            5.4927837848663330e-01 -2.1055099368095398e-01</leafValues></_>
        <_>
          <internalNodes>
            0 -1 81 1.9832304678857327e-04</internalNodes>
          <leafValues>
            1.6788724064826965e-01 -7.9428410530090332e-01</leafValues></_>
        <_>
          <internalNodes>
            0 -1 4 -1.4032593462616205e-03</internalNodes>
          <leafValues>
            4.2001035809516907e-01 -3.3792528510093689e-01</leafValues></_>
        <_>
          <internalNodes>
            0 -1 28 -1.1284375796094537e-04</internalNodes>
          <leafValues>
            -7.4608016014099121e-01 2.2112953662872314e-01</leafValues></_></weakClassifiers></_></stages>
  <features>
    <_>
      <rects>
        <_>
          1 8 9 4 -1.</_>
        <_>
          4 8 3 4 3.</_></rects>
      <tilted>0</tilted></_>
    <_>
      <rects>
        <_>
          2 0 9 9 -1.</_>
        <_>
          5 0 3 9 3.</_></rects>
      <tilted>0</tilted></_>
    <_>
      <rects>
        <_>
          3 5 4 2 -1.</_>
        <_>
          5 5 2 2 2.</_></rects>
      <tilted>0</tilted></_>
    <_>
      <rects>
        <_>
          3 6 1 4 -1.</_>
        <_>
          3 8 1 2 2.</_></rects>
      <tilted>0</tilted></_>
    <_>
      <rects>
        <_>
          4 1 6 8 -1.</_>
        <_>
          7 1 3 8 2.</_></rects>
      <tilted>0</tilted></_>
    <_>
      <rects>
        <_>
          4 5 2 4 -1.</_>
        <_>
          4 5 1 2 2.</_>
        <_>
          5 7 1 2 2.</_></rects>
      <tilted>0</tilted></_>
    <_>
      <rects>
        <_>
          4 6 2 1 -1.</_>
        <_>
          5 6 1 1 2.</_></rects>
      <tilted>0</tilted></_>
    <_>
      <rects>
        <_>
          4 6 2 2 -1.</_>
        <_>
          4 6 1 1 2.</_>
        <_>
          5 7 1 1 2.</_></rects>
      <tilted>0</tilted></_>
    <_>
      <rects>
        <_>
          5 3 9 3 -1.</_>
        <_>
          8 3 3 3 3.</_></rects>
      <tilted>0</tilted></_>
    <_>
      <rects>
        <_>
          5 4 4 2 -1.</_>
        <_>
          5 4 2 1 2.</_>
        <_>
          7 5 2 1 2.</_></rects>
      <tilted>0</tilted></_>
    <_>
      <rects>
        <_>
          5 5 4 2 -1.</_>
        <_>
          7 5 2 2 2.</_></rects>
      <tilted>0</tilted></_>
    <_>
      <rects>
        <_>
          6 2 1 4 -1.</_>
        <_>
          6 4 1 2 2.</_></rects>
      <tilted>0</tilted></_>
    <_>
      <rects>
        <_>
          6 3 2 2 -1.</_>
        <_>
          6 3 1 1 2.</_>
        <_>
          7 4 1 1 2.</_></rects>
      <tilted>0</tilted></_>
    <_>
      <rects>
        <_>
          6 3 4 1 -1.</_>
        <_>
          8 3 2 1 2.</_></rects>
      <tilted>0</tilted></_>
    <_>
      <rects>
        <_>
          6 3 4 6 -1.</_>
        <_>
          6 3 2 3 2.</_>
        <_>
          8 6 2 3 2.</_></rects>
      <tilted>0</tilted></_>
    <_>
      <rects>
        <_>
          6 3 3 2 -1.</_>
        <_>
          6 4 3 1 2.</_></rects>
      <tilted>0</tilted></_>
    <_>
      <rects>
        <_>
          6 4 2 2 -1.</_>
        <_>
          7 4 1 2 2.</_></rects>
      <tilted>0</tilted></_>
    <_>
      <rects>
        <_>
          6 7 6 2 -1.</_>
        <_>
          8 7 2 2 3.</_></rects>
      <tilted>0</tilted></_>
    <_>
      <rects>
        <_>
          6 7 4 3 -1.</_>
        <_>
          8 7 2 3 2.</_></rects>
      <tilted>0</tilted></_>
    <_>
      <rects>
        <_>
          6 7 9 2 -1.</_>
        <_>
          9 7 3 2 3.</_></rects>
      <tilted>0</tilted></_>
    <_>
      <rects>
        <_>
          6 7 8 1 -1.</_>
        <_>
          10 7 4 1 2.</_></rects>
      <tilted>0</tilted></_>
    <_>
      <rects>
        <_>
          6 8 3 1 -1.</_>
        <_>
          7 8 1 1 3.</_></rects>
      <tilted>0</tilted></_>
    <_>
      <rects>
        <_>
          6 8 9 1 -1.</_>
        <_>
          9 8 3 1 3.</_></rects>
      <tilted>0</tilted></_>
    <_>
      <rects>
        <_>
          6 8 8 1 -1.</_>
        <_>
          10 8 4 1 2.</_></rects>
      <tilted>0</tilted></_>
    <_>
      <rects>
        <_>
          6 9 6 1 -1.</_>
        <_>
          9 9 3 1 2.</_></rects>
      <tilted>0</tilted></_>
    <_>
      <rects>
        <_>
          7 3 1 3 -1.</_>
        <_>
          7 4 1 1 3.</_></rects>
      <tilted>0</tilted></_>
    <_>
      <rects>
        <_>
          7 3 2 2 -1.</_>
        <_>
          7 3 1 1 2.</_>
        <_>
          8 4 1 1 2.</_></rects>
      <tilted>0</tilted></_>
    <_>
      <rects>
        <_>
          7 3 4 2 -1.</_>
        <_>
          7 3 2 1 2.</_>
        <_>
          9 4 2 1 2.</_></rects>
      <tilted>0</tilted></_>
    <_>
      <rects>
        <_>
          7 6 4 1 -1.</_>
        <_>
          9 6 2 1 2.</_></rects>
      <tilted>0</tilted></_>
    <_>
      <rects>
        <_>
          7 6 6 4 -1.</_>
        <_>
          9 6 2 4 3.</_></rects>
      <tilted>0</tilted></_>
    <_>
      <rects>
        <_>
          7 6 6 2 -1.</_>
        <_>
          10 6 3 2 2.</_></rects>
      <tilted>0</tilted></_>
    <_>
      <rects>
        <_>
          7 6 6 3 -1.</_>
        <_>
          10 6 3 3 2.</_></rects>
      <tilted>0</tilted></_>
    <_>
      <rects>
        <_>
          7 6 7 2 -1.</_>
        <_>
          7 7 7 1 2.</_></rects>
      <tilted>0</tilted></_>
    <_>
      <rects>
        <_>
          7 7 2 2 -1.</_>
        <_>
          7 8 2 1 2.</_></rects>
      <tilted>0</tilted></_>
    <_>
      <rects>
        <_>
          7 7 4 2 -1.</_>
        <_>
          9 7 2 2 2.</_></rects>
      <tilted>0</tilted></_>
    <_>
      <rects>
        <_>
          7 7 6 2 -1.</_>
        <_>
          9 7 2 2 3.</_></rects>
      <tilted>0</tilted></_>
    <_>
      <rects>
        <_>
          7 7 4 3 -1.</_>
        <_>
          9 7 2 3 2.</_></rects>
      <tilted>0</tilted></_>
    <_>
      <rects>
        <_>
          7 7 6 3 -1.</_>
        <_>
          9 7 2 3 3.</_></rects>
      <tilted>0</tilted></_>
    <_>
      <rects>
        <_>
          7 7 6 1 -1.</_>
        <_>
          10 7 3 1 2.</_></rects>
      <tilted>0</tilted></_>
    <_>
      <rects>
        <_>
          7 7 6 2 -1.</_>
        <_>
          7 8 6 1 2.</_></rects>
      <tilted>0</tilted></_>
    <_>
      <rects>
        <_>
          7 8 2 2 -1.</_>
        <_>
          8 8 1 2 2.</_></rects>
      <tilted>0</tilted></_>
    <_>
      <rects>
        <_>
          7 9 4 1 -1.</_>
        <_>
          9 9 2 1 2.</_></rects>
      <tilted>0</tilted></_>
    <_>
      <rects>
        <_>
          7 9 4 2 -1.</_>
        <_>
          9 9 2 2 2.</_></rects>
      <tilted>0</tilted></_>
    <_>
      <rects>
        <_>
          8 1 3 4 -1.</_>
        <_>
          8 3 3 2 2.</_></rects>
      <tilted>0</tilted></_>
    <_>
      <rects>
        <_>
          8 2 1 4 -1.</_>
        <_>
          8 4 1 2 2.</_></rects>
      <tilted>0</tilted></_>
    <_>
      <rects>
        <_>
          8 2 3 3 -1.</_>
        <_>
          8 3 3 1 3.</_></rects>
      <tilted>0</tilted></_>
    <_>
      <rects>
        <_>
          8 4 4 3 -1.</_>
        <_>
          8 5 4 1 3.</_></rects>
      <tilted>0</tilted></_>
    <_>
      <rects>
        <_>
          8 5 4 4 -1.</_>
        <_>
          8 7 4 2 2.</_></rects>
      <tilted>0</tilted></_>
    <_>
      <rects>
        <_>
          8 6 2 11 -1.</_>
        <_>
          9 6 1 11 2.</_></rects>
      <tilted>0</tilted></_>
    <_>
      <rects>
        <_>
          8 6 4 2 -1.</_>
        <_>
          10 6 2 2 2.</_></rects>
      <tilted>0</tilted></_>
    <_>
      <rects>
        <_>
          8 6 2 4 -1.</_>
        <_>
          8 8 2 2 2.</_></rects>
      <tilted>0</tilted></_>
    <_>
      <rects>
        <_>
          8 6 4 3 -1.</_>
        <_>
          10 6 2 3 2.</_></rects>
      <tilted>0</tilted></_>
    <_>
      <rects>
        <_>
          8 6 6 3 -1.</_>
        <_>
          10 6 2 3 3.</_></rects>
      <tilted>0</tilted></_>
    <_>
      <rects>
        <_>
          8 6 4 4 -1.</_>
        <_>
          10 6 2 4 2.</_></rects>
      <tilted>0</tilted></_>
    <_>
      <rects>
        <_>
          8 6 6 2 -1.</_>
        <_>
          11 6 3 2 2.</_></rects>
      <tilted>0</tilted></_>
    <_>
      <rects>
        <_>
          8 6 6 3 -1.</_>
        <_>
          11 6 3 3 2.</_></rects>
      <tilted>0</tilted></_>
    <_>
      <rects>
        <_>
          8 6 4 2 -1.</_>
        <_>
          8 7 4 1 2.</_></rects>
      <tilted>0</tilted></_>
    <_>
      <rects>
        <_>
          8 7 1 4 -1.</_>
        <_>
          8 9 1 2 2.</_></rects>
      <tilted>0</tilted></_>
    <_>
      <rects>
        <_>
          8 7 2 10 -1.</_>
        <_>
          8 7 1 5 2.</_>
        <_>
          9 12 1 5 2.</_></rects>
      <tilted>0</tilted></_>
    <_>
      <rects>
        <_>
          8 7 4 2 -1.</_>
        <_>
          8 8 4 1 2.</_></rects>
      <tilted>0</tilted></_>
    <_>
      <rects>
        <_>
          8 7 10 2 -1.</_>
        <_>
          8 7 5 1 2.</_>
        <_>
          13 8 5 1 2.</_></rects>
      <tilted>0</tilted></_>
    <_>
      <rects>
        <_>
          8 8 2 3 -1.</_>
        <_>
          8 9 2 1 3.</_></rects>
      <tilted>0</tilted></_>
    <_>
      <rects>
        <_>
          9 2 5 2 -1.</_>
        <_>
          9 3 5 1 2.</_></rects>
      <tilted>0</tilted></_>
    <_>
      <rects>
        <_>
          9 6 2 2 -1.</_>
        <_>
          9 7 2 1 2.</_></rects>
      <tilted>0</tilted></_>
    <_>
      <rects>
        <_>
          9 6 4 2 -1.</_>
        <_>
          11 6 2 2 2.</_></rects>
      <tilted>0</tilted></_>
    <_>
      <rects>
        <_>
          9 6 3 4 -1.</_>
        <_>
          9 8 3 2 2.</_></rects>
      <tilted>0</tilted></_>
    <_>
      <rects>
        <_>
          9 7 2 3 -1.</_>
        <_>
          9 8 2 1 3.</_></rects>
      <tilted>0</tilted></_>
    <_>
      <rects>
        <_>
          9 7 4 2 -1.</_>
        <_>
          9 8 4 1 2.</_></rects>
      <tilted>0</tilted></_>
    <_>
      <rects>
        <_>
          9 8 2 2 -1.</_>
        <_>
          10 8 1 2 2.</_></rects>
      <tilted>0</tilted></_>
    <_>
      <rects>
        <_>
          9 8 3 2 -1.</_>
        <_>
          10 8 1 2 3.</_></rects>
      <tilted>0</tilted></_>
    <_>
      <rects>
        <_>
          9 8 2 2 -1.</_>
        <_>
          9 9 2 1 2.</_></rects>
      <tilted>0</tilted></_>
    <_>
      <rects>
        <_>
          9 8 4 2 -1.</_>
        <_>
          9 9 4 1 2.</_></rects>
      <tilted>0</tilted></_>
    <_>
      <rects>
        <_>
          9 9 4 1 -1.</_>
        <_>
          11 9 2 1 2.</_></rects>
      <tilted>0</tilted></_>
    <_>
      <rects>
        <_>
          9 11 3 2 -1.</_>
        <_>
          9 12 3 1 2.</_></rects>
      <tilted>0</tilted></_>
    <_>
      <rects>
        <_>
          9 14 3 1 -1.</_>
        <_>
          10 14 1 1 3.</_></rects>
      <tilted>0</tilted></_>
    <_>
      <rects>
        <_>
          10 0 3 6 -1.</_>
        <_>
          10 2 3 2 3.</_></rects>
      <tilted>0</tilted></_>
    <_>
      <rects>
        <_>
          10 3 6 2 -1.</_>
        <_>
          10 3 3 1 2.</_>
        <_>
          13 4 3 1 2.</_></rects>
      <tilted>0</tilted></_>
    <_>
      <rects>
        <_>
          10 5 1 2 -1.</_>
        <_>
          10 6 1 1 2.</_></rects>
      <tilted>0</tilted></_>
    <_>
      <rects>
        <_>
          10 6 2 3 -1.</_>
        <_>
          10 7 2 1 3.</_></rects>
      <tilted>0</tilted></_>
    <_>
      <rects>
        <_>
          10 7 1 4 -1.</_>
        <_>
          10 9 1 2 2.</_></rects>
      <tilted>0</tilted></_>
    <_>
      <rects>
        <_>
          10 7 4 1 -1.</_>
        <_>
          12 7 2 1 2.</_></rects>
      <tilted>0</tilted></_>
    <_>
      <rects>
        <_>
          10 8 1 2 -1.</_>
        <_>
          10 9 1 1 2.</_></rects>
      <tilted>0</tilted></_>
    <_>
      <rects>
        <_>
          10 8 3 2 -1.</_>
        <_>
          10 9 3 1 2.</_></rects>
      <tilted>0</tilted></_>
    <_>
      <rects>
        <_>
          10 9 2 9 -1.</_>
        <_>
          10 12 2 3 3.</_></rects>
      <tilted>0</tilted></_>
    <_>
      <rects>
        <_>
          10 12 3 2 -1.</_>
        <_>
          10 13 3 1 2.</_></rects>
      <tilted>0</tilted></_>
    <_>
      <rects>
        <_>
          11 5 1 6 -1.</_>
        <_>
          11 8 1 3 2.</_></rects>
      <tilted>0</tilted></_>
    <_>
      <rects>
        <_>
          11 6 2 2 -1.</_>
        <_>
          12 6 1 2 2.</_></rects>
      <tilted>0</tilted></_>
    <_>
      <rects>
        <_>
          11 8 3 2 -1.</_>
        <_>
          11 9 3 1 2.</_></rects>
      <tilted>0</tilted></_>
    <_>
      <rects>
        <_>
          12 4 4 1 -1.</_>
        <_>
          14 4 2 1 2.</_></rects>
      <tilted>0</tilted></_>
    <_>
      <rects>
        <_>
          12 7 1 4 -1.</_>
        <_>
          12 9 1 2 2.</_></rects>
      <tilted>0</tilted></_>
    <_>
      <rects>
        <_>
          12 8 2 1 -1.</_>
        <_>
          13 8 1 1 2.</_></rects>
      <tilted>0</tilted></_>
    <_>
      <rects>
        <_>
          12 9 2 1 -1.</_>
        <_>
          13 9 1 1 2.</_></rects>
      <tilted>0</tilted></_>
    <_>
      <rects>
        <_>
          12 9 1 6 -1.</_>
        <_>
          12 11 1 2 3.</_></rects>
      <tilted>0</tilted></_>
    <_>
      <rects>
        <_>
          13 5 6 1 -1.</_>
        <_>
          15 5 2 1 3.</_></rects>
      <tilted>0</tilted></_>
    <_>
      <rects>
        <_>
          13 5 4 2 -1.</_>
        <_>
          15 5 2 2 2.</_></rects>
      <tilted>0</tilted></_>
    <_>
      <rects>
        <_>
          14 4 2 2 -1.</_>
        <_>
          15 4 1 2 2.</_></rects>
      <tilted>0</tilted></_>
    <_>
      <rects>
        <_>
          14 5 4 2 -1.</_>
        <_>
          14 5 2 1 2.</_>
        <_>
          16 6 2 1 2.</_></rects>
      <tilted>0</tilted></_>
    <_>
      <rects>
        <_>
          14 5 4 3 -1.</_>
        <_>
          16 5 2 3 2.</_></rects>
      <tilted>0</tilted></_>
    <_>
      <rects>
        <_>
          15 5 1 2 -1.</_>
        <_>
          15 6 1 1 2.</_></rects>
      <tilted>0</tilted></_>
    <_>
      <rects>
        <_>
          15 5 2 2 -1.</_>
        <_>
          15 6 2 1 2.</_></rects>
      <tilted>0</tilted></_>
    <_>
      <rects>
        <_>
          15 8 3 1 -1.</_>
        <_>
          16 8 1 1 3.</_></rects>
      <tilted>0</tilted></_>
    <_>
      <rects>
        <_>
          16 5 2 4 -1.</_>
        <_>
          16 5 1 2 2.</_>
        <_>
          17 7 1 2 2.</_></rects>
      <tilted>0</tilted></_>
    <_>
      <rects>
        <_>
          16 8 3 2 -1.</_>
        <_>
          17 8 1 2 3.</_></rects>
      <tilted>0</tilted></_>
    <_>
      <rects>
        <_>
          16 9 3 1 -1.</_>
        <_>
          17 9 1 1 3.</_></rects>
      <tilted>0</tilted></_></features></cascade>
</opencv_storage>
