<?xml version="1.0"?>
<opencv_storage>
<cascade>
  <stageType>BOOST</stageType>
  <featureType>HAAR</featureType>
  <height>20</height>
  <width>20</width>
  <stageParams>
    <boostType>GAB</boostType>
    <minHitRate>9.9500000476837158e-01</minHitRate>
    <maxFalseAlarm>5.0000000000000000e-01</maxFalseAlarm>
    <weightTrimRate>9.4999999999999996e-01</weightTrimRate>
    <maxDepth>1</maxDepth>
    <maxWeakCount>100</maxWeakCount></stageParams>
  <featureParams>
    <maxCatCount>0</maxCatCount>
    <featSize>1</featSize>
    <mode>BASIC</mode></featureParams>
  <stageNum>15</stageNum>
  <stages>
    <!-- stage 0 -->
    <_>
      <maxWeakCount>4</maxWeakCount>
      <stageThreshold>-8.6681985855102539e-01</stageThreshold>
      <weakClassifiers>
        <_>
          <internalNodes>
            0 -1 51 -2.4348450824618340e-04</internalNodes>
          <leafValues>
            -9.5338982343673706e-01 5.8740603923797607e-01</leafValues></_>
        <_>
          <internalNodes>
            0 -1 51 1.2941459426656365e-03</internalNodes>
          <leafValues>
            5.1507025957107544e-01 -8.7025403976440430e-01</leafValues></_>
        <_>
          <internalNodes>
            0 -1 45 2.6650154031813145e-03</internalNodes>
          <leafValues>
            -8.0797493457794189e-01 3.7433639168739319e-01</leafValues></_>
        <_>
          <internalNodes>
            0 -1 75 2.3323259665630758e-04</internalNodes>
          <leafValues>
            2.2400309145450592e-01 -9.6031695604324341e-01</leafValues></_></weakClassifiers></_>
    <!-- stage 1 -->
    <_>
      <maxWeakCount>3</maxWeakCount>
      <stageThreshold>3.6623369902372360e-02</stageThreshold>
      <weakClassifiers>
        <_>
          <internalNodes>
            0 -1 49 8.5653102723881602e-04</internalNodes>
          <leafValues>
            6.2683641910552979e-01 -8.6021506786346436e-01</leafValues></_>
        <_>
          <internalNodes>
            0 -1 74 7.9002731945365667e-04</internalNodes>
          <leafValues>
            -7.7284055948257446e-01 4.7546467185020447e-01</leafValues></_>
        <_>
          <internalNodes>
            0 -1 49 -9.7794974863063544e-05</internalNodes>
          <leafValues>
            -9.1793334484100342e-01 4.2137372493743896e-01</leafValues></_></weakClassifiers></_>
    <!-- stage 2 -->
    <_>
      <maxWeakCount>6</maxWeakCount>
      <stageThreshold>-5.4778498411178589e-01</stageThreshold>
      <weakClassifiers>
        <_>
          <internalNodes>
            0 -1 64 8.0469792010262609e-04</internalNodes>
          <leafValues>
            5.7604116201400757e-01 -9.3088555335998535e-01</leafValues></_>
        <_>
          <internalNodes>
            0 -1 30 4.9980437324848026e-05</internalNodes>
          <leafValues>
            -8.5277879238128662e-01 3.5017937421798706e-01</leafValues></_>
        <_>
          <internalNodes>
            0 -1 69 -2.3720753961242735e-04</internalNodes>
          <leafValues>
            -8.7733757495880127e-01 2.6817190647125244e-01</leafValues></_>
        <_>
          <internalNodes>
            0 -1 88 -4.6648827265016735e-05</internalNodes>
          <leafValues>
            2.1934553980827332e-01 -8.3854365348815918e-01</leafValues></_>
        <_>
          <internalNodes>
            0 -1 77 -9.6358743030577898e-04</internalNodes>
          <leafValues>
            -7.4069565534591675e-01 2.6567518711090088e-01</leafValues></_>
        <_>
          <internalNodes>
            0 -1 42 4.8431422328576446e-05</internalNodes>
          <leafValues>
            -7.6181608438491821e-01 2.8609937429428101e-01</leafValues></_></weakClassifiers></_>
    <!-- stage 3 -->
    <_>
      <maxWeakCount>6</maxWeakCount>
      <stageThreshold>-5.0875002145767212e-01</stageThreshold>
      <weakClassifiers>
        <_>
          <internalNodes>
            0 -1 55 1.6928362310864031e-04</internalNodes>
          <leafValues>
            -6.7424243688583374e-01 5.5791503190994263e-01</leafValues></_>
        <_>
          <internalNodes>
            0 -1 37 1.1249945237068459e-04</internalNodes>
          <leafValues>
            -7.0861589908599854e-01 3.3716255426406860e-01</leafValues></_>
        <_>
          <internalNodes>
            0 -1 42 5.5508373770862818e-04</internalNodes>
          <leafValues>
            3.2366338372230530e-01 -7.9948443174362183e-01</leafValues></_>
        <_>
          <internalNodes>
            0 -1 80 1.4284715871326625e-04</internalNodes>
          <leafValues>
            1.4848360419273376e-01 -9.3935364484786987e-01</leafValues></_>
        <_>
          <internalNodes>
            0 -1 91 -3.9518580888397992e-04</internalNodes>
          <leafValues>
            -7.5919997692108154e-01 2.4904970824718475e-01</leafValues></_>
        <_>
          <internalNodes>
            0 -1 46 8.8473520008847117e-05</internalNodes>
          <leafValues>
            -7.5956147909164429e-01 2.3028096556663513e-01</leafValues></_></weakClassifiers></_>
    <!-- stage 4 -->
    <_>
      <maxWeakCount>6</maxWeakCount>
      <stageThreshold>-3.3780422806739807e-01</stageThreshold>
      <weakClassifiers>
        <_>
          <internalNodes>
            0 -1 94 -3.1727834721095860e-04</internalNodes>
          <leafValues>
            6.4644110202789307e-01 -3.4762978553771973e-01</leafValues></_>
        <_>
          <internalNodes>
            0 -1 107 -3.8447724364232272e-05</internalNodes>
          <leafValues>
            3.7616634368896484e-01 -6.4553874731063843e-01</leafValues></_>
        <_>
          <internalNodes>
            0 -1 43 7.7272043563425541e-04</internalNodes>
          <leafValues>
            2.4222213029861450e-01 -7.5018978118896484e-01</leafValues></_>
        <_>
          <internalNodes>
            0 -1 43 1.0915093298535794e-04</internalNodes>
          <leafValues>
            -7.6564759016036987e-01 2.0365227758884430e-01</leafValues></_>
        <_>
          <internalNodes>
            0 -1 87 1.2532726395875216e-04</internalNodes>
          <leafValues>
            1.5301935374736786e-01 -9.3087613582611084e-01</leafValues></_>
        <_>
          <internalNodes>
            0 -1 28 1.3809500262141228e-02</internalNodes>
          <leafValues>
            1.4629517495632172e-01 -9.1852980852127075e-01</leafValues></_></weakClassifiers></_>
    <!-- stage 5 -->
    <_>
      <maxWeakCount>7</maxWeakCount>
      <stageThreshold>-6.6174727678298950e-01</stageThreshold>
      <weakClassifiers>
        <_>
          <internalNodes>
            0 -1 22 -2.2347166668623686e-04</internalNodes>
          <leafValues>
            -7.2277230024337769e-01 4.9726775288581848e-01</leafValues></_>
        <_>
          <internalNodes>
            0 -1 71 -1.3023050269111991e-04</internalNodes>
          <leafValues>
            2.7860742807388306e-01 -6.4786905050277710e-01</leafValues></_>
        <_>
          <internalNodes>
            0 -1 47 5.9434724971652031e-04</internalNodes>
          <leafValues>
            2.0723013579845428e-01 -8.8322728872299194e-01</leafValues></_>
        <_>
          <internalNodes>
            0 -1 3 1.2204833328723907e-03</internalNodes>
          <leafValues>
            -3.2591843605041504e-01 6.0081416368484497e-01</leafValues></_>
        <_>
          <internalNodes>
            0 -1 11 -5.4174289107322693e-04</internalNodes>
          <leafValues>
            5.0392794609069824e-01 -2.9523935914039612e-01</leafValues></_>
        <_>
          <internalNodes>
            0 -1 85 -2.0321735064499080e-04</internalNodes>
          <leafValues>
            -8.9007544517517090e-01 1.8197271227836609e-01</leafValues></_>
        <_>
          <internalNodes>
            0 -1 86 7.6905882451683283e-05</internalNodes>
          <leafValues>
            1.4168165624141693e-01 -8.0845063924789429e-01</leafValues></_></weakClassifiers></_>
    <!-- stage 6 -->
    <_>
      <maxWeakCount>9</maxWeakCount>
      <stageThreshold>-7.4523246288299561e-01</stageThreshold>
      <weakClassifiers>
        <_>
          <internalNodes>
            0 -1 14 1.0212248162133619e-04</internalNodes>
          <leafValues>
            -4.5714285969734192e-01 5.5228424072265625e-01</leafValues></_>
        <_>
          <internalNodes>
            0 -1 67 5.9326630434952676e-05</internalNodes>
          <leafValues>
            -7.6035928726196289e-01 2.4525031447410583e-01</leafValues></_>
        <_>
          <internalNodes>
            0 -1 35 -9.1449532192200422e-04</internalNodes>
          <leafValues>
            5.9362894296646118e-01 -2.7566415071487427e-01</leafValues></_>
        <_>
          <internalNodes>
            0 -1 34 -1.6685132868587971e-03</internalNodes>
          <leafValues>
            6.9974130392074585e-01 -2.3230947554111481e-01</leafValues></_>
        <_>
          <internalNodes>
            0 -1 39 3.5001369542442262e-04</internalNodes>
          <leafValues>
            2.1743918955326080e-01 -8.0486887693405151e-01</leafValues></_>
        <_>
          <internalNodes>
            0 -1 36 -1.0255334200337529e-03</internalNodes>
          <leafValues>
            5.1002043485641479e-01 -3.3158206939697266e-01</leafValues></_>
        <_>
          <internalNodes>
            0 -1 68 5.2879931899951771e-05</internalNodes>
          <leafValues>
            -6.3789606094360352e-01 2.1210281550884247e-01</leafValues></_>
        <_>
          <internalNodes>
            0 -1 102 -1.3282819418236613e-04</internalNodes>
          <leafValues>
            -7.5383710861206055e-01 1.8305587768554688e-01</leafValues></_>
        <_>
          <internalNodes>
            0 -1 10 -6.6620361758396029e-04</internalNodes>
          <leafValues>
            6.3388401269912720e-01 -2.9798573255538940e-01</leafValues></_></weakClassifiers></_>
    <!-- stage 7 -->
    <_>
      <maxWeakCount>10</maxWeakCount>
      <stageThreshold>-7.1478378772735596e-01</stageThreshold>
      <weakClassifiers>
        <_>
          <internalNodes>
            0 -1 39 4.7137269575614482e-05</internalNodes>
          <leafValues>
            -4.6469622850418091e-01 5.4394775629043579e-01</leafValues></_>
        <_>
          <internalNodes>
            0 -1 111 -1.8288730643689632e-03</internalNodes>
          <leafValues>
            5.5806648731231689e-01 -2.6102730631828308e-01</leafValues></_>
        <_>
          <internalNodes>
            0 -1 66 -7.5347616802901030e-04</internalNodes>
          <leafValues>
            -7.0590722560882568e-01 2.0699149370193481e-01</leafValues></_>
        <_>
          <internalNodes>
            0 -1 76 -4.9891619710251689e-05</internalNodes>
          <leafValues>
            2.3891025781631470e-01 -6.9198203086853027e-01</leafValues></_>
        <_>
          <internalNodes>
            0 -1 62 4.6252251195255667e-05</internalNodes>
          <leafValues>
            -6.4927154779434204e-01 1.8418174982070923e-01</leafValues></_>
        <_>
          <internalNodes>
            0 -1 81 8.8771193986758590e-05</internalNodes>
          <leafValues>
            -7.0799612998962402e-01 1.9651846587657928e-01</leafValues></_>
        <_>
          <internalNodes>
            0 -1 105 9.2888753861188889e-03</internalNodes>
          <leafValues>
            -2.7180072665214539e-01 5.6748968362808228e-01</leafValues></_>
        <_>
          <internalNodes>
            0 -1 12 -2.9508591978810728e-04</internalNodes>
          <leafValues>
            5.5282151699066162e-01 -2.2681228816509247e-01</leafValues></_>
        <_>
          <internalNodes>
            0 -1 92 1.5286188863683492e-04</internalNodes>
          <leafValues>
            1.5036839246749878e-01 -8.6294710636138916e-01</leafValues></_>
        <_>
          <internalNodes>
            0 -1 6 -3.8844593800604343e-03</internalNodes>
          <leafValues>
            5.0323182344436646e-01 -3.2948115468025208e-01</leafValues></_></weakClassifiers></_>
    <!-- stage 8 -->
    <_>
      <maxWeakCount>10</maxWeakCount>
      <stageThreshold>-7.8393882513046265e-01</stageThreshold>
      <weakClassifiers>
        <_>
          <internalNodes>
            0 -1 102 3.9365736301988363e-04</internalNodes>
          <leafValues>
            4.8537477850914001e-01 -6.3592231273651123e-01</leafValues></_>
        <_>
          <internalNodes>
            0 -1 38 2.0844614482484758e-04</internalNodes>
          <leafValues>
            2.1397559344768524e-01 -7.5287765264511108e-01</leafValues></_>
        <_>
          <internalNodes>
            0 -1 56 9.9653110373765230e-04</internalNodes>
          <leafValues>
            -4.2526948451995850e-01 4.1694003343582153e-01</leafValues></_>
        <_>
          <internalNodes>
            0 -1 84 -9.0716022532433271e-04</internalNodes>
          <leafValues>
            7.8294402360916138e-01 -2.3533518612384796e-01</leafValues></_>
        <_>
          <internalNodes>
            0 -1 84 5.5326806614175439e-04</internalNodes>
          <leafValues>
            -3.4920141100883484e-01 6.6629379987716675e-01</leafValues></_>
        <_>
          <internalNodes>
            0 -1 44 1.2648911797441542e-04</internalNodes>
          <leafValues>
            -5.7709962129592896e-01 3.2389530539512634e-01</leafValues></_>
        <_>
          <internalNodes>
            0 -1 40 6.0748793184757233e-03</internalNodes>
          <leafValues>
            1.3725331425666809e-01 -9.5033103227615356e-01</leafValues></_>
        <_>
          <internalNodes>
            0 -1 59 -6.4802980050444603e-03</internalNodes>
          <leafValues>
            7.1762758493423462e-01 -2.4058766663074493e-01</leafValues></_>
        <_>
          <internalNodes>
            0 -1 70 2.0130767370574176e-04</internalNodes>
          <leafValues>
            -6.0474961996078491e-01 2.7402245998382568e-01</leafValues></_>
        <_>
          <internalNodes>
            0 -1 48 -2.2635419736616313e-04</internalNodes>
          <leafValues>
            -9.0928113460540771e-01 1.4467743039131165e-01</leafValues></_></weakClassifiers></_>
    <!-- stage 9 -->
    <_>
      <maxWeakCount>11</maxWeakCount>
      <stageThreshold>-7.1402043104171753e-01</stageThreshold>
      <weakClassifiers>
        <_>
          <internalNodes>
            0 -1 78 -6.1444676248356700e-05</internalNodes>
          <leafValues>
            4.7491040825843811e-01 -7.0652174949645996e-01</leafValues></_>
        <_>
          <internalNodes>
            0 -1 65 8.3447166252881289e-04</internalNodes>
          <leafValues>
            2.9681694507598877e-01 -6.8968248367309570e-01</leafValues></_>
        <_>
          <internalNodes>
            0 -1 29 4.5340373617364094e-05</internalNodes>
          <leafValues>
            -6.9627892971038818e-01 2.3358601331710815e-01</leafValues></_>
        <_>
          <internalNodes>
            0 -1 19 -4.6191396540962160e-04</internalNodes>
          <leafValues>
            6.1454272270202637e-01 -2.7197444438934326e-01</leafValues></_>
        <_>
          <internalNodes>
            0 -1 18 -2.2090756101533771e-04</internalNodes>
          <leafValues>
            5.8674776554107666e-01 -2.8260427713394165e-01</leafValues></_>
        <_>
          <internalNodes>
            0 -1 8 -9.2823716113343835e-04</internalNodes>
          <leafValues>
            6.7955881357192993e-01 -1.9586144387722015e-01</leafValues></_>
        <_>
          <internalNodes>
            0 -1 0 -3.8058397173881531e-01</internalNodes>
          <leafValues>
            -7.8279978036880493e-01 1.4745849370956421e-01</leafValues></_>
        <_>
          <internalNodes>
            0 -1 32 -1.4902271796017885e-03</internalNodes>
          <leafValues>
            3.6449849605560303e-01 -3.9334720373153687e-01</leafValues></_>
        <_>
          <internalNodes>
            0 -1 49 5.0949235446751118e-04</internalNodes>
          <leafValues>
            2.4081672728061676e-01 -6.4849632978439331e-01</leafValues></_>
        <_>
          <internalNodes>
            0 -1 13 -1.3026669621467590e-03</internalNodes>
          <leafValues>
            5.2288526296615601e-01 -2.7620679140090942e-01</leafValues></_>
        <_>
          <internalNodes>
            0 -1 96 1.5241561923176050e-03</internalNodes>
          <leafValues>
            -2.4476186931133270e-01 5.7709211111068726e-01</leafValues></_></weakClassifiers></_>
    <!-- stage 10 -->
    <_>
      <maxWeakCount>12</maxWeakCount>
      <stageThreshold>-1.0056393146514893e+00</stageThreshold>
      <weakClassifiers>
        <_>
          <internalNodes>
            0 -1 63 5.2580347983166575e-05</internalNodes>
          <leafValues>
            -7.0434784889221191e-01 4.6252772212028503e-01</leafValues></_>
        <_>
          <internalNodes>
            0 -1 88 -1.5927043277770281e-03</internalNodes>
          <leafValues>
            -6.1274254322052002e-01 2.7114585041999817e-01</leafValues></_>
        <_>
          <internalNodes>
            0 -1 101 -4.3663363612722605e-05</internalNodes>
          <leafValues>
            2.3421043157577515e-01 -7.6115167140960693e-01</leafValues></_>
        <_>
          <internalNodes>
            0 -1 113 -2.0068972371518612e-03</internalNodes>
          <leafValues>
            6.0419368743896484e-01 -2.6315990090370178e-01</leafValues></_>
        <_>
          <internalNodes>
            0 -1 52 5.0323142204433680e-04</internalNodes>
          <leafValues>
            1.5225723385810852e-01 -8.5270017385482788e-01</leafValues></_>
        <_>
          <internalNodes>
            0 -1 24 1.8533105321694165e-04</internalNodes>
          <leafValues>
            -5.6051504611968994e-01 2.2191128134727478e-01</leafValues></_>
        <_>
          <internalNodes>
            0 -1 89 3.8202124414965510e-05</internalNodes>
          <leafValues>
            -6.5494930744171143e-01 2.0018629729747772e-01</leafValues></_>
        <_>
          <internalNodes>
            0 -1 20 1.9462727010250092e-02</internalNodes>
          <leafValues>
            1.4187359809875488e-01 -7.7513962984085083e-01</leafValues></_>
        <_>
          <internalNodes>
            0 -1 60 -2.7790246531367302e-03</internalNodes>
          <leafValues>
            6.0189324617385864e-01 -2.5496563315391541e-01</leafValues></_>
        <_>
          <internalNodes>
            0 -1 33 -7.2866724804043770e-03</internalNodes>
          <leafValues>
            7.1826142072677612e-01 -1.9165244698524475e-01</leafValues></_>
        <_>
          <internalNodes>
            0 -1 50 -3.9744324749335647e-04</internalNodes>
          <leafValues>
            -8.7026679515838623e-01 1.6931797564029694e-01</leafValues></_>
        <_>
          <internalNodes>
            0 -1 114 5.7568941265344620e-03</internalNodes>
          <leafValues>
            -2.2754192352294922e-01 7.1839016675949097e-01</leafValues></_></weakClassifiers></_>
    <!-- stage 11 -->
    <_>
      <maxWeakCount>12</maxWeakCount>
      <stageThreshold>-1.0620067119598389e+00</stageThreshold>
      <weakClassifiers>
        <_>
          <internalNodes>
            0 -1 82 -3.5097380168735981e-04</internalNodes>
          <leafValues>
            5.6455969810485840e-01 -3.2710281014442444e-01</leafValues></_>
        <_>
          <internalNodes>
            0 -1 41 -3.4990790300071239e-04</internalNodes>
          <leafValues>
            -8.0180442333221436e-01 2.4130412936210632e-01</leafValues></_>
        <_>
          <internalNodes>
            0 -1 5 1.5189026016741991e-03</internalNodes>
          <leafValues>
            -2.5828102231025696e-01 5.9427422285079956e-01</leafValues></_>
        <_>
          <internalNodes>
            0 -1 23 4.1592493653297424e-03</internalNodes>
          <leafValues>
            2.3641788959503174e-01 -6.2971043586730957e-01</leafValues></_>
        <_>
          <internalNodes>
            0 -1 21 4.6794400986982509e-05</internalNodes>
          <leafValues>
            -6.6126573085784912e-01 2.3233477771282196e-01</leafValues></_>
        <_>
          <internalNodes>
            0 -1 1 3.8590194890275598e-04</internalNodes>
          <leafValues>
            -2.4377594888210297e-01 5.8886021375656128e-01</leafValues></_>
        <_>
          <internalNodes>
            0 -1 97 -9.5648062415421009e-04</internalNodes>
          <leafValues>
            6.1187881231307983e-01 -2.2523954510688782e-01</leafValues></_>
        <_>
          <internalNodes>
            0 -1 4 -3.8808789104223251e-03</internalNodes>
          <leafValues>
            6.7595374584197998e-01 -2.1093261241912842e-01</leafValues></_>
        <_>
          <internalNodes>
            0 -1 83 -3.9697720785625279e-04</internalNodes>
          <leafValues>
            4.5486453175544739e-01 -2.7912849187850952e-01</leafValues></_>
        <_>
          <internalNodes>
            0 -1 99 4.9077197909355164e-03</internalNodes>
          <leafValues>
            -1.5342476963996887e-01 8.3812665939331055e-01</leafValues></_>
        <_>
          <internalNodes>
            0 -1 98 -1.8694991013035178e-05</internalNodes>
          <leafValues>
            -7.8107583522796631e-01 1.9739460945129395e-01</leafValues></_>
        <_>
          <internalNodes>
            0 -1 112 -9.9457683973014355e-04</internalNodes>
          <leafValues>
            4.8417472839355469e-01 -2.9710710048675537e-01</leafValues></_></weakClassifiers></_>
    <!-- stage 12 -->
    <_>
      <maxWeakCount>12</maxWeakCount>
      <stageThreshold>-6.9271022081375122e-01</stageThreshold>
      <weakClassifiers>
        <_>
          <internalNodes>
            0 -1 103 1.6042398056015372e-04</internalNodes>
          <leafValues>
            5.6193691492080688e-01 -2.4029126763343811e-01</leafValues></_>
        <_>
          <internalNodes>
            0 -1 106 -4.4611857447307557e-05</internalNodes>
          <leafValues>
            2.7387151122093201e-01 -5.3681296110153198e-01</leafValues></_>
        <_>
          <internalNodes>
            0 -1 17 -1.3628364540636539e-03</internalNodes>
          <leafValues>
            5.9586387872695923e-01 -2.2932218015193939e-01</leafValues></_>
        <_>
          <internalNodes>
            0 -1 104 2.8820848092436790e-04</internalNodes>
          <leafValues>
            2.2230520844459534e-01 -6.5759450197219849e-01</leafValues></_>
        <_>
          <internalNodes>
            0 -1 104 -5.2826257160631940e-05</internalNodes>
          <leafValues>
            -4.9915143847465515e-01 2.7520239353179932e-01</leafValues></_>
        <_>
          <internalNodes>
            0 -1 7 8.6699042003601789e-04</internalNodes>
          <leafValues>
            -3.1446620821952820e-01 4.5856183767318726e-01</leafValues></_>
        <_>
          <internalNodes>
            0 -1 45 1.9360896199941635e-02</internalNodes>
          <leafValues>
            1.8305872380733490e-01 -7.1905231475830078e-01</leafValues></_>
        <_>
          <internalNodes>
            0 -1 71 -2.4980370653793216e-04</internalNodes>
          <leafValues>
            2.5495287775993347e-01 -6.3786649703979492e-01</leafValues></_>
        <_>
          <internalNodes>
            0 -1 16 3.9516123943030834e-03</internalNodes>
          <leafValues>
            -2.3261089622974396e-01 6.0246515274047852e-01</leafValues></_>
        <_>
          <internalNodes>
            0 -1 57 1.4071353944018483e-03</internalNodes>
          <leafValues>
            -2.1392180025577545e-01 6.1109679937362671e-01</leafValues></_>
        <_>
          <internalNodes>
            0 -1 31 -1.4212187124940101e-05</internalNodes>
          <leafValues>
            -7.1635276079177856e-01 2.4705067276954651e-01</leafValues></_>
        <_>
          <internalNodes>
            0 -1 85 1.0245962766930461e-04</internalNodes>
          <leafValues>
            1.1266493797302246e-01 -8.9364314079284668e-01</leafValues></_></weakClassifiers></_>
    <!-- stage 13 -->
    <_>
      <maxWeakCount>8</maxWeakCount>
      <stageThreshold>-6.8996793031692505e-01</stageThreshold>
      <weakClassifiers>
        <_>
          <internalNodes>
            0 -1 26 3.8833608850836754e-03</internalNodes>
          <leafValues>
            4.8468467593193054e-01 -7.2631579637527466e-01</leafValues></_>
        <_>
          <internalNodes>
            0 -1 27 1.0967646812787279e-04</internalNodes>
          <leafValues>
            -3.8410800695419312e-01 4.2949014902114868e-01</leafValues></_>
        <_>
          <internalNodes>
            0 -1 81 2.2850491222925484e-04</internalNodes>
          <leafValues>
            -6.2446588277816772e-01 2.6273262500762939e-01</leafValues></_>
        <_>
          <internalNodes>
            0 -1 72 -1.8030311912298203e-04</internalNodes>
          <leafValues>
            -3.6406505107879639e-01 3.5434550046920776e-01</leafValues></_>
        <_>
          <internalNodes>
            0 -1 73 -1.6213355411309749e-04</internalNodes>
          <leafValues>
            4.0107765793800354e-01 -3.0562144517898560e-01</leafValues></_>
        <_>
          <internalNodes>
            0 -1 108 -5.0820002797991037e-05</internalNodes>
          <leafValues>
            2.1334785223007202e-01 -6.6348600387573242e-01</leafValues></_>
        <_>
          <internalNodes>
            0 -1 58 -2.1967682242393494e-01</internalNodes>
          <leafValues>
            -8.3806806802749634e-01 1.5411426126956940e-01</leafValues></_>
        <_>
          <internalNodes>
            0 -1 9 -3.8082788232713938e-03</internalNodes>
          <leafValues>
            7.8680968284606934e-01 -1.8351574242115021e-01</leafValues></_></weakClassifiers></_>
    <!-- stage 14 -->
    <_>
      <maxWeakCount>13</maxWeakCount>
      <stageThreshold>-1.0295275449752808e+00</stageThreshold>
      <weakClassifiers>
        <_>
          <internalNodes>
            0 -1 25 5.9639732353389263e-04</internalNodes>
          <leafValues>
            5.0048589706420898e-01 -4.2435425519943237e-01</leafValues></_>
        <_>
          <internalNodes>
            0 -1 90 -6.4114434644579887e-04</internalNodes>
          <leafValues>
            2.5192466378211975e-01 -6.6850697994232178e-01</leafValues></_>
        <_>
          <internalNodes>
            0 -1 53 1.2000896967947483e-03</internalNodes>
          <leafValues>
            2.1105489134788513e-01 -5.4222244024276733e-01</leafValues></_>
        <_>
          <internalNodes>
            0 -1 109 -1.0074607562273741e-03</internalNodes>
          <leafValues>
            5.9888690710067749e-01 -2.4071453511714935e-01</leafValues></_>
        <_>
          <internalNodes>
            0 -1 79 -1.1716582230292261e-04</internalNodes>
          <leafValues>
            -6.2485122680664063e-01 1.9691051542758942e-01</leafValues></_>
        <_>
          <internalNodes>
            0 -1 95 -2.3969612084329128e-03</internalNodes>
          <leafValues>
            4.7324064373970032e-01 -2.7330744266510010e-01</leafValues></_>
        <_>
          <internalNodes>
            0 -1 110 -1.1031312897102907e-04</internalNodes>
          <leafValues>
            2.8938043117523193e-01 -4.3046906590461731e-01</leafValues></_>
        <_>
          <internalNodes>
            0 -1 2 9.6839889883995056e-03</internalNodes>
          <leafValues>
            -1.5660215914249420e-01 9.3895488977432251e-01</leafValues></_>
        <_>
          <internalNodes>
            0 -1 54 7.5018260395154357e-04</internalNodes>
          <leafValues>
            1.8289242684841156e-01 -9.5881646871566772e-01</leafValues></_>
        <_>
          <internalNodes>
            0 -1 61 5.4021710529923439e-03</internalNodes>
          <leafValues>
            -2.2403971850872040e-01 6.4797824621200562e-01</leafValues></_>
        <_>
          <internalNodes>
            0 -1 15 -1.0690542403608561e-03</internalNodes>
          <leafValues>
            7.0107090473175049e-01 -1.6348762810230255e-01</leafValues></_>
        <_>
          <internalNodes>
            0 -1 93 -1.3285104068927467e-04</internalNodes>
          <leafValues>
            -6.0984826087951660e-01 2.1145071089267731e-01</leafValues></_>
        <_>
          <internalNodes>
            0 -1 100 8.6489331442862749e-04</internalNodes>
          <leafValues>
            -2.7432709932327271e-01 4.8504391312599182e-01</leafValues></_></weakClassifiers></_></stages>
  <features>
    <_>
      <rects>
        <_>
          2 5 16 14 -1.</_>
        <_>
          2 12 16 7 2.</_></rects>
      <tilted>0</tilted></_>
    <_>
      <rects>
        <_>
          2 8 2 2 -1.</_>
        <_>
          2 8 1 1 2.</_>
        <_>
          3 9 1 1 2.</_></rects>
      <tilted>0</tilted></_>
    <_>
      <rects>
        <_>
          2 11 3 6 -1.</_>
        <_>
          3 11 1 6 3.</_></rects>
      <tilted>0</tilted></_>
    <_>
      <rects>
        <_>
          3 6 4 2 -1.</_>
        <_>
          3 6 2 1 2.</_>
        <_>
          5 7 2 1 2.</_></rects>
      <tilted>0</tilted></_>
    <_>
      <rects>
        <_>
          3 6 2 4 -1.</_>
        <_>
          3 8 2 2 2.</_></rects>
      <tilted>0</tilted></_>
    <_>
      <rects>
        <_>
          4 5 4 2 -1.</_>
        <_>
          4 5 2 1 2.</_>
        <_>
          6 6 2 1 2.</_></rects>
      <tilted>0</tilted></_>
    <_>
      <rects>
        <_>
          4 6 12 2 -1.</_>
        <_>
          8 6 4 2 3.</_></rects>
      <tilted>0</tilted></_>
    <_>
      <rects>
        <_>
          4 7 2 2 -1.</_>
        <_>
          5 7 1 2 2.</_></rects>
      <tilted>0</tilted></_>
    <_>
      <rects>
        <_>
          4 13 2 2 -1.</_>
        <_>
          4 13 1 1 2.</_>
        <_>
          5 14 1 1 2.</_></rects>
      <tilted>0</tilted></_>
    <_>
      <rects>
        <_>
          5 4 2 8 -1.</_>
        <_>
          5 4 1 4 2.</_>
        <_>
          6 8 1 4 2.</_></rects>
      <tilted>0</tilted></_>
    <_>
      <rects>
        <_>
          5 6 2 1 -1.</_>
        <_>
          6 6 1 1 2.</_></rects>
      <tilted>0</tilted></_>
    <_>
      <rects>
        <_>
          5 6 1 3 -1.</_>
        <_>
          5 7 1 1 3.</_></rects>
      <tilted>0</tilted></_>
    <_>
      <rects>
        <_>
          5 7 4 2 -1.</_>
        <_>
          5 7 2 1 2.</_>
        <_>
          7 8 2 1 2.</_></rects>
      <tilted>0</tilted></_>
    <_>
      <rects>
        <_>
          5 9 1 6 -1.</_>
        <_>
          5 11 1 2 3.</_></rects>
      <tilted>0</tilted></_>
    <_>
      <rects>
        <_>
          5 9 6 2 -1.</_>
        <_>
          7 9 2 2 3.</_></rects>
      <tilted>0</tilted></_>
    <_>
      <rects>
        <_>
          5 9 15 1 -1.</_>
        <_>
          10 9 5 1 3.</_></rects>
      <tilted>0</tilted></_>
    <_>
      <rects>
        <_>
          6 2 14 8 -1.</_>
        <_>
          6 2 7 4 2.</_>
        <_>
          13 6 7 4 2.</_></rects>
      <tilted>0</tilted></_>
    <_>
      <rects>
        <_>
          6 4 3 2 -1.</_>
        <_>
          7 4 1 2 3.</_></rects>
      <tilted>0</tilted></_>
    <_>
      <rects>
        <_>
          6 6 2 1 -1.</_>
        <_>
          7 6 1 1 2.</_></rects>
      <tilted>0</tilted></_>
    <_>
      <rects>
        <_>
          6 6 2 4 -1.</_>
        <_>
          6 6 1 2 2.</_>
        <_>
          7 8 1 2 2.</_></rects>
      <tilted>0</tilted></_>
    <_>
      <rects>
        <_>
          6 7 5 6 -1.</_>
        <_>
          6 9 5 2 3.</_></rects>
      <tilted>0</tilted></_>
    <_>
      <rects>
        <_>
          6 8 2 3 -1.</_>
        <_>
          7 8 1 3 2.</_></rects>
      <tilted>0</tilted></_>
    <_>
      <rects>
        <_>
          6 8 4 3 -1.</_>
        <_>
          8 8 2 3 2.</_></rects>
      <tilted>0</tilted></_>
    <_>
      <rects>
        <_>
          6 8 4 5 -1.</_>
        <_>
          8 8 2 5 2.</_></rects>
      <tilted>0</tilted></_>
    <_>
      <rects>
        <_>
          6 8 3 2 -1.</_>
        <_>
          6 9 3 1 2.</_></rects>
      <tilted>0</tilted></_>
    <_>
      <rects>
        <_>
          6 9 6 1 -1.</_>
        <_>
          8 9 2 1 3.</_></rects>
      <tilted>0</tilted></_>
    <_>
      <rects>
        <_>
          6 9 6 3 -1.</_>
        <_>
          8 9 2 3 3.</_></rects>
      <tilted>0</tilted></_>
    <_>
      <rects>
        <_>
          6 9 3 2 -1.</_>
        <_>
          6 10 3 1 2.</_></rects>
      <tilted>0</tilted></_>
    <_>
      <rects>
        <_>
          6 9 9 3 -1.</_>
        <_>
          9 9 3 3 3.</_></rects>
      <tilted>0</tilted></_>
    <_>
      <rects>
        <_>
          6 9 4 3 -1.</_>
        <_>
          6 10 4 1 3.</_></rects>
      <tilted>0</tilted></_>
    <_>
      <rects>
        <_>
          6 9 7 3 -1.</_>
        <_>
          6 10 7 1 3.</_></rects>
      <tilted>0</tilted></_>
    <_>
      <rects>
        <_>
          6 10 6 2 -1.</_>
        <_>
          8 10 2 2 3.</_></rects>
      <tilted>0</tilted></_>
    <_>
      <rects>
        <_>
          6 11 1 4 -1.</_>
        <_>
          6 13 1 2 2.</_></rects>
      <tilted>0</tilted></_>
    <_>
      <rects>
        <_>
          7 4 6 4 -1.</_>
        <_>
          9 4 2 4 3.</_></rects>
      <tilted>0</tilted></_>
    <_>
      <rects>
        <_>
          7 5 4 1 -1.</_>
        <_>
          9 5 2 1 2.</_></rects>
      <tilted>0</tilted></_>
    <_>
      <rects>
        <_>
          7 5 4 2 -1.</_>
        <_>
          7 5 2 1 2.</_>
        <_>
          9 6 2 1 2.</_></rects>
      <tilted>0</tilted></_>
    <_>
      <rects>
        <_>
          7 5 4 4 -1.</_>
        <_>
          7 5 2 2 2.</_>
        <_>
          9 7 2 2 2.</_></rects>
      <tilted>0</tilted></_>
    <_>
      <rects>
        <_>
          7 7 2 2 -1.</_>
        <_>
          7 8 2 1 2.</_></rects>
      <tilted>0</tilted></_>
    <_>
      <rects>
        <_>
          7 8 2 1 -1.</_>
        <_>
          8 8 1 1 2.</_></rects>
      <tilted>0</tilted></_>
    <_>
      <rects>
        <_>
          7 8 1 2 -1.</_>
        <_>
          7 9 1 1 2.</_></rects>
      <tilted>0</tilted></_>
    <_>
      <rects>
        <_>
          7 8 1 6 -1.</_>
        <_>
          7 10 1 2 3.</_></rects>
      <tilted>0</tilted></_>
    <_>
      <rects>
        <_>
          7 8 3 4 -1.</_>
        <_>
          8 8 1 4 3.</_></rects>
      <tilted>0</tilted></_>
    <_>
      <rects>
        <_>
          7 8 2 2 -1.</_>
        <_>
          7 9 2 1 2.</_></rects>
      <tilted>0</tilted></_>
    <_>
      <rects>
        <_>
          7 8 3 2 -1.</_>
        <_>
          7 9 3 1 2.</_></rects>
      <tilted>0</tilted></_>
    <_>
      <rects>
        <_>
          7 8 9 2 -1.</_>
        <_>
          10 8 3 2 3.</_></rects>
      <tilted>0</tilted></_>
    <_>
      <rects>
        <_>
          7 8 4 6 -1.</_>
        <_>
          7 10 4 2 3.</_></rects>
      <tilted>0</tilted></_>
    <_>
      <rects>
        <_>
          7 8 6 2 -1.</_>
        <_>
          7 9 6 1 2.</_></rects>
      <tilted>0</tilted></_>
    <_>
      <rects>
        <_>
          7 9 3 3 -1.</_>
        <_>
          8 9 1 3 3.</_></rects>
      <tilted>0</tilted></_>
    <_>
      <rects>
        <_>
          7 9 4 1 -1.</_>
        <_>
          9 9 2 1 2.</_></rects>
      <tilted>0</tilted></_>
    <_>
      <rects>
        <_>
          7 9 6 1 -1.</_>
        <_>
          9 9 2 1 3.</_></rects>
      <tilted>0</tilted></_>
    <_>
      <rects>
        <_>
          7 9 4 2 -1.</_>
        <_>
          9 9 2 2 2.</_></rects>
      <tilted>0</tilted></_>
    <_>
      <rects>
        <_>
          7 9 6 2 -1.</_>
        <_>
          9 9 2 2 3.</_></rects>
      <tilted>0</tilted></_>
    <_>
      <rects>
        <_>
          7 9 3 2 -1.</_>
        <_>
          7 10 3 1 2.</_></rects>
      <tilted>0</tilted></_>
    <_>
      <rects>
        <_>
          7 9 9 1 -1.</_>
        <_>
          10 9 3 1 3.</_></rects>
      <tilted>0</tilted></_>
    <_>
      <rects>
        <_>
          7 10 3 2 -1.</_>
        <_>
          8 10 1 2 3.</_></rects>
      <tilted>0</tilted></_>
    <_>
      <rects>
        <_>
          7 10 4 3 -1.</_>
        <_>
          7 11 4 1 3.</_></rects>
      <tilted>0</tilted></_>
    <_>
      <rects>
        <_>
          7 11 4 3 -1.</_>
        <_>
          7 12 4 1 3.</_></rects>
      <tilted>0</tilted></_>
    <_>
      <rects>
        <_>
          7 14 2 3 -1.</_>
        <_>
          8 14 1 3 2.</_></rects>
      <tilted>0</tilted></_>
    <_>
      <rects>
        <_>
          8 2 6 18 -1.</_>
        <_>
          8 11 6 9 2.</_></rects>
      <tilted>0</tilted></_>
    <_>
      <rects>
        <_>
          8 5 6 2 -1.</_>
        <_>
          10 5 2 2 3.</_></rects>
      <tilted>0</tilted></_>
    <_>
      <rects>
        <_>
          8 6 6 1 -1.</_>
        <_>
          11 6 3 1 2.</_></rects>
      <tilted>0</tilted></_>
    <_>
      <rects>
        <_>
          8 6 8 3 -1.</_>
        <_>
          8 7 8 1 3.</_></rects>
      <tilted>0</tilted></_>
    <_>
      <rects>
        <_>
          8 7 1 2 -1.</_>
        <_>
          8 8 1 1 2.</_></rects>
      <tilted>0</tilted></_>
    <_>
      <rects>
        <_>
          8 8 3 2 -1.</_>
        <_>
          8 9 3 1 2.</_></rects>
      <tilted>0</tilted></_>
    <_>
      <rects>
        <_>
          8 9 3 3 -1.</_>
        <_>
          9 9 1 3 3.</_></rects>
      <tilted>0</tilted></_>
    <_>
      <rects>
        <_>
          8 9 6 2 -1.</_>
        <_>
          10 9 2 2 3.</_></rects>
      <tilted>0</tilted></_>
    <_>
      <rects>
        <_>
          8 9 6 1 -1.</_>
        <_>
          11 9 3 1 2.</_></rects>
      <tilted>0</tilted></_>
    <_>
      <rects>
        <_>
          8 9 5 3 -1.</_>
        <_>
          8 10 5 1 3.</_></rects>
      <tilted>0</tilted></_>
    <_>
      <rects>
        <_>
          8 10 1 3 -1.</_>
        <_>
          8 11 1 1 3.</_></rects>
      <tilted>0</tilted></_>
    <_>
      <rects>
        <_>
          8 10 3 2 -1.</_>
        <_>
          9 10 1 2 3.</_></rects>
      <tilted>0</tilted></_>
    <_>
      <rects>
        <_>
          8 10 2 3 -1.</_>
        <_>
          8 11 2 1 3.</_></rects>
      <tilted>0</tilted></_>
    <_>
      <rects>
        <_>
          8 12 1 2 -1.</_>
        <_>
          8 13 1 1 2.</_></rects>
      <tilted>0</tilted></_>
    <_>
      <rects>
        <_>
          8 12 8 1 -1.</_>
        <_>
          12 12 4 1 2.</_></rects>
      <tilted>0</tilted></_>
    <_>
      <rects>
        <_>
          8 13 2 1 -1.</_>
        <_>
          9 13 1 1 2.</_></rects>
      <tilted>0</tilted></_>
    <_>
      <rects>
        <_>
          9 8 1 6 -1.</_>
        <_>
          9 10 1 2 3.</_></rects>
      <tilted>0</tilted></_>
    <_>
      <rects>
        <_>
          9 9 1 2 -1.</_>
        <_>
          9 10 1 1 2.</_></rects>
      <tilted>0</tilted></_>
    <_>
      <rects>
        <_>
          9 9 4 2 -1.</_>
        <_>
          11 9 2 2 2.</_></rects>
      <tilted>0</tilted></_>
    <_>
      <rects>
        <_>
          9 9 6 1 -1.</_>
        <_>
          12 9 3 1 2.</_></rects>
      <tilted>0</tilted></_>
    <_>
      <rects>
        <_>
          9 9 6 2 -1.</_>
        <_>
          12 9 3 2 2.</_></rects>
      <tilted>0</tilted></_>
    <_>
      <rects>
        <_>
          9 10 3 2 -1.</_>
        <_>
          10 10 1 2 3.</_></rects>
      <tilted>0</tilted></_>
    <_>
      <rects>
        <_>
          9 10 6 1 -1.</_>
        <_>
          12 10 3 1 2.</_></rects>
      <tilted>0</tilted></_>
    <_>
      <rects>
        <_>
          9 10 3 3 -1.</_>
        <_>
          9 11 3 1 3.</_></rects>
      <tilted>0</tilted></_>
    <_>
      <rects>
        <_>
          9 12 1 2 -1.</_>
        <_>
          9 13 1 1 2.</_></rects>
      <tilted>0</tilted></_>
    <_>
      <rects>
        <_>
          9 13 2 2 -1.</_>
        <_>
          10 13 1 2 2.</_></rects>
      <tilted>0</tilted></_>
    <_>
      <rects>
        <_>
          10 5 3 1 -1.</_>
        <_>
          11 5 1 1 3.</_></rects>
      <tilted>0</tilted></_>
    <_>
      <rects>
        <_>
          10 9 2 1 -1.</_>
        <_>
          11 9 1 1 2.</_></rects>
      <tilted>0</tilted></_>
    <_>
      <rects>
        <_>
          10 9 2 2 -1.</_>
        <_>
          11 9 1 2 2.</_></rects>
      <tilted>0</tilted></_>
    <_>
      <rects>
        <_>
          10 9 4 2 -1.</_>
        <_>
          12 9 2 2 2.</_></rects>
      <tilted>0</tilted></_>
    <_>
      <rects>
        <_>
          10 9 6 1 -1.</_>
        <_>
          13 9 3 1 2.</_></rects>
      <tilted>0</tilted></_>
    <_>
      <rects>
        <_>
          10 10 1 3 -1.</_>
        <_>
          10 11 1 1 3.</_></rects>
      <tilted>0</tilted></_>
    <_>
      <rects>
        <_>
          10 10 1 4 -1.</_>
        <_>
          10 12 1 2 2.</_></rects>
      <tilted>0</tilted></_>
    <_>
      <rects>
        <_>
          10 10 4 1 -1.</_>
        <_>
          12 10 2 1 2.</_></rects>
      <tilted>0</tilted></_>
    <_>
      <rects>
        <_>
          10 10 2 2 -1.</_>
        <_>
          10 11 2 1 2.</_></rects>
      <tilted>0</tilted></_>
    <_>
      <rects>
        <_>
          10 11 3 1 -1.</_>
        <_>
          11 11 1 1 3.</_></rects>
      <tilted>0</tilted></_>
    <_>
      <rects>
        <_>
          10 12 1 2 -1.</_>
        <_>
          10 13 1 1 2.</_></rects>
      <tilted>0</tilted></_>
    <_>
      <rects>
        <_>
          11 3 5 4 -1.</_>
        <_>
          11 5 5 2 2.</_></rects>
      <tilted>0</tilted></_>
    <_>
      <rects>
        <_>
          11 4 4 2 -1.</_>
        <_>
          13 4 2 2 2.</_></rects>
      <tilted>0</tilted></_>
    <_>
      <rects>
        <_>
          11 5 3 3 -1.</_>
        <_>
          12 5 1 3 3.</_></rects>
      <tilted>0</tilted></_>
    <_>
      <rects>
        <_>
          11 8 1 2 -1.</_>
        <_>
          11 9 1 1 2.</_></rects>
      <tilted>0</tilted></_>
    <_>
      <rects>
        <_>
          11 10 1 8 -1.</_>
        <_>
          11 14 1 4 2.</_></rects>
      <tilted>0</tilted></_>
    <_>
      <rects>
        <_>
          11 11 1 3 -1.</_>
        <_>
          11 12 1 1 3.</_></rects>
      <tilted>0</tilted></_>
    <_>
      <rects>
        <_>
          12 9 4 1 -1.</_>
        <_>
          14 9 2 1 2.</_></rects>
      <tilted>0</tilted></_>
    <_>
      <rects>
        <_>
          12 10 3 1 -1.</_>
        <_>
          13 10 1 1 3.</_></rects>
      <tilted>0</tilted></_>
    <_>
      <rects>
        <_>
          12 10 4 2 -1.</_>
        <_>
          12 10 2 1 2.</_>
        <_>
          14 11 2 1 2.</_></rects>
      <tilted>0</tilted></_>
    <_>
      <rects>
        <_>
          12 11 3 1 -1.</_>
        <_>
          13 11 1 1 3.</_></rects>
      <tilted>0</tilted></_>
    <_>
      <rects>
        <_>
          14 7 6 5 -1.</_>
        <_>
          17 7 3 5 2.</_></rects>
      <tilted>0</tilted></_>
    <_>
      <rects>
        <_>
          14 9 2 1 -1.</_>
        <_>
          15 9 1 1 2.</_></rects>
      <tilted>0</tilted></_>
    <_>
      <rects>
        <_>
          14 10 2 1 -1.</_>
        <_>
          15 10 1 1 2.</_></rects>
      <tilted>0</tilted></_>
    <_>
      <rects>
        <_>
          14 10 2 2 -1.</_>
        <_>
          15 10 1 2 2.</_></rects>
      <tilted>0</tilted></_>
    <_>
      <rects>
        <_>
          14 14 1 3 -1.</_>
        <_>
          14 15 1 1 3.</_></rects>
      <tilted>0</tilted></_>
    <_>
      <rects>
        <_>
          15 9 2 2 -1.</_>
        <_>
          16 9 1 2 2.</_></rects>
      <tilted>0</tilted></_>
    <_>
      <rects>
        <_>
          15 10 4 1 -1.</_>
        <_>
          17 10 2 1 2.</_></rects>
      <tilted>0</tilted></_>
    <_>
      <rects>
        <_>
          16 9 2 2 -1.</_>
        <_>
          17 9 1 2 2.</_></rects>
      <tilted>0</tilted></_>
    <_>
      <rects>
        <_>
          16 10 3 2 -1.</_>
        <_>
          17 10 1 2 3.</_></rects>
      <tilted>0</tilted></_>
    <_>
      <rects>
        <_>
          16 10 3 5 -1.</_>
        <_>
          17 10 1 5 3.</_></rects>
      <tilted>0</tilted></_></features></cascade>
</opencv_storage>
