<?xml version="1.0"?>
<opencv_storage>
<cascade>
  <stageType>BOOST</stageType>
  <featureType>HAAR</featureType>
  <height>20</height>
  <width>20</width>
  <stageParams>
    <boostType>GAB</boostType>
    <minHitRate>9.9500000476837158e-01</minHitRate>
    <maxFalseAlarm>5.0000000000000000e-01</maxFalseAlarm>
    <weightTrimRate>9.4999999999999996e-01</weightTrimRate>
    <maxDepth>1</maxDepth>
    <maxWeakCount>100</maxWeakCount></stageParams>
  <featureParams>
    <maxCatCount>0</maxCatCount>
    <featSize>1</featSize>
    <mode>BASIC</mode></featureParams>
  <stageNum>15</stageNum>
  <stages>
    <!-- stage 0 -->
    <_>
      <maxWeakCount>4</maxWeakCount>
      <stageThreshold>-9.9389928579330444e-01</stageThreshold>
      <weakClassifiers>
        <_>
          <internalNodes>
            0 -1 21 5.2720278501510620e-02</internalNodes>
          <leafValues>
            -7.4944567680358887e-01 8.6925792694091797e-01</leafValues></_>
        <_>
          <internalNodes>
            0 -1 105 3.2370582222938538e-02</internalNodes>
          <leafValues>
            -6.8408238887786865e-01 6.3819134235382080e-01</leafValues></_>
        <_>
          <internalNodes>
            0 -1 95 -6.3478590163867921e-05</internalNodes>
          <leafValues>
            -9.0768688917160034e-01 2.5916483998298645e-01</leafValues></_>
        <_>
          <internalNodes>
            0 -1 139 1.4329500263556838e-03</internalNodes>
          <leafValues>
            1.8046398460865021e-01 -8.7629449367523193e-01</leafValues></_></weakClassifiers></_>
    <!-- stage 1 -->
    <_>
      <maxWeakCount>4</maxWeakCount>
      <stageThreshold>-7.4271637201309204e-01</stageThreshold>
      <weakClassifiers>
        <_>
          <internalNodes>
            0 -1 21 6.6988185048103333e-02</internalNodes>
          <leafValues>
            -6.2321794033050537e-01 8.7268233299255371e-01</leafValues></_>
        <_>
          <internalNodes>
            0 -1 61 6.3656389713287354e-02</internalNodes>
          <leafValues>
            -6.7713904380798340e-01 5.7823282480239868e-01</leafValues></_>
        <_>
          <internalNodes>
            0 -1 138 -4.8341618821723387e-05</internalNodes>
          <leafValues>
            -7.8820979595184326e-01 3.1135284900665283e-01</leafValues></_>
        <_>
          <internalNodes>
            0 -1 122 1.1831573647214100e-04</internalNodes>
          <leafValues>
            -7.1465003490447998e-01 2.4628776311874390e-01</leafValues></_></weakClassifiers></_>
    <!-- stage 2 -->
    <_>
      <maxWeakCount>8</maxWeakCount>
      <stageThreshold>-1.4055441617965698e+00</stageThreshold>
      <weakClassifiers>
        <_>
          <internalNodes>
            0 -1 14 1.0234012454748154e-01</internalNodes>
          <leafValues>
            -5.6501179933547974e-01 7.2862029075622559e-01</leafValues></_>
        <_>
          <internalNodes>
            0 -1 58 1.2339596450328827e-01</internalNodes>
          <leafValues>
            -4.5963442325592041e-01 5.1377213001251221e-01</leafValues></_>
        <_>
          <internalNodes>
            0 -1 150 -3.4161424264311790e-04</internalNodes>
          <leafValues>
            2.8007286787033081e-01 -6.7392891645431519e-01</leafValues></_>
        <_>
          <internalNodes>
            0 -1 96 -1.0828812082763761e-04</internalNodes>
          <leafValues>
            -8.2006853818893433e-01 1.9867742061614990e-01</leafValues></_>
        <_>
          <internalNodes>
            0 -1 48 -2.3300512693822384e-03</internalNodes>
          <leafValues>
            4.1810807585716248e-01 -3.8718259334564209e-01</leafValues></_>
        <_>
          <internalNodes>
            0 -1 127 -1.4543818542733788e-04</internalNodes>
          <leafValues>
            -9.3444055318832397e-01 1.6388434171676636e-01</leafValues></_>
        <_>
          <internalNodes>
            0 -1 124 -1.0091071017086506e-03</internalNodes>
          <leafValues>
            1.2905572354793549e-01 -8.5688740015029907e-01</leafValues></_>
        <_>
          <internalNodes>
            0 -1 141 -4.7262397129088640e-04</internalNodes>
          <leafValues>
            -7.9098963737487793e-01 1.8859606981277466e-01</leafValues></_></weakClassifiers></_>
    <!-- stage 3 -->
    <_>
      <maxWeakCount>10</maxWeakCount>
      <stageThreshold>-1.1613112688064575e+00</stageThreshold>
      <weakClassifiers>
        <_>
          <internalNodes>
            0 -1 4 1.6678676009178162e-01</internalNodes>
          <leafValues>
            -4.1421568393707275e-01 6.3789236545562744e-01</leafValues></_>
        <_>
          <internalNodes>
            0 -1 34 1.4583444222807884e-02</internalNodes>
          <leafValues>
            -3.8950335979461670e-01 5.1842635869979858e-01</leafValues></_>
        <_>
          <internalNodes>
            0 -1 135 1.4325002848636359e-04</internalNodes>
          <leafValues>
            -8.0808025598526001e-01 2.6040434837341309e-01</leafValues></_>
        <_>
          <internalNodes>
            0 -1 98 -6.6624432802200317e-03</internalNodes>
          <leafValues>
            1.6430096328258514e-01 -8.9099055528640747e-01</leafValues></_>
        <_>
          <internalNodes>
            0 -1 29 1.5246435999870300e-02</internalNodes>
          <leafValues>
            -3.7428340315818787e-01 4.5885968208312988e-01</leafValues></_>
        <_>
          <internalNodes>
            0 -1 117 -7.2945374995470047e-04</internalNodes>
          <leafValues>
            -7.3789817094802856e-01 2.0940744876861572e-01</leafValues></_>
        <_>
          <internalNodes>
            0 -1 26 -3.3430796116590500e-02</internalNodes>
          <leafValues>
            3.5754573345184326e-01 -3.9901301264762878e-01</leafValues></_>
        <_>
          <internalNodes>
            0 -1 141 2.2507955145556480e-04</internalNodes>
          <leafValues>
            1.8000558018684387e-01 -7.2909271717071533e-01</leafValues></_>
        <_>
          <internalNodes>
            0 -1 153 -7.3462906293570995e-03</internalNodes>
          <leafValues>
            5.5736041069030762e-01 -2.8480234742164612e-01</leafValues></_>
        <_>
          <internalNodes>
            0 -1 96 -2.6854086900129914e-04</internalNodes>
          <leafValues>
            -9.1904926300048828e-01 1.4725410938262939e-01</leafValues></_></weakClassifiers></_>
    <!-- stage 4 -->
    <_>
      <maxWeakCount>13</maxWeakCount>
      <stageThreshold>-1.2332575321197510e+00</stageThreshold>
      <weakClassifiers>
        <_>
          <internalNodes>
            0 -1 73 6.3868786673992872e-04</internalNodes>
          <leafValues>
            -5.2117264270782471e-01 5.6394761800765991e-01</leafValues></_>
        <_>
          <internalNodes>
            0 -1 142 3.2834248850122094e-04</internalNodes>
          <leafValues>
            -6.0171157121658325e-01 3.4620180726051331e-01</leafValues></_>
        <_>
          <internalNodes>
            0 -1 55 -3.2382877543568611e-03</internalNodes>
          <leafValues>
            4.3128955364227295e-01 -4.3101873993873596e-01</leafValues></_>
        <_>
          <internalNodes>
            0 -1 56 2.2841505706310272e-02</internalNodes>
          <leafValues>
            -4.1093707084655762e-01 3.9034947752952576e-01</leafValues></_>
        <_>
          <internalNodes>
            0 -1 139 8.8455475633963943e-04</internalNodes>
          <leafValues>
            2.0628464221954346e-01 -7.1367788314819336e-01</leafValues></_>
        <_>
          <internalNodes>
            0 -1 140 1.0217592353001237e-04</internalNodes>
          <leafValues>
            1.4215092360973358e-01 -8.9687114953994751e-01</leafValues></_>
        <_>
          <internalNodes>
            0 -1 94 -1.1894308030605316e-02</internalNodes>
          <leafValues>
            1.6147111356258392e-01 -6.8619215488433838e-01</leafValues></_>
        <_>
          <internalNodes>
            0 -1 20 -1.5967672690749168e-02</internalNodes>
          <leafValues>
            5.1110064983367920e-01 -2.8463393449783325e-01</leafValues></_>
        <_>
          <internalNodes>
            0 -1 112 1.6134083271026611e-03</internalNodes>
          <leafValues>
            -7.7548497915267944e-01 1.5173469483852386e-01</leafValues></_>
        <_>
          <internalNodes>
            0 -1 0 7.7606692910194397e-02</internalNodes>
          <leafValues>
            -3.4344089031219482e-01 3.0538442730903625e-01</leafValues></_>
        <_>
          <internalNodes>
            0 -1 164 -1.1242100037634373e-02</internalNodes>
          <leafValues>
            4.7707346081733704e-01 -2.2797679901123047e-01</leafValues></_>
        <_>
          <internalNodes>
            0 -1 126 -3.1219041557051241e-04</internalNodes>
          <leafValues>
            -5.0062000751495361e-01 2.1442770957946777e-01</leafValues></_>
        <_>
          <internalNodes>
            0 -1 123 -1.0541314259171486e-03</internalNodes>
          <leafValues>
            9.7623452544212341e-02 -9.1027617454528809e-01</leafValues></_></weakClassifiers></_>
    <!-- stage 5 -->
    <_>
      <maxWeakCount>16</maxWeakCount>
      <stageThreshold>-1.1301870346069336e+00</stageThreshold>
      <weakClassifiers>
        <_>
          <internalNodes>
            0 -1 33 1.6573550179600716e-02</internalNodes>
          <leafValues>
            -1.6300366818904877e-01 6.4854109287261963e-01</leafValues></_>
        <_>
          <internalNodes>
            0 -1 125 -1.3232033234089613e-04</internalNodes>
          <leafValues>
            -6.8556272983551025e-01 2.8793737292289734e-01</leafValues></_>
        <_>
          <internalNodes>
            0 -1 22 7.4064023792743683e-02</internalNodes>
          <leafValues>
            -3.4049406647682190e-01 4.9776878952980042e-01</leafValues></_>
        <_>
          <internalNodes>
            0 -1 125 1.7960116383619606e-04</internalNodes>
          <leafValues>
            2.7670338749885559e-01 -5.3118693828582764e-01</leafValues></_>
        <_>
          <internalNodes>
            0 -1 82 -1.1516561731696129e-02</internalNodes>
          <leafValues>
            3.7272238731384277e-01 -3.5453322529792786e-01</leafValues></_>
        <_>
          <internalNodes>
            0 -1 79 3.7482473999261856e-03</internalNodes>
          <leafValues>
            -3.9649260044097900e-01 3.5000318288803101e-01</leafValues></_>
        <_>
          <internalNodes>
            0 -1 112 4.2034019716084003e-03</internalNodes>
          <leafValues>
            -6.4718401432037354e-01 1.7871035635471344e-01</leafValues></_>
        <_>
          <internalNodes>
            0 -1 44 6.4591225236654282e-03</internalNodes>
          <leafValues>
            -2.5192546844482422e-01 4.9061268568038940e-01</leafValues></_>
        <_>
          <internalNodes>
            0 -1 129 9.3857524916529655e-05</internalNodes>
          <leafValues>
            -6.6382360458374023e-01 1.5627133846282959e-01</leafValues></_>
        <_>
          <internalNodes>
            0 -1 97 7.9657693277113140e-05</internalNodes>
          <leafValues>
            -6.3592886924743652e-01 1.0538771748542786e-01</leafValues></_>
        <_>
          <internalNodes>
            0 -1 142 1.7648405628278852e-04</internalNodes>
          <leafValues>
            -4.6461021900177002e-01 1.9419793784618378e-01</leafValues></_>
        <_>
          <internalNodes>
            0 -1 64 2.1810194477438927e-02</internalNodes>
          <leafValues>
            1.2443825602531433e-01 -7.0099282264709473e-01</leafValues></_>
        <_>
          <internalNodes>
            0 -1 2 2.1062262356281281e-02</internalNodes>
          <leafValues>
            -3.7487435340881348e-01 2.4772770702838898e-01</leafValues></_>
        <_>
          <internalNodes>
            0 -1 136 -1.0175861825700849e-04</internalNodes>
          <leafValues>
            -5.3391909599304199e-01 1.5688277781009674e-01</leafValues></_>
        <_>
          <internalNodes>
            0 -1 138 3.6534958780976012e-05</internalNodes>
          <leafValues>
            -4.1539323329925537e-01 2.0192970335483551e-01</leafValues></_>
        <_>
          <internalNodes>
            0 -1 40 5.1798960193991661e-03</internalNodes>
          <leafValues>
            -1.2820160388946533e-01 7.7510523796081543e-01</leafValues></_></weakClassifiers></_>
    <!-- stage 6 -->
    <_>
      <maxWeakCount>16</maxWeakCount>
      <stageThreshold>-1.0846811532974243e+00</stageThreshold>
      <weakClassifiers>
        <_>
          <internalNodes>
            0 -1 13 1.8731698393821716e-01</internalNodes>
          <leafValues>
            -9.6035242080688477e-02 6.2047779560089111e-01</leafValues></_>
        <_>
          <internalNodes>
            0 -1 51 -1.1547727510333061e-02</internalNodes>
          <leafValues>
            5.6116098165512085e-01 -1.8466404080390930e-01</leafValues></_>
        <_>
          <internalNodes>
            0 -1 155 -9.1825816780328751e-03</internalNodes>
          <leafValues>
            4.6073922514915466e-01 -2.3581261932849884e-01</leafValues></_>
        <_>
          <internalNodes>
            0 -1 75 3.1309291720390320e-02</internalNodes>
          <leafValues>
            1.0226205736398697e-01 -8.7065279483795166e-01</leafValues></_>
        <_>
          <internalNodes>
            0 -1 17 -3.0411719344556332e-03</internalNodes>
          <leafValues>
            3.5420057177543640e-01 -3.3797571063041687e-01</leafValues></_>
        <_>
          <internalNodes>
            0 -1 138 -6.4694235334172845e-05</internalNodes>
          <leafValues>
            -7.1494144201278687e-01 1.4870449900627136e-01</leafValues></_>
        <_>
          <internalNodes>
            0 -1 118 -6.0353195294737816e-03</internalNodes>
          <leafValues>
            1.0946168750524521e-01 -7.5021934509277344e-01</leafValues></_>
        <_>
          <internalNodes>
            0 -1 125 2.5370111688971519e-04</internalNodes>
          <leafValues>
            1.5891002118587494e-01 -5.5475515127182007e-01</leafValues></_>
        <_>
          <internalNodes>
            0 -1 104 3.6125574260950089e-03</internalNodes>
          <leafValues>
            -2.1976953744888306e-01 4.5070445537567139e-01</leafValues></_>
        <_>
          <internalNodes>
            0 -1 127 -9.5033130492083728e-05</internalNodes>
          <leafValues>
            -9.1539955139160156e-01 1.1146829277276993e-01</leafValues></_>
        <_>
          <internalNodes>
            0 -1 93 1.4424013905227184e-02</internalNodes>
          <leafValues>
            -2.8030481934547424e-01 4.1741165518760681e-01</leafValues></_>
        <_>
          <internalNodes>
            0 -1 156 3.1808033585548401e-02</internalNodes>
          <leafValues>
            -1.3200603425502777e-01 6.8191629648208618e-01</leafValues></_>
        <_>
          <internalNodes>
            0 -1 115 6.9881184026598930e-04</internalNodes>
          <leafValues>
            -4.5107224583625793e-01 2.3060156404972076e-01</leafValues></_>
        <_>
          <internalNodes>
            0 -1 141 -7.5915522756986320e-05</internalNodes>
          <leafValues>
            -3.8340881466865540e-01 2.3973678052425385e-01</leafValues></_>
        <_>
          <internalNodes>
            0 -1 41 -3.6028805188834667e-03</internalNodes>
          <leafValues>
            4.8390066623687744e-01 -1.8002673983573914e-01</leafValues></_>
        <_>
          <internalNodes>
            0 -1 87 4.3184053152799606e-02</internalNodes>
          <leafValues>
            -1.3651719689369202e-01 7.1604406833648682e-01</leafValues></_></weakClassifiers></_>
    <!-- stage 7 -->
    <_>
      <maxWeakCount>15</maxWeakCount>
      <stageThreshold>-1.1778620481491089e+00</stageThreshold>
      <weakClassifiers>
        <_>
          <internalNodes>
            0 -1 73 3.2625795574858785e-04</internalNodes>
          <leafValues>
            -5.7033246755599976e-01 4.6310546994209290e-01</leafValues></_>
        <_>
          <internalNodes>
            0 -1 161 -1.2273190543055534e-02</internalNodes>
          <leafValues>
            4.1107115149497986e-01 -3.4781569242477417e-01</leafValues></_>
        <_>
          <internalNodes>
            0 -1 59 1.1173544824123383e-01</internalNodes>
          <leafValues>
            -5.8829098939895630e-01 2.5756847858428955e-01</leafValues></_>
        <_>
          <internalNodes>
            0 -1 49 -8.9385174214839935e-03</internalNodes>
          <leafValues>
            4.8547294735908508e-01 -3.0600875616073608e-01</leafValues></_>
        <_>
          <internalNodes>
            0 -1 10 1.7192759551107883e-03</internalNodes>
          <leafValues>
            -2.6403185725212097e-01 5.0268083810806274e-01</leafValues></_>
        <_>
          <internalNodes>
            0 -1 141 2.3664550099056214e-04</internalNodes>
          <leafValues>
            1.4968292415142059e-01 -8.3067864179611206e-01</leafValues></_>
        <_>
          <internalNodes>
            0 -1 141 -1.3919695629738271e-04</internalNodes>
          <leafValues>
            -5.6167882680892944e-01 2.0398205518722534e-01</leafValues></_>
        <_>
          <internalNodes>
            0 -1 107 -3.1199138611555099e-03</internalNodes>
          <leafValues>
            5.1296395063400269e-01 -2.4280622601509094e-01</leafValues></_>
        <_>
          <internalNodes>
            0 -1 110 3.7401439622044563e-03</internalNodes>
          <leafValues>
            -2.4231930077075958e-01 4.5289602875709534e-01</leafValues></_>
        <_>
          <internalNodes>
            0 -1 67 1.2729251757264137e-02</internalNodes>
          <leafValues>
            1.7180497944355011e-01 -7.1004199981689453e-01</leafValues></_>
        <_>
          <internalNodes>
            0 -1 83 -1.9983928650617599e-02</internalNodes>
          <leafValues>
            4.0319785475730896e-01 -2.5748160481452942e-01</leafValues></_>
        <_>
          <internalNodes>
            0 -1 148 -5.7565215684007853e-05</internalNodes>
          <leafValues>
            2.4804532527923584e-01 -4.6705135703086853e-01</leafValues></_>
        <_>
          <internalNodes>
            0 -1 12 -3.0107763595879078e-03</internalNodes>
          <leafValues>
            4.7478803992271423e-01 -1.9327901303768158e-01</leafValues></_>
        <_>
          <internalNodes>
            0 -1 160 6.5821766853332520e-02</internalNodes>
          <leafValues>
            -1.0484946519136429e-01 7.6044887304306030e-01</leafValues></_>
        <_>
          <internalNodes>
            0 -1 75 2.9572220519185066e-02</internalNodes>
          <leafValues>
            1.3240014016628265e-01 -7.9360336065292358e-01</leafValues></_></weakClassifiers></_>
    <!-- stage 8 -->
    <_>
      <maxWeakCount>14</maxWeakCount>
      <stageThreshold>-8.9302515983581543e-01</stageThreshold>
      <weakClassifiers>
        <_>
          <internalNodes>
            0 -1 52 -1.6744032036513090e-03</internalNodes>
          <leafValues>
            5.9520804882049561e-01 -1.4201183617115021e-01</leafValues></_>
        <_>
          <internalNodes>
            0 -1 141 1.9646945293061435e-04</internalNodes>
          <leafValues>
            1.9581481814384460e-01 -7.5864666700363159e-01</leafValues></_>
        <_>
          <internalNodes>
            0 -1 151 -1.9447475671768188e-02</internalNodes>
          <leafValues>
            5.1891404390335083e-01 -2.3233579099178314e-01</leafValues></_>
        <_>
          <internalNodes>
            0 -1 85 1.7409987747669220e-01</internalNodes>
          <leafValues>
            -2.5586342811584473e-01 3.9416486024856567e-01</leafValues></_>
        <_>
          <internalNodes>
            0 -1 46 2.8501380234956741e-02</internalNodes>
          <leafValues>
            -2.1620200574398041e-01 5.0902521610260010e-01</leafValues></_>
        <_>
          <internalNodes>
            0 -1 45 -2.5099523365497589e-02</internalNodes>
          <leafValues>
            6.2064260244369507e-01 -1.3971142470836639e-01</leafValues></_>
        <_>
          <internalNodes>
            0 -1 120 -3.4583365049911663e-05</internalNodes>
          <leafValues>
            -5.8229261636734009e-01 1.7335467040538788e-01</leafValues></_>
        <_>
          <internalNodes>
            0 -1 145 2.3349898401647806e-03</internalNodes>
          <leafValues>
            1.2996818125247955e-01 -7.5405174493789673e-01</leafValues></_>
        <_>
          <internalNodes>
            0 -1 89 1.9874065183103085e-03</internalNodes>
          <leafValues>
            -2.4226826429367065e-01 4.1850623488426208e-01</leafValues></_>
        <_>
          <internalNodes>
            0 -1 116 -1.4421742525883019e-04</internalNodes>
          <leafValues>
            -6.2327152490615845e-01 2.3495721817016602e-01</leafValues></_>
        <_>
          <internalNodes>
            0 -1 132 2.7158486191183329e-03</internalNodes>
          <leafValues>
            -2.3490647971630096e-01 4.7829076647758484e-01</leafValues></_>
        <_>
          <internalNodes>
            0 -1 130 -3.8133473135530949e-03</internalNodes>
          <leafValues>
            5.3803735971450806e-01 -2.2843448817729950e-01</leafValues></_>
        <_>
          <internalNodes>
            0 -1 95 -1.0777330317068845e-04</internalNodes>
          <leafValues>
            -9.9355566501617432e-01 1.3140985369682312e-01</leafValues></_>
        <_>
          <internalNodes>
            0 -1 3 -1.5431758947670460e-02</internalNodes>
          <leafValues>
            -5.6869238615036011e-01 1.3065804541110992e-01</leafValues></_></weakClassifiers></_>
    <!-- stage 9 -->
    <_>
      <maxWeakCount>19</maxWeakCount>
      <stageThreshold>-1.0857331752777100e+00</stageThreshold>
      <weakClassifiers>
        <_>
          <internalNodes>
            0 -1 39 1.1733626946806908e-02</internalNodes>
          <leafValues>
            -1.9828510284423828e-01 5.9088182449340820e-01</leafValues></_>
        <_>
          <internalNodes>
            0 -1 143 1.4875151100568473e-04</internalNodes>
          <leafValues>
            -4.1713377833366394e-01 3.6094939708709717e-01</leafValues></_>
        <_>
          <internalNodes>
            0 -1 74 6.1793532222509384e-04</internalNodes>
          <leafValues>
            -4.6963500976562500e-01 3.0290481448173523e-01</leafValues></_>
        <_>
          <internalNodes>
            0 -1 29 1.4620517380535603e-02</internalNodes>
          <leafValues>
            -3.1370919942855835e-01 3.4666931629180908e-01</leafValues></_>
        <_>
          <internalNodes>
            0 -1 142 4.5636651339009404e-04</internalNodes>
          <leafValues>
            -5.1132988929748535e-01 2.0571401715278625e-01</leafValues></_>
        <_>
          <internalNodes>
            0 -1 68 -8.4511348977684975e-03</internalNodes>
          <leafValues>
            5.0098973512649536e-01 -2.0256945490837097e-01</leafValues></_>
        <_>
          <internalNodes>
            0 -1 25 1.3576501514762640e-03</internalNodes>
          <leafValues>
            -2.5679185986518860e-01 3.8908362388610840e-01</leafValues></_>
        <_>
          <internalNodes>
            0 -1 11 5.8076782152056694e-03</internalNodes>
          <leafValues>
            -1.9463557004928589e-01 5.1891314983367920e-01</leafValues></_>
        <_>
          <internalNodes>
            0 -1 146 -2.5260549038648605e-02</internalNodes>
          <leafValues>
            7.1906149387359619e-01 -1.4153587818145752e-01</leafValues></_>
        <_>
          <internalNodes>
            0 -1 102 3.8760933093726635e-03</internalNodes>
          <leafValues>
            1.4808647334575653e-01 -8.0705332756042480e-01</leafValues></_>
        <_>
          <internalNodes>
            0 -1 111 3.7913862615823746e-02</internalNodes>
          <leafValues>
            1.0736988484859467e-01 -6.7174166440963745e-01</leafValues></_>
        <_>
          <internalNodes>
            0 -1 62 -1.9003219902515411e-02</internalNodes>
          <leafValues>
            7.5233757495880127e-01 -1.2486442923545837e-01</leafValues></_>
        <_>
          <internalNodes>
            0 -1 108 6.6568749025464058e-03</internalNodes>
          <leafValues>
            -1.1915542185306549e-01 6.9951599836349487e-01</leafValues></_>
        <_>
          <internalNodes>
            0 -1 106 -4.6593165025115013e-03</internalNodes>
          <leafValues>
            5.1030361652374268e-01 -1.5599110722541809e-01</leafValues></_>
        <_>
          <internalNodes>
            0 -1 134 1.9079595804214478e-02</internalNodes>
          <leafValues>
            1.3675324618816376e-01 -6.3513159751892090e-01</leafValues></_>
        <_>
          <internalNodes>
            0 -1 28 -7.8365400433540344e-02</internalNodes>
          <leafValues>
            -6.9285410642623901e-01 1.2162084132432938e-01</leafValues></_>
        <_>
          <internalNodes>
            0 -1 128 -5.4895055654924363e-05</internalNodes>
          <leafValues>
            -4.9399730563163757e-01 1.6126193106174469e-01</leafValues></_>
        <_>
          <internalNodes>
            0 -1 54 -2.4205325171351433e-03</internalNodes>
          <leafValues>
            4.4124403595924377e-01 -2.0361995697021484e-01</leafValues></_>
        <_>
          <internalNodes>
            0 -1 36 1.4479362964630127e-01</internalNodes>
          <leafValues>
            1.2885640561580658e-01 -7.5351607799530029e-01</leafValues></_></weakClassifiers></_>
    <!-- stage 10 -->
    <_>
      <maxWeakCount>16</maxWeakCount>
      <stageThreshold>-1.0269114971160889e+00</stageThreshold>
      <weakClassifiers>
        <_>
          <internalNodes>
            0 -1 37 5.1300376071594656e-05</internalNodes>
          <leafValues>
            6.0178118944168091e-01 -1.4202333986759186e-01</leafValues></_>
        <_>
          <internalNodes>
            0 -1 5 -8.5238898172974586e-03</internalNodes>
          <leafValues>
            5.0023180246353149e-01 -2.1997873485088348e-01</leafValues></_>
        <_>
          <internalNodes>
            0 -1 46 -2.8380049392580986e-02</internalNodes>
          <leafValues>
            7.1058762073516846e-01 -1.4963598549365997e-01</leafValues></_>
        <_>
          <internalNodes>
            0 -1 31 -9.5617081969976425e-03</internalNodes>
          <leafValues>
            5.2861827611923218e-01 -3.1643372774124146e-01</leafValues></_>
        <_>
          <internalNodes>
            0 -1 125 -7.3021874413825572e-05</internalNodes>
          <leafValues>
            -5.7599383592605591e-01 2.1717022359371185e-01</leafValues></_>
        <_>
          <internalNodes>
            0 -1 125 2.4544389452785254e-04</internalNodes>
          <leafValues>
            1.8501418828964233e-01 -6.2027269601821899e-01</leafValues></_>
        <_>
          <internalNodes>
            0 -1 149 -1.4129630289971828e-03</internalNodes>
          <leafValues>
            1.7604760825634003e-01 -6.3546890020370483e-01</leafValues></_>
        <_>
          <internalNodes>
            0 -1 163 -7.5208366615697742e-04</internalNodes>
          <leafValues>
            4.3749856948852539e-01 -2.7048075199127197e-01</leafValues></_>
        <_>
          <internalNodes>
            0 -1 18 2.1789588034152985e-02</internalNodes>
          <leafValues>
            -1.5019662678241730e-01 7.7406734228134155e-01</leafValues></_>
        <_>
          <internalNodes>
            0 -1 99 -1.2657711282372475e-02</internalNodes>
          <leafValues>
            6.7758470773696899e-01 -1.5087996423244476e-01</leafValues></_>
        <_>
          <internalNodes>
            0 -1 42 3.4086648374795914e-03</internalNodes>
          <leafValues>
            -1.4161200821399689e-01 6.5103143453598022e-01</leafValues></_>
        <_>
          <internalNodes>
            0 -1 24 -4.5297159813344479e-03</internalNodes>
          <leafValues>
            6.5296280384063721e-01 -1.3728614151477814e-01</leafValues></_>
        <_>
          <internalNodes>
            0 -1 65 1.1319817043840885e-02</internalNodes>
          <leafValues>
            -1.0182744264602661e-01 7.4786669015884399e-01</leafValues></_>
        <_>
          <internalNodes>
            0 -1 114 -5.4607465863227844e-02</internalNodes>
          <leafValues>
            -8.1616640090942383e-01 1.4515918493270874e-01</leafValues></_>
        <_>
          <internalNodes>
            0 -1 72 -7.4268056778237224e-05</internalNodes>
          <leafValues>
            2.7604773640632629e-01 -3.5428869724273682e-01</leafValues></_>
        <_>
          <internalNodes>
            0 -1 152 -4.0699116652831435e-04</internalNodes>
          <leafValues>
            2.9959374666213989e-01 -3.3586975932121277e-01</leafValues></_></weakClassifiers></_>
    <!-- stage 11 -->
    <_>
      <maxWeakCount>17</maxWeakCount>
      <stageThreshold>-9.5926100015640259e-01</stageThreshold>
      <weakClassifiers>
        <_>
          <internalNodes>
            0 -1 7 2.3520576953887939e-01</internalNodes>
          <leafValues>
            -1.7658931016921997e-01 6.0596644878387451e-01</leafValues></_>
        <_>
          <internalNodes>
            0 -1 50 1.7506497679278255e-03</internalNodes>
          <leafValues>
            -3.7385120987892151e-01 3.1361240148544312e-01</leafValues></_>
        <_>
          <internalNodes>
            0 -1 76 -6.8402767647057772e-04</internalNodes>
          <leafValues>
            3.3866724371910095e-01 -3.4209516644477844e-01</leafValues></_>
        <_>
          <internalNodes>
            0 -1 157 2.9127195011824369e-04</internalNodes>
          <leafValues>
            -3.7688151001930237e-01 2.7711734175682068e-01</leafValues></_>
        <_>
          <internalNodes>
            0 -1 69 1.7541565001010895e-02</internalNodes>
          <leafValues>
            1.2039019167423248e-01 -7.9503256082534790e-01</leafValues></_>
        <_>
          <internalNodes>
            0 -1 8 -2.1791134029626846e-02</internalNodes>
          <leafValues>
            2.5411859154701233e-01 -3.8059738278388977e-01</leafValues></_>
        <_>
          <internalNodes>
            0 -1 138 1.7524804206914268e-05</internalNodes>
          <leafValues>
            -4.7508367896080017e-01 2.3583020269870758e-01</leafValues></_>
        <_>
          <internalNodes>
            0 -1 138 3.0328505090437829e-04</internalNodes>
          <leafValues>
            2.1341836452484131e-01 -5.5922269821166992e-01</leafValues></_>
        <_>
          <internalNodes>
            0 -1 30 5.4645553231239319e-02</internalNodes>
          <leafValues>
            -1.4649385213851929e-01 7.5821113586425781e-01</leafValues></_>
        <_>
          <internalNodes>
            0 -1 66 1.2216582894325256e-02</internalNodes>
          <leafValues>
            -2.0416177809238434e-01 6.1227715015411377e-01</leafValues></_>
        <_>
          <internalNodes>
            0 -1 35 -1.0131200775504112e-02</internalNodes>
          <leafValues>
            -5.4693233966827393e-01 2.0813173055648804e-01</leafValues></_>
        <_>
          <internalNodes>
            0 -1 119 1.9999404321424663e-04</internalNodes>
          <leafValues>
            2.1200029551982880e-01 -5.6303268671035767e-01</leafValues></_>
        <_>
          <internalNodes>
            0 -1 43 1.4495471492409706e-02</internalNodes>
          <leafValues>
            -3.0947852134704590e-01 3.4917753934860229e-01</leafValues></_>
        <_>
          <internalNodes>
            0 -1 91 1.1692436411976814e-02</internalNodes>
          <leafValues>
            -1.6204859316349030e-01 7.0537483692169189e-01</leafValues></_>
        <_>
          <internalNodes>
            0 -1 120 3.3594173146411777e-05</internalNodes>
          <leafValues>
            -4.1023313999176025e-01 2.5947749614715576e-01</leafValues></_>
        <_>
          <internalNodes>
            0 -1 16 1.4418315142393112e-02</internalNodes>
          <leafValues>
            -1.8788371980190277e-01 5.0560498237609863e-01</leafValues></_>
        <_>
          <internalNodes>
            0 -1 103 -3.6492697894573212e-02</internalNodes>
          <leafValues>
            8.5218453407287598e-01 -1.0601906478404999e-01</leafValues></_></weakClassifiers></_>
    <!-- stage 12 -->
    <_>
      <maxWeakCount>16</maxWeakCount>
      <stageThreshold>-9.2424249649047852e-01</stageThreshold>
      <weakClassifiers>
        <_>
          <internalNodes>
            0 -1 88 4.2782783508300781e-02</internalNodes>
          <leafValues>
            -4.8214286565780640e-01 4.7211897373199463e-01</leafValues></_>
        <_>
          <internalNodes>
            0 -1 6 3.4978586435317993e-01</internalNodes>
          <leafValues>
            -3.3589431643486023e-01 4.2269805073738098e-01</leafValues></_>
        <_>
          <internalNodes>
            0 -1 125 -2.8072134591639042e-04</internalNodes>
          <leafValues>
            -7.9206639528274536e-01 1.6309332847595215e-01</leafValues></_>
        <_>
          <internalNodes>
            0 -1 154 -2.2926002740859985e-02</internalNodes>
          <leafValues>
            6.6546374559402466e-01 -2.1160857379436493e-01</leafValues></_>
        <_>
          <internalNodes>
            0 -1 101 5.3132656030356884e-03</internalNodes>
          <leafValues>
            -2.5076663494110107e-01 6.4836066961288452e-01</leafValues></_>
        <_>
          <internalNodes>
            0 -1 100 -5.0562298856675625e-03</internalNodes>
          <leafValues>
            6.1462312936782837e-01 -2.2915807366371155e-01</leafValues></_>
        <_>
          <internalNodes>
            0 -1 70 3.5829079570248723e-04</internalNodes>
          <leafValues>
            -3.2989796996116638e-01 3.6062750220298767e-01</leafValues></_>
        <_>
          <internalNodes>
            0 -1 139 2.9966127476654947e-04</internalNodes>
          <leafValues>
            2.6447781920433044e-01 -4.5994311571121216e-01</leafValues></_>
        <_>
          <internalNodes>
            0 -1 97 1.1959930270677432e-04</internalNodes>
          <leafValues>
            -7.2401440143585205e-01 1.5942774713039398e-01</leafValues></_>
        <_>
          <internalNodes>
            0 -1 60 1.2264954857528210e-03</internalNodes>
          <leafValues>
            -3.9834105968475342e-01 3.0604174733161926e-01</leafValues></_>
        <_>
          <internalNodes>
            0 -1 158 2.0842480007559061e-03</internalNodes>
          <leafValues>
            -1.8326655030250549e-01 4.9785774946212769e-01</leafValues></_>
        <_>
          <internalNodes>
            0 -1 53 -8.7414472363889217e-04</internalNodes>
          <leafValues>
            3.9490878582000732e-01 -2.5303566455841064e-01</leafValues></_>
        <_>
          <internalNodes>
            0 -1 19 1.2573413550853729e-04</internalNodes>
          <leafValues>
            -4.6967345476150513e-01 2.5078338384628296e-01</leafValues></_>
        <_>
          <internalNodes>
            0 -1 138 3.4151446016039699e-05</internalNodes>
          <leafValues>
            -5.3240621089935303e-01 1.8841823935508728e-01</leafValues></_>
        <_>
          <internalNodes>
            0 -1 144 -2.9048053547739983e-03</internalNodes>
          <leafValues>
            5.8583909273147583e-01 -1.9537486135959625e-01</leafValues></_>
        <_>
          <internalNodes>
            0 -1 119 -4.8821591190062463e-04</internalNodes>
          <leafValues>
            -6.7104482650756836e-01 1.7689286172389984e-01</leafValues></_></weakClassifiers></_>
    <!-- stage 13 -->
    <_>
      <maxWeakCount>15</maxWeakCount>
      <stageThreshold>-8.7625139951705933e-01</stageThreshold>
      <weakClassifiers>
        <_>
          <internalNodes>
            0 -1 1 1.0343526303768158e-01</internalNodes>
          <leafValues>
            -5.6043958663940430e-01 4.4901609420776367e-01</leafValues></_>
        <_>
          <internalNodes>
            0 -1 81 -1.8411207944154739e-02</internalNodes>
          <leafValues>
            7.8892731666564941e-01 -1.8496051430702209e-01</leafValues></_>
        <_>
          <internalNodes>
            0 -1 113 1.9579628482460976e-02</internalNodes>
          <leafValues>
            -6.0957831144332886e-01 2.3100574314594269e-01</leafValues></_>
        <_>
          <internalNodes>
            0 -1 15 -1.7993118381127715e-03</internalNodes>
          <leafValues>
            3.4078627824783325e-01 -3.9336380362510681e-01</leafValues></_>
        <_>
          <internalNodes>
            0 -1 159 1.0839524678885937e-02</internalNodes>
          <leafValues>
            -3.0223616957664490e-01 5.1509332656860352e-01</leafValues></_>
        <_>
          <internalNodes>
            0 -1 57 1.3019424863159657e-02</internalNodes>
          <leafValues>
            -2.5569862127304077e-01 4.6190467476844788e-01</leafValues></_>
        <_>
          <internalNodes>
            0 -1 84 -5.1460065878927708e-03</internalNodes>
          <leafValues>
            4.3534147739410400e-01 -2.9912510514259338e-01</leafValues></_>
        <_>
          <internalNodes>
            0 -1 125 1.5823055582586676e-04</internalNodes>
          <leafValues>
            2.2511014342308044e-01 -5.5815696716308594e-01</leafValues></_>
        <_>
          <internalNodes>
            0 -1 162 3.9535941323265433e-04</internalNodes>
          <leafValues>
            -3.4000131487846375e-01 3.7528643012046814e-01</leafValues></_>
        <_>
          <internalNodes>
            0 -1 165 -7.7029872045386583e-05</internalNodes>
          <leafValues>
            4.7888755798339844e-01 -2.7425479888916016e-01</leafValues></_>
        <_>
          <internalNodes>
            0 -1 131 1.9997376948595047e-03</internalNodes>
          <leafValues>
            -2.2455015778541565e-01 4.9698689579963684e-01</leafValues></_>
        <_>
          <internalNodes>
            0 -1 71 -1.1602037120610476e-03</internalNodes>
          <leafValues>
            5.1440542936325073e-01 -2.4990412592887878e-01</leafValues></_>
        <_>
          <internalNodes>
            0 -1 90 1.0620425746310502e-04</internalNodes>
          <leafValues>
            -3.6057627201080322e-01 3.2758629322052002e-01</leafValues></_>
        <_>
          <internalNodes>
            0 -1 139 6.4557092264294624e-04</internalNodes>
          <leafValues>
            1.9662651419639587e-01 -5.6271523237228394e-01</leafValues></_>
        <_>
          <internalNodes>
            0 -1 32 -1.0137753561139107e-02</internalNodes>
          <leafValues>
            5.4648095369338989e-01 -2.0887070894241333e-01</leafValues></_></weakClassifiers></_>
    <!-- stage 14 -->
    <_>
      <maxWeakCount>16</maxWeakCount>
      <stageThreshold>-9.1164642572402954e-01</stageThreshold>
      <weakClassifiers>
        <_>
          <internalNodes>
            0 -1 38 3.3071100711822510e-02</internalNodes>
          <leafValues>
            -1.7351597547531128e-01 5.5220419168472290e-01</leafValues></_>
        <_>
          <internalNodes>
            0 -1 80 -1.7848450690507889e-02</internalNodes>
          <leafValues>
            6.6113829612731934e-01 -1.6210672259330750e-01</leafValues></_>
        <_>
          <internalNodes>
            0 -1 47 -9.5995754003524780e-02</internalNodes>
          <leafValues>
            -6.8314242362976074e-01 1.9507928192615509e-01</leafValues></_>
        <_>
          <internalNodes>
            0 -1 27 7.1500748395919800e-02</internalNodes>
          <leafValues>
            -1.5818968415260315e-01 7.2707939147949219e-01</leafValues></_>
        <_>
          <internalNodes>
            0 -1 78 3.4029580652713776e-02</internalNodes>
          <leafValues>
            -1.9411273300647736e-01 8.4640544652938843e-01</leafValues></_>
        <_>
          <internalNodes>
            0 -1 109 1.5389554901048541e-03</internalNodes>
          <leafValues>
            2.5340098142623901e-01 -4.8563036322593689e-01</leafValues></_>
        <_>
          <internalNodes>
            0 -1 77 -1.2565314769744873e-02</internalNodes>
          <leafValues>
            5.6687915325164795e-01 -2.1996133029460907e-01</leafValues></_>
        <_>
          <internalNodes>
            0 -1 23 2.1742846816778183e-02</internalNodes>
          <leafValues>
            -1.3852861523628235e-01 8.1216323375701904e-01</leafValues></_>
        <_>
          <internalNodes>
            0 -1 137 5.7231413666158915e-04</internalNodes>
          <leafValues>
            -8.0321866273880005e-01 1.7190429568290710e-01</leafValues></_>
        <_>
          <internalNodes>
            0 -1 133 2.5676656514406204e-02</internalNodes>
          <leafValues>
            -1.9731749594211578e-01 6.4278644323348999e-01</leafValues></_>
        <_>
          <internalNodes>
            0 -1 92 -1.9459015456959605e-03</internalNodes>
          <leafValues>
            6.4965385198593140e-01 -1.7020511627197266e-01</leafValues></_>
        <_>
          <internalNodes>
            0 -1 147 -1.3242077548056841e-03</internalNodes>
          <leafValues>
            -4.9040621519088745e-01 2.3349766433238983e-01</leafValues></_>
        <_>
          <internalNodes>
            0 -1 86 5.9077651239931583e-03</internalNodes>
          <leafValues>
            -1.6009683907032013e-01 7.2815847396850586e-01</leafValues></_>
        <_>
          <internalNodes>
            0 -1 121 7.8822439536452293e-04</internalNodes>
          <leafValues>
            1.6477464139461517e-01 -6.9665628671646118e-01</leafValues></_>
        <_>
          <internalNodes>
            0 -1 63 -3.5717017948627472e-02</internalNodes>
          <leafValues>
            -8.3920776844024658e-01 1.2090313434600830e-01</leafValues></_>
        <_>
          <internalNodes>
            0 -1 9 1.7474519554525614e-03</internalNodes>
          <leafValues>
            -3.0390143394470215e-01 3.7172031402587891e-01</leafValues></_></weakClassifiers></_></stages>
  <features>
    <_>
      <rects>
        <_>
          0 2 10 11 -1.</_>
        <_>
          5 2 5 11 2.</_></rects>
      <tilted>0</tilted></_>
    <_>
      <rects>
        <_>
          0 5 18 10 -1.</_>
        <_>
          6 5 6 10 3.</_></rects>
      <tilted>0</tilted></_>
    <_>
      <rects>
        <_>
          0 12 10 4 -1.</_>
        <_>
          5 12 5 4 2.</_></rects>
      <tilted>0</tilted></_>
    <_>
      <rects>
        <_>
          0 14 18 3 -1.</_>
        <_>
          6 14 6 3 3.</_></rects>
      <tilted>0</tilted></_>
    <_>
      <rects>
        <_>
          1 8 18 5 -1.</_>
        <_>
          7 8 6 5 3.</_></rects>
      <tilted>0</tilted></_>
    <_>
      <rects>
        <_>
          1 17 17 2 -1.</_>
        <_>
          1 18 17 1 2.</_></rects>
      <tilted>0</tilted></_>
    <_>
      <rects>
        <_>
          2 3 18 15 -1.</_>
        <_>
          8 3 6 15 3.</_></rects>
      <tilted>0</tilted></_>
    <_>
      <rects>
        <_>
          2 8 18 8 -1.</_>
        <_>
          8 8 6 8 3.</_></rects>
      <tilted>0</tilted></_>
    <_>
      <rects>
        <_>
          2 14 9 6 -1.</_>
        <_>
          2 17 9 3 2.</_></rects>
      <tilted>0</tilted></_>
    <_>
      <rects>
        <_>
          3 2 2 6 -1.</_>
        <_>
          4 2 1 6 2.</_></rects>
      <tilted>0</tilted></_>
    <_>
      <rects>
        <_>
          3 6 2 2 -1.</_>
        <_>
          4 6 1 2 2.</_></rects>
      <tilted>0</tilted></_>
    <_>
      <rects>
        <_>
          3 7 6 1 -1.</_>
        <_>
          5 7 2 1 3.</_></rects>
      <tilted>0</tilted></_>
    <_>
      <rects>
        <_>
          3 7 3 2 -1.</_>
        <_>
          3 8 3 1 2.</_></rects>
      <tilted>0</tilted></_>
    <_>
      <rects>
        <_>
          3 8 15 5 -1.</_>
        <_>
          8 8 5 5 3.</_></rects>
      <tilted>0</tilted></_>
    <_>
      <rects>
        <_>
          3 9 15 4 -1.</_>
        <_>
          8 9 5 4 3.</_></rects>
      <tilted>0</tilted></_>
    <_>
      <rects>
        <_>
          3 9 11 3 -1.</_>
        <_>
          3 10 11 1 3.</_></rects>
      <tilted>0</tilted></_>
    <_>
      <rects>
        <_>
          3 14 6 4 -1.</_>
        <_>
          5 14 2 4 3.</_></rects>
      <tilted>0</tilted></_>
    <_>
      <rects>
        <_>
          4 1 10 3 -1.</_>
        <_>
          4 2 10 1 3.</_></rects>
      <tilted>0</tilted></_>
    <_>
      <rects>
        <_>
          4 5 6 4 -1.</_>
        <_>
          4 5 3 2 2.</_>
        <_>
          7 7 3 2 2.</_></rects>
      <tilted>0</tilted></_>
    <_>
      <rects>
        <_>
          4 5 11 6 -1.</_>
        <_>
          4 7 11 2 3.</_></rects>
      <tilted>0</tilted></_>
    <_>
      <rects>
        <_>
          4 8 13 6 -1.</_>
        <_>
          4 10 13 2 3.</_></rects>
      <tilted>0</tilted></_>
    <_>
      <rects>
        <_>
          4 9 12 3 -1.</_>
        <_>
          8 9 4 3 3.</_></rects>
      <tilted>0</tilted></_>
    <_>
      <rects>
        <_>
          4 10 12 2 -1.</_>
        <_>
          8 10 4 2 3.</_></rects>
      <tilted>0</tilted></_>
    <_>
      <rects>
        <_>
          4 11 3 6 -1.</_>
        <_>
          4 13 3 2 3.</_></rects>
      <tilted>0</tilted></_>
    <_>
      <rects>
        <_>
          4 12 4 2 -1.</_>
        <_>
          4 12 2 1 2.</_>
        <_>
          6 13 2 1 2.</_></rects>
      <tilted>0</tilted></_>
    <_>
      <rects>
        <_>
          4 14 3 3 -1.</_>
        <_>
          5 14 1 3 3.</_></rects>
      <tilted>0</tilted></_>
    <_>
      <rects>
        <_>
          4 14 13 6 -1.</_>
        <_>
          4 17 13 3 2.</_></rects>
      <tilted>0</tilted></_>
    <_>
      <rects>
        <_>
          5 2 3 12 -1.</_>
        <_>
          5 6 3 4 3.</_></rects>
      <tilted>0</tilted></_>
    <_>
      <rects>
        <_>
          5 2 10 16 -1.</_>
        <_>
          5 2 5 8 2.</_>
        <_>
          10 10 5 8 2.</_></rects>
      <tilted>0</tilted></_>
    <_>
      <rects>
        <_>
          5 2 8 4 -1.</_>
        <_>
          5 4 8 2 2.</_></rects>
      <tilted>0</tilted></_>
    <_>
      <rects>
        <_>
          5 3 3 12 -1.</_>
        <_>
          5 7 3 4 3.</_></rects>
      <tilted>0</tilted></_>
    <_>
      <rects>
        <_>
          5 4 3 9 -1.</_>
        <_>
          5 7 3 3 3.</_></rects>
      <tilted>0</tilted></_>
    <_>
      <rects>
        <_>
          5 5 6 2 -1.</_>
        <_>
          7 5 2 2 3.</_></rects>
      <tilted>0</tilted></_>
    <_>
      <rects>
        <_>
          5 5 9 6 -1.</_>
        <_>
          5 7 9 2 3.</_></rects>
      <tilted>0</tilted></_>
    <_>
      <rects>
        <_>
          5 5 10 6 -1.</_>
        <_>
          5 7 10 2 3.</_></rects>
      <tilted>0</tilted></_>
    <_>
      <rects>
        <_>
          5 6 10 1 -1.</_>
        <_>
          10 6 5 1 2.</_></rects>
      <tilted>0</tilted></_>
    <_>
      <rects>
        <_>
          5 7 6 12 -1.</_>
        <_>
          8 7 3 12 2.</_></rects>
      <tilted>0</tilted></_>
    <_>
      <rects>
        <_>
          5 8 11 6 -1.</_>
        <_>
          5 10 11 2 3.</_></rects>
      <tilted>0</tilted></_>
    <_>
      <rects>
        <_>
          5 9 9 2 -1.</_>
        <_>
          8 9 3 2 3.</_></rects>
      <tilted>0</tilted></_>
    <_>
      <rects>
        <_>
          5 9 11 9 -1.</_>
        <_>
          5 12 11 3 3.</_></rects>
      <tilted>0</tilted></_>
    <_>
      <rects>
        <_>
          5 10 2 2 -1.</_>
        <_>
          5 11 2 1 2.</_></rects>
      <tilted>0</tilted></_>
    <_>
      <rects>
        <_>
          5 13 1 4 -1.</_>
        <_>
          5 15 1 2 2.</_></rects>
      <tilted>0</tilted></_>
    <_>
      <rects>
        <_>
          6 2 2 2 -1.</_>
        <_>
          6 3 2 1 2.</_></rects>
      <tilted>0</tilted></_>
    <_>
      <rects>
        <_>
          6 2 7 4 -1.</_>
        <_>
          6 4 7 2 2.</_></rects>
      <tilted>0</tilted></_>
    <_>
      <rects>
        <_>
          6 2 8 2 -1.</_>
        <_>
          6 3 8 1 2.</_></rects>
      <tilted>0</tilted></_>
    <_>
      <rects>
        <_>
          6 3 6 5 -1.</_>
        <_>
          8 3 2 5 3.</_></rects>
      <tilted>0</tilted></_>
    <_>
      <rects>
        <_>
          6 4 8 6 -1.</_>
        <_>
          6 4 4 3 2.</_>
        <_>
          10 7 4 3 2.</_></rects>
      <tilted>0</tilted></_>
    <_>
      <rects>
        <_>
          6 6 5 12 -1.</_>
        <_>
          6 12 5 6 2.</_></rects>
      <tilted>0</tilted></_>
    <_>
      <rects>
        <_>
          6 7 1 6 -1.</_>
        <_>
          6 9 1 2 3.</_></rects>
      <tilted>0</tilted></_>
    <_>
      <rects>
        <_>
          6 7 3 6 -1.</_>
        <_>
          6 9 3 2 3.</_></rects>
      <tilted>0</tilted></_>
    <_>
      <rects>
        <_>
          6 7 10 3 -1.</_>
        <_>
          6 8 10 1 3.</_></rects>
      <tilted>0</tilted></_>
    <_>
      <rects>
        <_>
          6 8 2 6 -1.</_>
        <_>
          6 10 2 2 3.</_></rects>
      <tilted>0</tilted></_>
    <_>
      <rects>
        <_>
          6 9 8 3 -1.</_>
        <_>
          6 10 8 1 3.</_></rects>
      <tilted>0</tilted></_>
    <_>
      <rects>
        <_>
          6 12 2 2 -1.</_>
        <_>
          6 12 1 1 2.</_>
        <_>
          7 13 1 1 2.</_></rects>
      <tilted>0</tilted></_>
    <_>
      <rects>
        <_>
          6 16 4 2 -1.</_>
        <_>
          6 16 2 1 2.</_>
        <_>
          8 17 2 1 2.</_></rects>
      <tilted>0</tilted></_>
    <_>
      <rects>
        <_>
          6 17 9 2 -1.</_>
        <_>
          6 18 9 1 2.</_></rects>
      <tilted>0</tilted></_>
    <_>
      <rects>
        <_>
          7 1 7 6 -1.</_>
        <_>
          7 4 7 3 2.</_></rects>
      <tilted>0</tilted></_>
    <_>
      <rects>
        <_>
          7 1 8 4 -1.</_>
        <_>
          7 3 8 2 2.</_></rects>
      <tilted>0</tilted></_>
    <_>
      <rects>
        <_>
          7 2 5 18 -1.</_>
        <_>
          7 8 5 6 3.</_></rects>
      <tilted>0</tilted></_>
    <_>
      <rects>
        <_>
          7 2 6 18 -1.</_>
        <_>
          7 8 6 6 3.</_></rects>
      <tilted>0</tilted></_>
    <_>
      <rects>
        <_>
          7 3 4 2 -1.</_>
        <_>
          7 4 4 1 2.</_></rects>
      <tilted>0</tilted></_>
    <_>
      <rects>
        <_>
          7 3 6 15 -1.</_>
        <_>
          7 8 6 5 3.</_></rects>
      <tilted>0</tilted></_>
    <_>
      <rects>
        <_>
          7 5 6 2 -1.</_>
        <_>
          9 5 2 2 3.</_></rects>
      <tilted>0</tilted></_>
    <_>
      <rects>
        <_>
          7 5 3 10 -1.</_>
        <_>
          7 10 3 5 2.</_></rects>
      <tilted>0</tilted></_>
    <_>
      <rects>
        <_>
          7 5 4 12 -1.</_>
        <_>
          7 11 4 6 2.</_></rects>
      <tilted>0</tilted></_>
    <_>
      <rects>
        <_>
          7 6 1 6 -1.</_>
        <_>
          7 8 1 2 3.</_></rects>
      <tilted>0</tilted></_>
    <_>
      <rects>
        <_>
          7 6 6 4 -1.</_>
        <_>
          7 6 3 2 2.</_>
        <_>
          10 8 3 2 2.</_></rects>
      <tilted>0</tilted></_>
    <_>
      <rects>
        <_>
          7 6 3 10 -1.</_>
        <_>
          7 11 3 5 2.</_></rects>
      <tilted>0</tilted></_>
    <_>
      <rects>
        <_>
          7 6 12 2 -1.</_>
        <_>
          7 6 6 1 2.</_>
        <_>
          13 7 6 1 2.</_></rects>
      <tilted>0</tilted></_>
    <_>
      <rects>
        <_>
          7 7 6 8 -1.</_>
        <_>
          7 11 6 4 2.</_></rects>
      <tilted>0</tilted></_>
    <_>
      <rects>
        <_>
          7 8 2 2 -1.</_>
        <_>
          7 8 1 1 2.</_>
        <_>
          8 9 1 1 2.</_></rects>
      <tilted>0</tilted></_>
    <_>
      <rects>
        <_>
          7 9 1 2 -1.</_>
        <_>
          7 10 1 1 2.</_></rects>
      <tilted>0</tilted></_>
    <_>
      <rects>
        <_>
          7 9 4 3 -1.</_>
        <_>
          7 10 4 1 3.</_></rects>
      <tilted>0</tilted></_>
    <_>
      <rects>
        <_>
          7 10 2 1 -1.</_>
        <_>
          8 10 1 1 2.</_></rects>
      <tilted>0</tilted></_>
    <_>
      <rects>
        <_>
          7 10 3 1 -1.</_>
        <_>
          8 10 1 1 3.</_></rects>
      <tilted>0</tilted></_>
    <_>
      <rects>
        <_>
          7 10 6 2 -1.</_>
        <_>
          9 10 2 2 3.</_></rects>
      <tilted>0</tilted></_>
    <_>
      <rects>
        <_>
          7 11 2 2 -1.</_>
        <_>
          7 11 1 1 2.</_>
        <_>
          8 12 1 1 2.</_></rects>
      <tilted>0</tilted></_>
    <_>
      <rects>
        <_>
          7 11 6 4 -1.</_>
        <_>
          7 11 3 2 2.</_>
        <_>
          10 13 3 2 2.</_></rects>
      <tilted>0</tilted></_>
    <_>
      <rects>
        <_>
          7 11 6 6 -1.</_>
        <_>
          7 11 3 3 2.</_>
        <_>
          10 14 3 3 2.</_></rects>
      <tilted>0</tilted></_>
    <_>
      <rects>
        <_>
          7 11 6 3 -1.</_>
        <_>
          7 12 6 1 3.</_></rects>
      <tilted>0</tilted></_>
    <_>
      <rects>
        <_>
          7 13 6 4 -1.</_>
        <_>
          9 13 2 4 3.</_></rects>
      <tilted>0</tilted></_>
    <_>
      <rects>
        <_>
          7 14 6 3 -1.</_>
        <_>
          9 14 2 3 3.</_></rects>
      <tilted>0</tilted></_>
    <_>
      <rects>
        <_>
          7 15 6 4 -1.</_>
        <_>
          7 17 6 2 2.</_></rects>
      <tilted>0</tilted></_>
    <_>
      <rects>
        <_>
          7 16 8 4 -1.</_>
        <_>
          7 18 8 2 2.</_></rects>
      <tilted>0</tilted></_>
    <_>
      <rects>
        <_>
          7 17 7 3 -1.</_>
        <_>
          7 18 7 1 3.</_></rects>
      <tilted>0</tilted></_>
    <_>
      <rects>
        <_>
          8 2 4 18 -1.</_>
        <_>
          8 8 4 6 3.</_></rects>
      <tilted>0</tilted></_>
    <_>
      <rects>
        <_>
          8 4 3 2 -1.</_>
        <_>
          9 4 1 2 3.</_></rects>
      <tilted>0</tilted></_>
    <_>
      <rects>
        <_>
          8 4 6 4 -1.</_>
        <_>
          10 4 2 4 3.</_></rects>
      <tilted>0</tilted></_>
    <_>
      <rects>
        <_>
          8 5 4 12 -1.</_>
        <_>
          8 9 4 4 3.</_></rects>
      <tilted>0</tilted></_>
    <_>
      <rects>
        <_>
          8 6 3 1 -1.</_>
        <_>
          9 6 1 1 3.</_></rects>
      <tilted>0</tilted></_>
    <_>
      <rects>
        <_>
          8 6 2 2 -1.</_>
        <_>
          8 6 1 1 2.</_>
        <_>
          9 7 1 1 2.</_></rects>
      <tilted>0</tilted></_>
    <_>
      <rects>
        <_>
          8 6 2 10 -1.</_>
        <_>
          8 6 1 5 2.</_>
        <_>
          9 11 1 5 2.</_></rects>
      <tilted>0</tilted></_>
    <_>
      <rects>
        <_>
          8 6 3 6 -1.</_>
        <_>
          9 6 1 6 3.</_></rects>
      <tilted>0</tilted></_>
    <_>
      <rects>
        <_>
          8 6 12 3 -1.</_>
        <_>
          12 6 4 3 3.</_></rects>
      <tilted>0</tilted></_>
    <_>
      <rects>
        <_>
          8 8 4 8 -1.</_>
        <_>
          8 12 4 4 2.</_></rects>
      <tilted>0</tilted></_>
    <_>
      <rects>
        <_>
          8 10 2 1 -1.</_>
        <_>
          9 10 1 1 2.</_></rects>
      <tilted>0</tilted></_>
    <_>
      <rects>
        <_>
          8 10 3 1 -1.</_>
        <_>
          9 10 1 1 3.</_></rects>
      <tilted>0</tilted></_>
    <_>
      <rects>
        <_>
          8 10 3 2 -1.</_>
        <_>
          9 10 1 2 3.</_></rects>
      <tilted>0</tilted></_>
    <_>
      <rects>
        <_>
          8 10 4 6 -1.</_>
        <_>
          8 13 4 3 2.</_></rects>
      <tilted>0</tilted></_>
    <_>
      <rects>
        <_>
          8 11 6 6 -1.</_>
        <_>
          8 11 3 3 2.</_>
        <_>
          11 14 3 3 2.</_></rects>
      <tilted>0</tilted></_>
    <_>
      <rects>
        <_>
          8 12 3 5 -1.</_>
        <_>
          9 12 1 5 3.</_></rects>
      <tilted>0</tilted></_>
    <_>
      <rects>
        <_>
          8 13 3 2 -1.</_>
        <_>
          9 13 1 2 3.</_></rects>
      <tilted>0</tilted></_>
    <_>
      <rects>
        <_>
          8 13 2 3 -1.</_>
        <_>
          8 14 2 1 3.</_></rects>
      <tilted>0</tilted></_>
    <_>
      <rects>
        <_>
          8 13 6 4 -1.</_>
        <_>
          10 13 2 4 3.</_></rects>
      <tilted>0</tilted></_>
    <_>
      <rects>
        <_>
          8 14 3 2 -1.</_>
        <_>
          9 14 1 2 3.</_></rects>
      <tilted>0</tilted></_>
    <_>
      <rects>
        <_>
          9 3 2 15 -1.</_>
        <_>
          9 8 2 5 3.</_></rects>
      <tilted>0</tilted></_>
    <_>
      <rects>
        <_>
          9 4 3 3 -1.</_>
        <_>
          10 4 1 3 3.</_></rects>
      <tilted>0</tilted></_>
    <_>
      <rects>
        <_>
          9 4 3 7 -1.</_>
        <_>
          10 4 1 7 3.</_></rects>
      <tilted>0</tilted></_>
    <_>
      <rects>
        <_>
          9 5 3 2 -1.</_>
        <_>
          10 5 1 2 3.</_></rects>
      <tilted>0</tilted></_>
    <_>
      <rects>
        <_>
          9 5 2 3 -1.</_>
        <_>
          9 6 2 1 3.</_></rects>
      <tilted>0</tilted></_>
    <_>
      <rects>
        <_>
          9 6 3 2 -1.</_>
        <_>
          10 6 1 2 3.</_></rects>
      <tilted>0</tilted></_>
    <_>
      <rects>
        <_>
          9 6 2 9 -1.</_>
        <_>
          9 9 2 3 3.</_></rects>
      <tilted>0</tilted></_>
    <_>
      <rects>
        <_>
          9 6 3 6 -1.</_>
        <_>
          9 9 3 3 2.</_></rects>
      <tilted>0</tilted></_>
    <_>
      <rects>
        <_>
          9 6 3 9 -1.</_>
        <_>
          9 9 3 3 3.</_></rects>
      <tilted>0</tilted></_>
    <_>
      <rects>
        <_>
          9 6 4 10 -1.</_>
        <_>
          9 11 4 5 2.</_></rects>
      <tilted>0</tilted></_>
    <_>
      <rects>
        <_>
          9 7 3 2 -1.</_>
        <_>
          9 8 3 1 2.</_></rects>
      <tilted>0</tilted></_>
    <_>
      <rects>
        <_>
          9 8 1 3 -1.</_>
        <_>
          9 9 1 1 3.</_></rects>
      <tilted>0</tilted></_>
    <_>
      <rects>
        <_>
          9 8 2 4 -1.</_>
        <_>
          9 10 2 2 2.</_></rects>
      <tilted>0</tilted></_>
    <_>
      <rects>
        <_>
          9 8 3 8 -1.</_>
        <_>
          9 12 3 4 2.</_></rects>
      <tilted>0</tilted></_>
    <_>
      <rects>
        <_>
          9 9 2 1 -1.</_>
        <_>
          10 9 1 1 2.</_></rects>
      <tilted>0</tilted></_>
    <_>
      <rects>
        <_>
          9 9 1 2 -1.</_>
        <_>
          9 10 1 1 2.</_></rects>
      <tilted>0</tilted></_>
    <_>
      <rects>
        <_>
          9 9 1 4 -1.</_>
        <_>
          9 11 1 2 2.</_></rects>
      <tilted>0</tilted></_>
    <_>
      <rects>
        <_>
          9 9 3 3 -1.</_>
        <_>
          10 9 1 3 3.</_></rects>
      <tilted>0</tilted></_>
    <_>
      <rects>
        <_>
          9 9 2 6 -1.</_>
        <_>
          9 12 2 3 2.</_></rects>
      <tilted>0</tilted></_>
    <_>
      <rects>
        <_>
          9 9 3 6 -1.</_>
        <_>
          9 12 3 3 2.</_></rects>
      <tilted>0</tilted></_>
    <_>
      <rects>
        <_>
          9 10 2 1 -1.</_>
        <_>
          10 10 1 1 2.</_></rects>
      <tilted>0</tilted></_>
    <_>
      <rects>
        <_>
          9 10 1 2 -1.</_>
        <_>
          9 11 1 1 2.</_></rects>
      <tilted>0</tilted></_>
    <_>
      <rects>
        <_>
          9 10 3 1 -1.</_>
        <_>
          10 10 1 1 3.</_></rects>
      <tilted>0</tilted></_>
    <_>
      <rects>
        <_>
          9 10 1 3 -1.</_>
        <_>
          9 11 1 1 3.</_></rects>
      <tilted>0</tilted></_>
    <_>
      <rects>
        <_>
          9 10 3 2 -1.</_>
        <_>
          10 10 1 2 3.</_></rects>
      <tilted>0</tilted></_>
    <_>
      <rects>
        <_>
          9 11 3 6 -1.</_>
        <_>
          10 11 1 6 3.</_></rects>
      <tilted>0</tilted></_>
    <_>
      <rects>
        <_>
          9 13 3 1 -1.</_>
        <_>
          10 13 1 1 3.</_></rects>
      <tilted>0</tilted></_>
    <_>
      <rects>
        <_>
          9 14 3 1 -1.</_>
        <_>
          10 14 1 1 3.</_></rects>
      <tilted>0</tilted></_>
    <_>
      <rects>
        <_>
          10 5 9 2 -1.</_>
        <_>
          13 5 3 2 3.</_></rects>
      <tilted>0</tilted></_>
    <_>
      <rects>
        <_>
          10 5 4 12 -1.</_>
        <_>
          10 11 4 6 2.</_></rects>
      <tilted>0</tilted></_>
    <_>
      <rects>
        <_>
          10 7 1 4 -1.</_>
        <_>
          10 9 1 2 2.</_></rects>
      <tilted>0</tilted></_>
    <_>
      <rects>
        <_>
          10 8 1 3 -1.</_>
        <_>
          10 9 1 1 3.</_></rects>
      <tilted>0</tilted></_>
    <_>
      <rects>
        <_>
          10 8 1 6 -1.</_>
        <_>
          10 10 1 2 3.</_></rects>
      <tilted>0</tilted></_>
    <_>
      <rects>
        <_>
          10 9 1 2 -1.</_>
        <_>
          10 10 1 1 2.</_></rects>
      <tilted>0</tilted></_>
    <_>
      <rects>
        <_>
          10 9 1 3 -1.</_>
        <_>
          10 10 1 1 3.</_></rects>
      <tilted>0</tilted></_>
    <_>
      <rects>
        <_>
          10 10 2 1 -1.</_>
        <_>
          11 10 1 1 2.</_></rects>
      <tilted>0</tilted></_>
    <_>
      <rects>
        <_>
          10 10 1 2 -1.</_>
        <_>
          10 11 1 1 2.</_></rects>
      <tilted>0</tilted></_>
    <_>
      <rects>
        <_>
          10 10 3 1 -1.</_>
        <_>
          11 10 1 1 3.</_></rects>
      <tilted>0</tilted></_>
    <_>
      <rects>
        <_>
          10 11 1 3 -1.</_>
        <_>
          10 12 1 1 3.</_></rects>
      <tilted>0</tilted></_>
    <_>
      <rects>
        <_>
          10 12 4 4 -1.</_>
        <_>
          10 12 2 2 2.</_>
        <_>
          12 14 2 2 2.</_></rects>
      <tilted>0</tilted></_>
    <_>
      <rects>
        <_>
          10 13 2 3 -1.</_>
        <_>
          10 14 2 1 3.</_></rects>
      <tilted>0</tilted></_>
    <_>
      <rects>
        <_>
          11 6 6 4 -1.</_>
        <_>
          11 6 3 2 2.</_>
        <_>
          14 8 3 2 2.</_></rects>
      <tilted>0</tilted></_>
    <_>
      <rects>
        <_>
          11 7 1 6 -1.</_>
        <_>
          11 10 1 3 2.</_></rects>
      <tilted>0</tilted></_>
    <_>
      <rects>
        <_>
          11 8 2 2 -1.</_>
        <_>
          11 8 1 1 2.</_>
        <_>
          12 9 1 1 2.</_></rects>
      <tilted>0</tilted></_>
    <_>
      <rects>
        <_>
          11 9 2 3 -1.</_>
        <_>
          12 9 1 3 2.</_></rects>
      <tilted>0</tilted></_>
    <_>
      <rects>
        <_>
          11 10 2 1 -1.</_>
        <_>
          12 10 1 1 2.</_></rects>
      <tilted>0</tilted></_>
    <_>
      <rects>
        <_>
          12 5 3 9 -1.</_>
        <_>
          12 8 3 3 3.</_></rects>
      <tilted>0</tilted></_>
    <_>
      <rects>
        <_>
          12 7 2 2 -1.</_>
        <_>
          12 7 1 1 2.</_>
        <_>
          13 8 1 1 2.</_></rects>
      <tilted>0</tilted></_>
    <_>
      <rects>
        <_>
          12 7 2 6 -1.</_>
        <_>
          12 9 2 2 3.</_></rects>
      <tilted>0</tilted></_>
    <_>
      <rects>
        <_>
          12 7 2 9 -1.</_>
        <_>
          12 10 2 3 3.</_></rects>
      <tilted>0</tilted></_>
    <_>
      <rects>
        <_>
          12 8 2 6 -1.</_>
        <_>
          12 10 2 2 3.</_></rects>
      <tilted>0</tilted></_>
    <_>
      <rects>
        <_>
          12 8 2 9 -1.</_>
        <_>
          12 11 2 3 3.</_></rects>
      <tilted>0</tilted></_>
    <_>
      <rects>
        <_>
          12 11 1 3 -1.</_>
        <_>
          12 12 1 1 3.</_></rects>
      <tilted>0</tilted></_>
    <_>
      <rects>
        <_>
          12 13 2 3 -1.</_>
        <_>
          13 13 1 3 2.</_></rects>
      <tilted>0</tilted></_>
    <_>
      <rects>
        <_>
          12 13 6 4 -1.</_>
        <_>
          14 13 2 4 3.</_></rects>
      <tilted>0</tilted></_>
    <_>
      <rects>
        <_>
          13 2 3 12 -1.</_>
        <_>
          13 6 3 4 3.</_></rects>
      <tilted>0</tilted></_>
    <_>
      <rects>
        <_>
          13 6 2 9 -1.</_>
        <_>
          13 9 2 3 3.</_></rects>
      <tilted>0</tilted></_>
    <_>
      <rects>
        <_>
          13 7 3 1 -1.</_>
        <_>
          14 7 1 1 3.</_></rects>
      <tilted>0</tilted></_>
    <_>
      <rects>
        <_>
          13 7 2 2 -1.</_>
        <_>
          13 7 1 1 2.</_>
        <_>
          14 8 1 1 2.</_></rects>
      <tilted>0</tilted></_>
    <_>
      <rects>
        <_>
          13 7 2 6 -1.</_>
        <_>
          13 9 2 2 3.</_></rects>
      <tilted>0</tilted></_>
    <_>
      <rects>
        <_>
          14 4 3 2 -1.</_>
        <_>
          14 5 3 1 2.</_></rects>
      <tilted>0</tilted></_></features></cascade>
</opencv_storage>
