<?xml version="1.0"?>
<opencv_storage>
<cascade>
  <stageType>BOOST</stageType>
  <featureType>HAAR</featureType>
  <height>20</height>
  <width>20</width>
  <stageParams>
    <boostType>GAB</boostType>
    <minHitRate>9.9500000476837158e-01</minHitRate>
    <maxFalseAlarm>5.0000000000000000e-01</maxFalseAlarm>
    <weightTrimRate>9.4999999999999996e-01</weightTrimRate>
    <maxDepth>1</maxDepth>
    <maxWeakCount>100</maxWeakCount></stageParams>
  <featureParams>
    <maxCatCount>0</maxCatCount>
    <featSize>1</featSize>
    <mode>BASIC</mode></featureParams>
  <stageNum>18</stageNum>
  <stages>
    <!-- stage 0 -->
    <_>
      <maxWeakCount>2</maxWeakCount>
      <stageThreshold>-1.7047879099845886e-01</stageThreshold>
      <weakClassifiers>
        <_>
          <internalNodes>
            0 -1 4 1.7234392464160919e-01</internalNodes>
          <leafValues>
            -7.5135135650634766e-01 8.9253729581832886e-01</leafValues></_>
        <_>
          <internalNodes>
            0 -1 57 -5.5734664201736450e-03</internalNodes>
          <leafValues>
            5.8087253570556641e-01 -9.8224866390228271e-01</leafValues></_></weakClassifiers></_>
    <!-- stage 1 -->
    <_>
      <maxWeakCount>4</maxWeakCount>
      <stageThreshold>-4.3535694479942322e-01</stageThreshold>
      <weakClassifiers>
        <_>
          <internalNodes>
            0 -1 2 2.1936583518981934e-01</internalNodes>
          <leafValues>
            -7.0601850748062134e-01 8.1221199035644531e-01</leafValues></_>
        <_>
          <internalNodes>
            0 -1 14 2.0570080727338791e-02</internalNodes>
          <leafValues>
            -5.7092529535293579e-01 7.1063977479934692e-01</leafValues></_>
        <_>
          <internalNodes>
            0 -1 67 1.5206147509161383e-04</internalNodes>
          <leafValues>
            -9.5963054895401001e-01 4.6084856986999512e-01</leafValues></_>
        <_>
          <internalNodes>
            0 -1 48 2.1527851931750774e-03</internalNodes>
          <leafValues>
            3.8073831796646118e-01 -9.6271288394927979e-01</leafValues></_></weakClassifiers></_>
    <!-- stage 2 -->
    <_>
      <maxWeakCount>2</maxWeakCount>
      <stageThreshold>-1.6630934178829193e-01</stageThreshold>
      <weakClassifiers>
        <_>
          <internalNodes>
            0 -1 41 9.4416485808324069e-05</internalNodes>
          <leafValues>
            -8.9768975973129272e-01 6.7402207851409912e-01</leafValues></_>
        <_>
          <internalNodes>
            0 -1 9 2.6366144418716431e-02</internalNodes>
          <leafValues>
            -6.7832297086715698e-01 7.3138040304183960e-01</leafValues></_></weakClassifiers></_>
    <!-- stage 3 -->
    <_>
      <maxWeakCount>3</maxWeakCount>
      <stageThreshold>-9.0517058968544006e-02</stageThreshold>
      <weakClassifiers>
        <_>
          <internalNodes>
            0 -1 41 5.5322499247267842e-04</internalNodes>
          <leafValues>
            6.3281250000000000e-01 -8.9855074882507324e-01</leafValues></_>
        <_>
          <internalNodes>
            0 -1 13 9.6592515707015991e-02</internalNodes>
          <leafValues>
            -6.8717730045318604e-01 4.9002316594123840e-01</leafValues></_>
        <_>
          <internalNodes>
            0 -1 46 3.3446322777308524e-04</internalNodes>
          <leafValues>
            -9.3775206804275513e-01 3.1801050901412964e-01</leafValues></_></weakClassifiers></_>
    <!-- stage 4 -->
    <_>
      <maxWeakCount>3</maxWeakCount>
      <stageThreshold>1.2022889405488968e-01</stageThreshold>
      <weakClassifiers>
        <_>
          <internalNodes>
            0 -1 51 6.4218987245112658e-04</internalNodes>
          <leafValues>
            5.6192237138748169e-01 -9.5412844419479370e-01</leafValues></_>
        <_>
          <internalNodes>
            0 -1 1 3.9832794666290283e-01</internalNodes>
          <leafValues>
            -5.6915515661239624e-01 6.5791529417037964e-01</leafValues></_>
        <_>
          <internalNodes>
            0 -1 43 -2.6042794343084097e-04</internalNodes>
          <leafValues>
            -9.4552719593048096e-01 4.1644200682640076e-01</leafValues></_></weakClassifiers></_>
    <!-- stage 5 -->
    <_>
      <maxWeakCount>5</maxWeakCount>
      <stageThreshold>-5.7486468553543091e-01</stageThreshold>
      <weakClassifiers>
        <_>
          <internalNodes>
            0 -1 43 9.4193092081695795e-04</internalNodes>
          <leafValues>
            6.0772657394409180e-01 -7.3493975400924683e-01</leafValues></_>
        <_>
          <internalNodes>
            0 -1 16 9.9076405167579651e-03</internalNodes>
          <leafValues>
            -7.2127020359039307e-01 4.5597246289253235e-01</leafValues></_>
        <_>
          <internalNodes>
            0 -1 30 1.8010023632086813e-04</internalNodes>
          <leafValues>
            -8.3970606327056885e-01 3.7120744585990906e-01</leafValues></_>
        <_>
          <internalNodes>
            0 -1 36 -8.0765932798385620e-03</internalNodes>
          <leafValues>
            -8.8506847620010376e-01 2.5209432840347290e-01</leafValues></_>
        <_>
          <internalNodes>
            0 -1 70 -1.8972973339259624e-03</internalNodes>
          <leafValues>
            2.5804349780082703e-01 -9.8243486881256104e-01</leafValues></_></weakClassifiers></_>
    <!-- stage 6 -->
    <_>
      <maxWeakCount>6</maxWeakCount>
      <stageThreshold>-7.8790962696075439e-01</stageThreshold>
      <weakClassifiers>
        <_>
          <internalNodes>
            0 -1 38 1.2382625136524439e-03</internalNodes>
          <leafValues>
            -3.0396476387977600e-01 7.8156995773315430e-01</leafValues></_>
        <_>
          <internalNodes>
            0 -1 52 2.1773108746856451e-03</internalNodes>
          <leafValues>
            -8.4122216701507568e-01 3.8626807928085327e-01</leafValues></_>
        <_>
          <internalNodes>
            0 -1 72 6.4012873917818069e-04</internalNodes>
          <leafValues>
            2.6419174671173096e-01 -9.8517370223999023e-01</leafValues></_>
        <_>
          <internalNodes>
            0 -1 62 -3.4252596087753773e-03</internalNodes>
          <leafValues>
            5.4906773567199707e-01 -4.6931895613670349e-01</leafValues></_>
        <_>
          <internalNodes>
            0 -1 27 -4.7465949319303036e-04</internalNodes>
          <leafValues>
            3.1497931480407715e-01 -9.0086591243743896e-01</leafValues></_>
        <_>
          <internalNodes>
            0 -1 53 -5.0400965847074986e-03</internalNodes>
          <leafValues>
            -8.9774703979492188e-01 2.4742522835731506e-01</leafValues></_></weakClassifiers></_>
    <!-- stage 7 -->
    <_>
      <maxWeakCount>7</maxWeakCount>
      <stageThreshold>-8.4252482652664185e-01</stageThreshold>
      <weakClassifiers>
        <_>
          <internalNodes>
            0 -1 44 -6.1652256408706307e-04</internalNodes>
          <leafValues>
            -9.1846525669097900e-01 5.4191482067108154e-01</leafValues></_>
        <_>
          <internalNodes>
            0 -1 60 2.1918546408414841e-03</internalNodes>
          <leafValues>
            -5.6141638755798340e-01 6.1131519079208374e-01</leafValues></_>
        <_>
          <internalNodes>
            0 -1 82 8.4704044274985790e-04</internalNodes>
          <leafValues>
            -5.3824710845947266e-01 5.7488381862640381e-01</leafValues></_>
        <_>
          <internalNodes>
            0 -1 35 1.9492064602673054e-03</internalNodes>
          <leafValues>
            -8.7964552640914917e-01 3.7736740708351135e-01</leafValues></_>
        <_>
          <internalNodes>
            0 -1 66 3.6387494765222073e-04</internalNodes>
          <leafValues>
            2.4022600054740906e-01 -8.5903126001358032e-01</leafValues></_>
        <_>
          <internalNodes>
            0 -1 47 1.5365007129730657e-05</internalNodes>
          <leafValues>
            -9.3413949012756348e-01 2.2028511762619019e-01</leafValues></_>
        <_>
          <internalNodes>
            0 -1 68 3.3019301481544971e-03</internalNodes>
          <leafValues>
            -6.0730153322219849e-01 3.3772531151771545e-01</leafValues></_></weakClassifiers></_>
    <!-- stage 8 -->
    <_>
      <maxWeakCount>5</maxWeakCount>
      <stageThreshold>-4.7674310207366943e-01</stageThreshold>
      <weakClassifiers>
        <_>
          <internalNodes>
            0 -1 45 3.1640741508454084e-04</internalNodes>
          <leafValues>
            5.9560227394104004e-01 -8.7795275449752808e-01</leafValues></_>
        <_>
          <internalNodes>
            0 -1 55 1.2650595454033464e-04</internalNodes>
          <leafValues>
            -6.7781865596771240e-01 4.7209429740905762e-01</leafValues></_>
        <_>
          <internalNodes>
            0 -1 39 -6.9166904722806066e-05</internalNodes>
          <leafValues>
            -9.6704846620559692e-01 3.0933284759521484e-01</leafValues></_>
        <_>
          <internalNodes>
            0 -1 19 2.2794909775257111e-02</internalNodes>
          <leafValues>
            -6.0068917274475098e-01 5.1435089111328125e-01</leafValues></_>
        <_>
          <internalNodes>
            0 -1 59 -1.1254236596869305e-04</internalNodes>
          <leafValues>
            2.2047168016433716e-01 -9.6977055072784424e-01</leafValues></_></weakClassifiers></_>
    <!-- stage 9 -->
    <_>
      <maxWeakCount>3</maxWeakCount>
      <stageThreshold>6.1576790176331997e-03</stageThreshold>
      <weakClassifiers>
        <_>
          <internalNodes>
            0 -1 65 -5.9003860224038363e-04</internalNodes>
          <leafValues>
            5.2750223875045776e-01 -9.6858638525009155e-01</leafValues></_>
        <_>
          <internalNodes>
            0 -1 11 -9.7082077991217375e-04</internalNodes>
          <leafValues>
            5.9669315814971924e-01 -5.4273968935012817e-01</leafValues></_>
        <_>
          <internalNodes>
            0 -1 67 2.4702909286133945e-04</internalNodes>
          <leafValues>
            -9.3550813198089600e-01 3.7805089354515076e-01</leafValues></_></weakClassifiers></_>
    <!-- stage 10 -->
    <_>
      <maxWeakCount>6</maxWeakCount>
      <stageThreshold>-5.4131770133972168e-01</stageThreshold>
      <weakClassifiers>
        <_>
          <internalNodes>
            0 -1 12 6.7991446703672409e-03</internalNodes>
          <leafValues>
            -6.1744022369384766e-01 6.5590256452560425e-01</leafValues></_>
        <_>
          <internalNodes>
            0 -1 64 6.2931673601269722e-03</internalNodes>
          <leafValues>
            4.0357232093811035e-01 -8.1521028280258179e-01</leafValues></_>
        <_>
          <internalNodes>
            0 -1 63 -4.3181164073757827e-05</internalNodes>
          <leafValues>
            -9.0758794546127319e-01 3.2050231099128723e-01</leafValues></_>
        <_>
          <internalNodes>
            0 -1 42 2.0054838387295604e-04</internalNodes>
          <leafValues>
            1.6216616332530975e-01 -9.0397036075592041e-01</leafValues></_>
        <_>
          <internalNodes>
            0 -1 74 -1.1992020881734788e-04</internalNodes>
          <leafValues>
            -9.3936270475387573e-01 2.2741962969303131e-01</leafValues></_>
        <_>
          <internalNodes>
            0 -1 23 -3.0345161212608218e-04</internalNodes>
          <leafValues>
            -9.9136698246002197e-01 1.8124470114707947e-01</leafValues></_></weakClassifiers></_>
    <!-- stage 11 -->
    <_>
      <maxWeakCount>7</maxWeakCount>
      <stageThreshold>-6.0797894001007080e-01</stageThreshold>
      <weakClassifiers>
        <_>
          <internalNodes>
            0 -1 15 4.7326885396614671e-04</internalNodes>
          <leafValues>
            -5.5283308029174805e-01 5.9630203247070313e-01</leafValues></_>
        <_>
          <internalNodes>
            0 -1 32 -1.2227341532707214e-02</internalNodes>
          <leafValues>
            5.3125315904617310e-01 -4.7915086150169373e-01</leafValues></_>
        <_>
          <internalNodes>
            0 -1 56 -1.8406184390187263e-03</internalNodes>
          <leafValues>
            2.7080696821212769e-01 -9.3462836742401123e-01</leafValues></_>
        <_>
          <internalNodes>
            0 -1 38 1.4357338659465313e-03</internalNodes>
          <leafValues>
            -5.2491962909698486e-01 4.8061683773994446e-01</leafValues></_>
        <_>
          <internalNodes>
            0 -1 49 9.8248623544350266e-05</internalNodes>
          <leafValues>
            2.4983675777912140e-01 -9.1848123073577881e-01</leafValues></_>
        <_>
          <internalNodes>
            0 -1 33 -1.2242519296705723e-02</internalNodes>
          <leafValues>
            -7.8038769960403442e-01 2.8004807233810425e-01</leafValues></_>
        <_>
          <internalNodes>
            0 -1 40 -1.7641921294853091e-04</internalNodes>
          <leafValues>
            -9.3604397773742676e-01 2.2231505811214447e-01</leafValues></_></weakClassifiers></_>
    <!-- stage 12 -->
    <_>
      <maxWeakCount>7</maxWeakCount>
      <stageThreshold>-1.1644531488418579e+00</stageThreshold>
      <weakClassifiers>
        <_>
          <internalNodes>
            0 -1 7 1.7581606283783913e-02</internalNodes>
          <leafValues>
            -4.3272727727890015e-01 6.5183097124099731e-01</leafValues></_>
        <_>
          <internalNodes>
            0 -1 66 2.2273612557910383e-04</internalNodes>
          <leafValues>
            4.1735675930976868e-01 -6.7332100868225098e-01</leafValues></_>
        <_>
          <internalNodes>
            0 -1 25 6.4371524786110967e-05</internalNodes>
          <leafValues>
            -9.1014581918716431e-01 3.3455902338027954e-01</leafValues></_>
        <_>
          <internalNodes>
            0 -1 10 8.2278117537498474e-02</internalNodes>
          <leafValues>
            -5.4890912771224976e-01 5.3024435043334961e-01</leafValues></_>
        <_>
          <internalNodes>
            0 -1 81 -8.6587527766823769e-04</internalNodes>
          <leafValues>
            6.0975641012191772e-01 -3.8685974478721619e-01</leafValues></_>
        <_>
          <internalNodes>
            0 -1 80 1.9901219638995826e-04</internalNodes>
          <leafValues>
            2.8387987613677979e-01 -7.7171933650970459e-01</leafValues></_>
        <_>
          <internalNodes>
            0 -1 71 5.2487873472273350e-04</internalNodes>
          <leafValues>
            2.3537084460258484e-01 -9.2765033245086670e-01</leafValues></_></weakClassifiers></_>
    <!-- stage 13 -->
    <_>
      <maxWeakCount>7</maxWeakCount>
      <stageThreshold>-8.4633362293243408e-01</stageThreshold>
      <weakClassifiers>
        <_>
          <internalNodes>
            0 -1 77 2.5574822211638093e-04</internalNodes>
          <leafValues>
            5.4291135072708130e-01 -7.0264768600463867e-01</leafValues></_>
        <_>
          <internalNodes>
            0 -1 69 1.2320044916123152e-03</internalNodes>
          <leafValues>
            -4.1477498412132263e-01 5.6446141004562378e-01</leafValues></_>
        <_>
          <internalNodes>
            0 -1 58 -5.5430131033062935e-03</internalNodes>
          <leafValues>
            3.2251492142677307e-01 -7.3633444309234619e-01</leafValues></_>
        <_>
          <internalNodes>
            0 -1 18 -1.8084526527673006e-04</internalNodes>
          <leafValues>
            -8.2358467578887939e-01 2.5718489289283752e-01</leafValues></_>
        <_>
          <internalNodes>
            0 -1 75 -4.8746267566457391e-04</internalNodes>
          <leafValues>
            2.0922116935253143e-01 -9.9694991111755371e-01</leafValues></_>
        <_>
          <internalNodes>
            0 -1 22 2.5511471903882921e-04</internalNodes>
          <leafValues>
            1.9613744318485260e-01 -8.1485736370086670e-01</leafValues></_>
        <_>
          <internalNodes>
            0 -1 40 1.9138258357997984e-04</internalNodes>
          <leafValues>
            1.8009054660797119e-01 -9.4638776779174805e-01</leafValues></_></weakClassifiers></_>
    <!-- stage 14 -->
    <_>
      <maxWeakCount>7</maxWeakCount>
      <stageThreshold>-6.8961822986602783e-01</stageThreshold>
      <weakClassifiers>
        <_>
          <internalNodes>
            0 -1 28 4.6170855057425797e-04</internalNodes>
          <leafValues>
            5.1970326900482178e-01 -7.2460496425628662e-01</leafValues></_>
        <_>
          <internalNodes>
            0 -1 31 -1.2198763579363003e-04</internalNodes>
          <leafValues>
            -8.4224796295166016e-01 2.8880241513252258e-01</leafValues></_>
        <_>
          <internalNodes>
            0 -1 83 -5.9190351748839021e-04</internalNodes>
          <leafValues>
            5.1501494646072388e-01 -4.5652279257774353e-01</leafValues></_>
        <_>
          <internalNodes>
            0 -1 29 -2.4573999689891934e-04</internalNodes>
          <leafValues>
            -9.4698250293731689e-01 2.4566572904586792e-01</leafValues></_>
        <_>
          <internalNodes>
            0 -1 0 -2.7650050818920135e-02</internalNodes>
          <leafValues>
            4.0358000993728638e-01 -5.0211346149444580e-01</leafValues></_>
        <_>
          <internalNodes>
            0 -1 26 4.9719499656930566e-04</internalNodes>
          <leafValues>
            2.8846800327301025e-01 -7.1466743946075439e-01</leafValues></_>
        <_>
          <internalNodes>
            0 -1 48 2.9549765167757869e-04</internalNodes>
          <leafValues>
            -9.7062456607818604e-01 2.1646881103515625e-01</leafValues></_></weakClassifiers></_>
    <!-- stage 15 -->
    <_>
      <maxWeakCount>3</maxWeakCount>
      <stageThreshold>-1.1340145766735077e-01</stageThreshold>
      <weakClassifiers>
        <_>
          <internalNodes>
            0 -1 76 -2.8992346487939358e-03</internalNodes>
          <leafValues>
            -9.7067451477050781e-01 5.0066399574279785e-01</leafValues></_>
        <_>
          <internalNodes>
            0 -1 34 7.2422772063873708e-05</internalNodes>
          <leafValues>
            -9.6719819307327271e-01 2.4880295991897583e-01</leafValues></_>
        <_>
          <internalNodes>
            0 -1 17 1.4465153217315674e-03</internalNodes>
          <leafValues>
            -6.9859683513641357e-01 3.5313272476196289e-01</leafValues></_></weakClassifiers></_>
    <!-- stage 16 -->
    <_>
      <maxWeakCount>7</maxWeakCount>
      <stageThreshold>-6.0296899080276489e-01</stageThreshold>
      <weakClassifiers>
        <_>
          <internalNodes>
            0 -1 78 -3.1453641713596880e-04</internalNodes>
          <leafValues>
            -4.5026177167892456e-01 6.2309366464614868e-01</leafValues></_>
        <_>
          <internalNodes>
            0 -1 6 3.7155807018280029e-02</internalNodes>
          <leafValues>
            -4.6180999279022217e-01 4.7785279154777527e-01</leafValues></_>
        <_>
          <internalNodes>
            0 -1 24 -4.0916469879448414e-04</internalNodes>
          <leafValues>
            -9.8854112625122070e-01 2.2629143297672272e-01</leafValues></_>
        <_>
          <internalNodes>
            0 -1 20 -3.0758732464164495e-03</internalNodes>
          <leafValues>
            1.6485658288002014e-01 -9.4513696432113647e-01</leafValues></_>
        <_>
          <internalNodes>
            0 -1 37 3.5105824936181307e-03</internalNodes>
          <leafValues>
            -8.4157377481460571e-01 2.1211434900760651e-01</leafValues></_>
        <_>
          <internalNodes>
            0 -1 50 9.8154763691127300e-04</internalNodes>
          <leafValues>
            -6.2768900394439697e-01 2.9384022951126099e-01</leafValues></_>
        <_>
          <internalNodes>
            0 -1 61 1.0932449367828667e-04</internalNodes>
          <leafValues>
            -5.5136168003082275e-01 4.3337395787239075e-01</leafValues></_></weakClassifiers></_>
    <!-- stage 17 -->
    <_>
      <maxWeakCount>7</maxWeakCount>
      <stageThreshold>-5.5311733484268188e-01</stageThreshold>
      <weakClassifiers>
        <_>
          <internalNodes>
            0 -1 73 1.1725425429176539e-04</internalNodes>
          <leafValues>
            5.1504266262054443e-01 -9.3029493093490601e-01</leafValues></_>
        <_>
          <internalNodes>
            0 -1 5 7.7539704740047455e-02</internalNodes>
          <leafValues>
            -5.0851035118103027e-01 6.4595657587051392e-01</leafValues></_>
        <_>
          <internalNodes>
            0 -1 79 -3.8323807530105114e-03</internalNodes>
          <leafValues>
            8.3313119411468506e-01 -3.3001595735549927e-01</leafValues></_>
        <_>
          <internalNodes>
            0 -1 54 4.7282467130571604e-04</internalNodes>
          <leafValues>
            3.8685768842697144e-01 -6.2393140792846680e-01</leafValues></_>
        <_>
          <internalNodes>
            0 -1 3 7.2589945048093796e-03</internalNodes>
          <leafValues>
            4.6573951840400696e-01 -5.1852506399154663e-01</leafValues></_>
        <_>
          <internalNodes>
            0 -1 8 -3.1386867631226778e-03</internalNodes>
          <leafValues>
            7.3626959323883057e-01 -3.3249214291572571e-01</leafValues></_>
        <_>
          <internalNodes>
            0 -1 21 1.5533714322373271e-03</internalNodes>
          <leafValues>
            2.6105037331581116e-01 -9.1818279027938843e-01</leafValues></_></weakClassifiers></_></stages>
  <features>
    <_>
      <rects>
        <_>
          0 14 12 6 -1.</_>
        <_>
          0 14 6 3 2.</_>
        <_>
          6 17 6 3 2.</_></rects>
      <tilted>0</tilted></_>
    <_>
      <rects>
        <_>
          1 5 18 10 -1.</_>
        <_>
          7 5 6 10 3.</_></rects>
      <tilted>0</tilted></_>
    <_>
      <rects>
        <_>
          1 6 18 8 -1.</_>
        <_>
          7 6 6 8 3.</_></rects>
      <tilted>0</tilted></_>
    <_>
      <rects>
        <_>
          2 10 14 6 -1.</_>
        <_>
          2 12 14 2 3.</_></rects>
      <tilted>0</tilted></_>
    <_>
      <rects>
        <_>
          3 6 15 9 -1.</_>
        <_>
          8 6 5 9 3.</_></rects>
      <tilted>0</tilted></_>
    <_>
      <rects>
        <_>
          3 7 6 9 -1.</_>
        <_>
          6 7 3 9 2.</_></rects>
      <tilted>0</tilted></_>
    <_>
      <rects>
        <_>
          4 10 9 5 -1.</_>
        <_>
          7 10 3 5 3.</_></rects>
      <tilted>0</tilted></_>
    <_>
      <rects>
        <_>
          4 15 12 2 -1.</_>
        <_>
          8 15 4 2 3.</_></rects>
      <tilted>0</tilted></_>
    <_>
      <rects>
        <_>
          4 16 6 2 -1.</_>
        <_>
          4 16 3 1 2.</_>
        <_>
          7 17 3 1 2.</_></rects>
      <tilted>0</tilted></_>
    <_>
      <rects>
        <_>
          5 4 9 4 -1.</_>
        <_>
          5 6 9 2 2.</_></rects>
      <tilted>0</tilted></_>
    <_>
      <rects>
        <_>
          5 4 11 9 -1.</_>
        <_>
          5 7 11 3 3.</_></rects>
      <tilted>0</tilted></_>
    <_>
      <rects>
        <_>
          5 6 6 2 -1.</_>
        <_>
          5 6 3 1 2.</_>
        <_>
          8 7 3 1 2.</_></rects>
      <tilted>0</tilted></_>
    <_>
      <rects>
        <_>
          5 8 6 4 -1.</_>
        <_>
          7 8 2 4 3.</_></rects>
      <tilted>0</tilted></_>
    <_>
      <rects>
        <_>
          6 3 10 12 -1.</_>
        <_>
          6 7 10 4 3.</_></rects>
      <tilted>0</tilted></_>
    <_>
      <rects>
        <_>
          6 4 8 4 -1.</_>
        <_>
          6 6 8 2 2.</_></rects>
      <tilted>0</tilted></_>
    <_>
      <rects>
        <_>
          6 6 2 2 -1.</_>
        <_>
          7 6 1 2 2.</_></rects>
      <tilted>0</tilted></_>
    <_>
      <rects>
        <_>
          7 4 7 6 -1.</_>
        <_>
          7 6 7 2 3.</_></rects>
      <tilted>0</tilted></_>
    <_>
      <rects>
        <_>
          7 5 6 3 -1.</_>
        <_>
          7 6 6 1 3.</_></rects>
      <tilted>0</tilted></_>
    <_>
      <rects>
        <_>
          7 13 4 1 -1.</_>
        <_>
          9 13 2 1 2.</_></rects>
      <tilted>0</tilted></_>
    <_>
      <rects>
        <_>
          8 2 4 9 -1.</_>
        <_>
          8 5 4 3 3.</_></rects>
      <tilted>0</tilted></_>
    <_>
      <rects>
        <_>
          8 7 1 10 -1.</_>
        <_>
          8 12 1 5 2.</_></rects>
      <tilted>0</tilted></_>
    <_>
      <rects>
        <_>
          8 7 3 4 -1.</_>
        <_>
          8 9 3 2 2.</_></rects>
      <tilted>0</tilted></_>
    <_>
      <rects>
        <_>
          8 8 3 2 -1.</_>
        <_>
          9 8 1 2 3.</_></rects>
      <tilted>0</tilted></_>
    <_>
      <rects>
        <_>
          8 8 4 1 -1.</_>
        <_>
          10 8 2 1 2.</_></rects>
      <tilted>0</tilted></_>
    <_>
      <rects>
        <_>
          8 8 4 2 -1.</_>
        <_>
          10 8 2 2 2.</_></rects>
      <tilted>0</tilted></_>
    <_>
      <rects>
        <_>
          8 8 3 2 -1.</_>
        <_>
          8 9 3 1 2.</_></rects>
      <tilted>0</tilted></_>
    <_>
      <rects>
        <_>
          8 8 4 2 -1.</_>
        <_>
          8 9 4 1 2.</_></rects>
      <tilted>0</tilted></_>
    <_>
      <rects>
        <_>
          8 10 1 4 -1.</_>
        <_>
          8 12 1 2 2.</_></rects>
      <tilted>0</tilted></_>
    <_>
      <rects>
        <_>
          8 10 3 2 -1.</_>
        <_>
          9 10 1 2 3.</_></rects>
      <tilted>0</tilted></_>
    <_>
      <rects>
        <_>
          8 10 3 3 -1.</_>
        <_>
          9 10 1 3 3.</_></rects>
      <tilted>0</tilted></_>
    <_>
      <rects>
        <_>
          8 10 4 3 -1.</_>
        <_>
          8 11 4 1 3.</_></rects>
      <tilted>0</tilted></_>
    <_>
      <rects>
        <_>
          8 14 2 2 -1.</_>
        <_>
          9 14 1 2 2.</_></rects>
      <tilted>0</tilted></_>
    <_>
      <rects>
        <_>
          8 15 5 4 -1.</_>
        <_>
          8 17 5 2 2.</_></rects>
      <tilted>0</tilted></_>
    <_>
      <rects>
        <_>
          9 4 1 14 -1.</_>
        <_>
          9 11 1 7 2.</_></rects>
      <tilted>0</tilted></_>
    <_>
      <rects>
        <_>
          9 6 1 4 -1.</_>
        <_>
          9 8 1 2 2.</_></rects>
      <tilted>0</tilted></_>
    <_>
      <rects>
        <_>
          9 6 1 9 -1.</_>
        <_>
          9 9 1 3 3.</_></rects>
      <tilted>0</tilted></_>
    <_>
      <rects>
        <_>
          9 6 1 10 -1.</_>
        <_>
          9 11 1 5 2.</_></rects>
      <tilted>0</tilted></_>
    <_>
      <rects>
        <_>
          9 6 6 5 -1.</_>
        <_>
          11 6 2 5 3.</_></rects>
      <tilted>0</tilted></_>
    <_>
      <rects>
        <_>
          9 6 6 2 -1.</_>
        <_>
          9 6 3 1 2.</_>
        <_>
          12 7 3 1 2.</_></rects>
      <tilted>0</tilted></_>
    <_>
      <rects>
        <_>
          9 7 1 2 -1.</_>
        <_>
          9 8 1 1 2.</_></rects>
      <tilted>0</tilted></_>
    <_>
      <rects>
        <_>
          9 7 2 2 -1.</_>
        <_>
          10 7 1 2 2.</_></rects>
      <tilted>0</tilted></_>
    <_>
      <rects>
        <_>
          9 7 1 4 -1.</_>
        <_>
          9 9 1 2 2.</_></rects>
      <tilted>0</tilted></_>
    <_>
      <rects>
        <_>
          9 7 2 3 -1.</_>
        <_>
          10 7 1 3 2.</_></rects>
      <tilted>0</tilted></_>
    <_>
      <rects>
        <_>
          9 7 3 6 -1.</_>
        <_>
          10 7 1 6 3.</_></rects>
      <tilted>0</tilted></_>
    <_>
      <rects>
        <_>
          9 7 2 7 -1.</_>
        <_>
          10 7 1 7 2.</_></rects>
      <tilted>0</tilted></_>
    <_>
      <rects>
        <_>
          9 7 2 2 -1.</_>
        <_>
          9 8 2 1 2.</_></rects>
      <tilted>0</tilted></_>
    <_>
      <rects>
        <_>
          9 7 2 4 -1.</_>
        <_>
          9 9 2 2 2.</_></rects>
      <tilted>0</tilted></_>
    <_>
      <rects>
        <_>
          9 7 3 2 -1.</_>
        <_>
          9 8 3 1 2.</_></rects>
      <tilted>0</tilted></_>
    <_>
      <rects>
        <_>
          9 7 3 4 -1.</_>
        <_>
          9 9 3 2 2.</_></rects>
      <tilted>0</tilted></_>
    <_>
      <rects>
        <_>
          9 8 2 1 -1.</_>
        <_>
          10 8 1 1 2.</_></rects>
      <tilted>0</tilted></_>
    <_>
      <rects>
        <_>
          9 8 1 6 -1.</_>
        <_>
          9 10 1 2 3.</_></rects>
      <tilted>0</tilted></_>
    <_>
      <rects>
        <_>
          9 8 3 3 -1.</_>
        <_>
          10 8 1 3 3.</_></rects>
      <tilted>0</tilted></_>
    <_>
      <rects>
        <_>
          9 8 6 4 -1.</_>
        <_>
          11 8 2 4 3.</_></rects>
      <tilted>0</tilted></_>
    <_>
      <rects>
        <_>
          9 9 1 6 -1.</_>
        <_>
          9 12 1 3 2.</_></rects>
      <tilted>0</tilted></_>
    <_>
      <rects>
        <_>
          9 9 3 4 -1.</_>
        <_>
          10 9 1 4 3.</_></rects>
      <tilted>0</tilted></_>
    <_>
      <rects>
        <_>
          9 9 4 2 -1.</_>
        <_>
          9 10 4 1 2.</_></rects>
      <tilted>0</tilted></_>
    <_>
      <rects>
        <_>
          9 10 1 6 -1.</_>
        <_>
          9 13 1 3 2.</_></rects>
      <tilted>0</tilted></_>
    <_>
      <rects>
        <_>
          9 10 3 6 -1.</_>
        <_>
          9 13 3 3 2.</_></rects>
      <tilted>0</tilted></_>
    <_>
      <rects>
        <_>
          9 11 6 2 -1.</_>
        <_>
          12 11 3 2 2.</_></rects>
      <tilted>0</tilted></_>
    <_>
      <rects>
        <_>
          9 13 1 4 -1.</_>
        <_>
          9 15 1 2 2.</_></rects>
      <tilted>0</tilted></_>
    <_>
      <rects>
        <_>
          9 13 2 6 -1.</_>
        <_>
          9 15 2 2 3.</_></rects>
      <tilted>0</tilted></_>
    <_>
      <rects>
        <_>
          9 15 3 3 -1.</_>
        <_>
          9 16 3 1 3.</_></rects>
      <tilted>0</tilted></_>
    <_>
      <rects>
        <_>
          9 16 1 4 -1.</_>
        <_>
          9 18 1 2 2.</_></rects>
      <tilted>0</tilted></_>
    <_>
      <rects>
        <_>
          10 7 1 2 -1.</_>
        <_>
          10 8 1 1 2.</_></rects>
      <tilted>0</tilted></_>
    <_>
      <rects>
        <_>
          10 7 1 9 -1.</_>
        <_>
          10 10 1 3 3.</_></rects>
      <tilted>0</tilted></_>
    <_>
      <rects>
        <_>
          10 7 1 8 -1.</_>
        <_>
          10 11 1 4 2.</_></rects>
      <tilted>0</tilted></_>
    <_>
      <rects>
        <_>
          10 7 2 2 -1.</_>
        <_>
          10 8 2 1 2.</_></rects>
      <tilted>0</tilted></_>
    <_>
      <rects>
        <_>
          10 7 2 4 -1.</_>
        <_>
          10 9 2 2 2.</_></rects>
      <tilted>0</tilted></_>
    <_>
      <rects>
        <_>
          10 7 6 6 -1.</_>
        <_>
          12 7 2 6 3.</_></rects>
      <tilted>0</tilted></_>
    <_>
      <rects>
        <_>
          10 7 6 2 -1.</_>
        <_>
          10 7 3 1 2.</_>
        <_>
          13 8 3 1 2.</_></rects>
      <tilted>0</tilted></_>
    <_>
      <rects>
        <_>
          10 8 1 8 -1.</_>
        <_>
          10 12 1 4 2.</_></rects>
      <tilted>0</tilted></_>
    <_>
      <rects>
        <_>
          10 8 2 8 -1.</_>
        <_>
          10 8 1 4 2.</_>
        <_>
          11 12 1 4 2.</_></rects>
      <tilted>0</tilted></_>
    <_>
      <rects>
        <_>
          10 8 2 7 -1.</_>
        <_>
          11 8 1 7 2.</_></rects>
      <tilted>0</tilted></_>
    <_>
      <rects>
        <_>
          10 9 2 1 -1.</_>
        <_>
          11 9 1 1 2.</_></rects>
      <tilted>0</tilted></_>
    <_>
      <rects>
        <_>
          10 10 3 3 -1.</_>
        <_>
          11 10 1 3 3.</_></rects>
      <tilted>0</tilted></_>
    <_>
      <rects>
        <_>
          10 11 1 4 -1.</_>
        <_>
          10 13 1 2 2.</_></rects>
      <tilted>0</tilted></_>
    <_>
      <rects>
        <_>
          10 11 1 6 -1.</_>
        <_>
          10 13 1 2 3.</_></rects>
      <tilted>0</tilted></_>
    <_>
      <rects>
        <_>
          10 12 1 3 -1.</_>
        <_>
          10 13 1 1 3.</_></rects>
      <tilted>0</tilted></_>
    <_>
      <rects>
        <_>
          10 14 1 2 -1.</_>
        <_>
          10 15 1 1 2.</_></rects>
      <tilted>0</tilted></_>
    <_>
      <rects>
        <_>
          11 8 4 4 -1.</_>
        <_>
          11 8 2 2 2.</_>
        <_>
          13 10 2 2 2.</_></rects>
      <tilted>0</tilted></_>
    <_>
      <rects>
        <_>
          12 8 1 2 -1.</_>
        <_>
          12 9 1 1 2.</_></rects>
      <tilted>0</tilted></_>
    <_>
      <rects>
        <_>
          13 5 2 2 -1.</_>
        <_>
          13 5 1 1 2.</_>
        <_>
          14 6 1 1 2.</_></rects>
      <tilted>0</tilted></_>
    <_>
      <rects>
        <_>
          13 6 2 2 -1.</_>
        <_>
          13 7 2 1 2.</_></rects>
      <tilted>0</tilted></_>
    <_>
      <rects>
        <_>
          14 6 2 2 -1.</_>
        <_>
          14 6 1 1 2.</_>
        <_>
          15 7 1 1 2.</_></rects>
      <tilted>0</tilted></_></features></cascade>
</opencv_storage>
