<?xml version="1.0"?>
<opencv_storage>
<cascade>
  <stageType>BOOST</stageType>
  <featureType>HAAR</featureType>
  <height>20</height>
  <width>20</width>
  <stageParams>
    <boostType>GAB</boostType>
    <minHitRate>9.9500000476837158e-01</minHitRate>
    <maxFalseAlarm>5.0000000000000000e-01</maxFalseAlarm>
    <weightTrimRate>9.4999999999999996e-01</weightTrimRate>
    <maxDepth>1</maxDepth>
    <maxWeakCount>100</maxWeakCount></stageParams>
  <featureParams>
    <maxCatCount>0</maxCatCount>
    <featSize>1</featSize>
    <mode>BASIC</mode></featureParams>
  <stageNum>15</stageNum>
  <stages>
    <!-- stage 0 -->
    <_>
      <maxWeakCount>18</maxWeakCount>
      <stageThreshold>-1.1251354217529297e+00</stageThreshold>
      <weakClassifiers>
        <_>
          <internalNodes>
            0 -1 98 5.5554360151290894e-03</internalNodes>
          <leafValues>
            -3.7671232223510742e-01 6.5545243024826050e-01</leafValues></_>
        <_>
          <internalNodes>
            0 -1 336 9.3964049592614174e-03</internalNodes>
          <leafValues>
            -2.2306221723556519e-01 7.0847272872924805e-01</leafValues></_>
        <_>
          <internalNodes>
            0 -1 16 4.1833724826574326e-02</internalNodes>
          <leafValues>
            -2.6021212339401245e-01 5.0732636451721191e-01</leafValues></_>
        <_>
          <internalNodes>
            0 -1 316 1.2253357097506523e-02</internalNodes>
          <leafValues>
            -1.9408197700977325e-01 5.4641270637512207e-01</leafValues></_>
        <_>
          <internalNodes>
            0 -1 262 -4.2665633372962475e-03</internalNodes>
          <leafValues>
            4.3869960308074951e-01 -2.2861871123313904e-01</leafValues></_>
        <_>
          <internalNodes>
            0 -1 180 3.2662946730852127e-02</internalNodes>
          <leafValues>
            9.9455155432224274e-02 -8.6183023452758789e-01</leafValues></_>
        <_>
          <internalNodes>
            0 -1 135 -1.8116441788151860e-04</internalNodes>
          <leafValues>
            -3.8935226202011108e-01 1.9743785262107849e-01</leafValues></_>
        <_>
          <internalNodes>
            0 -1 69 -3.3997587859630585e-02</internalNodes>
          <leafValues>
            -7.9787659645080566e-01 7.8598432242870331e-02</leafValues></_>
        <_>
          <internalNodes>
            0 -1 72 6.9810405373573303e-02</internalNodes>
          <leafValues>
            7.3085404932498932e-02 -7.6699000597000122e-01</leafValues></_>
        <_>
          <internalNodes>
            0 -1 135 1.7914879135787487e-03</internalNodes>
          <leafValues>
            8.5076786577701569e-02 -6.2479519844055176e-01</leafValues></_>
        <_>
          <internalNodes>
            0 -1 231 -6.9594621658325195e-02</internalNodes>
          <leafValues>
            -7.4016594886779785e-01 7.5821302831172943e-02</leafValues></_>
        <_>
          <internalNodes>
            0 -1 252 5.9738184791058302e-04</internalNodes>
          <leafValues>
            -2.1655994653701782e-01 2.9705384373664856e-01</leafValues></_>
        <_>
          <internalNodes>
            0 -1 174 1.2225115206092596e-03</internalNodes>
          <leafValues>
            -2.7904513478279114e-01 2.2863753139972687e-01</leafValues></_>
        <_>
          <internalNodes>
            0 -1 64 5.6589615996927023e-04</internalNodes>
          <leafValues>
            -2.4216631054878235e-01 2.4395890533924103e-01</leafValues></_>
        <_>
          <internalNodes>
            0 -1 40 -2.6209518313407898e-02</internalNodes>
          <leafValues>
            5.2383536100387573e-01 -1.2801186740398407e-01</leafValues></_>
        <_>
          <internalNodes>
            0 -1 318 -1.1750847101211548e-02</internalNodes>
          <leafValues>
            -8.6464297771453857e-01 7.7745571732521057e-02</leafValues></_>
        <_>
          <internalNodes>
            0 -1 99 -9.6319913864135742e-03</internalNodes>
          <leafValues>
            5.0584566593170166e-01 -1.2356338649988174e-01</leafValues></_>
        <_>
          <internalNodes>
            0 -1 218 3.3161465078592300e-02</internalNodes>
          <leafValues>
            1.0066433250904083e-01 -5.9819996356964111e-01</leafValues></_></weakClassifiers></_>
    <!-- stage 1 -->
    <_>
      <maxWeakCount>22</maxWeakCount>
      <stageThreshold>-1.0797299146652222e+00</stageThreshold>
      <weakClassifiers>
        <_>
          <internalNodes>
            0 -1 31 3.9501346647739410e-02</internalNodes>
          <leafValues>
            -1.3374805450439453e-01 7.3972600698471069e-01</leafValues></_>
        <_>
          <internalNodes>
            0 -1 331 2.2080023773014545e-03</internalNodes>
          <leafValues>
            -2.4414996802806854e-01 6.6711521148681641e-01</leafValues></_>
        <_>
          <internalNodes>
            0 -1 385 -1.8818572163581848e-02</internalNodes>
          <leafValues>
            5.3951001167297363e-01 -2.2726121544837952e-01</leafValues></_>
        <_>
          <internalNodes>
            0 -1 161 2.3260030895471573e-02</internalNodes>
          <leafValues>
            -1.7885071039199829e-01 5.7023835182189941e-01</leafValues></_>
        <_>
          <internalNodes>
            0 -1 204 -6.9713895209133625e-03</internalNodes>
          <leafValues>
            4.6177211403846741e-01 -1.7123255133628845e-01</leafValues></_>
        <_>
          <internalNodes>
            0 -1 229 -4.1449838317930698e-03</internalNodes>
          <leafValues>
            4.2431879043579102e-01 -1.5660519897937775e-01</leafValues></_>
        <_>
          <internalNodes>
            0 -1 134 1.6990477219223976e-02</internalNodes>
          <leafValues>
            1.1161859333515167e-01 -6.0412222146987915e-01</leafValues></_>
        <_>
          <internalNodes>
            0 -1 310 -6.8999798968434334e-03</internalNodes>
          <leafValues>
            -5.9958565235137939e-01 9.2630311846733093e-02</leafValues></_>
        <_>
          <internalNodes>
            0 -1 128 -1.7015699995681643e-05</internalNodes>
          <leafValues>
            -3.3527255058288574e-01 1.6348123550415039e-01</leafValues></_>
        <_>
          <internalNodes>
            0 -1 128 6.2166358111426234e-04</internalNodes>
          <leafValues>
            1.4945764839649200e-01 -4.5142531394958496e-01</leafValues></_>
        <_>
          <internalNodes>
            0 -1 50 -1.2493172287940979e-01</internalNodes>
          <leafValues>
            -8.2253682613372803e-01 6.3629433512687683e-02</leafValues></_>
        <_>
          <internalNodes>
            0 -1 360 1.0877603664994240e-02</internalNodes>
          <leafValues>
            -1.3491035997867584e-01 5.4334533214569092e-01</leafValues></_>
        <_>
          <internalNodes>
            0 -1 359 -5.6227510794997215e-03</internalNodes>
          <leafValues>
            3.8992467522621155e-01 -1.5262399613857269e-01</leafValues></_>
        <_>
          <internalNodes>
            0 -1 96 -4.0235370397567749e-02</internalNodes>
          <leafValues>
            -5.4107493162155151e-01 1.0585264116525650e-01</leafValues></_>
        <_>
          <internalNodes>
            0 -1 82 1.4675220474600792e-02</internalNodes>
          <leafValues>
            -1.1424593627452850e-01 5.2336257696151733e-01</leafValues></_>
        <_>
          <internalNodes>
            0 -1 338 3.5059280693531036e-02</internalNodes>
          <leafValues>
            -1.2226413190364838e-01 4.3855124711990356e-01</leafValues></_>
        <_>
          <internalNodes>
            0 -1 92 -2.5320447981357574e-02</internalNodes>
          <leafValues>
            4.3274578452110291e-01 -1.1541752517223358e-01</leafValues></_>
        <_>
          <internalNodes>
            0 -1 260 3.0038286931812763e-03</internalNodes>
          <leafValues>
            9.2461563646793365e-02 -5.5014163255691528e-01</leafValues></_>
        <_>
          <internalNodes>
            0 -1 369 -4.1146238800138235e-04</internalNodes>
          <leafValues>
            2.5739270448684692e-01 -2.0540212094783783e-01</leafValues></_>
        <_>
          <internalNodes>
            0 -1 347 -1.1345664970576763e-03</internalNodes>
          <leafValues>
            2.9340377449989319e-01 -2.0022600889205933e-01</leafValues></_>
        <_>
          <internalNodes>
            0 -1 1 1.2534446083009243e-02</internalNodes>
          <leafValues>
            -1.4920079708099365e-01 3.4586736559867859e-01</leafValues></_>
        <_>
          <internalNodes>
            0 -1 34 -2.3667509667575359e-03</internalNodes>
          <leafValues>
            4.2802837491035461e-01 -1.2546257674694061e-01</leafValues></_></weakClassifiers></_>
    <!-- stage 2 -->
    <_>
      <maxWeakCount>27</maxWeakCount>
      <stageThreshold>-1.0849958658218384e+00</stageThreshold>
      <weakClassifiers>
        <_>
          <internalNodes>
            0 -1 19 5.6564815342426300e-02</internalNodes>
          <leafValues>
            -8.2319252192974091e-02 7.6059848070144653e-01</leafValues></_>
        <_>
          <internalNodes>
            0 -1 341 3.5909332334995270e-02</internalNodes>
          <leafValues>
            -1.2611295282840729e-01 7.2254401445388794e-01</leafValues></_>
        <_>
          <internalNodes>
            0 -1 97 1.8801938742399216e-02</internalNodes>
          <leafValues>
            -1.9136290252208710e-01 5.7408559322357178e-01</leafValues></_>
        <_>
          <internalNodes>
            0 -1 153 -2.1137766540050507e-02</internalNodes>
          <leafValues>
            4.4885927438735962e-01 -1.9956274330615997e-01</leafValues></_>
        <_>
          <internalNodes>
            0 -1 116 2.5981185899581760e-05</internalNodes>
          <leafValues>
            -4.6010559797286987e-01 1.7419427633285522e-01</leafValues></_>
        <_>
          <internalNodes>
            0 -1 137 1.6836631111800671e-03</internalNodes>
          <leafValues>
            9.7302414476871490e-02 -6.3587898015975952e-01</leafValues></_>
        <_>
          <internalNodes>
            0 -1 36 -7.7738352119922638e-02</internalNodes>
          <leafValues>
            -6.9205349683761597e-01 8.9656457304954529e-02</leafValues></_>
        <_>
          <internalNodes>
            0 -1 135 1.4898369554430246e-03</internalNodes>
          <leafValues>
            1.0281055420637131e-01 -5.8784639835357666e-01</leafValues></_>
        <_>
          <internalNodes>
            0 -1 191 1.5373881906270981e-03</internalNodes>
          <leafValues>
            -1.7486611008644104e-01 3.4820178151130676e-01</leafValues></_>
        <_>
          <internalNodes>
            0 -1 322 -1.6691692173480988e-02</internalNodes>
          <leafValues>
            3.9582058787345886e-01 -1.4005142450332642e-01</leafValues></_>
        <_>
          <internalNodes>
            0 -1 275 9.7687721252441406e-02</internalNodes>
          <leafValues>
            8.3275586366653442e-02 -7.7668750286102295e-01</leafValues></_>
        <_>
          <internalNodes>
            0 -1 54 -5.4426831193268299e-03</internalNodes>
          <leafValues>
            -7.7423769235610962e-01 4.8336263746023178e-02</leafValues></_>
        <_>
          <internalNodes>
            0 -1 177 5.4270017426460981e-04</internalNodes>
          <leafValues>
            -2.7088892459869385e-01 2.1359640359878540e-01</leafValues></_>
        <_>
          <internalNodes>
            0 -1 70 -5.7790331542491913e-02</internalNodes>
          <leafValues>
            -8.8993072509765625e-01 5.7680737227201462e-02</leafValues></_>
        <_>
          <internalNodes>
            0 -1 172 -5.8590091066434979e-04</internalNodes>
          <leafValues>
            2.3973876237869263e-01 -2.2837340831756592e-01</leafValues></_>
        <_>
          <internalNodes>
            0 -1 222 2.6685178279876709e-02</internalNodes>
          <leafValues>
            8.6579471826553345e-02 -5.7135307788848877e-01</leafValues></_>
        <_>
          <internalNodes>
            0 -1 220 9.2480480670928955e-03</internalNodes>
          <leafValues>
            6.6038735210895538e-02 -6.6356879472732544e-01</leafValues></_>
        <_>
          <internalNodes>
            0 -1 248 3.2766808290034533e-03</internalNodes>
          <leafValues>
            -1.4366799592971802e-01 3.8173756003379822e-01</leafValues></_>
        <_>
          <internalNodes>
            0 -1 408 -9.4083813019096851e-04</internalNodes>
          <leafValues>
            -4.1244137287139893e-01 1.3557408750057220e-01</leafValues></_>
        <_>
          <internalNodes>
            0 -1 5 2.5932751595973969e-02</internalNodes>
          <leafValues>
            -1.0867426544427872e-01 4.7993645071983337e-01</leafValues></_>
        <_>
          <internalNodes>
            0 -1 37 6.5730782225728035e-03</internalNodes>
          <leafValues>
            -1.9244447350502014e-01 3.2571566104888916e-01</leafValues></_>
        <_>
          <internalNodes>
            0 -1 312 3.0568763613700867e-03</internalNodes>
          <leafValues>
            8.5328713059425354e-02 -5.8278381824493408e-01</leafValues></_>
        <_>
          <internalNodes>
            0 -1 129 3.1999440398067236e-03</internalNodes>
          <leafValues>
            5.4132357239723206e-02 -7.6773661375045776e-01</leafValues></_>
        <_>
          <internalNodes>
            0 -1 301 2.7428981848061085e-03</internalNodes>
          <leafValues>
            -1.3135990500450134e-01 3.8015979528427124e-01</leafValues></_>
        <_>
          <internalNodes>
            0 -1 253 -1.0295667685568333e-02</internalNodes>
          <leafValues>
            5.9665662050247192e-01 -8.1545427441596985e-02</leafValues></_>
        <_>
          <internalNodes>
            0 -1 111 -1.0495983995497227e-02</internalNodes>
          <leafValues>
            -8.8360512256622314e-01 6.1809711158275604e-02</leafValues></_>
        <_>
          <internalNodes>
            0 -1 276 -2.6229438371956348e-03</internalNodes>
          <leafValues>
            -4.9127179384231567e-01 8.6720585823059082e-02</leafValues></_></weakClassifiers></_>
    <!-- stage 3 -->
    <_>
      <maxWeakCount>29</maxWeakCount>
      <stageThreshold>-1.0106115341186523e+00</stageThreshold>
      <weakClassifiers>
        <_>
          <internalNodes>
            0 -1 30 2.4287778884172440e-02</internalNodes>
          <leafValues>
            -1.8731416761875153e-01 6.2162160873413086e-01</leafValues></_>
        <_>
          <internalNodes>
            0 -1 225 -4.1788043454289436e-03</internalNodes>
          <leafValues>
            4.9409118294715881e-01 -2.5664618611335754e-01</leafValues></_>
        <_>
          <internalNodes>
            0 -1 393 -9.9620446562767029e-03</internalNodes>
          <leafValues>
            3.5954457521438599e-01 -2.7751889824867249e-01</leafValues></_>
        <_>
          <internalNodes>
            0 -1 234 9.0627688914537430e-03</internalNodes>
          <leafValues>
            -1.8324629962444305e-01 3.9268574118614197e-01</leafValues></_>
        <_>
          <internalNodes>
            0 -1 143 3.5000727511942387e-03</internalNodes>
          <leafValues>
            6.8144693970680237e-02 -7.0551764965057373e-01</leafValues></_>
        <_>
          <internalNodes>
            0 -1 210 -4.3094575405120850e-02</internalNodes>
          <leafValues>
            -6.5588110685348511e-01 8.4755897521972656e-02</leafValues></_>
        <_>
          <internalNodes>
            0 -1 137 2.4899761192500591e-03</internalNodes>
          <leafValues>
            8.3828859031200409e-02 -7.6644504070281982e-01</leafValues></_>
        <_>
          <internalNodes>
            0 -1 292 -2.3438036441802979e-03</internalNodes>
          <leafValues>
            3.9450725913047791e-01 -1.9625268876552582e-01</leafValues></_>
        <_>
          <internalNodes>
            0 -1 137 -7.6445561717264354e-05</internalNodes>
          <leafValues>
            -3.0752021074295044e-01 2.2401289641857147e-01</leafValues></_>
        <_>
          <internalNodes>
            0 -1 360 1.2693198397755623e-02</internalNodes>
          <leafValues>
            -1.1341989040374756e-01 4.9105826020240784e-01</leafValues></_>
        <_>
          <internalNodes>
            0 -1 122 2.6910756714642048e-03</internalNodes>
          <leafValues>
            7.6585903763771057e-02 -6.8886750936508179e-01</leafValues></_>
        <_>
          <internalNodes>
            0 -1 104 -6.8179138004779816e-02</internalNodes>
          <leafValues>
            -6.5345627069473267e-01 6.9607958197593689e-02</leafValues></_>
        <_>
          <internalNodes>
            0 -1 197 2.4134703562594950e-04</internalNodes>
          <leafValues>
            -2.0534110069274902e-01 2.3173880577087402e-01</leafValues></_>
        <_>
          <internalNodes>
            0 -1 192 6.5206857398152351e-03</internalNodes>
          <leafValues>
            -1.3471333682537079e-01 4.1017162799835205e-01</leafValues></_>
        <_>
          <internalNodes>
            0 -1 66 -3.8310699164867401e-03</internalNodes>
          <leafValues>
            -6.7638689279556274e-01 8.5943318903446198e-02</leafValues></_>
        <_>
          <internalNodes>
            0 -1 228 1.5342090278863907e-02</internalNodes>
          <leafValues>
            7.3585316538810730e-02 -5.7110416889190674e-01</leafValues></_>
        <_>
          <internalNodes>
            0 -1 406 3.1192668247967958e-03</internalNodes>
          <leafValues>
            6.7372202873229980e-02 -6.8202120065689087e-01</leafValues></_>
        <_>
          <internalNodes>
            0 -1 288 -7.2402618825435638e-03</internalNodes>
          <leafValues>
            5.0086790323257446e-01 -1.0765899717807770e-01</leafValues></_>
        <_>
          <internalNodes>
            0 -1 63 2.9446717235259712e-04</internalNodes>
          <leafValues>
            -2.2350098192691803e-01 2.2665719687938690e-01</leafValues></_>
        <_>
          <internalNodes>
            0 -1 313 -2.8903074562549591e-03</internalNodes>
          <leafValues>
            3.3420178294181824e-01 -1.6052781045436859e-01</leafValues></_>
        <_>
          <internalNodes>
            0 -1 132 -3.7433307617902756e-02</internalNodes>
          <leafValues>
            -7.2556275129318237e-01 6.9774270057678223e-02</leafValues></_>
        <_>
          <internalNodes>
            0 -1 327 -3.8844823837280273e-02</internalNodes>
          <leafValues>
            -4.8356103897094727e-01 8.4002621471881866e-02</leafValues></_>
        <_>
          <internalNodes>
            0 -1 280 4.4475860893726349e-02</internalNodes>
          <leafValues>
            7.1919590234756470e-02 -6.0145729780197144e-01</leafValues></_>
        <_>
          <internalNodes>
            0 -1 44 2.3202542215585709e-02</internalNodes>
          <leafValues>
            -1.1491011828184128e-01 4.6084538102149963e-01</leafValues></_>
        <_>
          <internalNodes>
            0 -1 254 -1.0388366878032684e-02</internalNodes>
          <leafValues>
            -6.3873314857482910e-01 7.4293166399002075e-02</leafValues></_>
        <_>
          <internalNodes>
            0 -1 206 2.2455751895904541e-02</internalNodes>
          <leafValues>
            -1.1504007130861282e-01 4.8841777443885803e-01</leafValues></_>
        <_>
          <internalNodes>
            0 -1 162 -1.6434317454695702e-02</internalNodes>
          <leafValues>
            -7.2760295867919922e-01 6.2174998223781586e-02</leafValues></_>
        <_>
          <internalNodes>
            0 -1 125 1.0174440685659647e-03</internalNodes>
          <leafValues>
            -2.1663719415664673e-01 2.1501129865646362e-01</leafValues></_>
        <_>
          <internalNodes>
            0 -1 187 9.5808191690593958e-04</internalNodes>
          <leafValues>
            -1.8747457861900330e-01 2.5256487727165222e-01</leafValues></_></weakClassifiers></_>
    <!-- stage 4 -->
    <_>
      <maxWeakCount>27</maxWeakCount>
      <stageThreshold>-8.8390451669692993e-01</stageThreshold>
      <weakClassifiers>
        <_>
          <internalNodes>
            0 -1 84 1.6495881602168083e-02</internalNodes>
          <leafValues>
            -6.3089191913604736e-02 7.2645372152328491e-01</leafValues></_>
        <_>
          <internalNodes>
            0 -1 223 -3.6435546353459358e-03</internalNodes>
          <leafValues>
            5.5419212579727173e-01 -2.4818079173564911e-01</leafValues></_>
        <_>
          <internalNodes>
            0 -1 27 1.4266257174313068e-02</internalNodes>
          <leafValues>
            -1.8151450157165527e-01 4.8774969577789307e-01</leafValues></_>
        <_>
          <internalNodes>
            0 -1 135 -8.5559891886077821e-05</internalNodes>
          <leafValues>
            -4.5126643776893616e-01 1.5555405616760254e-01</leafValues></_>
        <_>
          <internalNodes>
            0 -1 129 -1.6154546756297350e-04</internalNodes>
          <leafValues>
            -3.9417320489883423e-01 1.6561816632747650e-01</leafValues></_>
        <_>
          <internalNodes>
            0 -1 258 -3.4205205738544464e-02</internalNodes>
          <leafValues>
            3.8920667767524719e-01 -1.6557398438453674e-01</leafValues></_>
        <_>
          <internalNodes>
            0 -1 273 -2.9666812624782324e-03</internalNodes>
          <leafValues>
            3.6275905370712280e-01 -1.4370018243789673e-01</leafValues></_>
        <_>
          <internalNodes>
            0 -1 319 4.4162385165691376e-03</internalNodes>
          <leafValues>
            -1.5129859745502472e-01 4.8239567875862122e-01</leafValues></_>
        <_>
          <internalNodes>
            0 -1 268 1.3131644576787949e-02</internalNodes>
          <leafValues>
            7.1098446846008301e-02 -7.3379564285278320e-01</leafValues></_>
        <_>
          <internalNodes>
            0 -1 56 1.2442409060895443e-03</internalNodes>
          <leafValues>
            -1.8433150649070740e-01 2.6921039819717407e-01</leafValues></_>
        <_>
          <internalNodes>
            0 -1 282 3.7866000086069107e-02</internalNodes>
          <leafValues>
            7.3524996638298035e-02 -6.2734353542327881e-01</leafValues></_>
        <_>
          <internalNodes>
            0 -1 184 1.1761620407924056e-03</internalNodes>
          <leafValues>
            -2.1998164057731628e-01 2.3307655751705170e-01</leafValues></_>
        <_>
          <internalNodes>
            0 -1 339 1.0386591020505875e-04</internalNodes>
          <leafValues>
            -2.1298348903656006e-01 2.3280438780784607e-01</leafValues></_>
        <_>
          <internalNodes>
            0 -1 62 9.2148836702108383e-03</internalNodes>
          <leafValues>
            -1.2486132234334946e-01 4.0078330039978027e-01</leafValues></_>
        <_>
          <internalNodes>
            0 -1 267 -7.7549470588564873e-03</internalNodes>
          <leafValues>
            3.5207405686378479e-01 -1.5089285373687744e-01</leafValues></_>
        <_>
          <internalNodes>
            0 -1 193 1.7509849742054939e-02</internalNodes>
          <leafValues>
            -8.6292192339897156e-02 5.9602743387222290e-01</leafValues></_>
        <_>
          <internalNodes>
            0 -1 390 -9.1973748058080673e-03</internalNodes>
          <leafValues>
            2.9647794365882874e-01 -1.7908756434917450e-01</leafValues></_>
        <_>
          <internalNodes>
            0 -1 189 -4.4212989509105682e-02</internalNodes>
          <leafValues>
            -5.3081291913986206e-01 9.6412964165210724e-02</leafValues></_>
        <_>
          <internalNodes>
            0 -1 199 7.8357104212045670e-03</internalNodes>
          <leafValues>
            7.1443513035774231e-02 -6.1202615499496460e-01</leafValues></_>
        <_>
          <internalNodes>
            0 -1 221 -1.3429585844278336e-02</internalNodes>
          <leafValues>
            -6.0421675443649292e-01 7.1221686899662018e-02</leafValues></_>
        <_>
          <internalNodes>
            0 -1 8 1.6290463507175446e-02</internalNodes>
          <leafValues>
            -1.6571672260761261e-01 2.9810503125190735e-01</leafValues></_>
        <_>
          <internalNodes>
            0 -1 217 -3.6890938878059387e-02</internalNodes>
          <leafValues>
            -7.7631032466888428e-01 5.9330414980649948e-02</leafValues></_>
        <_>
          <internalNodes>
            0 -1 278 -1.4725839719176292e-03</internalNodes>
          <leafValues>
            2.8004810214042664e-01 -1.7575441300868988e-01</leafValues></_>
        <_>
          <internalNodes>
            0 -1 188 5.3754793480038643e-03</internalNodes>
          <leafValues>
            -1.3259974122047424e-01 3.6048060655593872e-01</leafValues></_>
        <_>
          <internalNodes>
            0 -1 146 6.0585588216781616e-03</internalNodes>
          <leafValues>
            7.1002922952175140e-02 -7.9931533336639404e-01</leafValues></_>
        <_>
          <internalNodes>
            0 -1 389 4.0884325280785561e-03</internalNodes>
          <leafValues>
            5.3024873137474060e-02 -6.7463964223861694e-01</leafValues></_>
        <_>
          <internalNodes>
            0 -1 355 -1.9781771115958691e-03</internalNodes>
          <leafValues>
            2.8468108177185059e-01 -1.5317851305007935e-01</leafValues></_></weakClassifiers></_>
    <!-- stage 5 -->
    <_>
      <maxWeakCount>33</maxWeakCount>
      <stageThreshold>-9.1638165712356567e-01</stageThreshold>
      <weakClassifiers>
        <_>
          <internalNodes>
            0 -1 226 2.4117464199662209e-02</internalNodes>
          <leafValues>
            3.6585364490747452e-02 7.7083331346511841e-01</leafValues></_>
        <_>
          <internalNodes>
            0 -1 237 9.9027287214994431e-03</internalNodes>
          <leafValues>
            -1.2263921648263931e-01 6.1766046285629272e-01</leafValues></_>
        <_>
          <internalNodes>
            0 -1 78 1.9122028024867177e-03</internalNodes>
          <leafValues>
            -2.7856028079986572e-01 2.9463577270507813e-01</leafValues></_>
        <_>
          <internalNodes>
            0 -1 133 3.7666667252779007e-02</internalNodes>
          <leafValues>
            7.2359010577201843e-02 -5.5188286304473877e-01</leafValues></_>
        <_>
          <internalNodes>
            0 -1 296 7.3753595352172852e-03</internalNodes>
          <leafValues>
            -1.3072931766510010e-01 5.2014875411987305e-01</leafValues></_>
        <_>
          <internalNodes>
            0 -1 135 2.0985570736229420e-03</internalNodes>
          <leafValues>
            1.0840798169374466e-01 -6.6553038358688354e-01</leafValues></_>
        <_>
          <internalNodes>
            0 -1 359 -8.2681933417916298e-03</internalNodes>
          <leafValues>
            3.7350758910179138e-01 -1.6171739995479584e-01</leafValues></_>
        <_>
          <internalNodes>
            0 -1 94 4.9942217767238617e-02</internalNodes>
          <leafValues>
            -1.2955185770988464e-01 4.0662497282028198e-01</leafValues></_>
        <_>
          <internalNodes>
            0 -1 129 1.8928989302366972e-03</internalNodes>
          <leafValues>
            8.7193079292774200e-02 -5.4792308807373047e-01</leafValues></_>
        <_>
          <internalNodes>
            0 -1 364 4.1579067707061768e-02</internalNodes>
          <leafValues>
            -1.0640187561511993e-01 4.6859261393547058e-01</leafValues></_>
        <_>
          <internalNodes>
            0 -1 86 -1.2873945757746696e-02</internalNodes>
          <leafValues>
            -5.9169328212738037e-01 7.6327681541442871e-02</leafValues></_>
        <_>
          <internalNodes>
            0 -1 85 -1.1276170611381531e-02</internalNodes>
          <leafValues>
            1.7477826774120331e-01 -2.8269535303115845e-01</leafValues></_>
        <_>
          <internalNodes>
            0 -1 173 3.5945405252277851e-03</internalNodes>
          <leafValues>
            -1.2970557808876038e-01 3.5073599219322205e-01</leafValues></_>
        <_>
          <internalNodes>
            0 -1 73 -6.5950244665145874e-02</internalNodes>
          <leafValues>
            -4.8502469062805176e-01 9.2575050890445709e-02</leafValues></_>
        <_>
          <internalNodes>
            0 -1 128 -9.7871328762266785e-05</internalNodes>
          <leafValues>
            -3.1855469942092896e-01 1.3186056911945343e-01</leafValues></_>
        <_>
          <internalNodes>
            0 -1 154 5.5502094328403473e-03</internalNodes>
          <leafValues>
            3.9168298244476318e-02 -8.9613491296768188e-01</leafValues></_>
        <_>
          <internalNodes>
            0 -1 213 1.0388981550931931e-02</internalNodes>
          <leafValues>
            5.4964013397693634e-02 -6.0978269577026367e-01</leafValues></_>
        <_>
          <internalNodes>
            0 -1 25 -2.2120492532849312e-02</internalNodes>
          <leafValues>
            4.7639781236648560e-01 -9.7101643681526184e-02</leafValues></_>
        <_>
          <internalNodes>
            0 -1 108 -2.7190898545086384e-03</internalNodes>
          <leafValues>
            3.4960311651229858e-01 -1.2146608531475067e-01</leafValues></_>
        <_>
          <internalNodes>
            0 -1 61 -3.5860732197761536e-02</internalNodes>
          <leafValues>
            -7.9546630382537842e-01 5.0342094153165817e-02</leafValues></_>
        <_>
          <internalNodes>
            0 -1 118 3.5339351743459702e-03</internalNodes>
          <leafValues>
            7.4699953198432922e-02 -5.3616821765899658e-01</leafValues></_>
        <_>
          <internalNodes>
            0 -1 244 -1.2625155970454216e-02</internalNodes>
          <leafValues>
            4.3229901790618896e-01 -9.7230061888694763e-02</leafValues></_>
        <_>
          <internalNodes>
            0 -1 295 1.7487503588199615e-02</internalNodes>
          <leafValues>
            -1.0642287880182266e-01 4.5582467317581177e-01</leafValues></_>
        <_>
          <internalNodes>
            0 -1 218 3.2983317971229553e-02</internalNodes>
          <leafValues>
            8.5241146385669708e-02 -5.4253798723220825e-01</leafValues></_>
        <_>
          <internalNodes>
            0 -1 100 -1.7948485910892487e-02</internalNodes>
          <leafValues>
            -4.8497384786605835e-01 8.1103779375553131e-02</leafValues></_>
        <_>
          <internalNodes>
            0 -1 163 -2.9944120906293392e-03</internalNodes>
          <leafValues>
            3.6645638942718506e-01 -1.1557514220476151e-01</leafValues></_>
        <_>
          <internalNodes>
            0 -1 358 -1.6068990807980299e-03</internalNodes>
          <leafValues>
            2.5187909603118896e-01 -1.5981698036193848e-01</leafValues></_>
        <_>
          <internalNodes>
            0 -1 357 -1.1139623820781708e-03</internalNodes>
          <leafValues>
            3.2269033789634705e-01 -1.2989534437656403e-01</leafValues></_>
        <_>
          <internalNodes>
            0 -1 198 8.0488510429859161e-03</internalNodes>
          <leafValues>
            6.1848457902669907e-02 -7.4048972129821777e-01</leafValues></_>
        <_>
          <internalNodes>
            0 -1 77 6.1520365998148918e-03</internalNodes>
          <leafValues>
            3.9636906236410141e-02 -7.9571783542633057e-01</leafValues></_>
        <_>
          <internalNodes>
            0 -1 284 -2.1724463440477848e-03</internalNodes>
          <leafValues>
            3.7564256787300110e-01 -1.0621646046638489e-01</leafValues></_>
        <_>
          <internalNodes>
            0 -1 230 6.2546394765377045e-03</internalNodes>
          <leafValues>
            -1.4242064952850342e-01 2.9060339927673340e-01</leafValues></_>
        <_>
          <internalNodes>
            0 -1 365 1.0817861184477806e-02</internalNodes>
          <leafValues>
            5.8440230786800385e-02 -7.3865050077438354e-01</leafValues></_></weakClassifiers></_>
    <!-- stage 6 -->
    <_>
      <maxWeakCount>39</maxWeakCount>
      <stageThreshold>-1.0604078769683838e+00</stageThreshold>
      <weakClassifiers>
        <_>
          <internalNodes>
            0 -1 119 -1.6106925904750824e-02</internalNodes>
          <leafValues>
            7.1334433555603027e-01 -4.7619048506021500e-02</leafValues></_>
        <_>
          <internalNodes>
            0 -1 302 -1.8837943673133850e-02</internalNodes>
          <leafValues>
            5.5317568778991699e-01 -1.8247564136981964e-01</leafValues></_>
        <_>
          <internalNodes>
            0 -1 103 -1.0926655493676662e-02</internalNodes>
          <leafValues>
            4.9102473258972168e-01 -1.2355732917785645e-01</leafValues></_>
        <_>
          <internalNodes>
            0 -1 130 5.0868198741227388e-04</internalNodes>
          <leafValues>
            -3.3166232705116272e-01 1.7360043525695801e-01</leafValues></_>
        <_>
          <internalNodes>
            0 -1 10 6.9438651204109192e-02</internalNodes>
          <leafValues>
            -2.6362022757530212e-01 1.9761733710765839e-01</leafValues></_>
        <_>
          <internalNodes>
            0 -1 252 1.7636350821703672e-03</internalNodes>
          <leafValues>
            -1.5012513101100922e-01 3.0739918351173401e-01</leafValues></_>
        <_>
          <internalNodes>
            0 -1 375 -4.4738203287124634e-03</internalNodes>
          <leafValues>
            3.7087002396583557e-01 -1.1048854887485504e-01</leafValues></_>
        <_>
          <internalNodes>
            0 -1 402 -1.2289745500311255e-03</internalNodes>
          <leafValues>
            2.6497340202331543e-01 -1.5364168584346771e-01</leafValues></_>
        <_>
          <internalNodes>
            0 -1 277 1.5326153486967087e-02</internalNodes>
          <leafValues>
            6.3689902424812317e-02 -6.5260261297225952e-01</leafValues></_>
        <_>
          <internalNodes>
            0 -1 181 -6.9446049630641937e-02</internalNodes>
          <leafValues>
            -7.4858468770980835e-01 5.0841737538576126e-02</leafValues></_>
        <_>
          <internalNodes>
            0 -1 49 1.5486171469092369e-02</internalNodes>
          <leafValues>
            -3.0371883511543274e-01 1.3703536987304688e-01</leafValues></_>
        <_>
          <internalNodes>
            0 -1 317 6.1447080224752426e-03</internalNodes>
          <leafValues>
            9.3295671045780182e-02 -4.3790474534034729e-01</leafValues></_>
        <_>
          <internalNodes>
            0 -1 83 -5.2650948055088520e-03</internalNodes>
          <leafValues>
            -6.5645420551300049e-01 5.1910992711782455e-02</leafValues></_>
        <_>
          <internalNodes>
            0 -1 80 1.7536483705043793e-02</internalNodes>
          <leafValues>
            -9.7666978836059570e-02 4.1364428400993347e-01</leafValues></_>
        <_>
          <internalNodes>
            0 -1 82 2.2530062124133110e-02</internalNodes>
          <leafValues>
            -7.6462812721729279e-02 6.4483320713043213e-01</leafValues></_>
        <_>
          <internalNodes>
            0 -1 266 4.1951999068260193e-02</internalNodes>
          <leafValues>
            7.6455228030681610e-02 -5.8593845367431641e-01</leafValues></_>
        <_>
          <internalNodes>
            0 -1 398 -9.0299248695373535e-03</internalNodes>
          <leafValues>
            4.8273441195487976e-01 -8.3196096122264862e-02</leafValues></_>
        <_>
          <internalNodes>
            0 -1 200 2.6558535173535347e-02</internalNodes>
          <leafValues>
            6.8864963948726654e-02 -6.8996036052703857e-01</leafValues></_>
        <_>
          <internalNodes>
            0 -1 194 6.5563283860683441e-03</internalNodes>
          <leafValues>
            -1.0996003448963165e-01 3.9738222956657410e-01</leafValues></_>
        <_>
          <internalNodes>
            0 -1 384 6.9086919538676739e-03</internalNodes>
          <leafValues>
            5.9437863528728485e-02 -7.7948355674743652e-01</leafValues></_>
        <_>
          <internalNodes>
            0 -1 350 3.6842059344053268e-03</internalNodes>
          <leafValues>
            -1.1033888161182404e-01 3.9435726404190063e-01</leafValues></_>
        <_>
          <internalNodes>
            0 -1 261 -4.6580452471971512e-03</internalNodes>
          <leafValues>
            -5.5359762907028198e-01 7.8376352787017822e-02</leafValues></_>
        <_>
          <internalNodes>
            0 -1 202 -1.5312984585762024e-02</internalNodes>
          <leafValues>
            2.4606557190418243e-01 -1.6500201821327209e-01</leafValues></_>
        <_>
          <internalNodes>
            0 -1 286 8.8961143046617508e-03</internalNodes>
          <leafValues>
            -1.3455396890640259e-01 2.9028201103210449e-01</leafValues></_>
        <_>
          <internalNodes>
            0 -1 179 -2.3450553417205811e-03</internalNodes>
          <leafValues>
            2.9344975948333740e-01 -1.3224868476390839e-01</leafValues></_>
        <_>
          <internalNodes>
            0 -1 388 7.9785840352997184e-04</internalNodes>
          <leafValues>
            -1.6578237712383270e-01 2.2845044732093811e-01</leafValues></_>
        <_>
          <internalNodes>
            0 -1 121 -3.4091091947630048e-04</internalNodes>
          <leafValues>
            -3.3044242858886719e-01 1.0850623250007629e-01</leafValues></_>
        <_>
          <internalNodes>
            0 -1 320 -4.1502807289361954e-03</internalNodes>
          <leafValues>
            -6.9268733263015747e-01 4.9397882074117661e-02</leafValues></_>
        <_>
          <internalNodes>
            0 -1 335 -2.0741270855069160e-03</internalNodes>
          <leafValues>
            2.9059913754463196e-01 -1.3189046084880829e-01</leafValues></_>
        <_>
          <internalNodes>
            0 -1 401 3.6388575099408627e-03</internalNodes>
          <leafValues>
            -1.4088647067546844e-01 3.3264037966728210e-01</leafValues></_>
        <_>
          <internalNodes>
            0 -1 348 -3.4604524262249470e-03</internalNodes>
          <leafValues>
            -5.5361318588256836e-01 6.6984519362449646e-02</leafValues></_>
        <_>
          <internalNodes>
            0 -1 224 7.0769280195236206e-02</internalNodes>
          <leafValues>
            3.8096223026514053e-02 -8.1407588720321655e-01</leafValues></_>
        <_>
          <internalNodes>
            0 -1 249 -3.2501616515219212e-03</internalNodes>
          <leafValues>
            3.0393028259277344e-01 -1.4895729720592499e-01</leafValues></_>
        <_>
          <internalNodes>
            0 -1 145 1.8637059256434441e-02</internalNodes>
          <leafValues>
            -9.7921177744865417e-02 4.0592932701110840e-01</leafValues></_>
        <_>
          <internalNodes>
            0 -1 39 1.1879511177539825e-02</internalNodes>
          <leafValues>
            7.7466420829296112e-02 -5.5519002676010132e-01</leafValues></_>
        <_>
          <internalNodes>
            0 -1 76 -3.9640076458454132e-02</internalNodes>
          <leafValues>
            -7.0072984695434570e-01 5.2929300814867020e-02</leafValues></_>
        <_>
          <internalNodes>
            0 -1 251 1.6275692731142044e-02</internalNodes>
          <leafValues>
            -8.4925159811973572e-02 4.9748519062995911e-01</leafValues></_>
        <_>
          <internalNodes>
            0 -1 177 8.1580039113759995e-04</internalNodes>
          <leafValues>
            -2.1612887084484100e-01 1.8277664482593536e-01</leafValues></_>
        <_>
          <internalNodes>
            0 -1 285 3.9208298549056053e-03</internalNodes>
          <leafValues>
            -1.1773473769426346e-01 3.3481729030609131e-01</leafValues></_></weakClassifiers></_>
    <!-- stage 7 -->
    <_>
      <maxWeakCount>35</maxWeakCount>
      <stageThreshold>-8.3175611495971680e-01</stageThreshold>
      <weakClassifiers>
        <_>
          <internalNodes>
            0 -1 242 -1.1270279064774513e-02</internalNodes>
          <leafValues>
            6.6037738323211670e-01 -3.6205647047609091e-03</leafValues></_>
        <_>
          <internalNodes>
            0 -1 17 1.2094517052173615e-01</internalNodes>
          <leafValues>
            -1.2183860689401627e-01 6.6232305765151978e-01</leafValues></_>
        <_>
          <internalNodes>
            0 -1 160 3.6085329949855804e-02</internalNodes>
          <leafValues>
            -1.3666200637817383e-01 4.9684709310531616e-01</leafValues></_>
        <_>
          <internalNodes>
            0 -1 382 1.7350397538393736e-03</internalNodes>
          <leafValues>
            -2.0742022991180420e-01 2.6674997806549072e-01</leafValues></_>
        <_>
          <internalNodes>
            0 -1 282 -6.4506277441978455e-02</internalNodes>
          <leafValues>
            -7.4957436323165894e-01 4.6320118010044098e-02</leafValues></_>
        <_>
          <internalNodes>
            0 -1 135 -1.5153706772252917e-04</internalNodes>
          <leafValues>
            -3.9197224378585815e-01 1.0843630880117416e-01</leafValues></_>
        <_>
          <internalNodes>
            0 -1 135 1.0551612358540297e-03</internalNodes>
          <leafValues>
            9.0897776186466217e-02 -4.1659298539161682e-01</leafValues></_>
        <_>
          <internalNodes>
            0 -1 408 3.6576860584318638e-03</internalNodes>
          <leafValues>
            5.9201784431934357e-02 -6.5781211853027344e-01</leafValues></_>
        <_>
          <internalNodes>
            0 -1 182 -5.7982457801699638e-03</internalNodes>
          <leafValues>
            1.1328419297933578e-01 -3.4634357690811157e-01</leafValues></_>
        <_>
          <internalNodes>
            0 -1 166 -7.7189248986542225e-04</internalNodes>
          <leafValues>
            2.3615576326847076e-01 -1.5883022546768188e-01</leafValues></_>
        <_>
          <internalNodes>
            0 -1 110 1.3596310745924711e-03</internalNodes>
          <leafValues>
            -1.3272270560264587e-01 3.1967934966087341e-01</leafValues></_>
        <_>
          <internalNodes>
            0 -1 212 -7.1508619002997875e-03</internalNodes>
          <leafValues>
            -7.6087290048599243e-01 6.2030076980590820e-02</leafValues></_>
        <_>
          <internalNodes>
            0 -1 114 -5.7096080854535103e-04</internalNodes>
          <leafValues>
            -2.9642608761787415e-01 1.1085496097803116e-01</leafValues></_>
        <_>
          <internalNodes>
            0 -1 13 1.2952609919011593e-02</internalNodes>
          <leafValues>
            -2.2171963751316071e-01 1.5976904332637787e-01</leafValues></_>
        <_>
          <internalNodes>
            0 -1 170 4.7779907617950812e-05</internalNodes>
          <leafValues>
            -2.2322233021259308e-01 1.4887699484825134e-01</leafValues></_>
        <_>
          <internalNodes>
            0 -1 109 -3.2656025141477585e-03</internalNodes>
          <leafValues>
            -4.2911437153816223e-01 7.7728495001792908e-02</leafValues></_>
        <_>
          <internalNodes>
            0 -1 264 -5.6513110175728798e-03</internalNodes>
          <leafValues>
            2.7417165040969849e-01 -1.2504470348358154e-01</leafValues></_>
        <_>
          <internalNodes>
            0 -1 175 1.1824252083897591e-02</internalNodes>
          <leafValues>
            -8.7833978235721588e-02 3.9968380331993103e-01</leafValues></_>
        <_>
          <internalNodes>
            0 -1 136 5.0258047878742218e-02</internalNodes>
          <leafValues>
            6.8830229341983795e-02 -5.8229207992553711e-01</leafValues></_>
        <_>
          <internalNodes>
            0 -1 343 1.2245610123500228e-03</internalNodes>
          <leafValues>
            -1.6615559160709381e-01 2.2938118875026703e-01</leafValues></_>
        <_>
          <internalNodes>
            0 -1 297 -1.0665472364053130e-03</internalNodes>
          <leafValues>
            2.1851664781570435e-01 -1.7466808855533600e-01</leafValues></_>
        <_>
          <internalNodes>
            0 -1 235 -7.7115204185247421e-03</internalNodes>
          <leafValues>
            4.6013474464416504e-01 -8.0756530165672302e-02</leafValues></_>
        <_>
          <internalNodes>
            0 -1 71 -4.7162972390651703e-02</internalNodes>
          <leafValues>
            -8.1444072723388672e-01 5.0955135375261307e-02</leafValues></_>
        <_>
          <internalNodes>
            0 -1 344 -1.5513526741415262e-03</internalNodes>
          <leafValues>
            2.4155040085315704e-01 -1.5556539595127106e-01</leafValues></_>
        <_>
          <internalNodes>
            0 -1 66 5.2932249382138252e-03</internalNodes>
          <leafValues>
            5.2721425890922546e-02 -6.7888921499252319e-01</leafValues></_>
        <_>
          <internalNodes>
            0 -1 361 4.3683443218469620e-03</internalNodes>
          <leafValues>
            5.6804362684488297e-02 -5.3988808393478394e-01</leafValues></_>
        <_>
          <internalNodes>
            0 -1 308 4.8095998354256153e-03</internalNodes>
          <leafValues>
            -9.7481809556484222e-02 3.1816154718399048e-01</leafValues></_>
        <_>
          <internalNodes>
            0 -1 256 -5.7843308895826340e-03</internalNodes>
          <leafValues>
            3.7206006050109863e-01 -9.8220810294151306e-02</leafValues></_>
        <_>
          <internalNodes>
            0 -1 311 1.9030767725780606e-03</internalNodes>
          <leafValues>
            7.6344378292560577e-02 -4.8696112632751465e-01</leafValues></_>
        <_>
          <internalNodes>
            0 -1 312 -5.7787698460742831e-04</internalNodes>
          <leafValues>
            -2.7804118394851685e-01 1.1722616851329803e-01</leafValues></_>
        <_>
          <internalNodes>
            0 -1 315 -1.0042786598205566e-03</internalNodes>
          <leafValues>
            2.3474374413490295e-01 -1.4049383997917175e-01</leafValues></_>
        <_>
          <internalNodes>
            0 -1 269 3.5206717438995838e-03</internalNodes>
          <leafValues>
            -1.3467800617218018e-01 3.4163427352905273e-01</leafValues></_>
        <_>
          <internalNodes>
            0 -1 408 -1.6386772040277719e-03</internalNodes>
          <leafValues>
            -4.4170454144477844e-01 8.2800664007663727e-02</leafValues></_>
        <_>
          <internalNodes>
            0 -1 298 6.7950529046356678e-03</internalNodes>
          <leafValues>
            -8.2190804183483124e-02 4.6952989697456360e-01</leafValues></_>
        <_>
          <internalNodes>
            0 -1 376 -6.4686276018619537e-03</internalNodes>
          <leafValues>
            3.0944901704788208e-01 -1.0791874676942825e-01</leafValues></_></weakClassifiers></_>
    <!-- stage 8 -->
    <_>
      <maxWeakCount>37</maxWeakCount>
      <stageThreshold>-8.9701920747756958e-01</stageThreshold>
      <weakClassifiers>
        <_>
          <internalNodes>
            0 -1 139 -1.1683296412229538e-02</internalNodes>
          <leafValues>
            6.4923572540283203e-01 -5.1584378816187382e-03</leafValues></_>
        <_>
          <internalNodes>
            0 -1 340 8.9165642857551575e-03</internalNodes>
          <leafValues>
            -1.6638097167015076e-01 5.5407315492630005e-01</leafValues></_>
        <_>
          <internalNodes>
            0 -1 223 -1.0370537638664246e-03</internalNodes>
          <leafValues>
            2.5597003102302551e-01 -2.8651469945907593e-01</leafValues></_>
        <_>
          <internalNodes>
            0 -1 4 3.4944005310535431e-02</internalNodes>
          <leafValues>
            -1.6660602390766144e-01 4.0648433566093445e-01</leafValues></_>
        <_>
          <internalNodes>
            0 -1 79 -2.5709816254675388e-03</internalNodes>
          <leafValues>
            -4.9829342961311340e-01 6.9207586348056793e-02</leafValues></_>
        <_>
          <internalNodes>
            0 -1 81 3.3276103436946869e-02</internalNodes>
          <leafValues>
            -9.5415279269218445e-02 5.6148326396942139e-01</leafValues></_>
        <_>
          <internalNodes>
            0 -1 82 2.2883735597133636e-02</internalNodes>
          <leafValues>
            -9.3393117189407349e-02 5.8177840709686279e-01</leafValues></_>
        <_>
          <internalNodes>
            0 -1 294 1.4843436889350414e-02</internalNodes>
          <leafValues>
            8.2378797233104706e-02 -6.8423426151275635e-01</leafValues></_>
        <_>
          <internalNodes>
            0 -1 352 -1.4064032584428787e-02</internalNodes>
          <leafValues>
            -5.9505343437194824e-01 6.4461432397365570e-02</leafValues></_>
        <_>
          <internalNodes>
            0 -1 152 1.1596048250794411e-02</internalNodes>
          <leafValues>
            5.4558768868446350e-02 -7.4628984928131104e-01</leafValues></_>
        <_>
          <internalNodes>
            0 -1 305 6.2991846352815628e-03</internalNodes>
          <leafValues>
            -1.1920889467000961e-01 4.3295225501060486e-01</leafValues></_>
        <_>
          <internalNodes>
            0 -1 128 -1.6265590966213495e-04</internalNodes>
          <leafValues>
            -3.6639130115509033e-01 1.2584814429283142e-01</leafValues></_>
        <_>
          <internalNodes>
            0 -1 115 2.8856301214545965e-03</internalNodes>
          <leafValues>
            -1.6011296212673187e-01 2.9173156619071960e-01</leafValues></_>
        <_>
          <internalNodes>
            0 -1 287 -2.0050436723977327e-03</internalNodes>
          <leafValues>
            4.1118910908699036e-01 -1.1881353706121445e-01</leafValues></_>
        <_>
          <internalNodes>
            0 -1 360 1.2904619798064232e-02</internalNodes>
          <leafValues>
            -8.1799082458019257e-02 4.8643079400062561e-01</leafValues></_>
        <_>
          <internalNodes>
            0 -1 300 1.0551108047366142e-02</internalNodes>
          <leafValues>
            -1.4970979094505310e-01 3.3617630600929260e-01</leafValues></_>
        <_>
          <internalNodes>
            0 -1 52 6.3184134662151337e-02</internalNodes>
          <leafValues>
            5.7035960257053375e-02 -7.1049368381500244e-01</leafValues></_>
        <_>
          <internalNodes>
            0 -1 232 -2.0120823755860329e-03</internalNodes>
          <leafValues>
            -3.6969792842864990e-01 1.0286156088113785e-01</leafValues></_>
        <_>
          <internalNodes>
            0 -1 281 1.3908508699387312e-03</internalNodes>
          <leafValues>
            -1.2955380976200104e-01 3.3051860332489014e-01</leafValues></_>
        <_>
          <internalNodes>
            0 -1 113 -9.0477302670478821e-02</internalNodes>
          <leafValues>
            -7.1662843227386475e-01 6.6015996038913727e-02</leafValues></_>
        <_>
          <internalNodes>
            0 -1 186 1.8215339514426887e-04</internalNodes>
          <leafValues>
            1.2053047120571136e-01 -3.1786116957664490e-01</leafValues></_>
        <_>
          <internalNodes>
            0 -1 410 8.0697804689407349e-02</internalNodes>
          <leafValues>
            -6.4649805426597595e-02 6.1798077821731567e-01</leafValues></_>
        <_>
          <internalNodes>
            0 -1 123 1.2793999630957842e-03</internalNodes>
          <leafValues>
            1.4846362173557281e-01 -2.5195994973182678e-01</leafValues></_>
        <_>
          <internalNodes>
            0 -1 95 8.7851763237267733e-04</internalNodes>
          <leafValues>
            -1.9569800794124603e-01 2.1342280507087708e-01</leafValues></_>
        <_>
          <internalNodes>
            0 -1 147 -5.3806055802851915e-05</internalNodes>
          <leafValues>
            1.6236689686775208e-01 -2.4372996389865875e-01</leafValues></_>
        <_>
          <internalNodes>
            0 -1 7 2.5087523460388184e-01</internalNodes>
          <leafValues>
            4.9263373017311096e-02 -7.0190829038619995e-01</leafValues></_>
        <_>
          <internalNodes>
            0 -1 144 2.4743413552641869e-02</internalNodes>
          <leafValues>
            -6.4815051853656769e-02 6.5601867437362671e-01</leafValues></_>
        <_>
          <internalNodes>
            0 -1 24 -1.5203886665403843e-02</internalNodes>
          <leafValues>
            3.8764110207557678e-01 -9.0336695313453674e-02</leafValues></_>
        <_>
          <internalNodes>
            0 -1 141 2.7546512428671122e-03</internalNodes>
          <leafValues>
            6.1704289168119431e-02 -6.4581161737442017e-01</leafValues></_>
        <_>
          <internalNodes>
            0 -1 324 -1.6379695385694504e-02</internalNodes>
          <leafValues>
            -5.5147683620452881e-01 6.2620952725410461e-02</leafValues></_>
        <_>
          <internalNodes>
            0 -1 23 -4.6804649755358696e-03</internalNodes>
          <leafValues>
            4.1962122917175293e-01 -9.5411419868469238e-02</leafValues></_>
        <_>
          <internalNodes>
            0 -1 29 5.3577497601509094e-03</internalNodes>
          <leafValues>
            -1.0554467141628265e-01 3.2989436388015747e-01</leafValues></_>
        <_>
          <internalNodes>
            0 -1 158 6.0158045962452888e-03</internalNodes>
          <leafValues>
            -9.7525864839553833e-02 4.1494905948638916e-01</leafValues></_>
        <_>
          <internalNodes>
            0 -1 216 -1.2171040289103985e-02</internalNodes>
          <leafValues>
            -5.6244081258773804e-01 7.4283003807067871e-02</leafValues></_>
        <_>
          <internalNodes>
            0 -1 283 -4.9402500735595822e-04</internalNodes>
          <leafValues>
            2.3671463131904602e-01 -2.0282553136348724e-01</leafValues></_>
        <_>
          <internalNodes>
            0 -1 274 -2.3699097335338593e-02</internalNodes>
          <leafValues>
            5.6343650817871094e-01 -8.3288334310054779e-02</leafValues></_>
        <_>
          <internalNodes>
            0 -1 332 2.1482156589627266e-03</internalNodes>
          <leafValues>
            7.9818435013294220e-02 -5.8061742782592773e-01</leafValues></_></weakClassifiers></_>
    <!-- stage 9 -->
    <_>
      <maxWeakCount>36</maxWeakCount>
      <stageThreshold>-9.1045671701431274e-01</stageThreshold>
      <weakClassifiers>
        <_>
          <internalNodes>
            0 -1 120 2.6053216308355331e-02</internalNodes>
          <leafValues>
            3.4574467688798904e-02 6.8248176574707031e-01</leafValues></_>
        <_>
          <internalNodes>
            0 -1 346 -2.1522093564271927e-02</internalNodes>
          <leafValues>
            7.0484000444412231e-01 -1.1746622622013092e-01</leafValues></_>
        <_>
          <internalNodes>
            0 -1 148 -8.2252430729568005e-04</internalNodes>
          <leafValues>
            1.6735672950744629e-01 -3.5756373405456543e-01</leafValues></_>
        <_>
          <internalNodes>
            0 -1 58 2.1949047222733498e-03</internalNodes>
          <leafValues>
            -2.3162248730659485e-01 2.2919930517673492e-01</leafValues></_>
        <_>
          <internalNodes>
            0 -1 106 1.1273382604122162e-01</internalNodes>
          <leafValues>
            5.6627955287694931e-02 -9.1574388742446899e-01</leafValues></_>
        <_>
          <internalNodes>
            0 -1 387 2.4931877851486206e-04</internalNodes>
          <leafValues>
            1.2579376995563507e-01 -3.6198624968528748e-01</leafValues></_>
        <_>
          <internalNodes>
            0 -1 159 2.8340373188257217e-02</internalNodes>
          <leafValues>
            -1.1241016536951065e-01 4.5219796895980835e-01</leafValues></_>
        <_>
          <internalNodes>
            0 -1 407 -3.8660422433167696e-03</internalNodes>
          <leafValues>
            -8.0684447288513184e-01 4.3894004076719284e-02</leafValues></_>
        <_>
          <internalNodes>
            0 -1 149 3.2175129745155573e-03</internalNodes>
          <leafValues>
            8.3717077970504761e-02 -4.8745220899581909e-01</leafValues></_>
        <_>
          <internalNodes>
            0 -1 304 2.9418304562568665e-02</internalNodes>
          <leafValues>
            -6.7333400249481201e-02 7.0031213760375977e-01</leafValues></_>
        <_>
          <internalNodes>
            0 -1 348 2.6552961207926273e-03</internalNodes>
          <leafValues>
            1.0414998978376389e-01 -4.5082086324691772e-01</leafValues></_>
        <_>
          <internalNodes>
            0 -1 6 -2.7782081160694361e-03</internalNodes>
          <leafValues>
            -3.3194217085838318e-01 1.2432003766298294e-01</leafValues></_>
        <_>
          <internalNodes>
            0 -1 366 -5.9129358269274235e-03</internalNodes>
          <leafValues>
            4.0250912308692932e-01 -1.0169826447963715e-01</leafValues></_>
        <_>
          <internalNodes>
            0 -1 404 1.3896804302930832e-02</internalNodes>
          <leafValues>
            5.4562751203775406e-02 -7.4729907512664795e-01</leafValues></_>
        <_>
          <internalNodes>
            0 -1 374 9.0924534015357494e-04</internalNodes>
          <leafValues>
            -1.6385462880134583e-01 2.8194978833198547e-01</leafValues></_>
        <_>
          <internalNodes>
            0 -1 215 1.8951438367366791e-02</internalNodes>
          <leafValues>
            5.6059010326862335e-02 -6.8604218959808350e-01</leafValues></_>
        <_>
          <internalNodes>
            0 -1 299 -5.0708008930087090e-03</internalNodes>
          <leafValues>
            3.0261340737342834e-01 -1.3366189599037170e-01</leafValues></_>
        <_>
          <internalNodes>
            0 -1 239 5.2732408046722412e-02</internalNodes>
          <leafValues>
            -7.2541326284408569e-02 5.7592254877090454e-01</leafValues></_>
        <_>
          <internalNodes>
            0 -1 344 -3.4023192711174488e-03</internalNodes>
          <leafValues>
            3.1224685907363892e-01 -1.2299954146146774e-01</leafValues></_>
        <_>
          <internalNodes>
            0 -1 348 -2.2847647778689861e-03</internalNodes>
          <leafValues>
            -4.6996757388114929e-01 9.4229921698570251e-02</leafValues></_>
        <_>
          <internalNodes>
            0 -1 51 -9.0252645313739777e-03</internalNodes>
          <leafValues>
            -6.5726423263549805e-01 5.0377495586872101e-02</leafValues></_>
        <_>
          <internalNodes>
            0 -1 33 -3.5761337494477630e-04</internalNodes>
          <leafValues>
            2.5982993841171265e-01 -1.5311509370803833e-01</leafValues></_>
        <_>
          <internalNodes>
            0 -1 384 4.3064858764410019e-03</internalNodes>
          <leafValues>
            9.1943405568599701e-02 -4.4181099534034729e-01</leafValues></_>
        <_>
          <internalNodes>
            0 -1 405 3.8596400991082191e-03</internalNodes>
          <leafValues>
            -9.5142133533954620e-02 3.7659475207328796e-01</leafValues></_>
        <_>
          <internalNodes>
            0 -1 39 -9.6347667276859283e-03</internalNodes>
          <leafValues>
            -4.6651372313499451e-01 8.1407785415649414e-02</leafValues></_>
        <_>
          <internalNodes>
            0 -1 309 2.4329512380063534e-03</internalNodes>
          <leafValues>
            -1.1242982000112534e-01 3.4480336308479309e-01</leafValues></_>
        <_>
          <internalNodes>
            0 -1 90 1.2015932239592075e-02</internalNodes>
          <leafValues>
            -8.3406820893287659e-02 4.3081530928611755e-01</leafValues></_>
        <_>
          <internalNodes>
            0 -1 55 9.0950503945350647e-02</internalNodes>
          <leafValues>
            4.2517039924860001e-02 -8.6635112762451172e-01</leafValues></_>
        <_>
          <internalNodes>
            0 -1 167 -5.9157341718673706e-02</internalNodes>
          <leafValues>
            -4.4046646356582642e-01 7.1919098496437073e-02</leafValues></_>
        <_>
          <internalNodes>
            0 -1 42 -3.0653184652328491e-01</internalNodes>
          <leafValues>
            5.4591923952102661e-01 -7.0367403328418732e-02</leafValues></_>
        <_>
          <internalNodes>
            0 -1 208 -4.2937017977237701e-02</internalNodes>
          <leafValues>
            -4.9870440363883972e-01 7.6018072664737701e-02</leafValues></_>
        <_>
          <internalNodes>
            0 -1 2 1.2224489450454712e-01</internalNodes>
          <leafValues>
            2.9980493709445000e-02 -9.1943401098251343e-01</leafValues></_>
        <_>
          <internalNodes>
            0 -1 312 2.7074888348579407e-03</internalNodes>
          <leafValues>
            5.4063126444816589e-02 -5.4670953750610352e-01</leafValues></_>
        <_>
          <internalNodes>
            0 -1 312 -2.4805366992950439e-03</internalNodes>
          <leafValues>
            -4.8609489202499390e-01 7.8612841665744781e-02</leafValues></_>
        <_>
          <internalNodes>
            0 -1 330 6.0198688879609108e-03</internalNodes>
          <leafValues>
            -7.1714714169502258e-02 5.0540012121200562e-01</leafValues></_>
        <_>
          <internalNodes>
            0 -1 321 -4.6586757525801659e-03</internalNodes>
          <leafValues>
            -4.1198983788490295e-01 1.1128321290016174e-01</leafValues></_></weakClassifiers></_>
    <!-- stage 10 -->
    <_>
      <maxWeakCount>38</maxWeakCount>
      <stageThreshold>-8.9398723840713501e-01</stageThreshold>
      <weakClassifiers>
        <_>
          <internalNodes>
            0 -1 279 -1.7288699746131897e-02</internalNodes>
          <leafValues>
            6.4119064807891846e-01 2.2107590921223164e-03</leafValues></_>
        <_>
          <internalNodes>
            0 -1 233 -1.5907678753137589e-02</internalNodes>
          <leafValues>
            5.5331182479858398e-01 -1.8002054095268250e-01</leafValues></_>
        <_>
          <internalNodes>
            0 -1 239 -2.1971762180328369e-02</internalNodes>
          <leafValues>
            3.9262056350708008e-01 -1.7252340912818909e-01</leafValues></_>
        <_>
          <internalNodes>
            0 -1 53 8.6662704125046730e-03</internalNodes>
          <leafValues>
            -2.6090398430824280e-01 2.6120802760124207e-01</leafValues></_>
        <_>
          <internalNodes>
            0 -1 328 5.1665000617504120e-02</internalNodes>
          <leafValues>
            7.0710107684135437e-02 -7.0367616415023804e-01</leafValues></_>
        <_>
          <internalNodes>
            0 -1 190 3.1776766991242766e-04</internalNodes>
          <leafValues>
            8.6724273860454559e-02 -4.5813727378845215e-01</leafValues></_>
        <_>
          <internalNodes>
            0 -1 157 -2.1657090634107590e-02</internalNodes>
          <leafValues>
            3.6877188086509705e-01 -1.4264687895774841e-01</leafValues></_>
        <_>
          <internalNodes>
            0 -1 102 -5.8514922857284546e-03</internalNodes>
          <leafValues>
            6.0921865701675415e-01 -8.7872736155986786e-02</leafValues></_>
        <_>
          <internalNodes>
            0 -1 162 -2.0668586716055870e-02</internalNodes>
          <leafValues>
            -8.1848973035812378e-01 5.8907900005578995e-02</leafValues></_>
        <_>
          <internalNodes>
            0 -1 373 4.6172123402357101e-03</internalNodes>
          <leafValues>
            -1.3255722820758820e-01 3.7736564874649048e-01</leafValues></_>
        <_>
          <internalNodes>
            0 -1 66 -2.0838868804275990e-03</internalNodes>
          <leafValues>
            -5.0603795051574707e-01 9.0839967131614685e-02</leafValues></_>
        <_>
          <internalNodes>
            0 -1 392 -3.6426270380616188e-03</internalNodes>
          <leafValues>
            -7.0814508199691772e-01 4.9738343805074692e-02</leafValues></_>
        <_>
          <internalNodes>
            0 -1 391 -4.4323074689600617e-05</internalNodes>
          <leafValues>
            1.7098520696163177e-01 -2.5939089059829712e-01</leafValues></_>
        <_>
          <internalNodes>
            0 -1 201 -1.0050283744931221e-02</internalNodes>
          <leafValues>
            -3.6207565665245056e-01 1.2842725217342377e-01</leafValues></_>
        <_>
          <internalNodes>
            0 -1 303 2.1186983212828636e-03</internalNodes>
          <leafValues>
            -1.0780078917741776e-01 3.9506891369819641e-01</leafValues></_>
        <_>
          <internalNodes>
            0 -1 246 -4.6337664127349854e-02</internalNodes>
          <leafValues>
            5.7262265682220459e-01 -7.8991435468196869e-02</leafValues></_>
        <_>
          <internalNodes>
            0 -1 196 4.1340552270412445e-03</internalNodes>
          <leafValues>
            7.5461618602275848e-02 -6.1815273761749268e-01</leafValues></_>
        <_>
          <internalNodes>
            0 -1 291 -9.3146233120933175e-04</internalNodes>
          <leafValues>
            3.1684690713882446e-01 -1.4299967885017395e-01</leafValues></_>
        <_>
          <internalNodes>
            0 -1 45 3.5113038029521704e-03</internalNodes>
          <leafValues>
            -1.9620402157306671e-01 2.2073625028133392e-01</leafValues></_>
        <_>
          <internalNodes>
            0 -1 265 9.7924783825874329e-02</internalNodes>
          <leafValues>
            5.4421108216047287e-02 -8.5169750452041626e-01</leafValues></_>
        <_>
          <internalNodes>
            0 -1 353 -5.7442244142293930e-03</internalNodes>
          <leafValues>
            -4.2117065191268921e-01 8.7375849485397339e-02</leafValues></_>
        <_>
          <internalNodes>
            0 -1 345 2.7087705675512552e-03</internalNodes>
          <leafValues>
            -1.3674548268318176e-01 3.0849415063858032e-01</leafValues></_>
        <_>
          <internalNodes>
            0 -1 381 6.6347233951091766e-04</internalNodes>
          <leafValues>
            -1.6139657795429230e-01 2.7664002776145935e-01</leafValues></_>
        <_>
          <internalNodes>
            0 -1 88 5.9420302510261536e-02</internalNodes>
          <leafValues>
            4.7278922051191330e-02 -8.7803626060485840e-01</leafValues></_>
        <_>
          <internalNodes>
            0 -1 67 5.3910948336124420e-03</internalNodes>
          <leafValues>
            5.9623058885335922e-02 -5.7041120529174805e-01</leafValues></_>
        <_>
          <internalNodes>
            0 -1 241 1.2096245773136616e-02</internalNodes>
          <leafValues>
            -6.0334578156471252e-02 7.2531419992446899e-01</leafValues></_>
        <_>
          <internalNodes>
            0 -1 11 -2.1373343770392239e-04</internalNodes>
          <leafValues>
            2.2953802347183228e-01 -1.7655552923679352e-01</leafValues></_>
        <_>
          <internalNodes>
            0 -1 101 5.5622123181819916e-02</internalNodes>
          <leafValues>
            7.8834176063537598e-02 -5.3716558218002319e-01</leafValues></_>
        <_>
          <internalNodes>
            0 -1 281 1.5387070598080754e-03</internalNodes>
          <leafValues>
            -1.3208311796188354e-01 3.6279696226119995e-01</leafValues></_>
        <_>
          <internalNodes>
            0 -1 126 5.0581060349941254e-03</internalNodes>
          <leafValues>
            5.7476397603750229e-02 -8.1693941354751587e-01</leafValues></_>
        <_>
          <internalNodes>
            0 -1 205 -8.5526546463370323e-03</internalNodes>
          <leafValues>
            3.5482776165008545e-01 -1.2301848083734512e-01</leafValues></_>
        <_>
          <internalNodes>
            0 -1 155 7.2707501240074635e-03</internalNodes>
          <leafValues>
            -1.0044232755899429e-01 4.7139513492584229e-01</leafValues></_>
        <_>
          <internalNodes>
            0 -1 270 -5.4902518168091774e-03</internalNodes>
          <leafValues>
            -6.2608027458190918e-01 6.7042775452136993e-02</leafValues></_>
        <_>
          <internalNodes>
            0 -1 18 -1.8865959718823433e-02</internalNodes>
          <leafValues>
            8.5760569572448730e-01 -5.5646780878305435e-02</leafValues></_>
        <_>
          <internalNodes>
            0 -1 219 -8.3189143333584070e-04</internalNodes>
          <leafValues>
            3.0331480503082275e-01 -1.2547752261161804e-01</leafValues></_>
        <_>
          <internalNodes>
            0 -1 47 -1.3870671391487122e-02</internalNodes>
          <leafValues>
            5.9677457809448242e-01 -7.3029451072216034e-02</leafValues></_>
        <_>
          <internalNodes>
            0 -1 314 1.5969239175319672e-02</internalNodes>
          <leafValues>
            7.0263616740703583e-02 -6.0706865787506104e-01</leafValues></_>
        <_>
          <internalNodes>
            0 -1 26 -5.8534210547804832e-03</internalNodes>
          <leafValues>
            2.5653392076492310e-01 -1.6197530925273895e-01</leafValues></_></weakClassifiers></_>
    <!-- stage 11 -->
    <_>
      <maxWeakCount>32</maxWeakCount>
      <stageThreshold>-8.6284828186035156e-01</stageThreshold>
      <weakClassifiers>
        <_>
          <internalNodes>
            0 -1 236 1.4074745588004589e-02</internalNodes>
          <leafValues>
            1.9189765676856041e-02 6.4794635772705078e-01</leafValues></_>
        <_>
          <internalNodes>
            0 -1 255 2.7575727552175522e-02</internalNodes>
          <leafValues>
            -1.1526286602020264e-01 5.9477978944778442e-01</leafValues></_>
        <_>
          <internalNodes>
            0 -1 46 1.5795316547155380e-02</internalNodes>
          <leafValues>
            -2.1499316394329071e-01 4.0530022978782654e-01</leafValues></_>
        <_>
          <internalNodes>
            0 -1 3 7.0185158401727676e-03</internalNodes>
          <leafValues>
            -2.5240686535835266e-01 2.2586986422538757e-01</leafValues></_>
        <_>
          <internalNodes>
            0 -1 263 -8.9013818651437759e-03</internalNodes>
          <leafValues>
            4.3842297792434692e-01 -1.5008351206779480e-01</leafValues></_>
        <_>
          <internalNodes>
            0 -1 140 4.1978957597166300e-04</internalNodes>
          <leafValues>
            1.2718537449836731e-01 -5.0855123996734619e-01</leafValues></_>
        <_>
          <internalNodes>
            0 -1 370 -3.2408987171947956e-03</internalNodes>
          <leafValues>
            -3.8852596282958984e-01 1.2987339496612549e-01</leafValues></_>
        <_>
          <internalNodes>
            0 -1 28 -6.4184884540736675e-03</internalNodes>
          <leafValues>
            3.5542944073677063e-01 -1.5131096541881561e-01</leafValues></_>
        <_>
          <internalNodes>
            0 -1 250 -6.2476680614054203e-03</internalNodes>
          <leafValues>
            5.7102221250534058e-01 -1.0543665289878845e-01</leafValues></_>
        <_>
          <internalNodes>
            0 -1 379 -9.6363865304738283e-04</internalNodes>
          <leafValues>
            3.2559311389923096e-01 -1.3591261208057404e-01</leafValues></_>
        <_>
          <internalNodes>
            0 -1 168 2.7315216138958931e-03</internalNodes>
          <leafValues>
            7.8498207032680511e-02 -6.3502502441406250e-01</leafValues></_>
        <_>
          <internalNodes>
            0 -1 131 -3.8788183592259884e-03</internalNodes>
          <leafValues>
            3.6058703064918518e-01 -1.4487728476524353e-01</leafValues></_>
        <_>
          <internalNodes>
            0 -1 178 2.3021528031677008e-03</internalNodes>
          <leafValues>
            -2.1021869778633118e-01 2.3092363774776459e-01</leafValues></_>
        <_>
          <internalNodes>
            0 -1 185 1.5772108454257250e-03</internalNodes>
          <leafValues>
            -1.2098872661590576e-01 3.7562841176986694e-01</leafValues></_>
        <_>
          <internalNodes>
            0 -1 395 -8.4568290039896965e-03</internalNodes>
          <leafValues>
            -7.4783545732498169e-01 6.4823515713214874e-02</leafValues></_>
        <_>
          <internalNodes>
            0 -1 325 -3.7936081644147635e-03</internalNodes>
          <leafValues>
            2.9097694158554077e-01 -1.5765851736068726e-01</leafValues></_>
        <_>
          <internalNodes>
            0 -1 112 1.1714921891689301e-01</internalNodes>
          <leafValues>
            7.2244465351104736e-02 -7.1652686595916748e-01</leafValues></_>
        <_>
          <internalNodes>
            0 -1 354 -7.8616006067022681e-04</internalNodes>
          <leafValues>
            2.9920980334281921e-01 -1.6249379515647888e-01</leafValues></_>
        <_>
          <internalNodes>
            0 -1 169 -3.4014560282230377e-02</internalNodes>
          <leafValues>
            -4.1620457172393799e-01 1.1485280841588974e-01</leafValues></_>
        <_>
          <internalNodes>
            0 -1 243 -4.9934601411223412e-03</internalNodes>
          <leafValues>
            3.0124381184577942e-01 -1.7029140889644623e-01</leafValues></_>
        <_>
          <internalNodes>
            0 -1 121 -1.4709366951137781e-04</internalNodes>
          <leafValues>
            -3.5415524244308472e-01 1.3329671323299408e-01</leafValues></_>
        <_>
          <internalNodes>
            0 -1 247 1.7896533012390137e-02</internalNodes>
          <leafValues>
            -7.8770980238914490e-02 5.5990135669708252e-01</leafValues></_>
        <_>
          <internalNodes>
            0 -1 75 3.4967102110385895e-03</internalNodes>
          <leafValues>
            8.5654348134994507e-02 -5.8627581596374512e-01</leafValues></_>
        <_>
          <internalNodes>
            0 -1 312 -1.4391247532330453e-04</internalNodes>
          <leafValues>
            -2.6257464289665222e-01 1.6408528387546539e-01</leafValues></_>
        <_>
          <internalNodes>
            0 -1 371 -7.0016807876527309e-04</internalNodes>
          <leafValues>
            3.2463973760604858e-01 -1.6665348410606384e-01</leafValues></_>
        <_>
          <internalNodes>
            0 -1 378 3.3715481404215097e-03</internalNodes>
          <leafValues>
            1.0097429156303406e-01 -4.8821032047271729e-01</leafValues></_>
        <_>
          <internalNodes>
            0 -1 334 7.3860809206962585e-03</internalNodes>
          <leafValues>
            6.8155467510223389e-02 -6.3214862346649170e-01</leafValues></_>
        <_>
          <internalNodes>
            0 -1 372 3.7667930591851473e-03</internalNodes>
          <leafValues>
            -1.0496083647012711e-01 4.2864021658897400e-01</leafValues></_>
        <_>
          <internalNodes>
            0 -1 203 -5.2382792346179485e-03</internalNodes>
          <leafValues>
            -5.6900656223297119e-01 7.8510850667953491e-02</leafValues></_>
        <_>
          <internalNodes>
            0 -1 349 -3.1590461730957031e-03</internalNodes>
          <leafValues>
            -4.7381323575973511e-01 9.3880593776702881e-02</leafValues></_>
        <_>
          <internalNodes>
            0 -1 412 -3.4982799552381039e-03</internalNodes>
          <leafValues>
            4.0410354733467102e-01 -1.2384616583585739e-01</leafValues></_>
        <_>
          <internalNodes>
            0 -1 91 2.9664251953363419e-02</internalNodes>
          <leafValues>
            9.4272062182426453e-02 -4.5854261517524719e-01</leafValues></_></weakClassifiers></_>
    <!-- stage 12 -->
    <_>
      <maxWeakCount>34</maxWeakCount>
      <stageThreshold>-8.9094907045364380e-01</stageThreshold>
      <weakClassifiers>
        <_>
          <internalNodes>
            0 -1 336 1.2222832068800926e-02</internalNodes>
          <leafValues>
            5.1173992455005646e-02 7.6144832372665405e-01</leafValues></_>
        <_>
          <internalNodes>
            0 -1 356 2.0699072629213333e-03</internalNodes>
          <leafValues>
            -1.3149115443229675e-01 5.6773233413696289e-01</leafValues></_>
        <_>
          <internalNodes>
            0 -1 151 1.0148654691874981e-02</internalNodes>
          <leafValues>
            -1.6529498994350433e-01 4.7382324934005737e-01</leafValues></_>
        <_>
          <internalNodes>
            0 -1 43 4.1007236577570438e-03</internalNodes>
          <leafValues>
            -2.0656718313694000e-01 3.3465394377708435e-01</leafValues></_>
        <_>
          <internalNodes>
            0 -1 289 -1.9493747502565384e-02</internalNodes>
          <leafValues>
            7.6488548517227173e-01 -9.5235526561737061e-02</leafValues></_>
        <_>
          <internalNodes>
            0 -1 272 2.0494014024734497e-02</internalNodes>
          <leafValues>
            1.1174240708351135e-01 -5.9279203414916992e-01</leafValues></_>
        <_>
          <internalNodes>
            0 -1 124 -9.0945934061892331e-05</internalNodes>
          <leafValues>
            -4.1498994827270508e-01 1.4537224173545837e-01</leafValues></_>
        <_>
          <internalNodes>
            0 -1 38 -7.3054507374763489e-02</internalNodes>
          <leafValues>
            -6.3420617580413818e-01 9.4629749655723572e-02</leafValues></_>
        <_>
          <internalNodes>
            0 -1 15 5.1203155890107155e-03</internalNodes>
          <leafValues>
            -1.5232340991497040e-01 3.8586378097534180e-01</leafValues></_>
        <_>
          <internalNodes>
            0 -1 79 1.9475349690765142e-03</internalNodes>
          <leafValues>
            1.2501814961433411e-01 -4.0882843732833862e-01</leafValues></_>
        <_>
          <internalNodes>
            0 -1 90 -1.0547675192356110e-02</internalNodes>
          <leafValues>
            4.0783321857452393e-01 -1.4403755962848663e-01</leafValues></_>
        <_>
          <internalNodes>
            0 -1 164 -7.8776798909530044e-04</internalNodes>
          <leafValues>
            2.9208144545555115e-01 -1.8547672033309937e-01</leafValues></_>
        <_>
          <internalNodes>
            0 -1 207 -1.8689533462747931e-03</internalNodes>
          <leafValues>
            -3.8527804613113403e-01 1.4882341027259827e-01</leafValues></_>
        <_>
          <internalNodes>
            0 -1 87 7.0108110085129738e-03</internalNodes>
          <leafValues>
            8.6128704249858856e-02 -5.2283245325088501e-01</leafValues></_>
        <_>
          <internalNodes>
            0 -1 211 -1.1049594730138779e-02</internalNodes>
          <leafValues>
            4.3835788965225220e-01 -1.1822213232517242e-01</leafValues></_>
        <_>
          <internalNodes>
            0 -1 380 -2.3712976835668087e-03</internalNodes>
          <leafValues>
            -4.5644336938858032e-01 1.1399889737367630e-01</leafValues></_>
        <_>
          <internalNodes>
            0 -1 377 -1.6385437920689583e-03</internalNodes>
          <leafValues>
            3.5906746983528137e-01 -1.7078873515129089e-01</leafValues></_>
        <_>
          <internalNodes>
            0 -1 337 1.4882072806358337e-02</internalNodes>
          <leafValues>
            -8.7117828428745270e-02 6.6698282957077026e-01</leafValues></_>
        <_>
          <internalNodes>
            0 -1 367 1.0819772258400917e-02</internalNodes>
          <leafValues>
            -1.0430714488029480e-01 4.4122138619422913e-01</leafValues></_>
        <_>
          <internalNodes>
            0 -1 396 -2.4966928176581860e-03</internalNodes>
          <leafValues>
            2.2658376395702362e-01 -2.7101933956146240e-01</leafValues></_>
        <_>
          <internalNodes>
            0 -1 230 1.2248116545379162e-02</internalNodes>
          <leafValues>
            -1.2217856943607330e-01 4.7951912879943848e-01</leafValues></_>
        <_>
          <internalNodes>
            0 -1 362 3.9219534955918789e-03</internalNodes>
          <leafValues>
            7.1117617189884186e-02 -7.0634543895721436e-01</leafValues></_>
        <_>
          <internalNodes>
            0 -1 238 9.0635241940617561e-04</internalNodes>
          <leafValues>
            1.2406820803880692e-01 -3.8461345434188843e-01</leafValues></_>
        <_>
          <internalNodes>
            0 -1 400 1.0265484452247620e-03</internalNodes>
          <leafValues>
            -1.4617875218391418e-01 3.1736770272254944e-01</leafValues></_>
        <_>
          <internalNodes>
            0 -1 57 -1.7166062025353312e-04</internalNodes>
          <leafValues>
            -2.4428513646125793e-01 1.8608449399471283e-01</leafValues></_>
        <_>
          <internalNodes>
            0 -1 102 1.2536953436210752e-03</internalNodes>
          <leafValues>
            -1.5891830623149872e-01 2.8512707352638245e-01</leafValues></_>
        <_>
          <internalNodes>
            0 -1 351 3.8794269785284996e-03</internalNodes>
          <leafValues>
            -1.1974297463893890e-01 3.9615628123283386e-01</leafValues></_>
        <_>
          <internalNodes>
            0 -1 413 8.5113104432821274e-03</internalNodes>
          <leafValues>
            -8.8156059384346008e-02 4.8948585987091064e-01</leafValues></_>
        <_>
          <internalNodes>
            0 -1 411 4.3688490986824036e-03</internalNodes>
          <leafValues>
            7.3471702635288239e-02 -6.2619996070861816e-01</leafValues></_>
        <_>
          <internalNodes>
            0 -1 60 -1.7829930409789085e-02</internalNodes>
          <leafValues>
            1. -4.9835916608572006e-02</leafValues></_>
        <_>
          <internalNodes>
            0 -1 290 3.7136513274163008e-03</internalNodes>
          <leafValues>
            9.4403147697448730e-02 -5.8222329616546631e-01</leafValues></_>
        <_>
          <internalNodes>
            0 -1 227 -2.4352376349270344e-03</internalNodes>
          <leafValues>
            3.5572952032089233e-01 -1.3643635809421539e-01</leafValues></_>
        <_>
          <internalNodes>
            0 -1 208 5.6003332138061523e-02</internalNodes>
          <leafValues>
            7.9003743827342987e-02 -6.7533802986145020e-01</leafValues></_>
        <_>
          <internalNodes>
            0 -1 150 -9.5016360282897949e-02</internalNodes>
          <leafValues>
            -6.8812370300292969e-01 6.0958467423915863e-02</leafValues></_></weakClassifiers></_>
    <!-- stage 13 -->
    <_>
      <maxWeakCount>34</maxWeakCount>
      <stageThreshold>-9.5423841476440430e-01</stageThreshold>
      <weakClassifiers>
        <_>
          <internalNodes>
            0 -1 20 4.1784681379795074e-02</internalNodes>
          <leafValues>
            -8.5774056613445282e-02 5.3649634122848511e-01</leafValues></_>
        <_>
          <internalNodes>
            0 -1 214 1.0432448238134384e-02</internalNodes>
          <leafValues>
            -1.0434722155332565e-01 6.9651341438293457e-01</leafValues></_>
        <_>
          <internalNodes>
            0 -1 257 6.1245188117027283e-03</internalNodes>
          <leafValues>
            -1.9804754853248596e-01 4.3859630823135376e-01</leafValues></_>
        <_>
          <internalNodes>
            0 -1 74 -4.3420888483524323e-02</internalNodes>
          <leafValues>
            7.5592082738876343e-01 -1.0465107858181000e-01</leafValues></_>
        <_>
          <internalNodes>
            0 -1 137 1.2512914836406708e-03</internalNodes>
          <leafValues>
            1.0413848608732224e-01 -5.4734075069427490e-01</leafValues></_>
        <_>
          <internalNodes>
            0 -1 35 -2.3790005594491959e-02</internalNodes>
          <leafValues>
            -6.1440753936767578e-01 6.6407158970832825e-02</leafValues></_>
        <_>
          <internalNodes>
            0 -1 394 -4.0250020101666451e-03</internalNodes>
          <leafValues>
            -4.7920504212379456e-01 1.1115466803312302e-01</leafValues></_>
        <_>
          <internalNodes>
            0 -1 409 2.6961900293827057e-03</internalNodes>
          <leafValues>
            8.5676118731498718e-02 -6.0407710075378418e-01</leafValues></_>
        <_>
          <internalNodes>
            0 -1 48 -1.0738521814346313e-02</internalNodes>
          <leafValues>
            3.7906205654144287e-01 -1.3563574850559235e-01</leafValues></_>
        <_>
          <internalNodes>
            0 -1 386 8.9641287922859192e-03</internalNodes>
          <leafValues>
            -1.5008059144020081e-01 3.1543344259262085e-01</leafValues></_>
        <_>
          <internalNodes>
            0 -1 122 -2.2911999258212745e-04</internalNodes>
          <leafValues>
            -3.0404514074325562e-01 1.4156554639339447e-01</leafValues></_>
        <_>
          <internalNodes>
            0 -1 403 -5.6026019155979156e-03</internalNodes>
          <leafValues>
            4.6358710527420044e-01 -1.1010354012250900e-01</leafValues></_>
        <_>
          <internalNodes>
            0 -1 293 1.3703058939427137e-03</internalNodes>
          <leafValues>
            -1.7103406786918640e-01 2.7235701680183411e-01</leafValues></_>
        <_>
          <internalNodes>
            0 -1 284 -1.5932889655232430e-03</internalNodes>
          <leafValues>
            4.1317236423492432e-01 -1.3304813206195831e-01</leafValues></_>
        <_>
          <internalNodes>
            0 -1 212 -4.6888617798686028e-03</internalNodes>
          <leafValues>
            -5.3543281555175781e-01 9.1601088643074036e-02</leafValues></_>
        <_>
          <internalNodes>
            0 -1 306 8.8181637693196535e-04</internalNodes>
          <leafValues>
            -1.6565026342868805e-01 2.7999812364578247e-01</leafValues></_>
        <_>
          <internalNodes>
            0 -1 59 3.1334748491644859e-03</internalNodes>
          <leafValues>
            8.1856049597263336e-02 -5.6317526102066040e-01</leafValues></_>
        <_>
          <internalNodes>
            0 -1 299 -4.9369167536497116e-03</internalNodes>
          <leafValues>
            3.0986887216567993e-01 -1.5346764028072357e-01</leafValues></_>
        <_>
          <internalNodes>
            0 -1 240 -9.1984327882528305e-03</internalNodes>
          <leafValues>
            4.7030386328697205e-01 -1.0223007947206497e-01</leafValues></_>
        <_>
          <internalNodes>
            0 -1 183 4.8179095756495371e-05</internalNodes>
          <leafValues>
            -2.6191934943199158e-01 1.6628007590770721e-01</leafValues></_>
        <_>
          <internalNodes>
            0 -1 245 1.7214152961969376e-02</internalNodes>
          <leafValues>
            -1.0373573750257492e-01 5.2874785661697388e-01</leafValues></_>
        <_>
          <internalNodes>
            0 -1 138 -5.2856653928756714e-03</internalNodes>
          <leafValues>
            -3.2768446207046509e-01 1.6369709372520447e-01</leafValues></_>
        <_>
          <internalNodes>
            0 -1 176 -6.7835557274520397e-05</internalNodes>
          <leafValues>
            -3.0567044019699097e-01 1.5283466875553131e-01</leafValues></_>
        <_>
          <internalNodes>
            0 -1 307 -1.7001241445541382e-02</internalNodes>
          <leafValues>
            -8.1507635116577148e-01 5.7391270995140076e-02</leafValues></_>
        <_>
          <internalNodes>
            0 -1 323 7.1676246821880341e-02</internalNodes>
          <leafValues>
            5.3867954760789871e-02 -6.9161427021026611e-01</leafValues></_>
        <_>
          <internalNodes>
            0 -1 272 -1.5062894672155380e-02</internalNodes>
          <leafValues>
            -6.2058371305465698e-01 6.2663011252880096e-02</leafValues></_>
        <_>
          <internalNodes>
            0 -1 14 -2.0732259750366211e-01</internalNodes>
          <leafValues>
            4.5285758376121521e-01 -1.0725209861993790e-01</leafValues></_>
        <_>
          <internalNodes>
            0 -1 41 3.5257168114185333e-02</internalNodes>
          <leafValues>
            -1.2500087916851044e-01 3.9507234096527100e-01</leafValues></_>
        <_>
          <internalNodes>
            0 -1 259 3.9709464181214571e-04</internalNodes>
          <leafValues>
            1.6230346262454987e-01 -2.7230906486511230e-01</leafValues></_>
        <_>
          <internalNodes>
            0 -1 195 -2.4762891698628664e-03</internalNodes>
          <leafValues>
            2.7476841211318970e-01 -1.9444170594215393e-01</leafValues></_>
        <_>
          <internalNodes>
            0 -1 68 -2.0830145105719566e-02</internalNodes>
          <leafValues>
            -5.3988045454025269e-01 8.9064121246337891e-02</leafValues></_>
        <_>
          <internalNodes>
            0 -1 369 -6.3627923373132944e-04</internalNodes>
          <leafValues>
            2.5145441293716431e-01 -1.9206216931343079e-01</leafValues></_>
        <_>
          <internalNodes>
            0 -1 117 -7.9848049208521843e-03</internalNodes>
          <leafValues>
            4.6995735168457031e-01 -1.1581626534461975e-01</leafValues></_>
        <_>
          <internalNodes>
            0 -1 349 1.5946201747283340e-03</internalNodes>
          <leafValues>
            1.5795685350894928e-01 -2.7896729111671448e-01</leafValues></_></weakClassifiers></_>
    <!-- stage 14 -->
    <_>
      <maxWeakCount>32</maxWeakCount>
      <stageThreshold>-8.1765431165695190e-01</stageThreshold>
      <weakClassifiers>
        <_>
          <internalNodes>
            0 -1 362 6.9158978294581175e-04</internalNodes>
          <leafValues>
            -3.7606839090585709e-02 5.9020978212356567e-01</leafValues></_>
        <_>
          <internalNodes>
            0 -1 22 5.2364826202392578e-02</internalNodes>
          <leafValues>
            -1.5289413928985596e-01 5.5580908060073853e-01</leafValues></_>
        <_>
          <internalNodes>
            0 -1 326 5.6538134813308716e-03</internalNodes>
          <leafValues>
            -1.4145261049270630e-01 5.2338767051696777e-01</leafValues></_>
        <_>
          <internalNodes>
            0 -1 367 -2.0939989015460014e-02</internalNodes>
          <leafValues>
            5.8067274093627930e-01 -1.3583867251873016e-01</leafValues></_>
        <_>
          <internalNodes>
            0 -1 342 1.4389639254659414e-03</internalNodes>
          <leafValues>
            -1.9266782701015472e-01 3.6659494042396545e-01</leafValues></_>
        <_>
          <internalNodes>
            0 -1 165 -8.6229678709059954e-04</internalNodes>
          <leafValues>
            3.4262922406196594e-01 -1.6933441162109375e-01</leafValues></_>
        <_>
          <internalNodes>
            0 -1 107 5.5732123553752899e-02</internalNodes>
          <leafValues>
            8.7456569075584412e-02 -6.4879244565963745e-01</leafValues></_>
        <_>
          <internalNodes>
            0 -1 79 2.8139376081526279e-03</internalNodes>
          <leafValues>
            8.9209966361522675e-02 -5.4088675975799561e-01</leafValues></_>
        <_>
          <internalNodes>
            0 -1 142 -2.5461614131927490e-04</internalNodes>
          <leafValues>
            1.4006778597831726e-01 -3.7729859352111816e-01</leafValues></_>
        <_>
          <internalNodes>
            0 -1 105 -2.0353449508547783e-02</internalNodes>
          <leafValues>
            -6.2427669763565063e-01 8.4927752614021301e-02</leafValues></_>
        <_>
          <internalNodes>
            0 -1 271 1.5912283211946487e-02</internalNodes>
          <leafValues>
            -9.4721406698226929e-02 5.6318598985671997e-01</leafValues></_>
        <_>
          <internalNodes>
            0 -1 93 -3.2276904676109552e-03</internalNodes>
          <leafValues>
            3.6716362833976746e-01 -1.2012184411287308e-01</leafValues></_>
        <_>
          <internalNodes>
            0 -1 12 -1.8361438065767288e-02</internalNodes>
          <leafValues>
            3.1887516379356384e-01 -1.5399439632892609e-01</leafValues></_>
        <_>
          <internalNodes>
            0 -1 0 8.6000114679336548e-02</internalNodes>
          <leafValues>
            -1.0190551728010178e-01 5.0091224908828735e-01</leafValues></_>
        <_>
          <internalNodes>
            0 -1 171 -3.2349969842471182e-04</internalNodes>
          <leafValues>
            -2.8506478667259216e-01 1.6242650151252747e-01</leafValues></_>
        <_>
          <internalNodes>
            0 -1 368 2.0593595691025257e-03</internalNodes>
          <leafValues>
            -1.7523123323917389e-01 2.7061823010444641e-01</leafValues></_>
        <_>
          <internalNodes>
            0 -1 383 1.0758044198155403e-02</internalNodes>
          <leafValues>
            -1.5527883172035217e-01 3.5010063648223877e-01</leafValues></_>
        <_>
          <internalNodes>
            0 -1 397 6.5312213264405727e-03</internalNodes>
          <leafValues>
            7.2144433856010437e-02 -8.3002448081970215e-01</leafValues></_>
        <_>
          <internalNodes>
            0 -1 216 7.5191128998994827e-03</internalNodes>
          <leafValues>
            1.3930392265319824e-01 -3.6415094137191772e-01</leafValues></_>
        <_>
          <internalNodes>
            0 -1 399 9.3933958560228348e-03</internalNodes>
          <leafValues>
            -7.9106025397777557e-02 5.8906859159469604e-01</leafValues></_>
        <_>
          <internalNodes>
            0 -1 329 -1.0456547606736422e-03</internalNodes>
          <leafValues>
            4.3884253501892090e-01 -9.0286977589130402e-02</leafValues></_>
        <_>
          <internalNodes>
            0 -1 69 -3.2468214631080627e-02</internalNodes>
          <leafValues>
            -7.2885811328887939e-01 7.5093045830726624e-02</leafValues></_>
        <_>
          <internalNodes>
            0 -1 32 -1.4321021735668182e-02</internalNodes>
          <leafValues>
            2.5960421562194824e-01 -1.7131549119949341e-01</leafValues></_>
        <_>
          <internalNodes>
            0 -1 333 -1.9434506539255381e-03</internalNodes>
          <leafValues>
            3.9903503656387329e-01 -1.2279791384935379e-01</leafValues></_>
        <_>
          <internalNodes>
            0 -1 65 2.6162499561905861e-03</internalNodes>
          <leafValues>
            1.1199788749217987e-01 -4.8812714219093323e-01</leafValues></_>
        <_>
          <internalNodes>
            0 -1 89 -1.1196596547961235e-02</internalNodes>
          <leafValues>
            3.6427727341651917e-01 -1.2546917796134949e-01</leafValues></_>
        <_>
          <internalNodes>
            0 -1 21 -4.2373510077595711e-03</internalNodes>
          <leafValues>
            3.5179471969604492e-01 -1.2635692954063416e-01</leafValues></_>
        <_>
          <internalNodes>
            0 -1 127 2.7864803560078144e-03</internalNodes>
          <leafValues>
            -1.3873736560344696e-01 3.1292396783828735e-01</leafValues></_>
        <_>
          <internalNodes>
            0 -1 9 3.9901122450828552e-02</internalNodes>
          <leafValues>
            -2.3563027381896973e-01 1.9184683263301849e-01</leafValues></_>
        <_>
          <internalNodes>
            0 -1 209 -1.3909745030105114e-03</internalNodes>
          <leafValues>
            3.5709959268569946e-01 -1.5181384980678558e-01</leafValues></_>
        <_>
          <internalNodes>
            0 -1 156 3.3811315894126892e-02</internalNodes>
          <leafValues>
            -1.4583235979080200e-01 3.2434907555580139e-01</leafValues></_>
        <_>
          <internalNodes>
            0 -1 363 8.3970539271831512e-03</internalNodes>
          <leafValues>
            -1.0496958345174789e-01 4.8886775970458984e-01</leafValues></_></weakClassifiers></_></stages>
  <features>
    <_>
      <rects>
        <_>
          0 0 7 12 -1.</_>
        <_>
          0 6 7 6 2.</_></rects>
      <tilted>0</tilted></_>
    <_>
      <rects>
        <_>
          0 2 12 4 -1.</_>
        <_>
          0 2 6 2 2.</_>
        <_>
          6 4 6 2 2.</_></rects>
      <tilted>0</tilted></_>
    <_>
      <rects>
        <_>
          0 3 16 3 -1.</_>
        <_>
          8 3 8 3 2.</_></rects>
      <tilted>0</tilted></_>
    <_>
      <rects>
        <_>
          0 6 12 4 -1.</_>
        <_>
          0 6 6 2 2.</_>
        <_>
          6 8 6 2 2.</_></rects>
      <tilted>0</tilted></_>
    <_>
      <rects>
        <_>
          0 8 10 2 -1.</_>
        <_>
          5 8 5 2 2.</_></rects>
      <tilted>0</tilted></_>
    <_>
      <rects>
        <_>
          0 10 6 5 -1.</_>
        <_>
          2 10 2 5 3.</_></rects>
      <tilted>0</tilted></_>
    <_>
      <rects>
        <_>
          0 19 4 1 -1.</_>
        <_>
          2 19 2 1 2.</_></rects>
      <tilted>0</tilted></_>
    <_>
      <rects>
        <_>
          1 0 10 13 -1.</_>
        <_>
          6 0 5 13 2.</_></rects>
      <tilted>0</tilted></_>
    <_>
      <rects>
        <_>
          1 2 12 4 -1.</_>
        <_>
          1 2 6 2 2.</_>
        <_>
          7 4 6 2 2.</_></rects>
      <tilted>0</tilted></_>
    <_>
      <rects>
        <_>
          1 5 8 8 -1.</_>
        <_>
          5 5 4 8 2.</_></rects>
      <tilted>0</tilted></_>
    <_>
      <rects>
        <_>
          1 8 18 8 -1.</_>
        <_>
          7 8 6 8 3.</_></rects>
      <tilted>0</tilted></_>
    <_>
      <rects>
        <_>
          1 9 11 3 -1.</_>
        <_>
          1 10 11 1 3.</_></rects>
      <tilted>0</tilted></_>
    <_>
      <rects>
        <_>
          1 13 8 6 -1.</_>
        <_>
          1 13 4 3 2.</_>
        <_>
          5 16 4 3 2.</_></rects>
      <tilted>0</tilted></_>
    <_>
      <rects>
        <_>
          1 14 18 6 -1.</_>
        <_>
          7 14 6 6 3.</_></rects>
      <tilted>0</tilted></_>
    <_>
      <rects>
        <_>
          2 2 10 18 -1.</_>
        <_>
          2 11 10 9 2.</_></rects>
      <tilted>0</tilted></_>
    <_>
      <rects>
        <_>
          2 3 8 2 -1.</_>
        <_>
          2 4 8 1 2.</_></rects>
      <tilted>0</tilted></_>
    <_>
      <rects>
        <_>
          2 6 6 8 -1.</_>
        <_>
          5 6 3 8 2.</_></rects>
      <tilted>0</tilted></_>
    <_>
      <rects>
        <_>
          2 6 9 8 -1.</_>
        <_>
          5 6 3 8 3.</_></rects>
      <tilted>0</tilted></_>
    <_>
      <rects>
        <_>
          2 7 1 8 -1.</_>
        <_>
          2 11 1 4 2.</_></rects>
      <tilted>0</tilted></_>
    <_>
      <rects>
        <_>
          2 8 9 6 -1.</_>
        <_>
          5 8 3 6 3.</_></rects>
      <tilted>0</tilted></_>
    <_>
      <rects>
        <_>
          3 3 9 14 -1.</_>
        <_>
          6 3 3 14 3.</_></rects>
      <tilted>0</tilted></_>
    <_>
      <rects>
        <_>
          3 5 4 4 -1.</_>
        <_>
          5 5 2 4 2.</_></rects>
      <tilted>0</tilted></_>
    <_>
      <rects>
        <_>
          3 7 6 6 -1.</_>
        <_>
          5 7 2 6 3.</_></rects>
      <tilted>0</tilted></_>
    <_>
      <rects>
        <_>
          3 8 4 2 -1.</_>
        <_>
          5 8 2 2 2.</_></rects>
      <tilted>0</tilted></_>
    <_>
      <rects>
        <_>
          3 9 3 7 -1.</_>
        <_>
