<?xml version="1.0"?>
<opencv_storage>
<cascade>
  <stageType>BOOST</stageType>
  <featureType>HAAR</featureType>
  <height>20</height>
  <width>20</width>
  <stageParams>
    <boostType>GAB</boostType>
    <minHitRate>9.9500000476837158e-01</minHitRate>
    <maxFalseAlarm>5.0000000000000000e-01</maxFalseAlarm>
    <weightTrimRate>9.4999999999999996e-01</weightTrimRate>
    <maxDepth>1</maxDepth>
    <maxWeakCount>100</maxWeakCount></stageParams>
  <featureParams>
    <maxCatCount>0</maxCatCount>
    <featSize>1</featSize>
    <mode>BASIC</mode></featureParams>
  <stageNum>14</stageNum>
  <stages>
    <!-- stage 0 -->
    <_>
      <maxWeakCount>4</maxWeakCount>
      <stageThreshold>-7.2510021924972534e-01</stageThreshold>
      <weakClassifiers>
        <_>
          <internalNodes>
            0 -1 8 1.5677711367607117e-01</internalNodes>
          <leafValues>
            -7.5246441364288330e-01 8.8144636154174805e-01</leafValues></_>
        <_>
          <internalNodes>
            0 -1 35 -1.1959269642829895e-02</internalNodes>
          <leafValues>
            6.1584383249282837e-01 -6.9806981086730957e-01</leafValues></_>
        <_>
          <internalNodes>
            0 -1 41 5.1346130203455687e-04</internalNodes>
          <leafValues>
            3.6017310619354248e-01 -9.5646566152572632e-01</leafValues></_>
        <_>
          <internalNodes>
            0 -1 41 -3.9707362884655595e-04</internalNodes>
          <leafValues>
            -9.9015969038009644e-01 3.6526089906692505e-01</leafValues></_></weakClassifiers></_>
    <!-- stage 1 -->
    <_>
      <maxWeakCount>5</maxWeakCount>
      <stageThreshold>-4.1573882102966309e-01</stageThreshold>
      <weakClassifiers>
        <_>
          <internalNodes>
            0 -1 50 -7.7252797782421112e-03</internalNodes>
          <leafValues>
            6.5614032745361328e-01 -8.4132230281829834e-01</leafValues></_>
        <_>
          <internalNodes>
            0 -1 7 4.1506803035736084e-01</internalNodes>
          <leafValues>
            -4.1752082109451294e-01 8.1668382883071899e-01</leafValues></_>
        <_>
          <internalNodes>
            0 -1 52 5.2898587455274537e-05</internalNodes>
          <leafValues>
            -9.6884423494338989e-01 3.6105591058731079e-01</leafValues></_>
        <_>
          <internalNodes>
            0 -1 43 -3.3379395608790219e-04</internalNodes>
          <leafValues>
            -9.9121999740600586e-01 2.5570923089981079e-01</leafValues></_>
        <_>
          <internalNodes>
            0 -1 43 5.3683854639530182e-04</internalNodes>
          <leafValues>
            2.2633919119834900e-01 -9.8894572257995605e-01</leafValues></_></weakClassifiers></_>
    <!-- stage 2 -->
    <_>
      <maxWeakCount>5</maxWeakCount>
      <stageThreshold>-4.0055838227272034e-01</stageThreshold>
      <weakClassifiers>
        <_>
          <internalNodes>
            0 -1 36 5.5108712986111641e-03</internalNodes>
          <leafValues>
            -4.9889624118804932e-01 7.3907911777496338e-01</leafValues></_>
        <_>
          <internalNodes>
            0 -1 48 4.2209579987684265e-05</internalNodes>
          <leafValues>
            -9.3134391307830811e-01 4.1787022352218628e-01</leafValues></_>
        <_>
          <internalNodes>
            0 -1 0 3.7845849990844727e-02</internalNodes>
          <leafValues>
            -5.2123022079467773e-01 5.5908679962158203e-01</leafValues></_>
        <_>
          <internalNodes>
            0 -1 42 6.2232575146481395e-04</internalNodes>
          <leafValues>
            2.9948526620864868e-01 -9.0488862991333008e-01</leafValues></_>
        <_>
          <internalNodes>
            0 -1 42 -3.5376596497371793e-04</internalNodes>
          <leafValues>
            -9.6314406394958496e-01 1.7110970616340637e-01</leafValues></_></weakClassifiers></_>
    <!-- stage 3 -->
    <_>
      <maxWeakCount>7</maxWeakCount>
      <stageThreshold>-8.0969548225402832e-01</stageThreshold>
      <weakClassifiers>
        <_>
          <internalNodes>
            0 -1 53 7.3026452446356416e-04</internalNodes>
          <leafValues>
            -7.1144276857376099e-01 6.1542314291000366e-01</leafValues></_>
        <_>
          <internalNodes>
            0 -1 9 3.2696628570556641e-01</internalNodes>
          <leafValues>
            -4.1032129526138306e-01 6.6664886474609375e-01</leafValues></_>
        <_>
          <internalNodes>
            0 -1 29 3.9205537177622318e-05</internalNodes>
          <leafValues>
            -9.6158087253570557e-01 2.8527405858039856e-01</leafValues></_>
        <_>
          <internalNodes>
            0 -1 56 5.1642197649925947e-04</internalNodes>
          <leafValues>
            3.2326203584671021e-01 -6.8555426597595215e-01</leafValues></_>
        <_>
          <internalNodes>
            0 -1 15 -4.3363502481952310e-04</internalNodes>
          <leafValues>
            -9.6849387884140015e-01 1.6635462641716003e-01</leafValues></_>
        <_>
          <internalNodes>
            0 -1 6 5.0399230531184003e-05</internalNodes>
          <leafValues>
            -7.2854906320571899e-01 2.8771013021469116e-01</leafValues></_>
        <_>
          <internalNodes>
            0 -1 61 4.4378373422659934e-04</internalNodes>
          <leafValues>
            -7.3996520042419434e-01 2.6572695374488831e-01</leafValues></_></weakClassifiers></_>
    <!-- stage 4 -->
    <_>
      <maxWeakCount>6</maxWeakCount>
      <stageThreshold>-1.0088351964950562e+00</stageThreshold>
      <weakClassifiers>
        <_>
          <internalNodes>
            0 -1 37 7.4454740388318896e-04</internalNodes>
          <leafValues>
            -8.2017540931701660e-01 5.4757463932037354e-01</leafValues></_>
        <_>
          <internalNodes>
            0 -1 4 6.6200736910104752e-04</internalNodes>
          <leafValues>
            -6.6512060165405273e-01 4.2618131637573242e-01</leafValues></_>
        <_>
          <internalNodes>
            0 -1 46 4.1340423194924369e-05</internalNodes>
          <leafValues>
            -7.3657286167144775e-01 3.2198742032051086e-01</leafValues></_>
        <_>
          <internalNodes>
            0 -1 58 4.6379130799323320e-04</internalNodes>
          <leafValues>
            1.9866742193698883e-01 -9.6284621953964233e-01</leafValues></_>
        <_>
          <internalNodes>
            0 -1 62 1.2367077870294452e-03</internalNodes>
          <leafValues>
            -5.7972568273544312e-01 3.7242117524147034e-01</leafValues></_>
        <_>
          <internalNodes>
            0 -1 68 4.0884441114030778e-04</internalNodes>
          <leafValues>
            2.2634193301200867e-01 -8.1991755962371826e-01</leafValues></_></weakClassifiers></_>
    <!-- stage 5 -->
    <_>
      <maxWeakCount>6</maxWeakCount>
      <stageThreshold>-9.8301547765731812e-01</stageThreshold>
      <weakClassifiers>
        <_>
          <internalNodes>
            0 -1 58 4.1659757698653266e-05</internalNodes>
          <leafValues>
            -5.9032255411148071e-01 5.8888888359069824e-01</leafValues></_>
        <_>
          <internalNodes>
            0 -1 13 3.9321857690811157e-01</internalNodes>
          <leafValues>
            -3.9068606495857239e-01 6.0368275642395020e-01</leafValues></_>
        <_>
          <internalNodes>
            0 -1 64 -9.1646492364816368e-05</internalNodes>
          <leafValues>
            -8.3165848255157471e-01 2.9972416162490845e-01</leafValues></_>
        <_>
          <internalNodes>
            0 -1 54 -6.5410498064011335e-04</internalNodes>
          <leafValues>
            3.4746825695037842e-01 -6.9530767202377319e-01</leafValues></_>
        <_>
          <internalNodes>
            0 -1 12 -3.1145411776378751e-04</internalNodes>
          <leafValues>
            -9.2871814966201782e-01 1.8579430878162384e-01</leafValues></_>
        <_>
          <internalNodes>
            0 -1 24 -1.4344710507430136e-04</internalNodes>
          <leafValues>
            -9.1703838109970093e-01 1.5995356440544128e-01</leafValues></_></weakClassifiers></_>
    <!-- stage 6 -->
    <_>
      <maxWeakCount>6</maxWeakCount>
      <stageThreshold>-7.9091835021972656e-01</stageThreshold>
      <weakClassifiers>
        <_>
          <internalNodes>
            0 -1 33 3.7930690450593829e-04</internalNodes>
          <leafValues>
            -8.7660670280456543e-01 5.1605606079101563e-01</leafValues></_>
        <_>
          <internalNodes>
            0 -1 74 -4.5165624469518661e-03</internalNodes>
          <leafValues>
            5.1023489236831665e-01 -5.4452580213546753e-01</leafValues></_>
        <_>
          <internalNodes>
            0 -1 34 5.5145786609500647e-04</internalNodes>
          <leafValues>
            -6.1810135841369629e-01 4.7149381041526794e-01</leafValues></_>
        <_>
          <internalNodes>
            0 -1 43 -2.8246612055227160e-04</internalNodes>
          <leafValues>
            -9.8874711990356445e-01 1.7322236299514771e-01</leafValues></_>
        <_>
          <internalNodes>
            0 -1 67 8.2089449279010296e-05</internalNodes>
          <leafValues>
            2.0979833602905273e-01 -8.1675130128860474e-01</leafValues></_>
        <_>
          <internalNodes>
            0 -1 2 4.8037101514637470e-03</internalNodes>
          <leafValues>
            -5.2736788988113403e-01 2.9918730258941650e-01</leafValues></_></weakClassifiers></_>
    <!-- stage 7 -->
    <_>
      <maxWeakCount>7</maxWeakCount>
      <stageThreshold>-1.1699535846710205e+00</stageThreshold>
      <weakClassifiers>
        <_>
          <internalNodes>
            0 -1 25 8.1047671847045422e-04</internalNodes>
          <leafValues>
            5.4084509611129761e-01 -7.4893617630004883e-01</leafValues></_>
        <_>
          <internalNodes>
            0 -1 28 6.3311485573649406e-03</internalNodes>
          <leafValues>
            -5.4718279838562012e-01 4.6346664428710938e-01</leafValues></_>
        <_>
          <internalNodes>
            0 -1 81 -9.1073312796652317e-04</internalNodes>
          <leafValues>
            6.4036178588867188e-01 -3.2826888561248779e-01</leafValues></_>
        <_>
          <internalNodes>
            0 -1 69 -4.1138252709060907e-04</internalNodes>
          <leafValues>
            -9.7306942939758301e-01 2.2129167616367340e-01</leafValues></_>
        <_>
          <internalNodes>
            0 -1 77 -1.3016951270401478e-03</internalNodes>
          <leafValues>
            6.2689387798309326e-01 -3.2774969935417175e-01</leafValues></_>
        <_>
          <internalNodes>
            0 -1 66 2.2356453700922430e-04</internalNodes>
          <leafValues>
            1.9106507301330566e-01 -8.9243066310882568e-01</leafValues></_>
        <_>
          <internalNodes>
            0 -1 57 8.8249280815944076e-04</internalNodes>
          <leafValues>
            1.6354176402091980e-01 -8.3628410100936890e-01</leafValues></_></weakClassifiers></_>
    <!-- stage 8 -->
    <_>
      <maxWeakCount>6</maxWeakCount>
      <stageThreshold>-7.0266920328140259e-01</stageThreshold>
      <weakClassifiers>
        <_>
          <internalNodes>
            0 -1 32 -1.8214125884696841e-04</internalNodes>
          <leafValues>
            -8.8916873931884766e-01 5.2337723970413208e-01</leafValues></_>
        <_>
          <internalNodes>
            0 -1 51 1.5395227819681168e-03</internalNodes>
          <leafValues>
            -6.8654310703277588e-01 3.9370140433311462e-01</leafValues></_>
        <_>
          <internalNodes>
            0 -1 10 3.3765898551791906e-03</internalNodes>
          <leafValues>
            -5.4698544740676880e-01 4.5482534170150757e-01</leafValues></_>
        <_>
          <internalNodes>
            0 -1 75 -2.1594078862108290e-04</internalNodes>
          <leafValues>
            -6.9613856077194214e-01 2.9955732822418213e-01</leafValues></_>
        <_>
          <internalNodes>
            0 -1 73 8.4634975064545870e-04</internalNodes>
          <leafValues>
            -3.9915373921394348e-01 5.2975988388061523e-01</leafValues></_>
        <_>
          <internalNodes>
            0 -1 56 5.1313792937435210e-05</internalNodes>
          <leafValues>
            -8.9473229646682739e-01 2.4787771701812744e-01</leafValues></_></weakClassifiers></_>
    <!-- stage 9 -->
    <_>
      <maxWeakCount>9</maxWeakCount>
      <stageThreshold>-8.4500139951705933e-01</stageThreshold>
      <weakClassifiers>
        <_>
          <internalNodes>
            0 -1 63 1.0321359150111675e-02</internalNodes>
          <leafValues>
            -4.0127387642860413e-01 7.1049457788467407e-01</leafValues></_>
        <_>
          <internalNodes>
            0 -1 27 8.2544266479089856e-04</internalNodes>
          <leafValues>
            -6.6254973411560059e-01 3.8787743449211121e-01</leafValues></_>
        <_>
          <internalNodes>
            0 -1 22 1.0451314738020301e-03</internalNodes>
          <leafValues>
            2.7007007598876953e-01 -7.7182531356811523e-01</leafValues></_>
        <_>
          <internalNodes>
            0 -1 70 3.4708915336523205e-05</internalNodes>
          <leafValues>
            -6.4843702316284180e-01 3.0111983418464661e-01</leafValues></_>
        <_>
          <internalNodes>
            0 -1 65 4.8198891454376280e-04</internalNodes>
          <leafValues>
            2.8478136658668518e-01 -7.3637104034423828e-01</leafValues></_>
        <_>
          <internalNodes>
            0 -1 82 -5.0517628551460803e-05</internalNodes>
          <leafValues>
            3.2044655084609985e-01 -5.7686370611190796e-01</leafValues></_>
        <_>
          <internalNodes>
            0 -1 1 4.5992620289325714e-03</internalNodes>
          <leafValues>
            -5.0600785017013550e-01 3.3915767073631287e-01</leafValues></_>
        <_>
          <internalNodes>
            0 -1 21 -6.4768246375024319e-04</internalNodes>
          <leafValues>
            -9.6225023269653320e-01 1.7566908895969391e-01</leafValues></_>
        <_>
          <internalNodes>
            0 -1 17 2.7231296990066767e-03</internalNodes>
          <leafValues>
            -3.6377778649330139e-01 4.8411506414413452e-01</leafValues></_></weakClassifiers></_>
    <!-- stage 10 -->
    <_>
      <maxWeakCount>8</maxWeakCount>
      <stageThreshold>-1.1054821014404297e+00</stageThreshold>
      <weakClassifiers>
        <_>
          <internalNodes>
            0 -1 79 1.5105979982763529e-03</internalNodes>
          <leafValues>
            -9.1800980269908905e-02 7.9369139671325684e-01</leafValues></_>
        <_>
          <internalNodes>
            0 -1 72 -1.0923863155767322e-03</internalNodes>
          <leafValues>
            3.8783106207847595e-01 -6.6199749708175659e-01</leafValues></_>
        <_>
          <internalNodes>
            0 -1 67 -7.6538766734302044e-05</internalNodes>
          <leafValues>
            -8.3478665351867676e-01 2.4272891879081726e-01</leafValues></_>
        <_>
          <internalNodes>
            0 -1 11 1.2533125118352473e-04</internalNodes>
          <leafValues>
            -7.9657113552093506e-01 2.3905622959136963e-01</leafValues></_>
        <_>
          <internalNodes>
            0 -1 14 1.9962787628173828e-02</internalNodes>
          <leafValues>
            -4.6813103556632996e-01 4.8777350783348083e-01</leafValues></_>
        <_>
          <internalNodes>
            0 -1 20 -1.7534531070850790e-04</internalNodes>
          <leafValues>
            -7.4582421779632568e-01 2.2021812200546265e-01</leafValues></_>
        <_>
          <internalNodes>
            0 -1 39 5.7230599224567413e-02</internalNodes>
          <leafValues>
            1.6720804572105408e-01 -8.3288520574569702e-01</leafValues></_>
        <_>
          <internalNodes>
            0 -1 26 8.6650659795850515e-04</internalNodes>
          <leafValues>
            -7.6361608505249023e-01 2.1327847242355347e-01</leafValues></_></weakClassifiers></_>
    <!-- stage 11 -->
    <_>
      <maxWeakCount>7</maxWeakCount>
      <stageThreshold>-8.8859128952026367e-01</stageThreshold>
      <weakClassifiers>
        <_>
          <internalNodes>
            0 -1 44 5.0433212891221046e-04</internalNodes>
          <leafValues>
            4.6910357475280762e-01 -9.2052978277206421e-01</leafValues></_>
        <_>
          <internalNodes>
            0 -1 40 1.2228755804244429e-04</internalNodes>
          <leafValues>
            -9.7440260648727417e-01 2.1081694960594177e-01</leafValues></_>
        <_>
          <internalNodes>
            0 -1 4 1.2304361443966627e-03</internalNodes>
          <leafValues>
            -6.5482342243194580e-01 2.7084335684776306e-01</leafValues></_>
        <_>
          <internalNodes>
            0 -1 59 4.8027448356151581e-03</internalNodes>
          <leafValues>
            -5.5454701185226440e-01 4.2175272107124329e-01</leafValues></_>
        <_>
          <internalNodes>
            0 -1 23 -2.1566613577306271e-03</internalNodes>
          <leafValues>
            6.6440957784652710e-01 -3.0902093648910522e-01</leafValues></_>
        <_>
          <internalNodes>
            0 -1 31 -2.4973723338916898e-04</internalNodes>
          <leafValues>
            -8.5658752918243408e-01 2.3437725007534027e-01</leafValues></_>
        <_>
          <internalNodes>
            0 -1 85 -1.3146641431376338e-03</internalNodes>
          <leafValues>
            6.8268007040023804e-01 -2.8449767827987671e-01</leafValues></_></weakClassifiers></_>
    <!-- stage 12 -->
    <_>
      <maxWeakCount>10</maxWeakCount>
      <stageThreshold>-6.4711570739746094e-01</stageThreshold>
      <weakClassifiers>
        <_>
          <internalNodes>
            0 -1 53 9.3612662749364972e-04</internalNodes>
          <leafValues>
            -6.7968750000000000e-01 5.4980844259262085e-01</leafValues></_>
        <_>
          <internalNodes>
            0 -1 45 4.8826055717654526e-05</internalNodes>
          <leafValues>
            -7.6416271924972534e-01 3.0731770396232605e-01</leafValues></_>
        <_>
          <internalNodes>
            0 -1 3 3.3046952448785305e-03</internalNodes>
          <leafValues>
            -3.5710373520851135e-01 5.6608122587203979e-01</leafValues></_>
        <_>
          <internalNodes>
            0 -1 38 9.6888112602755427e-04</internalNodes>
          <leafValues>
            -8.8725018501281738e-01 2.5916188955307007e-01</leafValues></_>
        <_>
          <internalNodes>
            0 -1 55 1.7816692707128823e-04</internalNodes>
          <leafValues>
            2.6260957121849060e-01 -6.2246245145797729e-01</leafValues></_>
        <_>
          <internalNodes>
            0 -1 76 -6.0891965404152870e-04</internalNodes>
          <leafValues>
            1.5896421670913696e-01 -9.3563342094421387e-01</leafValues></_>
        <_>
          <internalNodes>
            0 -1 71 2.7093189419247210e-04</internalNodes>
          <leafValues>
            1.8067228794097900e-01 -7.6905739307403564e-01</leafValues></_>
        <_>
          <internalNodes>
            0 -1 19 -3.5416099708527327e-03</internalNodes>
          <leafValues>
            2.4772688746452332e-01 -5.8468347787857056e-01</leafValues></_>
        <_>
          <internalNodes>
            0 -1 12 -4.9250193114858121e-05</internalNodes>
          <leafValues>
            -8.0021047592163086e-01 1.9758339226245880e-01</leafValues></_>
        <_>
          <internalNodes>
            0 -1 80 1.6169506125152111e-03</internalNodes>
          <leafValues>
            -3.1544804573059082e-01 7.5446200370788574e-01</leafValues></_></weakClassifiers></_>
    <!-- stage 13 -->
    <_>
      <maxWeakCount>11</maxWeakCount>
      <stageThreshold>-9.3337047100067139e-01</stageThreshold>
      <weakClassifiers>
        <_>
          <internalNodes>
            0 -1 47 9.8157208412885666e-05</internalNodes>
          <leafValues>
            -6.6141730546951294e-01 5.4302102327346802e-01</leafValues></_>
        <_>
          <internalNodes>
            0 -1 18 1.7240462824702263e-02</internalNodes>
          <leafValues>
            -2.8476807475090027e-01 7.1291530132293701e-01</leafValues></_>
        <_>
          <internalNodes>
            0 -1 84 1.7410989385098219e-03</internalNodes>
          <leafValues>
            -2.2884263098239899e-01 7.5263321399688721e-01</leafValues></_>
        <_>
          <internalNodes>
            0 -1 30 6.8506202660501003e-04</internalNodes>
          <leafValues>
            2.4708364903926849e-01 -8.2378643751144409e-01</leafValues></_>
        <_>
          <internalNodes>
            0 -1 55 -5.4422558605438098e-05</internalNodes>
          <leafValues>
            -9.5259600877761841e-01 1.5112653374671936e-01</leafValues></_>
        <_>
          <internalNodes>
            0 -1 5 -8.5094978567212820e-04</internalNodes>
          <leafValues>
            4.6368420124053955e-01 -3.8077753782272339e-01</leafValues></_>
        <_>
          <internalNodes>
            0 -1 83 1.0195543989539146e-02</internalNodes>
          <leafValues>
            -2.1781115233898163e-01 7.4987655878067017e-01</leafValues></_>
        <_>
          <internalNodes>
            0 -1 60 4.5327658881433308e-05</internalNodes>
          <leafValues>
            -8.0441409349441528e-01 2.0761503279209137e-01</leafValues></_>
        <_>
          <internalNodes>
            0 -1 16 -1.6710384807083756e-04</internalNodes>
          <leafValues>
            -8.9166432619094849e-01 1.8192762136459351e-01</leafValues></_>
        <_>
          <internalNodes>
            0 -1 78 1.1286955559626222e-03</internalNodes>
          <leafValues>
            -2.8644457459449768e-01 7.3582381010055542e-01</leafValues></_>
        <_>
          <internalNodes>
            0 -1 49 6.2753597740083933e-04</internalNodes>
          <leafValues>
            -5.8321470022201538e-01 3.3893805742263794e-01</leafValues></_></weakClassifiers></_></stages>
  <features>
    <_>
      <rects>
        <_>
          0 7 8 5 -1.</_>
        <_>
          4 7 4 5 2.</_></rects>
      <tilted>0</tilted></_>
    <_>
      <rects>
        <_>
          2 8 6 4 -1.</_>
        <_>
          4 8 2 4 3.</_></rects>
      <tilted>0</tilted></_>
    <_>
      <rects>
        <_>
          2 8 6 5 -1.</_>
        <_>
          4 8 2 5 3.</_></rects>
      <tilted>0</tilted></_>
    <_>
      <rects>
        <_>
          2 9 2 2 -1.</_>
        <_>
          3 9 1 2 2.</_></rects>
      <tilted>0</tilted></_>
    <_>
      <rects>
        <_>
          2 10 6 1 -1.</_>
        <_>
          4 10 2 1 3.</_></rects>
      <tilted>0</tilted></_>
    <_>
      <rects>
        <_>
          3 7 4 4 -1.</_>
        <_>
          3 7 2 2 2.</_>
        <_>
          5 9 2 2 2.</_></rects>
      <tilted>0</tilted></_>
    <_>
      <rects>
        <_>
          3 9 6 2 -1.</_>
        <_>
          5 9 2 2 3.</_></rects>
      <tilted>0</tilted></_>
    <_>
      <rects>
        <_>
          4 1 11 18 -1.</_>
        <_>
          4 7 11 6 3.</_></rects>
      <tilted>0</tilted></_>
    <_>
      <rects>
        <_>
          4 3 11 15 -1.</_>
        <_>
          4 8 11 5 3.</_></rects>
      <tilted>0</tilted></_>
    <_>
      <rects>
        <_>
          4 3 12 15 -1.</_>
        <_>
          4 8 12 5 3.</_></rects>
      <tilted>0</tilted></_>
    <_>
      <rects>
        <_>
          4 5 1 6 -1.</_>
        <_>
          4 8 1 3 2.</_></rects>
      <tilted>0</tilted></_>
    <_>
      <rects>
        <_>
          4 8 4 2 -1.</_>
        <_>
          4 9 4 1 2.</_></rects>
      <tilted>0</tilted></_>
    <_>
      <rects>
        <_>
          4 9 6 2 -1.</_>
        <_>
          6 9 2 2 3.</_></rects>
      <tilted>0</tilted></_>
    <_>
      <rects>
        <_>
          5 1 10 18 -1.</_>
        <_>
          5 7 10 6 3.</_></rects>
      <tilted>0</tilted></_>
    <_>
      <rects>
        <_>
          5 5 10 6 -1.</_>
        <_>
          5 7 10 2 3.</_></rects>
      <tilted>0</tilted></_>
    <_>
      <rects>
        <_>
          5 9 4 3 -1.</_>
        <_>
          7 9 2 3 2.</_></rects>
      <tilted>0</tilted></_>
    <_>
      <rects>
        <_>
          5 10 3 1 -1.</_>
        <_>
          6 10 1 1 3.</_></rects>
      <tilted>0</tilted></_>
    <_>
      <rects>
        <_>
          5 10 1 6 -1.</_>
        <_>
          5 12 1 2 3.</_></rects>
      <tilted>0</tilted></_>
    <_>
      <rects>
        <_>
          5 10 4 6 -1.</_>
        <_>
          5 12 4 2 3.</_></rects>
      <tilted>0</tilted></_>
    <_>
      <rects>
        <_>
          5 10 14 1 -1.</_>
        <_>
          12 10 7 1 2.</_></rects>
      <tilted>0</tilted></_>
    <_>
      <rects>
        <_>
          5 11 3 1 -1.</_>
        <_>
          6 11 1 1 3.</_></rects>
      <tilted>0</tilted></_>
    <_>
      <rects>
        <_>
          6 10 6 2 -1.</_>
        <_>
          8 10 2 2 3.</_></rects>
      <tilted>0</tilted></_>
    <_>
      <rects>
        <_>
          6 10 6 1 -1.</_>
        <_>
          9 10 3 1 2.</_></rects>
      <tilted>0</tilted></_>
    <_>
      <rects>
        <_>
          7 6 6 2 -1.</_>
        <_>
          7 6 3 1 2.</_>
        <_>
          10 7 3 1 2.</_></rects>
      <tilted>0</tilted></_>
    <_>
      <rects>
        <_>
          7 9 2 2 -1.</_>
        <_>
          8 9 1 2 2.</_></rects>
      <tilted>0</tilted></_>
    <_>
      <rects>
        <_>
          7 10 6 1 -1.</_>
        <_>
          10 10 3 1 2.</_></rects>
      <tilted>0</tilted></_>
    <_>
      <rects>
        <_>
          7 10 7 3 -1.</_>
        <_>
          7 11 7 1 3.</_></rects>
      <tilted>0</tilted></_>
    <_>
      <rects>
        <_>
          8 6 1 6 -1.</_>
        <_>
          8 8 1 2 3.</_></rects>
      <tilted>0</tilted></_>
    <_>
      <rects>
        <_>
          8 6 7 2 -1.</_>
        <_>
          8 7 7 1 2.</_></rects>
      <tilted>0</tilted></_>
    <_>
      <rects>
        <_>
          8 8 6 2 -1.</_>
        <_>
          8 9 6 1 2.</_></rects>
      <tilted>0</tilted></_>
    <_>
      <rects>
        <_>
          8 9 6 1 -1.</_>
        <_>
          10 9 2 1 3.</_></rects>
      <tilted>0</tilted></_>
    <_>
      <rects>
        <_>
          8 10 3 2 -1.</_>
        <_>
          9 10 1 2 3.</_></rects>
      <tilted>0</tilted></_>
    <_>
      <rects>
        <_>
          8 10 6 2 -1.</_>
        <_>
          10 10 2 2 3.</_></rects>
      <tilted>0</tilted></_>
    <_>
      <rects>
        <_>
          8 10 6 3 -1.</_>
        <_>
          8 11 6 1 3.</_></rects>
      <tilted>0</tilted></_>
    <_>
      <rects>
        <_>
          8 11 2 3 -1.</_>
        <_>
          8 12 2 1 3.</_></rects>
      <tilted>0</tilted></_>
    <_>
      <rects>
        <_>
          8 11 7 4 -1.</_>
        <_>
          8 13 7 2 2.</_></rects>
      <tilted>0</tilted></_>
    <_>
      <rects>
        <_>
          9 5 5 6 -1.</_>
        <_>
          9 7 5 2 3.</_></rects>
      <tilted>0</tilted></_>
    <_>
      <rects>
        <_>
          9 6 3 6 -1.</_>
        <_>
          9 8 3 2 3.</_></rects>
      <tilted>0</tilted></_>
    <_>
      <rects>
        <_>
          9 6 4 6 -1.</_>
        <_>
          9 8 4 2 3.</_></rects>
      <tilted>0</tilted></_>
    <_>
      <rects>
        <_>
          9 6 4 9 -1.</_>
        <_>
          9 9 4 3 3.</_></rects>
      <tilted>0</tilted></_>
    <_>
      <rects>
        <_>
          9 7 1 4 -1.</_>
        <_>
          9 9 1 2 2.</_></rects>
      <tilted>0</tilted></_>
    <_>
      <rects>
        <_>
          9 9 3 2 -1.</_>
        <_>
          10 9 1 2 3.</_></rects>
      <tilted>0</tilted></_>
    <_>
      <rects>
        <_>
          9 9 3 3 -1.</_>
        <_>
          10 9 1 3 3.</_></rects>
      <tilted>0</tilted></_>
    <_>
      <rects>
        <_>
          9 9 4 1 -1.</_>
        <_>
          11 9 2 1 2.</_></rects>
      <tilted>0</tilted></_>
    <_>
      <rects>
        <_>
          9 9 2 2 -1.</_>
        <_>
          9 10 2 1 2.</_></rects>
      <tilted>0</tilted></_>
    <_>
      <rects>
        <_>
          9 9 3 2 -1.</_>
        <_>
          9 10 3 1 2.</_></rects>
      <tilted>0</tilted></_>
    <_>
      <rects>
        <_>
          9 9 4 2 -1.</_>
        <_>
          9 10 4 1 2.</_></rects>
      <tilted>0</tilted></_>
    <_>
      <rects>
        <_>
          9 10 1 3 -1.</_>
        <_>
          9 11 1 1 3.</_></rects>
      <tilted>0</tilted></_>
    <_>
      <rects>
        <_>
          9 10 2 3 -1.</_>
        <_>
          9 11 2 1 3.</_></rects>
      <tilted>0</tilted></_>
    <_>
      <rects>
        <_>
          9 11 3 3 -1.</_>
        <_>
          9 12 3 1 3.</_></rects>
      <tilted>0</tilted></_>
    <_>
      <rects>
        <_>
          9 11 5 4 -1.</_>
        <_>
          9 13 5 2 2.</_></rects>
      <tilted>0</tilted></_>
    <_>
      <rects>
        <_>
          9 11 6 3 -1.</_>
        <_>
          9 12 6 1 3.</_></rects>
      <tilted>0</tilted></_>
    <_>
      <rects>
        <_>
          10 7 1 4 -1.</_>
        <_>
          10 9 1 2 2.</_></rects>
      <tilted>0</tilted></_>
    <_>
      <rects>
        <_>
          10 7 6 2 -1.</_>
        <_>
          12 7 2 2 3.</_></rects>
      <tilted>0</tilted></_>
    <_>
      <rects>
        <_>
          10 7 6 2 -1.</_>
        <_>
          13 7 3 2 2.</_></rects>
      <tilted>0</tilted></_>
    <_>
      <rects>
        <_>
          10 8 1 2 -1.</_>
        <_>
          10 9 1 1 2.</_></rects>
      <tilted>0</tilted></_>
    <_>
      <rects>
        <_>
          10 8 3 2 -1.</_>
        <_>
          10 9 3 1 2.</_></rects>
      <tilted>0</tilted></_>
    <_>
      <rects>
        <_>
          10 9 3 4 -1.</_>
        <_>
          11 9 1 4 3.</_></rects>
      <tilted>0</tilted></_>
    <_>
      <rects>
        <_>
          10 9 2 2 -1.</_>
        <_>
          10 10 2 1 2.</_></rects>
      <tilted>0</tilted></_>
    <_>
      <rects>
        <_>
          10 9 9 3 -1.</_>
        <_>
          13 9 3 3 3.</_></rects>
      <tilted>0</tilted></_>
    <_>
      <rects>
        <_>
          10 10 1 3 -1.</_>
        <_>
          10 11 1 1 3.</_></rects>
      <tilted>0</tilted></_>
    <_>
      <rects>
        <_>
          10 11 4 3 -1.</_>
        <_>
          10 12 4 1 3.</_></rects>
      <tilted>0</tilted></_>
    <_>
      <rects>
        <_>
          10 13 6 1 -1.</_>
        <_>
          12 13 2 1 3.</_></rects>
      <tilted>0</tilted></_>
    <_>
      <rects>
        <_>
          11 7 6 7 -1.</_>
        <_>
          13 7 2 7 3.</_></rects>
      <tilted>0</tilted></_>
    <_>
      <rects>
        <_>
          11 8 2 2 -1.</_>
        <_>
          12 8 1 2 2.</_></rects>
      <tilted>0</tilted></_>
    <_>
      <rects>
        <_>
          11 8 1 4 -1.</_>
        <_>
          11 10 1 2 2.</_></rects>
      <tilted>0</tilted></_>
    <_>
      <rects>
        <_>
          11 8 2 4 -1.</_>
        <_>
          11 8 1 2 2.</_>
        <_>
          12 10 1 2 2.</_></rects>
      <tilted>0</tilted></_>
    <_>
      <rects>
        <_>
          11 9 2 1 -1.</_>
        <_>
          12 9 1 1 2.</_></rects>
      <tilted>0</tilted></_>
    <_>
      <rects>
        <_>
          11 9 3 2 -1.</_>
        <_>
          12 9 1 2 3.</_></rects>
      <tilted>0</tilted></_>
    <_>
      <rects>
        <_>
          11 9 3 3 -1.</_>
        <_>
          12 9 1 3 3.</_></rects>
      <tilted>0</tilted></_>
    <_>
      <rects>
        <_>
          11 9 2 2 -1.</_>
        <_>
          11 10 2 1 2.</_></rects>
      <tilted>0</tilted></_>
    <_>
      <rects>
        <_>
          11 11 3 1 -1.</_>
        <_>
          12 11 1 1 3.</_></rects>
      <tilted>0</tilted></_>
    <_>
      <rects>
        <_>
          11 13 3 2 -1.</_>
        <_>
          11 14 3 1 2.</_></rects>
      <tilted>0</tilted></_>
    <_>
      <rects>
        <_>
          12 5 2 6 -1.</_>
        <_>
          12 5 1 3 2.</_>
        <_>
          13 8 1 3 2.</_></rects>
      <tilted>0</tilted></_>
    <_>
      <rects>
        <_>
          12 6 4 2 -1.</_>
        <_>
          14 6 2 2 2.</_></rects>
      <tilted>0</tilted></_>
    <_>
      <rects>
        <_>
          12 8 2 2 -1.</_>
        <_>
          13 8 1 2 2.</_></rects>
      <tilted>0</tilted></_>
    <_>
      <rects>
        <_>
          12 11 1 4 -1.</_>
        <_>
          12 13 1 2 2.</_></rects>
      <tilted>0</tilted></_>
    <_>
      <rects>
        <_>
          13 5 2 2 -1.</_>
        <_>
          13 5 1 1 2.</_>
        <_>
          14 6 1 1 2.</_></rects>
      <tilted>0</tilted></_>
    <_>
      <rects>
        <_>
          13 6 2 2 -1.</_>
        <_>
          13 6 1 1 2.</_>
        <_>
          14 7 1 1 2.</_></rects>
      <tilted>0</tilted></_>
    <_>
      <rects>
        <_>
          13 6 2 4 -1.</_>
        <_>
          13 6 1 2 2.</_>
        <_>
          14 8 1 2 2.</_></rects>
      <tilted>0</tilted></_>
    <_>
      <rects>
        <_>
          13 6 4 1 -1.</_>
        <_>
          15 6 2 1 2.</_></rects>
      <tilted>0</tilted></_>
    <_>
      <rects>
        <_>
          13 11 2 4 -1.</_>
        <_>
          13 11 1 2 2.</_>
        <_>
          14 13 1 2 2.</_></rects>
      <tilted>0</tilted></_>
    <_>
      <rects>
        <_>
          13 13 2 1 -1.</_>
        <_>
          14 13 1 1 2.</_></rects>
      <tilted>0</tilted></_>
    <_>
      <rects>
        <_>
          14 12 4 4 -1.</_>
        <_>
          14 12 2 2 2.</_>
        <_>
          16 14 2 2 2.</_></rects>
      <tilted>0</tilted></_>
    <_>
      <rects>
        <_>
          14 13 2 2 -1.</_>
        <_>
          14 13 1 1 2.</_>
        <_>
          15 14 1 1 2.</_></rects>
      <tilted>0</tilted></_>
    <_>
      <rects>
        <_>
          15 7 2 2 -1.</_>
        <_>
          15 7 1 1 2.</_>
        <_>
          16 8 1 1 2.</_></rects>
      <tilted>0</tilted></_></features></cascade>
</opencv_storage>
